#include <math.h> 
 #include <string.h> 
#include "./include/k2c_include.h" 
#include "./include/k2c_tensor_include.h" 

 


void cPredictor(k2c_tensor* dense_input_input, k2c_tensor* dense_2_output) { 

float dense_output_array[64] = {0}; 
k2c_tensor dense_output = {&dense_output_array[0],1,64,{64, 1, 1, 1, 1}}; 
float dense_kernel_array[2048] = {
+1.93480611e-01f,+6.59000278e-02f,-7.02852011e-02f,+1.12456381e-01f,-4.92454767e-02f,
-8.36044550e-02f,+1.81328356e-01f,-1.39978528e-01f,+2.36556113e-01f,-1.01754606e-01f,
+1.55619860e-01f,-8.76446366e-02f,+1.40042543e-01f,-9.82894301e-02f,-6.15839958e-02f,
-7.05322027e-02f,-2.21228063e-01f,-1.15184367e-01f,+1.90203905e-01f,-1.20112419e-01f,
-1.10267878e-01f,-2.12469161e-01f,-1.21204853e-02f,+2.03143656e-01f,+8.13914537e-02f,
-1.73045337e-01f,-6.00287318e-02f,+1.09213352e-01f,+9.07065272e-02f,+7.75856972e-02f,
-1.42161131e-01f,-1.16311193e-01f,-1.37427270e-01f,+1.68165565e-01f,-1.30765021e-01f,
+1.84186995e-01f,+7.59059191e-02f,+9.54171419e-02f,-1.43536270e-01f,-2.45394409e-01f,
-2.17278183e-01f,+1.36001468e-01f,+8.42827559e-02f,+2.37564921e-01f,+9.24919248e-02f,
+1.16740286e-01f,+6.61910176e-02f,-1.97335362e-01f,+2.46763289e-01f,+4.01525497e-02f,
+1.42127335e-01f,+2.01574028e-01f,-1.65726423e-01f,+2.27538586e-01f,+7.74713159e-02f,
-1.87283278e-01f,+9.81449485e-02f,+1.12189591e-01f,+9.90245938e-02f,-8.94876719e-02f,
-2.95330286e-02f,+1.38550580e-01f,-2.16283143e-01f,-7.08225965e-02f,+1.33600116e-01f,
+1.21725202e-01f,+2.02559829e-01f,+2.34956980e-01f,-2.08992064e-01f,-1.05017841e-01f,
-1.66644752e-01f,+3.17347050e-03f,+2.24532723e-01f,+9.36416388e-02f,-2.34144032e-01f,
+2.38638341e-01f,-4.58039045e-02f,+1.74825013e-01f,+8.53073001e-02f,+1.64734125e-01f,
-1.28828526e-01f,+1.13150299e-01f,+2.43650675e-01f,-2.33703673e-01f,+1.67693198e-01f,
-9.03389454e-02f,-3.25027108e-02f,-1.96471810e-01f,-5.33285141e-02f,+2.03691900e-01f,
-3.74876857e-02f,+1.14035010e-01f,+9.77551937e-02f,-2.26657331e-01f,+1.45736873e-01f,
-1.81256235e-01f,-1.30837739e-01f,+1.25081718e-01f,-1.11542344e-01f,-2.01923072e-01f,
-2.44816244e-01f,+1.93538487e-01f,-2.32451975e-01f,+1.70405507e-02f,-1.39479280e-01f,
+1.36590540e-01f,+1.37995243e-01f,+2.22844005e-01f,+1.13502383e-01f,+7.03756213e-02f,
-5.92890382e-02f,+6.73595667e-02f,+2.36986279e-01f,+2.27025747e-02f,-3.01848650e-02f,
-8.50726962e-02f,+1.42581880e-01f,-1.23128831e-01f,-2.12022901e-01f,+1.50644422e-01f,
+1.14387214e-01f,+1.88758373e-01f,-1.49505079e-01f,+1.52367949e-02f,-2.09958553e-01f,
+1.97263360e-01f,+6.23914599e-02f,-1.74375594e-01f,-1.94365084e-01f,-1.41944885e-02f,
+1.50338948e-01f,-6.79538250e-02f,-1.69121265e-01f,-2.41456032e-01f,+3.64137888e-02f,
-5.72091341e-02f,-1.09419525e-01f,+2.20412910e-01f,-6.55639768e-02f,+1.78650022e-01f,
+4.95038033e-02f,+2.28051007e-01f,-1.26058757e-01f,+2.22939074e-01f,-2.42043734e-02f,
+1.98431611e-01f,-1.52317464e-01f,+2.43340611e-01f,+2.17873514e-01f,+2.42388964e-01f,
+1.56832039e-01f,-1.62416697e-01f,+1.26645505e-01f,-2.07152128e-01f,-1.78845942e-01f,
-5.63925505e-02f,-2.15615928e-01f,-1.26272738e-01f,+8.03338885e-02f,+8.10675621e-02f,
-1.42123103e-02f,-6.15126491e-02f,+1.79419816e-01f,+1.72966063e-01f,+2.52604485e-02f,
-3.48452330e-02f,-2.11506248e-01f,-1.63283348e-01f,-1.41049504e-01f,+2.47655034e-01f,
+8.01434517e-02f,-6.86445236e-02f,-2.39222884e-01f,+7.36997128e-02f,-2.91491747e-02f,
+1.82362735e-01f,+1.38013363e-01f,-9.24546123e-02f,-2.14530826e-01f,-2.21540332e-01f,
-9.27277207e-02f,+1.74471438e-01f,+1.55552030e-01f,-8.10659528e-02f,+1.65697336e-02f,
-6.81239367e-02f,+1.16719306e-01f,+7.61437416e-02f,+2.47764587e-02f,+1.74285889e-01f,
-9.90036130e-02f,-1.01609826e-01f,+1.72243536e-01f,+7.85240531e-02f,-5.47206998e-02f,
+8.42345357e-02f,-4.62959409e-02f,-1.14808202e-01f,-5.10337949e-02f,-1.68857276e-01f,
+2.15855241e-02f,-8.96821022e-02f,-7.45109320e-02f,-1.38130963e-01f,+2.46125460e-03f,
-2.04771817e-01f,+4.30256128e-02f,+1.95519328e-02f,-1.20302737e-01f,+7.40375519e-02f,
+4.51892614e-02f,+1.39729679e-01f,+2.45985866e-01f,+2.22693741e-01f,-2.96511054e-02f,
+2.14716077e-01f,+1.95142925e-01f,+1.02495074e-01f,+1.99857712e-01f,-1.24664187e-01f,
+1.83808386e-01f,+6.92297220e-02f,-1.03137493e-02f,+8.95676017e-02f,+2.71712542e-02f,
+1.74633861e-02f,-4.58326340e-02f,-2.55333781e-02f,+1.64262772e-01f,-1.97030663e-01f,
-2.10654259e-01f,+1.52154565e-01f,+1.67958260e-01f,-1.68276310e-01f,-6.97136521e-02f,
+7.81132579e-02f,-2.32717931e-01f,+2.02109218e-02f,-4.46391106e-03f,+1.21489882e-01f,
+6.69504404e-02f,-8.53896141e-02f,+1.46771729e-01f,+1.75487220e-01f,-1.55282855e-01f,
-2.46158898e-01f,-2.07959652e-01f,+1.03452206e-02f,+1.89583242e-01f,+2.48500168e-01f,
-7.94478655e-02f,+1.80881977e-01f,+2.48472869e-01f,-1.74983323e-01f,+6.71444535e-02f,
+9.14696455e-02f,-2.09332883e-01f,-1.82817936e-01f,+8.45819712e-03f,-1.54426813e-01f,
-1.77590013e-01f,+1.84679747e-01f,-4.40695286e-02f,+2.08538592e-01f,-4.49486375e-02f,
+4.46012020e-02f,+1.85430288e-01f,+6.88288212e-02f,-1.87963247e-03f,-2.31537879e-01f,
-3.39677930e-02f,+1.98826790e-02f,+8.01717043e-02f,-2.18197942e-01f,-2.18399167e-01f,
-1.96692646e-01f,-2.86104679e-02f,+4.96357083e-02f,-1.00808024e-01f,-1.19996786e-01f,
+1.08246207e-02f,-6.59951568e-02f,+9.01846886e-02f,-1.24977410e-01f,-1.85337186e-01f,
+2.41509438e-01f,+7.91707039e-02f,-1.82539225e-03f,+4.25025821e-02f,-1.54837489e-01f,
-1.88269019e-01f,+1.89771056e-02f,-1.71614885e-02f,-1.38404906e-01f,-1.18468344e-01f,
+1.69872999e-01f,-1.35190487e-02f,+4.23808694e-02f,+2.41047204e-01f,-1.42798960e-01f,
+2.15740681e-01f,-5.02625108e-02f,-6.86232448e-02f,-9.60326791e-02f,+2.31812358e-01f,
+6.70593977e-03f,-2.02048063e-01f,-2.40482390e-01f,-2.11541414e-01f,+2.12465465e-01f,
-2.18077898e-02f,+1.10261977e-01f,+6.58175945e-02f,-1.22983396e-01f,-2.35546410e-01f,
+6.81821108e-02f,-2.38785803e-01f,+8.11121464e-02f,-1.71106517e-01f,+2.36623287e-01f,
+1.42154396e-01f,+1.06029034e-01f,-2.45637655e-01f,-1.39250219e-01f,-1.69261396e-01f,
-6.44941330e-02f,+1.56966627e-01f,-1.38315618e-01f,-2.02882230e-01f,-1.46135449e-01f,
+2.18565762e-01f,-1.85888588e-01f,-3.62812281e-02f,-2.13579237e-01f,+1.43299103e-01f,
-1.52231812e-01f,-2.01069713e-02f,-6.03370667e-02f,-2.13325620e-01f,+1.95215762e-01f,
+2.37297416e-01f,+1.55018806e-01f,-2.37510979e-01f,+2.04776406e-01f,-8.57381225e-02f,
-2.33785391e-01f,-1.53661311e-01f,-2.08307803e-01f,+1.98984742e-01f,-2.23148346e-01f,
+7.87017345e-02f,-1.10905766e-02f,+1.60871565e-01f,-1.39656782e-01f,-1.97718441e-01f,
-2.39490032e-01f,-2.05985904e-01f,-6.42430782e-02f,-7.09521770e-03f,-9.80274677e-02f,
-1.78165376e-01f,+7.79605508e-02f,-1.90775812e-01f,-1.99257433e-01f,-3.87078524e-03f,
-2.17691123e-01f,-3.35446000e-02f,+3.44616175e-02f,-2.10181594e-01f,-2.46928215e-01f,
+9.22541618e-02f,-1.09372735e-02f,+3.46237421e-03f,-1.60730481e-01f,+1.95537686e-01f,
-1.34100854e-01f,-1.32077038e-01f,+1.32237136e-01f,-1.89837158e-01f,+1.32972300e-01f,
+7.38223791e-02f,-1.40351653e-01f,+1.53747678e-01f,-7.55443573e-02f,-2.39710689e-01f,
+2.28840113e-01f,-9.42918062e-02f,-1.18136108e-01f,-9.96531844e-02f,+1.25209153e-01f,
+6.94106221e-02f,+2.33109057e-01f,-2.40344942e-01f,-2.48533309e-01f,-7.28000998e-02f,
-1.35173202e-02f,+2.04363465e-02f,-2.22389340e-01f,-1.50620401e-01f,+1.46956325e-01f,
+1.86269760e-01f,+1.08166754e-01f,-6.20937943e-02f,-7.87008405e-02f,+2.31042624e-01f,
+5.33025861e-02f,+4.30093408e-02f,-1.41253948e-01f,+2.13547766e-01f,-1.01016164e-02f,
-1.40238881e-01f,+1.14033222e-01f,-3.46547365e-02f,+1.33841038e-02f,+2.34431028e-03f,
+1.29250884e-01f,-1.09828234e-01f,-5.35796881e-02f,+1.31801724e-01f,+1.18101358e-01f,
-1.04394376e-01f,+1.15783334e-01f,+2.86723971e-02f,-1.86697245e-02f,-4.63280678e-02f,
-1.79256737e-01f,-8.99149179e-02f,+1.65025771e-01f,-1.50376499e-01f,-4.22239304e-04f,
-2.35301375e-01f,+1.71851516e-02f,-1.19254589e-02f,-1.08362675e-01f,-1.15826249e-01f,
+3.08968425e-02f,-2.47099757e-01f,+1.88908637e-01f,+2.40987718e-01f,-2.48866200e-01f,
-1.65436089e-01f,-8.05497169e-02f,+7.53472447e-02f,+6.43573999e-02f,-1.25863791e-01f,
+1.35580480e-01f,+1.83189929e-01f,-4.50233221e-02f,-7.12818503e-02f,-1.45341039e-01f,
+9.05658007e-02f,-4.26379442e-02f,-3.15011740e-02f,-2.43324995e-01f,-1.23808920e-01f,
+3.51675749e-02f,+1.33317709e-01f,-2.01362312e-01f,-2.16338158e-01f,+4.36906219e-02f,
-1.09963119e-01f,+3.63622904e-02f,-1.04205012e-01f,-6.06062412e-02f,-1.09526455e-01f,
+6.81500435e-02f,-3.59051228e-02f,+1.34716988e-01f,-1.36011720e-01f,-7.72495270e-02f,
-1.77631378e-01f,+2.18736649e-01f,-5.52716851e-02f,+1.10662699e-01f,+2.22218633e-02f,
-1.83085799e-02f,+1.03112817e-01f,+4.24789190e-02f,-1.83379889e-01f,+1.42040789e-01f,
-2.06573427e-01f,-1.21193826e-01f,+2.33388841e-01f,-1.12102687e-01f,-1.58379197e-01f,
-2.39070952e-01f,-2.19472408e-01f,-2.05183685e-01f,-4.26244140e-02f,-3.60401273e-02f,
-1.53447568e-01f,-1.50065422e-02f,-9.31680202e-03f,+8.07815790e-02f,+2.19488800e-01f,
-2.18700171e-02f,+2.19830453e-01f,+8.03662539e-02f,-1.66096210e-01f,+1.51119292e-01f,
-2.28878677e-01f,+9.00775194e-03f,+5.75239062e-02f,-2.38124847e-01f,-4.18841243e-02f,
+2.16282964e-01f,-6.15865588e-02f,-9.81928110e-02f,-3.48213911e-02f,+1.10419750e-01f,
-3.30889821e-02f,-1.58700526e-01f,+1.07313216e-01f,-7.14465380e-02f,+2.33545899e-01f,
-1.40929461e-01f,+2.45359778e-01f,+6.61941767e-02f,+2.15250611e-01f,+2.08653927e-01f,
-5.91263771e-02f,-9.24414396e-02f,-1.91449463e-01f,+1.09712481e-01f,-2.38449574e-02f,
-1.28200352e-01f,-1.95639729e-01f,-1.50173008e-01f,-2.25917220e-01f,+5.45306206e-02f,
+2.47319698e-01f,+4.96994257e-02f,+5.54561615e-03f,-2.46758103e-01f,+2.07601368e-01f,
+9.29908752e-02f,+1.65546536e-01f,-2.22817659e-01f,+9.54659581e-02f,-2.42482960e-01f,
-1.77967191e-01f,+1.60922229e-01f,+1.44148469e-01f,-7.12814331e-02f,-3.18400264e-02f,
+1.58116817e-01f,-1.68247819e-01f,+5.81713319e-02f,+2.26312041e-01f,+1.41339302e-01f,
+1.35446787e-02f,-2.39568412e-01f,-8.33197236e-02f,+1.23385608e-01f,+2.04960048e-01f,
+1.30195022e-01f,-2.42636204e-01f,-1.76306665e-01f,-2.06587017e-01f,+9.32422280e-02f,
+1.26228988e-01f,+1.51955903e-01f,+1.81770086e-01f,+2.68117189e-02f,-1.58746481e-01f,
+1.05605125e-02f,+1.74999237e-01f,-1.28651321e-01f,+2.01467872e-01f,+1.55151308e-01f,
-2.20471144e-01f,+2.36154020e-01f,+1.96508288e-01f,+4.54044342e-03f,-1.26113057e-01f,
+2.09359467e-01f,+1.98629498e-02f,-2.13994563e-01f,-1.25890255e-01f,+1.46120191e-02f,
-1.67822182e-01f,-1.08602643e-01f,+2.24978328e-02f,+1.49988830e-01f,-2.62738466e-02f,
-1.12602353e-01f,-1.38361335e-01f,+1.78361952e-01f,+1.19021714e-01f,+2.28605330e-01f,
-1.07313216e-01f,+1.46661162e-01f,-2.01269507e-01f,+9.36952829e-02f,+1.67417586e-01f,
-6.35750890e-02f,-9.04172063e-02f,+1.05266929e-01f,-1.29557669e-01f,-6.61755800e-02f,
-6.22341037e-02f,-6.75823092e-02f,+7.24023581e-03f,-5.94838858e-02f,-5.26940823e-03f,
-1.36692286e-01f,+1.50748193e-01f,+2.38866746e-01f,+1.30393982e-01f,+6.58195615e-02f,
+9.19865370e-02f,-2.40713358e-02f,-1.63077891e-01f,-2.98047662e-02f,-2.15820909e-01f,
+4.99834418e-02f,-1.36762738e-01f,+1.94719374e-01f,-7.26235509e-02f,+2.27046072e-01f,
+1.51775539e-01f,+1.50625050e-01f,+1.88472271e-02f,+1.89754844e-01f,-1.74498379e-01f,
-1.86927080e-01f,+1.84977651e-01f,-1.06505573e-01f,+2.19892442e-01f,+8.65010619e-02f,
-2.40965903e-01f,+2.40338206e-01f,-1.09170556e-01f,+2.18521178e-01f,-1.01309717e-01f,
+2.33148813e-01f,+4.67459559e-02f,-5.66716790e-02f,-1.04936957e-02f,-8.52290988e-02f,
+5.79249859e-03f,+6.91905618e-02f,-9.37176347e-02f,+1.60185933e-01f,-1.26376390e-01f,
+9.02691483e-02f,-1.38750672e-01f,+2.29392350e-01f,+1.39302552e-01f,-1.39465988e-01f,
+9.37526226e-02f,+1.18490279e-01f,-6.73627853e-02f,-7.11321831e-03f,+2.16410875e-01f,
-1.14716411e-01f,-2.01910496e-01f,-1.82533860e-01f,+2.35643506e-01f,+1.37804389e-01f,
+9.28358436e-02f,+4.08624411e-02f,+9.32073593e-03f,-2.09394634e-01f,-7.54547119e-02f,
-1.28874242e-01f,+8.92443061e-02f,+1.46929622e-02f,-7.63513446e-02f,-1.06159449e-01f,
+1.28917456e-01f,-7.81807899e-02f,-5.78254461e-03f,-4.91872430e-02f,-9.53390002e-02f,
+2.03193724e-01f,+1.52830124e-01f,+1.59186125e-03f,+2.07173645e-01f,-1.87429011e-01f,
+6.58732653e-03f,-8.73466730e-02f,+1.28974319e-01f,+6.86970353e-02f,-8.13614130e-02f,
-1.11206770e-02f,-1.59461498e-01f,+5.55294752e-02f,+1.85979903e-01f,-1.51391625e-01f,
-3.49992514e-02f,+6.65928721e-02f,-3.36386561e-02f,+1.42502725e-01f,+2.23857105e-01f,
-2.59247422e-02f,+1.90005183e-01f,-2.35154867e-01f,+8.84124041e-02f,+1.95649683e-01f,
-1.46505892e-01f,-2.22974837e-01f,-6.62851334e-02f,+2.41275430e-01f,-1.35836303e-01f,
-1.33899748e-01f,+1.50748134e-01f,-4.97955680e-02f,-1.48867011e-01f,+2.22063184e-01f,
+1.29061699e-01f,-1.71450078e-01f,-2.38335311e-01f,-2.09355950e-02f,-1.18997633e-01f,
+2.28666902e-01f,-1.87475145e-01f,+1.09398365e-03f,+3.81022096e-02f,-1.88804865e-02f,
-9.79852676e-02f,-3.49133611e-02f,-6.11545444e-02f,-1.40664458e-01f,+8.57344866e-02f,
+1.18764937e-01f,-1.31815434e-01f,-8.93312097e-02f,+2.41840482e-01f,+2.11078525e-02f,
+2.37955093e-01f,+2.21058488e-01f,+2.00091004e-02f,-1.93548977e-01f,+2.43136168e-01f,
-2.05234706e-01f,+2.41335750e-01f,+1.57981515e-02f,-2.53647566e-02f,+1.81420386e-01f,
+1.54036641e-01f,-9.28589702e-02f,+1.09926462e-02f,-7.83303380e-02f,-2.29395747e-01f,
+1.83705389e-01f,-1.75934851e-01f,-9.98552442e-02f,-2.01678991e-01f,+1.71168029e-01f,
+5.58222532e-02f,-1.24746919e-01f,+2.89326906e-02f,-1.71489477e-01f,+1.83351040e-02f,
+4.06847000e-02f,+1.93686306e-01f,+1.60058737e-02f,-1.88401341e-02f,-1.15115643e-02f,
+5.19737601e-02f,-2.10176587e-01f,+1.96372271e-01f,-1.97504103e-01f,-2.27954268e-01f,
+1.37372196e-01f,+5.96796274e-02f,+2.20605850e-01f,+6.30938888e-01f,+4.75308776e-01f,
-6.51672661e-01f,+5.78191698e-01f,+7.79898986e-02f,+7.93491244e-01f,-2.46221442e-02f,
-1.88097700e-01f,-6.86417818e-01f,-4.88010019e-01f,-6.14912629e-01f,+2.75599714e-02f,
-3.91342670e-01f,+4.29028809e-01f,-3.53756607e-01f,-4.04396981e-01f,-5.19085288e-01f,
+5.08657634e-01f,-1.57254130e-01f,+3.55011880e-01f,+4.04432029e-01f,-3.90458018e-01f,
+4.60464835e-01f,+6.09354377e-01f,+3.89296323e-01f,+5.28697133e-01f,+1.13303757e+00f,
+2.47312292e-01f,+4.33046669e-01f,+2.38447011e-01f,-4.20796096e-01f,-3.86930168e-01f,
-6.20539546e-01f,-3.72650623e-01f,+2.00666264e-01f,-5.50399534e-02f,+6.39039397e-01f,
-8.15945446e-01f,-5.09776473e-01f,+5.84747076e-01f,-2.54819214e-01f,+6.94453955e-01f,
+3.54544342e-01f,+1.26049137e+00f,+8.72810245e-01f,-3.79328758e-01f,-2.35752776e-01f,
-2.53533244e-01f,-4.87363562e-02f,+7.46880710e-01f,+2.97247529e-01f,-1.19973469e+00f,
-2.58700281e-01f,+1.87575191e-01f,+6.22209311e-01f,-7.10191071e-01f,-5.51389813e-01f,
+1.74579903e-01f,-3.10844153e-01f,+5.02532661e-01f,-1.98166758e-01f,-2.10127339e-01f,
-1.01357967e-01f,-8.42831910e-01f,-1.80913001e-01f,+8.80980864e-02f,-6.24673963e-01f,
+3.81746501e-01f,+8.55448022e-02f,-6.36568725e-01f,-4.54104356e-02f,+1.32321581e-01f,
+3.92412961e-01f,+1.61674231e-01f,+3.36960286e-01f,-1.73850968e-01f,-3.61042202e-01f,
+1.99931324e-01f,-7.76040971e-01f,+4.11079079e-01f,+3.53823572e-01f,+6.01826310e-01f,
-8.91366899e-02f,+4.52867538e-01f,+2.96308547e-01f,-3.47186893e-01f,-1.37900746e+00f,
-5.88275254e-01f,-5.84800124e-01f,+2.72084892e-01f,-9.81114149e-01f,-5.21785259e-01f,
+3.93677086e-01f,+4.08188701e-01f,-7.00994790e-01f,-7.99228847e-01f,-1.46917656e-01f,
-1.06829010e-01f,-6.57159314e-02f,-3.48299861e-01f,+2.62465894e-01f,-2.91993231e-01f,
-5.46001673e-01f,-2.05073461e-01f,+2.53745079e-01f,-3.28117967e-01f,-9.76847708e-02f,
+1.28852594e+00f,-1.08125639e+00f,+1.97820023e-01f,+8.12356994e-02f,-1.63320765e-01f,
+7.09782302e-01f,+2.72169501e-01f,-1.04366946e+00f,-1.05855532e-01f,+7.75826871e-02f,
+2.49034569e-01f,-6.83136880e-01f,-6.15779459e-01f,-4.16515648e-01f,-1.80124497e+00f,
-5.75419605e-01f,+5.05928755e-01f,+3.26047242e-02f,-9.05059934e-01f,-1.54548272e-01f,
+2.46048719e-02f,-1.25201687e-01f,-6.04671240e-01f,+2.04649940e-01f,-3.23463529e-01f,
-2.25845575e-01f,-7.74209678e-01f,+1.85713857e-01f,-5.68761587e-01f,-2.18530953e-01f,
-3.39821637e-01f,-2.42506951e-01f,-4.22436357e-01f,-4.21583503e-01f,+4.54269141e-01f,
+8.94647688e-02f,-3.72560561e-01f,-3.45527828e-01f,+5.22393286e-01f,-1.24577808e+00f,
-1.64880499e-01f,-1.82255119e-01f,+3.07355106e-01f,+4.76311713e-01f,+5.83435297e-01f,
+6.16712093e-01f,-2.61355817e-01f,+1.15118027e+00f,-4.36301231e-01f,-4.02062595e-01f,
-3.73733968e-01f,-4.86511886e-01f,+3.43313962e-01f,+1.32334441e-01f,+2.55077094e-01f,
-6.89863741e-01f,+4.90290746e-02f,-8.04846734e-02f,-1.15989316e+00f,+5.45028269e-01f,
-6.58347845e-01f,-4.73851450e-02f,-5.40343702e-01f,-1.20675907e-01f,-1.28230214e+00f,
+9.36208904e-01f,+1.27274469e-01f,-4.15746778e-01f,-2.28287995e-01f,+5.91799952e-02f,
+5.58612980e-02f,-2.99437344e-02f,+2.59842515e-01f,+2.07519948e-01f,+3.59692931e-01f,
-1.71945214e-01f,+3.89116943e-01f,-6.77787066e-02f,-9.56705749e-01f,+6.42305851e-01f,
-4.91000980e-01f,-1.13627695e-01f,+2.90961534e-01f,+6.37212574e-01f,-4.02290493e-01f,
-3.64601970e-01f,-4.89638187e-02f,+6.71050370e-01f,-5.27646065e-01f,-7.85418510e-01f,
-5.82145572e-01f,-6.71489894e-01f,+7.00219214e-01f,-4.31894422e-01f,+1.14911169e-01f,
-2.73414236e-02f,-2.32886150e-01f,-1.48099959e-01f,+3.23226124e-01f,-2.00035125e-01f,
+4.21580225e-01f,-3.87126505e-01f,-5.08133411e-01f,+5.51216304e-01f,-3.71731639e-01f,
-3.29790026e-01f,+4.95706737e-01f,-4.72381502e-01f,-5.82625806e-01f,-4.13293928e-01f,
+2.61978239e-01f,-1.17991138e+00f,+3.52864787e-02f,-3.94392908e-01f,-2.87700564e-01f,
+5.78614593e-01f,+5.74006364e-02f,+2.39662170e-01f,-9.23744068e-02f,-4.56454188e-01f,
+1.01227164e-01f,-3.01789511e-02f,+5.25249422e-01f,+5.02743661e-01f,+3.48916948e-02f,
+1.02145575e-01f,-2.32383907e-01f,-3.38428706e-01f,-1.24477553e+00f,-8.77417505e-01f,
+6.81211650e-01f,-5.68251610e-01f,+4.34736609e-01f,+3.18537392e-02f,-6.73689842e-01f,
+2.67465889e-01f,+7.45714545e-01f,-5.52374542e-01f,+1.31342784e-02f,-7.44501114e-01f,
-1.49220094e-01f,-5.39567113e-01f,+5.60777545e-01f,+3.88990283e-01f,-5.07095039e-01f,
+6.45648181e-01f,+3.58522713e-01f,-8.56311619e-03f,+1.05088733e-01f,-6.34785295e-01f,
+9.59800556e-02f,-6.38513416e-02f,-3.32874000e-01f,+1.69551715e-01f,-1.55499697e-01f,
+4.29548413e-01f,+9.40849185e-02f,-4.55940574e-01f,+9.81288373e-01f,-1.72613353e-01f,
+3.27263698e-02f,+1.17131248e-01f,-2.11855859e-01f,+6.19532689e-02f,-3.92210752e-01f,
-3.73839915e-01f,+4.96680379e-01f,-1.36968684e+00f,-2.05425411e-01f,+1.73026755e-01f,
+5.09562612e-01f,+4.89189059e-01f,+5.97021580e-01f,+5.96477807e-01f,-1.36513516e-01f,
+1.19168890e+00f,+2.66671330e-01f,-4.22798544e-01f,-3.60164136e-01f,+1.86804324e-01f,
-8.10189694e-02f,-1.25225857e-01f,+2.22609118e-02f,+5.50337672e-01f,+5.24548471e-01f,
-4.26535547e-01f,-4.41887856e-01f,+5.41187286e-01f,+1.78133801e-01f,-8.12719017e-02f,
-4.77907658e-01f,-3.56522739e-01f,-1.28242266e+00f,+9.18294668e-01f,+1.14648044e-01f,
+4.35325384e-01f,+3.59084517e-01f,-3.44048798e-01f,+1.24150656e-01f,+5.06415308e-01f,
+5.91729045e-01f,-1.92272780e-03f,+2.73386925e-01f,-8.10938999e-02f,+6.39675498e-01f,
-2.46910885e-01f,-2.74816453e-01f,+5.90199947e-01f,-4.93852228e-01f,+1.91201448e-01f,
-2.74975169e-02f,-7.45650828e-01f,-3.03841140e-02f,-2.08870277e-01f,-7.61774123e-01f,
+8.60776663e-01f,-5.05019903e-01f,-3.85978520e-01f,+4.47424836e-02f,-5.84947765e-01f,
-6.55459642e-01f,+1.53310180e-01f,-1.06656151e-02f,-3.91168714e-01f,-9.48867083e-01f,
-5.70889294e-01f,-7.53505290e-01f,+5.97279891e-02f,+4.62040365e-01f,+5.33992708e-01f,
-5.45445442e-01f,+1.05854861e-01f,+7.48609230e-02f,+3.03817570e-01f,+4.38346863e-01f,
-4.46132600e-01f,-6.09845161e-01f,-3.86734009e-01f,+2.63758302e-02f,-1.15030742e+00f,
+3.94196808e-01f,-4.04130757e-01f,-2.21230134e-01f,+1.53615713e-01f,-3.69215012e-01f,
-7.59847164e-01f,-4.36899573e-01f,-1.06876992e-01f,-2.04219297e-01f,-2.04864927e-02f,
-1.56832755e-01f,+5.23315728e-01f,-1.23151377e-01f,+7.42621064e-01f,-1.59095421e-01f,
-5.92997611e-01f,-1.31604755e+00f,-8.45036685e-01f,+2.70743728e-01f,+2.39255980e-01f,
-3.75493795e-01f,-3.47517759e-01f,-7.44661152e-01f,-1.24861813e+00f,+1.51958749e-01f,
-5.27617335e-01f,-5.76574564e-01f,-4.10426915e-01f,+1.70327425e-01f,+3.09338272e-01f,
+4.98511314e-01f,+3.75820905e-01f,-4.76462215e-01f,-2.93121040e-01f,+3.77547026e-01f,
-1.14014678e-01f,+5.17150871e-02f,+8.69219750e-02f,+3.53427589e-01f,+5.24031639e-01f,
-4.60333675e-01f,+1.96284384e-01f,-4.72310245e-01f,-4.62542415e-01f,-7.28087053e-02f,
+3.72649580e-01f,-3.45646530e-01f,+3.05073019e-02f,-6.79113686e-01f,+4.58161503e-01f,
+4.32769693e-02f,+4.65009868e-01f,+4.80444551e-01f,+5.44935286e-01f,-4.86133516e-01f,
-3.64451081e-01f,+1.37050048e-01f,-4.32522833e-01f,+5.03412545e-01f,-4.33373868e-01f,
-5.80317080e-01f,-3.69425863e-01f,-3.83801430e-01f,-1.12095869e+00f,-1.95685253e-01f,
-4.09064740e-01f,-2.10901380e-01f,-7.33814180e-01f,-1.16296604e-01f,+2.78294444e-01f,
-4.41435546e-01f,-2.55546033e-01f,-1.34638336e-03f,-6.27492294e-02f,-1.24265864e-01f,
+5.10208488e-01f,-1.07642710e-01f,-1.57017514e-01f,-5.23783147e-01f,-1.13126576e-01f,
-1.32240164e+00f,-8.83946359e-01f,+7.59357750e-01f,-5.20996273e-01f,+4.30287480e-01f,
-1.28109809e-02f,-7.42371857e-01f,-3.67039412e-01f,+5.92851877e-01f,+1.01310901e-01f,
-1.14878993e-02f,+2.29374409e-01f,+2.30621248e-02f,+1.98805243e-01f,-1.15738861e-01f,
+3.32351267e-01f,-5.03847897e-01f,-1.15461938e-01f,+2.20148042e-01f,-5.06707370e-01f,
+3.17750663e-01f,-5.38069487e-01f,+4.81172293e-01f,+1.61647543e-01f,-3.70680332e-01f,
-6.97010234e-02f,+3.18253100e-01f,+1.55042708e-01f,-9.04112339e-01f,-7.00174749e-01f,
+1.19124360e-01f,-1.58639640e-01f,+1.02931939e-01f,+6.94426000e-02f,-1.45343348e-01f,
+3.17012042e-01f,-3.99679303e-01f,-3.61959606e-01f,+5.22142291e-01f,-2.55091578e-01f,
+9.08846501e-03f,-2.50636693e-02f,+2.58264959e-01f,+4.55460995e-01f,+5.92969298e-01f,
+5.58534503e-01f,+1.00258149e-01f,+1.15482509e+00f,-4.73975152e-01f,-4.54957455e-01f,
-3.80442530e-01f,-1.50758728e-01f,+1.10964201e-01f,+5.23738600e-02f,+1.66890189e-01f,
+3.35491806e-01f,-2.92060792e-01f,+1.10434130e-01f,+9.62574035e-02f,+5.54662228e-01f,
+1.95033252e-01f,-4.13904577e-01f,+6.18454665e-02f,+3.68889898e-01f,-1.23049963e+00f,
+9.36673522e-01f,+1.00514136e-01f,-1.02806039e-01f,-1.34821510e+00f,-8.99098665e-02f,
+2.11336181e-01f,-4.31642473e-01f,+3.21174532e-01f,-1.93801135e-01f,+7.83456743e-01f,
-5.93806565e-01f,-5.84470510e-01f,+2.43908510e-01f,-2.14328080e-01f,+6.43306434e-01f,
-4.76950496e-01f,+2.21258089e-01f,+1.85842618e-01f,+3.40193570e-01f,-2.22952232e-01f,
-6.58576310e-01f,-2.32209310e-01f,+6.19896408e-03f,+4.16819870e-01f,-1.22745939e-01f,
-5.01971185e-01f,+3.03061813e-01f,+5.12544870e-01f,+1.79379821e-01f,-2.94850618e-01f,
+5.02199158e-02f,+5.02189696e-01f,-7.33533680e-01f,+4.01974320e-01f,+1.82458848e-01f,
+4.23872888e-01f,+3.45269829e-01f,-5.10711193e-01f,+2.84230739e-01f,-7.17436790e-01f,
+6.50661066e-02f,-2.11123422e-01f,-4.62184608e-01f,-6.10828996e-01f,-6.08452976e-01f,
-4.13693875e-01f,-1.13458455e+00f,-4.59236234e-01f,+4.14048254e-01f,+3.81690651e-01f,
+4.05660681e-02f,+3.79964113e-02f,-3.58990043e-01f,+1.41925346e-02f,+8.34962055e-02f,
+2.36278608e-01f,-4.44056422e-01f,-1.45365372e-01f,-5.94628096e-01f,+1.35997325e-01f,
-6.80311546e-02f,+2.11888969e-01f,-9.21209157e-01f,+1.23539233e+00f,-9.54733431e-01f,
+1.41204610e-01f,+7.60441542e-01f,-5.21608055e-01f,+4.33982372e-01f,-1.10796988e-01f,
-2.51521021e-01f,-5.65099120e-01f,-4.22347188e-01f,+3.91405784e-02f,+3.21847916e-01f,
-3.46128792e-01f,+4.53579992e-01f,-4.23787497e-02f,-6.84972465e-01f,+4.96001393e-01f,
-2.14855149e-01f,-1.81096360e-01f,+1.13111824e-01f,+4.59674716e-01f,-2.66460121e-01f,
-5.99229813e-01f,+4.67156708e-01f,-4.61981446e-01f,+6.27323270e-01f,-4.97972816e-01f,
+6.79602027e-02f,+5.87641656e-01f,+6.07383013e-01f,+3.93492728e-02f,+5.82322299e-01f,
+1.82790477e-02f,+1.61654353e-01f,-2.81188607e-01f,-2.25616023e-01f,+4.19330388e-01f,
+5.12854636e-01f,-5.07693172e-01f,+2.02626511e-01f,-5.99752724e-01f,-3.30032110e-01f,
+5.91862977e-01f,-4.62351412e-01f,-6.22872233e-01f,-3.89764309e-01f,-9.52558637e-01f,
-1.13384974e+00f,-2.81605542e-01f,-4.15250301e-01f,+4.32053626e-01f,-3.94070327e-01f,
+4.70661789e-01f,+2.87004232e-01f,-4.14868355e-01f,-3.32335502e-01f,-9.94802103e-04f,
+2.76672821e-02f,+5.51227689e-01f,+5.29430449e-01f,-9.71635282e-02f,+1.61599126e-02f,
+5.28547585e-01f,+3.76300454e-01f,-1.23083198e+00f,-9.13645267e-01f,+5.94140232e-01f,
+2.22170100e-01f,+2.26275891e-01f,-1.96077190e-02f,-6.56035066e-01f,-3.37552637e-01f,
+5.62696993e-01f,+3.38637143e-01f,-2.12038934e-01f,-6.94516301e-01f,-2.28646681e-01f,
-3.55659872e-01f,-7.72624612e-01f,+3.66755545e-01f,-4.95523036e-01f,+6.33531392e-01f,
+4.20750491e-02f,+3.27431411e-01f,-1.21450678e-01f,+3.55751276e-01f,-7.36913145e-01f,
-3.90591800e-01f,+4.11323190e-01f,+6.88601375e-01f,+2.02596545e-01f,-8.60766292e-01f,
-5.88847458e-01f,-3.37987423e-01f,-6.30512357e-01f,-9.12508070e-01f,-6.44812405e-01f,
+1.82958424e-01f,-6.76338002e-02f,-3.29212099e-01f,+4.88583177e-01f,+3.35245043e-01f,
-5.45866013e-01f,+5.46361029e-01f,-2.84439679e-02f,-2.58582115e-01f,-4.89434451e-01f,
-4.58741844e-01f,-5.49114764e-01f,-5.38340807e-01f,+2.94538051e-01f,-1.15351689e+00f,
+4.87396151e-01f,+4.13751602e-01f,+3.32944185e-01f,+3.71901393e-01f,-6.80293798e-01f,
+3.84166658e-01f,-1.98192671e-01f,-4.55103844e-01f,+1.14185564e-01f,+1.88013241e-01f,
+2.78624415e-01f,-5.47171652e-01f,-2.12221101e-01f,-1.33250728e-01f,-7.08917439e-01f,
+1.19458020e-01f,+1.22228622e+00f,-1.01809752e+00f,+1.73769087e-01f,-7.93523807e-03f,
-2.90686160e-01f,+4.31939960e-01f,-4.72565442e-02f,-7.56246746e-02f,-2.74638802e-01f,
-1.71013698e-01f,-4.81441110e-01f,+3.06552023e-01f,-6.20449521e-03f,-2.45009452e-01f,
-8.27195309e-03f,-5.35025477e-01f,+5.08399904e-01f,-9.21450555e-01f,-7.45168269e-01f,
+3.39401662e-01f,+6.12366796e-01f,-7.32740939e-01f,-3.67465228e-01f,-2.98482805e-01f,
+5.83797455e-01f,-1.92323104e-01f,-1.52629629e-01f,-1.75143152e-01f,-2.07860872e-01f,
-1.03744410e-01f,-1.22000463e-01f,+2.09642544e-01f,+2.22975954e-01f,-5.48594236e-01f,
+3.63226712e-01f,+2.37379987e-02f,-3.78077030e-01f,-5.25334299e-01f,+4.81273353e-01f,
+3.36310476e-01f,+1.65599123e-01f,+4.67864275e-01f,-7.03813612e-01f,+4.84312892e-01f,
+6.04080915e-01f,+4.02677417e-01f,+1.72195539e-01f,+1.13156855e+00f,-5.11111498e-01f,
+4.11726445e-01f,+2.33851686e-01f,-3.34166676e-01f,+7.64576137e-01f,-5.16904414e-01f,
+7.06868410e-01f,+3.76383811e-02f,+4.75753069e-01f,+1.08410679e-02f,-9.94048268e-02f,
-5.30805051e-01f,+1.95158571e-01f,-2.66858995e-01f,+6.70185611e-02f,+3.58977109e-01f,
+1.29024649e+00f,+9.39281464e-01f,-5.95702291e-01f,-8.95102918e-01f,-3.95645648e-02f,
+1.12451203e-01f,+6.31151795e-01f,+3.54502052e-01f,-9.47328985e-01f,+2.33388394e-01f,
-5.12289882e-01f,-6.39236033e-01f,+1.38910055e-01f,-8.86331201e-02f,-4.03074324e-01f,
-2.05585748e-01f,+5.07374287e-01f,-3.30567122e-01f,-2.88035348e-02f,+3.12443197e-01f,
+6.62841201e-01f,-9.97444034e-01f,+4.65882510e-01f,+2.84108281e-01f,-3.53411585e-01f,
+2.58115437e-02f,-1.81710497e-02f,-4.74102378e-01f,-2.41599247e-01f,+7.35007552e-03f,
-1.43336490e-01f,-4.10169303e-01f,+7.70072579e-01f,+9.86374468e-02f,-6.60097957e-01f,
-1.00662005e+00f,-3.10630143e-01f,-3.75221640e-01f,+5.29327452e-01f,-4.55869615e-01f,
-3.71254951e-01f,-1.44699708e-01f,+6.40332460e-01f,+4.71961170e-01f,+5.88882148e-01f,
+5.83165288e-01f,+5.65643430e-01f,+1.11365688e+00f,-1.88088249e-02f,-4.20692325e-01f,
-4.23186600e-01f,+8.29899386e-02f,+3.27500850e-01f,-4.17975813e-01f,-7.73658991e-01f,
+2.86021411e-01f,+6.43170595e-01f,+4.53800827e-01f,-5.21437041e-02f,+5.28825164e-01f,
-3.05572093e-01f,-1.07438110e-01f,-8.82187486e-02f,+3.62072527e-01f,-1.27663553e+00f,
+8.61743510e-01f,+1.06174432e-01f,-3.41270566e-01f,+8.63794312e-02f,-3.84409219e-01f,
+6.88311011e-02f,-8.36025357e-01f,-1.55166134e-01f,+7.68113807e-02f,-3.46048802e-01f,
+3.96171391e-01f,-2.26330906e-01f,-1.09869987e-01f,-4.59063947e-02f,+5.93745708e-01f,
-4.96964544e-01f,+4.22490984e-01f,-1.99386582e-01f,-2.37013884e-02f,+4.45627660e-01f,
-2.17660367e-01f,+3.84099901e-01f,-4.44461733e-01f,+3.31022710e-01f,-1.60011947e-01f,
-4.51912731e-02f,+1.95003033e-03f,+1.16763331e-01f,-3.74623924e-03f,+1.33949835e-02f,
-6.93852067e-01f,+7.02868216e-03f,+5.71962178e-01f,-1.36266723e-01f,-9.98118445e-02f,
+4.88897443e-01f,+3.25617492e-01f,-5.18830180e-01f,-6.27482593e-01f,-1.60866424e-01f,
-3.37401703e-02f,-3.49339634e-01f,-4.70328242e-01f,-5.79349339e-01f,-5.67912400e-01f,
-8.45283344e-02f,-1.12367892e+00f,-4.53499913e-01f,+4.29663986e-01f,+3.94835413e-01f,
+3.02412122e-01f,+2.07309961e-01f,+1.45738453e-01f,+2.75609076e-01f,+5.66142261e-01f,
-7.46925354e-01f,-3.77190560e-01f,+8.78239930e-01f,-5.63986540e-01f,-4.14668649e-01f,
+4.53616768e-01f,+4.42304403e-01f,-1.65472579e+00f,+1.25604486e+00f,-9.06623900e-01f,
+4.88389395e-02f,+2.95179971e-02f,+4.84350562e-01f,+5.92404246e-01f,-2.29887977e-01f,
+1.11156004e-02f,-1.10618636e-01f,+2.96463251e-01f,+1.46252038e-02f,+3.87944847e-01f,
+3.31030071e-01f,-2.12473080e-01f,-2.75627047e-01f,-5.88238597e-01f,+5.06077230e-01f,
-4.83299315e-01f,+1.20874336e-02f,+3.39119285e-01f,-2.31655464e-01f,-2.76622087e-01f,
-1.58624306e-01f,+4.47881669e-02f,-3.51387620e-01f,-4.55065310e-01f,+5.83911896e-01f,
-3.35618317e-01f,-2.04018340e-03f,-1.84300303e-01f,-4.25574601e-01f,-1.23210430e-01f,
-6.98737502e-02f,-2.79026717e-01f,-1.65630206e-01f,-3.69941235e-01f,-3.77207100e-01f,
-3.40022832e-01f,+4.82522279e-01f,+2.39871666e-01f,-3.30635190e-01f,+5.69545567e-01f,
+5.38566649e-01f,+4.74340439e-01f,+5.94995499e-01f,+5.96627533e-01f,+4.34570998e-01f,
+1.13643587e+00f,+4.58424509e-01f,-4.24830943e-01f,-3.77315670e-01f,-6.41102850e-01f,
-2.41728008e-01f,-3.17931950e-01f,+4.27261680e-01f,+8.53590015e-03f,+2.85073202e-02f,
+1.99710116e-01f,+9.56901684e-02f,+5.55434048e-01f,-4.73339111e-01f,-1.78800359e-01f,
-2.94153392e-01f,-5.40113807e-01f,-1.26036501e+00f,+9.32211995e-01f,-6.20700419e-02f,
+4.57339555e-01f,-3.76850158e-01f,-2.52441496e-01f,+1.13120563e-01f,-1.48523951e+00f,
+1.28626823e-01f,+4.19009775e-01f,+4.73685294e-01f,+4.43548828e-01f,+5.40618539e-01f,
+3.34464163e-01f,+8.06452408e-02f,+6.05331063e-01f,-4.90004867e-01f,-4.52546269e-01f,
-6.78218082e-02f,-3.30224037e-01f,+1.46227747e-01f,+1.19733736e-01f,+2.71196127e-01f,
-2.26047650e-01f,+3.85204017e-01f,+4.24076557e-01f,+4.05508518e-01f,+4.02806878e-01f,
-9.22441930e-02f,+3.06708366e-01f,+7.54522979e-01f,-2.40598962e-01f,-2.80688226e-01f,
-1.82446182e-01f,-1.69443712e-01f,+2.74260014e-01f,+4.57206666e-01f,+3.81387621e-01f,
-5.01963794e-01f,-2.87739456e-01f,-3.87414604e-01f,-4.03393209e-01f,-5.73642552e-01f,
-4.62402761e-01f,-6.03393734e-01f,-5.15979767e-01f,-6.09722018e-01f,-1.13253319e+00f,
+5.80255032e-01f,+4.28413510e-01f,+3.67819697e-01f,+3.99162859e-01f,-1.38260052e-01f,
+1.76789910e-01f,+6.26479864e-01f,+5.58236055e-02f,-3.28531504e-01f,+7.10980654e-01f,
+2.37704754e-01f,-5.52770913e-01f,-2.65889704e-01f,-3.36452454e-01f,+2.19051957e-01f,
+3.50443512e-01f,+1.18070698e+00f,-9.95962381e-01f,+3.56355667e-01f,+2.33721752e-02f,
-1.34843782e-01f,+2.11577147e-01f,-1.14781328e-01f,+4.89525139e-01f,-1.00316368e-01f,
+2.21721649e-01f,+1.62595555e-01f,+8.44468772e-02f,-1.11790735e-03f,-2.28426591e-01f,
+5.39786518e-01f,-5.37250698e-01f,+5.03044963e-01f,+1.66668713e-01f,-3.13504785e-02f,
-6.75822794e-01f,-9.91767049e-01f,-5.04403412e-01f,-5.42355068e-02f,-5.43310344e-01f,
+5.80202520e-01f,+2.94055175e-02f,-2.61135936e-01f,+2.53942519e-01f,-7.11971164e-01f,
-6.05696976e-01f,-8.98308977e-02f,+1.75291840e-02f,-4.64932024e-02f,+1.78683713e-01f,
-1.05599046e+00f,+3.00009131e-01f,-3.92780364e-01f,-5.17096102e-01f,+4.88480836e-01f,
-1.75882205e-01f,+2.99761474e-01f,+1.14856407e-01f,-3.91611546e-01f,+4.82447863e-01f,
+6.10235691e-01f,+3.63652229e-01f,-3.72433156e-01f,+1.11493385e+00f,-7.27387547e-01f,
+4.08486217e-01f,+1.72593132e-01f,+3.03630561e-01f,+1.80030182e-01f,+2.55802751e-01f,
+1.14367835e-01f,-3.99968892e-01f,+1.88857347e-01f,-1.11278817e-01f,-5.56607008e-01f,
-5.39816916e-01f,+6.17328584e-01f,+2.39379361e-01f,-1.06093064e-01f,-9.45177197e-01f,
+1.21796596e+00f,+8.70836437e-01f,-3.34924906e-01f,-2.01303422e-01f,-9.01208147e-02f,
+3.24911535e-01f,+6.95484519e-01f,+1.88925639e-02f,-9.64126110e-01f,-1.04975857e-01f,
-1.08035123e+00f,+3.32166702e-01f,-1.37682155e-01f,-5.26135862e-01f,+1.84877545e-01f,
-3.43338311e-01f,+5.04824579e-01f,+2.24351019e-01f,+1.00560047e-01f,+7.88049847e-02f,
-3.74015361e-01f,+1.14396885e-02f,+2.34593540e-01f,-1.91118404e-01f,+3.72994423e-01f,
+1.48740662e-02f,+4.52829488e-02f,+3.24044466e-01f,-6.00386679e-01f,-1.15438700e+00f,
-2.24604338e-01f,+2.86343992e-01f,+8.06598723e-01f,-3.56480718e-01f,+3.47545072e-02f,
+3.85013446e-02f,+4.15590972e-01f,+4.03155982e-01f,-4.88882333e-01f,+7.20196068e-02f,
+2.48155788e-01f,-2.25530580e-01f,-5.90940714e-01f,-4.44386929e-01f,-5.73049664e-01f,
-5.55654883e-01f,+4.30034578e-01f,-1.11902440e+00f,+3.01521927e-01f,+4.34708774e-01f,
+4.47482973e-01f,+2.29469672e-01f,-4.39719200e-01f,-3.68873149e-01f,+1.53895497e-01f,
+8.24611112e-02f,+1.37325346e-01f,-8.27239990e-01f,-7.00210512e-01f,-5.31844497e-01f,
-6.04191363e-01f,+2.12910697e-01f,+1.43391356e-01f,-3.82048264e-02f,+1.26477146e+00f,
-9.92358625e-01f,+4.44427848e-01f,+1.41521320e-01f,-2.78100103e-01f,+1.89595193e-01f,
-9.68530923e-02f,-6.24786317e-02f,-2.26323932e-01f,+1.12364575e-01f,+9.16665569e-02f,
-1.65953800e-01f,+6.70516863e-02f,+2.10368991e-01f,-7.44666934e-01f,-5.65781951e-01f,
+4.93597150e-01f,-4.88266647e-01f,-2.81898290e-01f,-3.40868235e-01f,+1.07426643e-01f,
+3.79450202e-01f,-1.09528713e-02f,+2.05925524e-01f,-3.20615649e-01f,-1.43725164e-02f,
+1.78627253e-01f,+3.62411797e-01f,-1.25121385e-01f,+4.27890718e-01f,+4.94944721e-01f,
-2.62937009e-01f,-1.35865077e-01f,+4.75373328e-01f,+2.10623845e-01f,+7.16199130e-02f,
-3.62679929e-01f,-3.62565398e-01f,+5.09736836e-01f,+6.05494261e-01f,+2.65154660e-01f,
-3.99086863e-01f,+4.91450965e-01f,+4.87433612e-01f,+6.12872958e-01f,+5.81067920e-01f,
+6.29496336e-01f,+1.14165032e+00f,-4.20418173e-01f,-4.06640232e-01f,-3.70149165e-01f,
-3.71303633e-02f,-3.96414101e-01f,-6.21681333e-01f,+4.17686477e-02f,-4.43398863e-01f,
+4.27065223e-01f,-2.21749842e-01f,+1.70070782e-01f,+5.48795283e-01f,-7.13528812e-01f,
+1.71970382e-01f,-6.48828223e-02f,-5.47506273e-01f,-1.28201187e+00f,+9.19375122e-01f,
+3.02500159e-01f,-5.97934186e-01f,+3.17158282e-01f,-3.39232892e-01f,+2.28490204e-01f,
+5.28826416e-01f,+3.47112626e-01f,+1.61929697e-01f,+8.31340849e-02f,-3.39058369e-01f,
-9.90895391e-01f,+4.03893352e-01f,-3.72525990e-01f,+5.37653267e-01f,-4.72339749e-01f,
-1.03494442e+00f,+7.08538711e-01f,+2.72499144e-01f,-5.25560021e-01f,-1.00296021e-01f,
-9.14745629e-02f,+8.40246320e-01f,-4.70782369e-01f,-4.63576138e-01f,+6.86750710e-02f,
-1.99225023e-01f,+3.17149013e-01f,-4.90755409e-01f,-4.02708918e-01f,+6.87397599e-01f,
-2.26842865e-01f,-4.53560799e-01f,-2.21528545e-01f,+2.89478511e-01f,+4.33344185e-01f,
+5.55957079e-01f,-5.40081263e-01f,-5.83402589e-02f,-1.11288317e-01f,-2.71846116e-01f,
+3.25692654e-01f,-4.00850296e-01f,-5.79564393e-01f,+5.63735189e-03f,-5.46998121e-02f,
-1.12885785e+00f,+2.34491691e-01f,-4.05885041e-01f,-3.20181906e-01f,-2.83287764e-01f,
-1.66135699e-01f,+6.21805012e-01f,-1.03231452e-01f,-3.73190284e-01f,-2.23508298e-01f,
-1.78916633e-01f,+3.63035314e-02f,+5.34621179e-01f,+1.17386155e-01f,+2.27351159e-01f,
+3.37257713e-01f,+4.56877589e-01f,-1.27143788e+00f,-8.76668274e-01f,+9.45113599e-01f,
-2.24263668e-01f,-1.43236086e-01f,-3.05116713e-01f,-7.38026679e-01f,-1.24234307e+00f,
+4.96743381e-01f,+2.81207532e-01f,-2.18491197e-01f,-2.68738478e-01f,-6.00258648e-01f,
-7.52340078e-01f,+2.77894378e-01f,+3.50132823e-01f,-4.84707177e-01f,-4.07316178e-01f,
-3.18214715e-01f,-4.60167021e-01f,-4.64740485e-01f,}; 
k2c_tensor dense_kernel = {&dense_kernel_array[0],2,2048,{32,64, 1, 1, 1}}; 
float dense_bias_array[64] = {
+3.32618058e-01f,+8.71132389e-02f,-6.90260768e-01f,+6.36628628e-01f,+1.69125378e-01f,
-1.97514787e-01f,-1.78920906e-02f,+1.64846241e-01f,+1.90605283e-01f,+1.45999417e-01f,
+3.75599056e-01f,+1.38189375e-01f,+7.02594547e-03f,+3.41699034e-01f,+4.20926303e-01f,
+1.21070528e+00f,-4.63639557e-01f,-1.72894195e-01f,-2.27523357e-01f,+7.41809547e-01f,
+9.11765277e-01f,-4.63834435e-01f,+7.78853178e-01f,+4.65956807e-01f,+4.51808780e-01f,
-2.45741844e-01f,-3.26716185e-01f,+4.25919533e-01f,+3.62940609e-01f,+2.47011095e-01f,
-3.14471917e-03f,+5.52724116e-02f,+2.32467651e-02f,-1.17147744e-01f,+2.40382075e-01f,
+4.33437318e-01f,+4.59118664e-01f,+8.35392252e-02f,-5.27760386e-01f,+5.40443182e-01f,
+1.02773201e+00f,+9.63463634e-02f,+3.00806314e-01f,-8.09598193e-02f,-9.48586762e-01f,
+8.40638578e-01f,-6.24905340e-02f,+1.07458986e-01f,+8.24185491e-01f,-8.49142969e-02f,
-1.96770787e-01f,-8.53653848e-01f,-7.75304958e-02f,+2.37889349e-01f,+8.24583471e-02f,
-1.02688275e-01f,+5.19193769e-01f,+1.55423388e-01f,+2.04943299e-01f,+1.90927052e+00f,
+2.68357813e-01f,-4.22711521e-02f,+5.94258904e-01f,+3.23155731e-01f,}; 
k2c_tensor dense_bias = {&dense_bias_array[0],1,64,{64, 1, 1, 1, 1}}; 
float dense_fwork[2080] = {0}; 

 
float dense_1_output_array[32] = {0}; 
k2c_tensor dense_1_output = {&dense_1_output_array[0],1,32,{32, 1, 1, 1, 1}}; 
float dense_1_kernel_array[2048] = {
-3.76860164e-02f,-2.34918877e-01f,+8.69208813e-01f,+1.54665962e-01f,+8.35837305e-01f,
+2.03772634e-01f,-1.89558256e+00f,+4.11933005e-01f,+6.13022864e-01f,+2.01630652e-01f,
+4.98582512e-01f,-3.69649241e-03f,-4.08580482e-01f,+7.06176639e-01f,+2.18373746e-01f,
-6.17359579e-01f,-3.43920559e-01f,-1.27645719e+00f,+8.60355854e-01f,-1.89579114e-01f,
+9.21311796e-01f,+3.30645531e-01f,+4.69183892e-01f,-3.39564085e-01f,-1.51524556e+00f,
-2.04969887e-02f,+2.38043312e-02f,+3.24360400e-01f,-6.76939189e-01f,-3.65702569e-01f,
-1.53953958e+00f,-5.87629318e-01f,+2.56355494e-01f,-5.91725290e-01f,-5.24305820e-01f,
+2.45614991e-01f,-1.91097125e-01f,-1.00026512e+00f,+3.30473423e-01f,+2.94697762e-01f,
-7.10544109e-01f,+2.06562523e-02f,+2.80223250e-01f,-2.04595983e-01f,+1.36425301e-01f,
+8.55033100e-01f,+3.46873820e-01f,+7.91285932e-02f,+1.71470776e-01f,-3.73202115e-01f,
+1.89400524e-01f,+1.59926102e-01f,-1.06632435e+00f,+6.08559608e-01f,-1.87225506e-01f,
-2.46451408e-01f,-1.98131979e-01f,+5.11372566e-01f,+3.43250751e-01f,-4.50008333e-01f,
+1.68476284e-01f,+2.93471456e-01f,+1.10681998e-02f,-5.12866043e-02f,-1.13735184e-01f,
-2.72914320e-01f,-8.34205672e-02f,+1.47694856e-01f,-1.15349486e-01f,+2.31567621e-02f,
-3.90402749e-02f,-8.45997572e-01f,-1.13772489e-01f,+3.39872271e-01f,-8.38943899e-01f,
+3.14660430e-01f,-8.25800419e-01f,+1.39405310e-01f,-8.07789326e-01f,+2.75580198e-01f,
-6.35240138e-01f,-1.46820750e-02f,+2.05467135e-01f,-5.30697644e-01f,+4.96979177e-01f,
+3.80067110e-01f,-2.72921056e-01f,-9.84578013e-01f,-7.49526978e-01f,+2.07307518e-01f,
-9.98976231e-01f,+4.57748473e-01f,+4.04378146e-01f,+5.63465714e-01f,+1.96987987e-01f,
-3.35660093e-02f,+1.21446401e-01f,+1.18964896e-01f,-6.27168894e-01f,-4.18772325e-02f,
+2.27425218e-01f,+7.22573102e-02f,-2.90868521e-01f,-3.70026410e-01f,+6.91957057e-01f,
-6.46339118e-01f,+3.00529331e-01f,-1.97197139e+00f,+3.78248721e-01f,-2.48158008e-01f,
+1.78099230e-01f,-1.40582550e+00f,+2.71302294e-02f,+1.36720939e-02f,+3.48615217e+00f,
-2.82442439e-02f,+1.97164100e-02f,-8.37311745e-02f,+9.77404937e-02f,-2.65146583e-01f,
+6.17492795e-01f,-7.03132808e-01f,-2.23572090e-01f,-4.37601581e-02f,+4.09913301e-01f,
-3.07550114e-02f,+5.83394408e-01f,+2.04694271e-01f,-8.30150470e-02f,+3.52033705e-01f,
+1.48713380e-01f,-9.57931578e-03f,-3.15207690e-01f,+5.43256223e-01f,+2.56132871e-01f,
+8.22714120e-02f,-7.83986807e-01f,-7.01631725e-01f,+4.05182868e-01f,-4.00656044e-01f,
+3.12697351e-01f,-3.63001674e-01f,+3.61257911e-01f,-2.57226437e-01f,+9.93033350e-02f,
+3.11581582e-01f,-3.81567143e-02f,-3.99921574e-02f,-3.84618461e-01f,-7.82607734e-01f,
-1.66127622e-01f,+5.12495823e-02f,-8.43341827e-01f,+2.42436931e-01f,+5.52508473e-01f,
+1.40962079e-01f,+4.49925900e-01f,-1.08322054e-01f,+3.78299326e-01f,+7.56787419e-01f,
+1.29643038e-01f,-1.94542241e+00f,+1.10649616e-01f,+1.80163518e-01f,+2.65266418e-01f,
-3.61787318e-03f,+3.44600439e-01f,+8.69409181e-03f,-1.22402632e+00f,-1.35154188e-01f,
+9.67021361e-02f,-1.16133973e-01f,-3.52639928e-02f,+3.93448204e-01f,+1.34405255e-01f,
+3.59430909e-01f,-3.80851060e-01f,-1.30650198e+00f,+2.87937392e-02f,+1.19991209e-02f,
-1.66319227e+00f,+3.79102647e-01f,-9.28815901e-02f,+3.03423405e-01f,+2.36126930e-02f,
-1.09985337e-01f,+2.89062828e-01f,+1.80566311e-01f,+8.95647407e-02f,+1.79927066e-01f,
-2.80084848e-01f,+1.50130105e+00f,+1.46838367e-01f,+3.83479863e-01f,+3.67474817e-02f,
+2.00884596e-01f,-7.22097695e-01f,-1.88683003e-01f,-6.80752337e-01f,+5.78793027e-02f,
-7.05764651e-01f,-3.94317597e-01f,+4.51497614e-01f,+5.52700102e-01f,+2.50115693e-01f,
+1.21396616e-01f,+8.04454163e-02f,-2.28932917e-01f,+1.64523736e-01f,+6.75914824e-01f,
+1.29453838e-01f,+1.62800312e-01f,+5.80463707e-01f,-7.68367410e-01f,+7.82659948e-02f,
-2.67990291e-01f,+8.54177251e-02f,+4.75048453e-01f,+3.02919336e-02f,-1.05500780e-01f,
-1.70740895e-02f,+2.28464410e-01f,-1.55125409e-01f,-9.48491752e-01f,+1.20053865e-01f,
+1.76041752e-01f,-1.19880378e+00f,-5.06069250e-02f,-8.14014137e-01f,-9.87642825e-01f,
-6.44123435e-01f,+6.11872412e-02f,-2.54448563e-01f,+2.93554753e-01f,-7.12838396e-02f,
-3.62722844e-01f,+2.04464063e-01f,-8.71670187e-01f,+1.87123064e-02f,+1.43630072e-01f,
+1.59840450e-01f,+8.29902947e-01f,+3.33459854e-01f,-4.29743144e-04f,+1.64035112e-01f,
-1.68702807e-02f,+2.05654889e-01f,-7.01504171e-01f,-2.79693890e+00f,+1.56596884e-01f,
+1.83238536e-01f,+2.82984823e-01f,+6.70433521e-01f,-1.18573010e+00f,-8.41852009e-01f,
-1.99731565e+00f,+1.91015989e-01f,-1.08549483e-01f,+2.98637807e-01f,+2.06754997e-01f,
-6.90596759e-01f,+2.36949906e-01f,+7.55655408e-01f,+9.44336578e-02f,+1.00103223e+00f,
+2.46867627e-01f,-8.35102379e-01f,+4.24456745e-01f,+8.68515015e-01f,-4.97085527e-02f,
+4.19229716e-01f,+6.59788609e-01f,-2.56591523e-03f,+1.58245400e-01f,-1.48440853e-01f,
-1.51438275e-02f,-1.42145145e+00f,-7.89605305e-02f,+2.60136593e-02f,-5.80897748e-01f,
-1.06973481e+00f,+5.65757930e-01f,-4.76085916e-02f,-6.30328208e-02f,+4.23428655e-01f,
+7.90408373e-01f,+9.31482464e-02f,+4.70808208e-01f,+4.39155221e-01f,-1.09262489e-01f,
-3.09246659e-01f,-9.07853991e-02f,-4.35706556e-01f,+8.04228187e-02f,+9.29600120e-01f,
+4.08497453e-01f,-3.39685112e-01f,+2.17976809e-01f,+3.68070960e-01f,+6.16721883e-02f,
+3.94456983e-02f,+6.41673565e-01f,+5.01773395e-02f,+3.19721580e-01f,+4.11445685e-02f,
-4.11199361e-01f,+2.68968999e-01f,+1.29783764e-01f,-1.16629839e-01f,+1.84745252e-01f,
+8.22800621e-02f,+2.65768766e-01f,-1.22802764e-01f,+3.00193638e-01f,+2.91314840e-01f,
-4.16009426e-01f,-8.18755254e-02f,-1.15094006e+00f,-1.90650153e+00f,-2.82338589e-01f,
-1.36526257e-01f,+6.85256600e-01f,+1.25185519e-01f,+3.04805875e-01f,-9.60893154e-01f,
+1.20986467e-02f,+3.78810525e-01f,+2.16805607e-01f,-9.90681231e-01f,+3.80910248e-01f,
+5.99007964e-01f,-1.60628712e+00f,-5.16058922e-01f,+2.69944251e-01f,+1.33126518e-02f,
+5.64442426e-02f,-1.69521496e-02f,+1.31513830e-02f,-6.54055038e-03f,+4.56219725e-02f,
+3.93642217e-01f,-7.09421754e-01f,-8.92170519e-02f,+3.44194174e-01f,-1.80138260e-01f,
+1.16864555e-01f,+1.05542779e+00f,-7.66569972e-02f,-6.17801547e-01f,+7.27913007e-02f,
+3.78300786e-01f,+5.11839569e-01f,+7.46735856e-02f,+5.51150143e-02f,+2.67023772e-01f,
+6.91415146e-02f,+5.44533134e-01f,+3.37864697e-01f,+6.15981519e-01f,+1.11488305e-01f,
-1.15789485e+00f,+4.57721084e-01f,+1.99832141e-01f,+1.30289316e-01f,+2.25523949e-01f,
+1.08438945e+00f,+8.62739086e-02f,+1.04550950e-01f,-4.15571988e-01f,-7.26877078e-02f,
+3.16478968e-01f,+1.85610518e-01f,+3.21656525e-01f,-4.44415808e-01f,-3.43285412e-01f,
-1.77467257e-01f,-1.29895627e-01f,+1.97267190e-01f,+5.15147626e-01f,-6.72973394e-01f,
+2.76492625e-01f,+6.64084196e-01f,+3.84473413e-01f,-1.51503575e+00f,+4.16725844e-01f,
-9.18275595e-01f,-1.97271377e-01f,-2.85310596e-01f,+2.57725000e-01f,+8.48312676e-01f,
-1.16574013e+00f,+1.92039832e-01f,-3.61066073e-01f,-4.39045615e-02f,+2.21540943e-01f,
-1.00427878e+00f,+3.42111379e-01f,-2.71450698e-01f,-1.74421981e-01f,+6.05867147e-01f,
-4.60503757e-01f,+4.12109464e-01f,+1.63537681e-01f,-1.18750580e-01f,+1.69850606e-02f,
-6.26394153e-01f,+3.84969592e-01f,+4.39875662e-01f,-3.44623297e-01f,-7.44866878e-02f,
-1.22491285e-01f,+8.38882327e-02f,-3.38468581e-01f,-1.59791782e-01f,+2.71453485e-02f,
-8.54169011e-01f,-5.56992441e-02f,-1.42906821e+00f,-3.51211697e-01f,+9.83562842e-02f,
-4.20921743e-01f,+4.12749499e-01f,+4.44735080e-01f,+1.18927702e-01f,+4.90729600e-01f,
-5.90325147e-02f,-3.03501338e-02f,+4.22533005e-01f,-1.56661302e-01f,+6.01735413e-01f,
+1.93520516e-01f,+1.56602904e-01f,+9.20678079e-02f,+2.18232214e-01f,+5.51038980e-01f,
+1.45803839e-01f,+2.77198374e-01f,+9.17033404e-02f,-2.49903172e-01f,+2.76044548e-01f,
-8.22398126e-01f,+5.83855450e-01f,+7.04100281e-02f,-8.92682374e-02f,+1.28421605e-01f,
+1.43401355e-01f,-3.58019739e-01f,-2.14398697e-01f,-6.11817181e-01f,+3.80874835e-02f,
-4.94848847e-01f,+3.44741255e-01f,-3.12436938e-01f,+1.13820672e-01f,+2.48694316e-01f,
+2.62094885e-01f,+4.27150607e-01f,-3.06134373e-01f,+3.03315092e-02f,-1.71608090e+00f,
-3.90149429e-02f,-3.35036740e-02f,+2.17931360e-01f,+5.52449465e-01f,+5.88669106e-02f,
-5.90553209e-02f,+3.41654420e-01f,+7.94776678e-02f,-4.11623269e-01f,+4.36521545e-02f,
-1.00144610e-01f,-2.38123257e-02f,-8.46035600e-01f,+8.33306968e-01f,+5.94038010e-01f,
-6.65744483e-01f,-9.11737885e-03f,-5.29563539e-02f,-1.15006834e-01f,+1.34249881e-01f,
-8.87762129e-01f,-1.41992117e-03f,-1.36886942e+00f,+7.55931661e-02f,-2.33862817e-01f,
-4.21718955e-01f,-5.10877788e-01f,+2.81202614e-01f,+2.49534369e-01f,+3.63303751e-01f,
+4.51105773e-01f,-2.95986116e-01f,+3.39784533e-01f,-3.36004943e-01f,+4.77587879e-01f,
-2.02757329e-01f,-3.73280793e-01f,+1.58033863e-01f,+3.58748734e-01f,+3.62777740e-01f,
-3.56306940e-01f,-3.27369630e-01f,-1.53463781e-01f,-7.16564953e-01f,-4.42539501e+00f,
+3.40830088e-01f,+6.31197810e-01f,-6.73935473e-01f,+3.51444811e-01f,-2.38751248e-01f,
-9.27162170e-02f,-3.06692302e-01f,-6.11091316e-01f,+1.38376489e-01f,-6.38225824e-02f,
-2.65227675e-01f,+1.05602050e+00f,-1.63104260e+00f,-9.35149252e-01f,-3.30779068e-02f,
-2.18961254e-01f,+1.94249168e-01f,-3.64263952e-02f,+1.50800552e-02f,-2.59548873e-01f,
-1.78270423e+00f,-3.34798753e-01f,+5.52536966e-03f,-9.61723030e-02f,+1.19418174e-01f,
+2.54272431e-01f,+6.90900460e-02f,+7.01546788e-01f,+2.65035510e-01f,-2.80084819e-01f,
-1.09370274e-03f,-4.26798970e-01f,-4.67708260e-01f,+2.22475484e-01f,+3.49572688e-01f,
-5.40212810e-01f,-3.15993637e-01f,-6.78764164e-01f,-1.06667948e+00f,+1.41258836e+00f,
+1.85962573e-01f,+4.82953876e-01f,-5.22055769e+00f,+2.83820629e-01f,-5.80871999e-01f,
-1.72871262e-01f,-4.33591604e-01f,+2.90885776e-01f,+3.06740046e-01f,-1.59950972e-01f,
+3.58989298e-01f,-2.95750737e-01f,-8.06988835e-01f,-2.79452860e-01f,+4.68926519e-01f,
-7.03428555e+00f,-4.83319473e+00f,-4.12479520e-01f,-4.78869289e-01f,+1.00102246e-01f,
-7.16252327e-02f,+1.18876576e+00f,+2.03751421e+00f,+5.17328143e-01f,+1.46165593e-02f,
+1.06222343e+00f,-1.56568810e-01f,-2.04031944e-01f,-7.23727763e-01f,-2.01055482e-02f,
+5.06073870e-02f,-2.07432285e-01f,-1.53966331e+00f,-4.33605671e-01f,+1.16090372e-01f,
+7.23556757e-01f,-9.97994654e-03f,-2.90056944e-01f,+2.08167583e-02f,+1.61514416e-01f,
-1.79976836e-01f,+1.56280085e-01f,+7.01759696e-01f,+2.02694997e-01f,-1.07086957e+00f,
+2.81933129e-01f,+3.96685660e-01f,+5.17351031e-01f,-5.99505305e-01f,+1.62803188e-01f,
+1.48834914e-01f,-1.77476799e+00f,-3.64910901e-01f,+2.03737870e-01f,-1.64354183e-02f,
-7.78960943e-01f,+4.62144651e-02f,-2.73044780e-02f,-3.29600364e-01f,+6.78976357e-01f,
-7.24648237e-01f,-1.41036913e-01f,+7.02966630e-01f,+3.41799185e-02f,-1.06234682e+00f,
-5.88656366e-02f,+1.59400746e-01f,-9.51449722e-02f,+3.57042730e-01f,+3.90099362e-02f,
+2.72238016e-01f,-4.89461988e-01f,-1.36739582e-01f,+1.66543037e-01f,+5.22542953e-01f,
+4.23326910e-01f,+2.58826017e-01f,+5.94006300e-01f,+1.97056532e-01f,+7.10330248e-01f,
+5.56533813e-01f,+5.11008978e-01f,+1.25813365e-01f,-1.42738074e-01f,+1.94953069e-01f,
-1.14802748e-01f,+3.29483122e-01f,-6.29613459e-01f,+5.17200470e-01f,+4.99571383e-01f,
+2.69704461e-02f,+1.73749447e-01f,+4.12244856e-01f,-1.04681887e-01f,+1.88348666e-01f,
+3.67840827e-01f,-7.97260880e-01f,-1.85888499e-01f,+2.85937011e-01f,-1.49037510e-01f,
+7.33555973e-01f,+1.62142023e-01f,+5.97413421e-01f,-3.32843632e-01f,+7.58273294e-03f,
+4.65214103e-01f,-4.18049932e-01f,+2.46760666e-01f,+2.29072981e-02f,+4.69212949e-01f,
+5.21050990e-01f,+2.23920599e-01f,+1.69546396e-01f,+4.62441742e-01f,+1.50367633e-01f,
-1.67419657e-01f,+2.25812793e-01f,-6.41409159e-02f,+3.31114352e-01f,-4.60917562e-01f,
+7.02455193e-02f,+3.37435931e-01f,-4.01740462e-01f,-2.99470848e-03f,+5.56838103e-02f,
+2.87061810e-01f,+4.14585657e-02f,+6.84038460e-01f,+5.63190319e-02f,-2.91257322e-01f,
-2.13009380e-02f,+1.50079995e-01f,-8.68787318e-02f,-4.93694365e-01f,-1.53747535e+00f,
+5.97639620e-01f,+1.22650482e-01f,-1.60195780e+00f,-2.36389384e-01f,-4.20089626e+00f,
+4.66904491e-01f,-1.32004762e+00f,+3.68582845e-01f,+2.20997572e-01f,+2.36827418e-01f,
+2.29996517e-01f,-5.08016765e-01f,-3.33146930e-01f,-6.67466968e-02f,+2.55018175e-02f,
-1.04172371e-01f,-9.14008692e-02f,+4.75267060e-02f,-1.52264667e+00f,+6.50000989e-01f,
-1.38214856e-01f,-3.38004023e-01f,-1.43255576e-01f,-2.13695094e-01f,+1.33974254e+00f,
-6.25525594e-01f,+3.36524621e-02f,-1.18116760e+00f,+7.09151089e-01f,-4.91330028e-02f,
-3.26950699e-01f,+2.84397360e-02f,-6.02664828e-01f,+3.09479475e-01f,+1.69373140e-01f,
+1.48800477e-01f,-5.05512208e-02f,-2.04897761e+00f,+2.24594891e-01f,+8.27457130e-01f,
-1.84681320e+00f,-1.34585452e+00f,-3.92941758e-02f,-5.79403490e-02f,+2.49694526e-01f,
+3.77227038e-01f,+3.06464493e-01f,+3.35627961e+00f,+7.41809130e-01f,-2.13610113e-01f,
+4.42167759e-01f,+3.28803569e-01f,+5.63246906e-01f,-2.20261365e-02f,+5.36655605e-01f,
-5.79757333e-01f,-8.38568509e-01f,+1.91012338e-01f,+9.33297396e-01f,+3.84521914e+00f,
-9.77566764e-02f,+8.59126449e-02f,+2.08242327e-01f,+2.77016759e-02f,+5.11024714e-01f,
-4.81045336e-01f,+9.93252471e-02f,-2.47954056e-01f,+7.97942579e-02f,+6.44445270e-02f,
-5.67328632e-01f,-1.77153945e+00f,+4.17961121e+00f,+3.69202924e+00f,-1.46087497e-01f,
+2.95021844e+00f,+2.14789778e-01f,-6.43146098e-01f,+4.30217457e+00f,-2.57992101e+00f,
+2.04715773e-01f,-2.13556498e-01f,-1.51587760e+00f,-2.69026965e-01f,+7.31480792e-02f,
+2.27881357e-01f,+4.17655855e-01f,-1.49773583e-01f,-7.32095361e-01f,+1.98384628e-01f,
-6.57094643e-02f,+1.56669664e+00f,-4.90211882e-02f,-6.86634660e-01f,-1.06488310e-01f,
+1.28347082e-02f,-1.88214257e-01f,-1.80240169e-01f,-4.30384338e-01f,-1.76988300e-02f,
+3.06354016e-01f,+5.58429539e-01f,-4.76451740e-02f,-9.61750507e-01f,+1.49227297e+00f,
+1.51859152e+00f,+2.16035753e-01f,+1.30599350e-01f,+8.10468078e-01f,-1.61067247e-01f,
+2.44987607e-01f,+2.50799036e+00f,+1.10768773e-01f,+1.21373288e-01f,-8.32481205e-01f,
-3.04525703e-01f,-1.80759594e-01f,-6.56784624e-02f,-5.34572005e-01f,+1.99736819e-01f,
+8.43997598e-02f,+4.34901923e-01f,+6.93233684e-02f,+2.23904118e-01f,+2.66569760e-02f,
+3.86027008e-01f,-2.52031893e-01f,+4.34070937e-02f,-8.08343232e-01f,+4.95757103e-01f,
+9.53484848e-02f,-9.18523848e-01f,-4.18368801e-02f,-9.23851371e-01f,-3.61863859e-02f,
+2.76852608e-01f,+2.79459447e-01f,+2.29886502e-01f,-8.24919567e-02f,+4.56140451e-02f,
-1.04590678e+00f,+4.76046175e-01f,+8.42450634e-02f,+3.41636747e-01f,-1.00722991e-01f,
+4.58985746e-01f,+2.81946391e-01f,+2.49399990e-01f,-6.13421202e-01f,+5.47264338e-01f,
+5.45431972e-01f,+4.33095217e-01f,-1.15072691e+00f,+4.10363913e-01f,+1.12744963e+00f,
-8.51085281e+00f,-6.61240593e-02f,-2.01801136e-01f,-2.82970786e-01f,-4.27902365e+00f,
-2.49062866e-01f,+3.54293644e-01f,+2.69819111e-01f,-1.20975506e-02f,+5.83719015e-01f,
-2.65764982e-01f,-7.96281874e-01f,-2.43216443e+00f,-4.30689335e+00f,-5.40797567e+00f,
+7.02871233e-02f,-4.48249674e+00f,-4.85791385e-01f,-6.48125783e-02f,-6.98717594e+00f,
-3.08570337e+00f,+8.14606428e-01f,+3.82487327e-01f,-2.09405565e+00f,+3.71555865e-01f,
+9.83939692e-03f,+1.06787801e-01f,+9.94550437e-02f,-4.55306172e-02f,+7.20767379e-02f,
-2.77976215e-01f,-4.23588246e-01f,+4.21198845e-01f,-1.42118847e+00f,-5.33956945e-01f,
-1.96916431e-01f,+1.77919999e-01f,-1.89648852e-01f,-7.06404969e-02f,+3.81840646e-01f,
+8.06149542e-01f,+5.22583425e-02f,+6.03876591e-01f,+1.92134500e-01f,+3.10755879e-01f,
+2.72131786e-02f,-2.55540982e-02f,+5.92846036e-01f,-3.62664163e-02f,-3.09472680e-02f,
-9.64619815e-02f,-3.85296106e-01f,-3.41512382e-01f,-6.15678191e-01f,+1.56240657e-01f,
+1.05056331e-01f,+1.56359121e-01f,-3.89779896e-01f,+6.88292742e-01f,+3.43891412e-01f,
-2.42414430e-01f,+2.97905892e-01f,+4.09156978e-01f,-1.39463469e-01f,+3.41417104e-01f,
-1.73886031e-01f,+3.78890395e-01f,+2.52443105e-01f,-4.19737816e-01f,+2.09553525e-01f,
+5.76125830e-02f,-7.61023402e-01f,+1.29668236e-01f,+4.33049172e-01f,+1.20031975e-01f,
-2.21388197e+00f,-4.08813953e+00f,+3.69538903e-01f,-4.17647302e-01f,+3.47204733e+00f,
+1.37899566e+00f,-8.12289417e-02f,-8.46673697e-02f,-1.01770803e-01f,+1.66416183e-01f,
+1.26120716e-01f,-1.94564253e-01f,-1.02879377e-02f,+2.15490460e-01f,-1.61064729e-01f,
-3.72656465e-01f,+1.53069541e-01f,+4.98647057e-02f,+1.78709596e-01f,-7.01346621e-02f,
-4.92898434e-01f,+8.84492174e-02f,+1.34235388e-02f,-6.30920846e-03f,+8.47894773e-02f,
-3.09527740e-02f,-8.60595584e-01f,-1.84201181e-01f,-6.46881610e-02f,-1.09580994e+00f,
+5.48708975e-01f,+1.50891185e-01f,-1.38646988e-02f,+1.34273124e+00f,+2.29781240e-01f,
+3.15460443e-01f,-2.04978514e+00f,+1.07995188e+00f,+4.25973147e-01f,+2.11501449e-01f,
+4.12794873e-02f,+3.45745355e-01f,-2.90830195e-01f,+8.71076342e-03f,+4.91946727e-01f,
+1.56972483e-01f,+2.20872208e-01f,-3.26157868e-01f,-4.32844281e-01f,-5.17470300e-01f,
+1.56253010e-01f,+6.25742316e-01f,+3.07878524e-01f,+1.60626635e-01f,-1.02336001e+00f,
+4.24437553e-01f,-1.10611534e+00f,+1.48828134e-01f,+1.43354535e-02f,+4.09146041e-01f,
-6.12642094e-02f,+1.13746092e-01f,-1.20584205e-01f,-5.68367839e-01f,+1.73863724e-01f,
+2.44361654e-01f,+3.76461595e-02f,+1.97096765e-01f,+1.04123637e-01f,+2.81584021e-02f,
-6.27373084e-02f,-1.87305725e+00f,+6.35133609e-02f,-1.67688563e-01f,-1.28995800e+00f,
+4.14775759e-02f,+7.93126166e-01f,+2.47025862e-01f,-3.62813890e-01f,+1.24244079e-01f,
+1.10628285e-01f,+2.39469692e-01f,-1.37424096e-01f,+8.07351112e-01f,-6.96315616e-02f,
+2.69533962e-01f,+3.99714082e-01f,-4.99714702e-01f,-4.91822213e-01f,+2.40247622e-01f,
+2.37465631e-02f,+8.04043550e-04f,+4.26881090e-02f,+1.51477054e-01f,+1.77596867e-01f,
-5.60997963e-01f,+1.80574894e-01f,+2.67421514e-01f,+1.40008867e-01f,+5.60815513e-01f,
+2.31412783e-01f,-4.07512598e-02f,-8.92499447e-01f,+1.35220349e-01f,+2.41084188e-01f,
+1.62743498e-02f,+3.14638056e-02f,+4.34006482e-01f,+4.60121453e-01f,-7.65635490e-01f,
+9.74136770e-01f,+5.18054724e-01f,-2.58296669e-01f,-1.64872527e-01f,+1.70282107e-02f,
-2.72976905e-01f,-1.04217660e+00f,+2.21514311e-02f,+9.22629118e-01f,-9.92510021e-02f,
-1.14292157e+00f,+2.50816137e-01f,-6.58891797e-01f,+3.13749433e-01f,-1.53667793e-01f,
-5.88076234e-01f,+2.07018569e-01f,-2.80010104e-01f,+2.65101284e-01f,+9.33495238e-02f,
+1.46148860e-01f,+1.23103529e-01f,+2.08984703e-01f,+4.69800234e-02f,-1.01558530e+00f,
+9.31137502e-02f,+2.73511976e-01f,-5.38946800e-02f,-1.58679974e+00f,+1.46539286e-01f,
+1.49905100e-01f,+1.85836524e-01f,-1.01575710e-01f,-7.61529982e-01f,-8.38525653e-01f,
-1.50428191e-01f,+1.33848771e-01f,-4.51752484e-01f,-1.19558312e-01f,+4.98084445e-03f,
-3.74939442e-02f,-1.78604352e+00f,+6.30342185e-01f,+1.22107387e-01f,+2.67833620e-01f,
+3.36179584e-01f,-4.40343842e-02f,-6.28046632e-01f,+4.41838175e-01f,-7.70355538e-02f,
+2.40466729e-01f,+2.01808393e-01f,-6.06516190e-02f,-5.00759482e-01f,+3.94439071e-01f,
+2.43866086e-01f,-5.46510875e-01f,+5.19575894e-01f,+1.70178875e-01f,-3.70600224e-02f,
-2.70893365e-01f,-1.18724227e-01f,-8.76797140e-02f,+9.30467844e-02f,+4.89926487e-01f,
-5.93749285e-01f,-5.07984996e-01f,-5.82140200e-02f,+2.02759057e-01f,+2.23899394e-01f,
-4.42979075e-02f,+4.20196235e-01f,+2.63841778e-01f,+2.37203598e-01f,-4.17962104e-01f,
-2.42473334e-02f,+5.18750250e-01f,-2.69259810e-01f,-1.02032665e-02f,-1.85300320e-01f,
+3.05325001e-01f,+1.65877149e-01f,+1.39928937e-01f,+5.53332686e-01f,+2.41114706e-01f,
+4.78892982e-01f,+2.52354026e-01f,+9.47112590e-02f,+2.51470029e-01f,+1.03439271e+00f,
+2.64344424e-01f,-1.27301887e-02f,-2.45254084e-01f,+3.00962120e-01f,+4.70322937e-01f,
-9.13583517e-01f,-2.50828445e-01f,+8.07711959e-01f,+9.84783411e-01f,-1.59807339e-01f,
+1.34307668e-01f,-5.80141604e-01f,-2.24996861e-02f,+1.70737609e-01f,-3.45629334e-01f,
+5.36961138e-01f,+2.21302882e-01f,+5.44898987e-01f,+2.00410485e-01f,+1.06462762e-01f,
+7.49782026e-02f,+7.05765307e-01f,-1.83403436e-02f,+3.37001294e-01f,+5.94898820e-01f,
+4.07709420e-01f,+3.83367501e-02f,-2.29428962e-01f,+2.67632931e-01f,+2.92259872e-01f,
-1.22506231e-01f,+5.13155870e-02f,+1.49575531e-01f,+7.14897513e-01f,-1.25288516e-01f,
+3.83865714e-01f,+4.60214794e-01f,-1.04989290e-01f,-1.21368609e-01f,-2.65062541e-01f,
-2.88342237e-01f,+4.62792665e-01f,+3.46164525e-01f,+2.64130861e-01f,+6.87514767e-02f,
+4.60649699e-01f,-2.87929654e-01f,+4.21254784e-01f,+2.05702588e-01f,+2.94822276e-01f,
-4.40201670e-01f,+2.13888392e-01f,+2.56796151e-01f,-5.67038298e-01f,+1.95051730e-01f,
+3.96714926e-01f,+2.83895493e-01f,+4.46780145e-01f,-1.00031637e-01f,+1.13138676e-01f,
+2.49439478e-01f,+9.86196473e-02f,-1.64712146e-01f,-1.08792377e+00f,-6.84312358e-02f,
+3.70353639e-01f,-3.01742524e-01f,+6.17122471e-01f,+3.67067009e-01f,-3.31822127e-01f,
+1.79919004e-01f,+4.22122300e-01f,+7.58567974e-02f,-3.71940553e-01f,-1.24944843e-01f,
-3.74544352e-01f,-2.14106560e-01f,+2.25471556e-01f,+4.22934324e-01f,+1.60109490e-01f,
+7.78897583e-01f,+8.40205029e-02f,+3.51428986e-01f,-5.64062119e-01f,+3.47443633e-02f,
-7.59074464e-02f,+1.14015572e-01f,+8.39203179e-01f,+1.38150454e-01f,+3.44249249e-01f,
+6.55615449e-01f,-4.70905095e-01f,+4.49315578e-01f,-1.25175137e-02f,+4.03936729e-02f,
-1.40095547e-01f,-9.68094096e-02f,-1.96698252e-02f,-1.41199851e+00f,-5.36130443e-02f,
+4.75819588e-01f,+1.16674386e-01f,-3.99723202e-01f,-2.62876678e+00f,-9.22665119e-01f,
-7.61842728e-02f,+3.54074985e-01f,+8.38769302e-02f,-6.53077066e-01f,-1.97694078e-01f,
-1.45254537e-01f,-1.42340641e-02f,+1.53715536e-01f,-1.70793712e+00f,+2.54551619e-01f,
-3.07590812e-01f,-8.76546288e+00f,+2.99350858e-01f,-5.93012667e+00f,+8.53687674e-02f,
-7.21679592e+00f,-3.11266154e-01f,+2.33563513e-01f,-9.44190919e-02f,-1.68062776e-01f,
-4.33056206e-01f,-2.42148980e-01f,+1.64598510e-01f,+1.46362722e-01f,+2.43808597e-01f,
+5.38721323e-01f,-8.84241536e-02f,-1.72403741e+00f,+8.77011493e-02f,-4.62973863e-02f,
-1.39456153e-01f,+2.92643994e-01f,-2.16050461e-01f,+8.18772893e-03f,+2.18543753e-01f,
-2.14083254e-01f,+3.80600572e-01f,+2.24841133e-01f,-1.01301014e+00f,-2.05229491e-01f,
+1.55396104e-01f,+6.08357489e-01f,-1.37576365e+00f,+2.22196683e-01f,+4.39684421e-01f,
+3.56008977e-01f,-5.02852686e-02f,+1.77051514e-01f,+5.62128305e-01f,+3.50026548e-01f,
-2.61334151e-01f,+6.90638661e-01f,+1.14801820e-04f,-5.84056377e-01f,+9.34717357e-02f,
+1.73672527e-01f,+1.71151787e-01f,-4.91869509e-01f,+4.55718815e-01f,+3.08381140e-01f,
-1.60632893e-01f,+2.49888942e-01f,+6.06559634e-01f,+2.83437401e-01f,-3.38515371e-01f,
+4.07312334e-01f,-5.21749295e-02f,-3.58000606e-01f,+2.61562169e-01f,-5.19068658e-01f,
-2.65317947e-01f,+3.48038375e-01f,+2.97952533e-01f,+8.69872198e-02f,+1.45799294e-01f,
+2.88348317e-01f,-4.45962816e-01f,+6.66068122e-02f,-2.82579094e-01f,+3.95028025e-01f,
+5.16219854e-01f,+2.36673921e-01f,+1.37056947e-01f,+4.38864112e-01f,+7.61040971e-02f,
+1.78650573e-01f,+3.08366507e-01f,-9.48466510e-02f,-2.03907281e-01f,-8.14585984e-01f,
+5.50747037e-01f,+5.71096957e-01f,+7.64320865e-02f,+3.19254324e-02f,+2.31393203e-01f,
+2.09386215e-01f,+4.05962408e-01f,+2.59407848e-01f,+8.55418622e-01f,-2.32733563e-01f,
+6.83713779e-02f,-8.18151757e-02f,+9.17048395e-01f,+1.28127247e-01f,+1.84099853e-01f,
-7.48026446e-02f,-2.09373742e-01f,+1.55385286e-01f,+9.62184846e-01f,+1.30882099e-01f,
+5.87000698e-02f,+3.66564959e-01f,-6.57064468e-02f,-3.76513392e-01f,-2.02065647e-01f,
+4.17959481e-01f,+1.49818331e-01f,-7.80084968e-01f,+5.39780185e-02f,+1.06513739e-01f,
+5.48792556e-02f,-4.20152098e-01f,+1.30541384e-01f,+1.79906726e-01f,+4.24918562e-01f,
-2.22217431e-03f,-2.20612183e-01f,-1.66812077e-01f,+3.82424086e-01f,+6.34482205e-02f,
-1.82839692e+00f,-3.43203902e-01f,+3.81673068e-01f,-2.06284672e-01f,+5.60379803e-01f,
+5.01718044e-01f,+1.56602323e-01f,+1.27318847e+00f,-4.11779463e-01f,-1.57358974e-01f,
-1.06439888e+00f,+1.91716716e-01f,+3.43410522e-01f,+3.34289342e-01f,+4.42995369e-01f,
-2.74389356e-01f,-1.42296588e+00f,+6.34564519e-01f,+1.69037327e-01f,+2.95917422e-01f,
+4.39890653e-01f,+1.12990469e-01f,-2.32893825e-02f,-4.00296390e-01f,+2.29322284e-01f,
-8.28752667e-02f,-1.92307815e-01f,-8.25981721e-02f,-1.36701775e+00f,-9.86931324e-01f,
-3.54908586e-01f,+1.01413980e-01f,+7.80464649e-01f,+6.04633331e-01f,+1.06335081e-01f,
+9.17246103e-01f,+4.60388213e-01f,-1.21629886e-01f,-2.12473583e+00f,+2.96597570e-01f,
+4.49753163e-04f,-3.37012768e-01f,+6.13177679e-02f,-2.91320413e-01f,+5.59763849e-01f,
-2.39711237e+00f,-6.44794607e+00f,+4.16244298e-01f,+4.99371201e-01f,-1.06883459e+01f,
-7.60623932e+00f,+4.54669327e-01f,-2.49844208e-01f,+8.96798149e-02f,+2.36104742e-01f,
-2.73643136e-01f,-1.02223098e+00f,-8.10921118e-02f,+5.12312114e-01f,+2.26084977e-01f,
+3.75610650e-01f,-2.45319128e-01f,+4.05738205e-02f,-6.19964838e+00f,+3.52192670e-01f,
+9.18261051e-01f,-1.83899832e+00f,+4.25137252e-01f,+2.30051175e-01f,+8.55668038e-02f,
-1.75996172e+00f,+5.08340955e-01f,+4.43256468e-01f,+2.63699517e-02f,-9.15687084e-02f,
-1.34509042e-01f,+7.94233289e-03f,-1.30533135e+00f,-4.88343048e+00f,-9.34665203e-01f,
-1.35142326e+00f,-4.91008312e-01f,+1.28145719e+00f,+5.12644172e-01f,+3.65366817e-01f,
-9.41205502e-01f,-7.02880573e+00f,+1.27939892e+00f,+3.36910158e-01f,-5.69982195e+00f,
+3.46396625e-01f,-9.69277322e-02f,-1.78917855e-01f,-6.17271543e-01f,-4.00045812e-01f,
+3.80968750e-02f,+1.89489558e-01f,-4.23087180e-01f,+3.17785740e-01f,-7.12782085e-01f,
+9.66042131e-02f,+7.22685084e-03f,+4.31820065e-01f,-1.52858913e-01f,+5.79581968e-02f,
+3.10022354e-01f,+1.86424702e-01f,-2.09631115e-01f,-2.05773696e-01f,+1.76567897e-01f,
+6.04235291e-01f,+3.45356286e-01f,-1.51259631e-01f,+3.68960887e-01f,-3.25361222e-01f,
+1.38556361e-01f,+1.75717041e-01f,-2.67845482e-01f,-3.56859356e-01f,-8.61629665e-01f,
+4.65346098e-01f,+4.57312196e-01f,+8.35110173e-02f,-6.02128744e-01f,+2.47807592e-01f,
-4.00761992e-01f,+3.54068577e-01f,-2.91677713e-01f,-1.81821778e-01f,-3.64324242e-01f,
+3.42221037e-02f,+2.47690469e-01f,-6.65176094e-01f,-8.66768301e-01f,+4.46862169e-02f,
+1.08335054e+00f,-6.21762335e-01f,+3.15641202e-02f,+3.69788229e-01f,+2.49374390e-01f,
+3.15823019e-01f,+1.23119950e-01f,+4.17088300e-01f,+5.98322570e-01f,+3.55670184e-01f,
-1.40312463e-01f,-2.94375811e-02f,+3.89239699e-01f,-1.14510393e+00f,+1.38923809e-01f,
-1.09556623e-01f,-1.96178579e+00f,+4.51006800e-01f,+3.04361343e-01f,-6.08067513e-01f,
-1.08841658e-01f,-4.71078545e-01f,-2.44210064e-01f,+1.06362738e-01f,+1.72601148e-01f,
-6.76070005e-02f,-1.04479921e+00f,-4.24516685e-02f,-1.02967954e+00f,+3.27026248e-01f,
+7.43498623e-01f,+2.57150352e-01f,+7.55301058e-01f,-1.08493671e-01f,+8.79981458e-01f,
+3.40801664e-03f,-5.85200608e-01f,-9.45350707e-01f,+2.18413217e-04f,+4.80074644e-01f,
-2.58554280e-01f,+1.57863557e-01f,+5.83386719e-01f,-6.82330579e-02f,-4.77675557e-01f,
-9.11266565e-01f,-5.05964048e-02f,+1.58824548e-01f,+1.17038734e-01f,-1.82037860e-01f,
+5.91345966e-01f,-3.69242400e-01f,-9.99818295e-02f,+6.67997301e-02f,+3.17305326e-02f,
+1.06290184e-01f,+1.44470349e-01f,-1.63679734e-01f,-4.97159094e-01f,+3.07099462e-01f,
-4.23154086e-01f,-3.00944716e-01f,-1.70915946e-02f,+2.84711212e-01f,-4.99686778e-01f,
-1.15091950e-01f,+1.65008128e-01f,-1.83562088e+00f,+9.92471948e-02f,+1.33959353e-01f,
+3.19318563e-01f,+1.67569190e-01f,+7.64332265e-02f,+1.33996800e-01f,+8.80561233e-01f,
+2.84031600e-01f,-5.35752475e-02f,+6.13407753e-02f,-1.67473163e-02f,+1.76092878e-01f,
-5.34676671e-01f,+3.60899329e-01f,+6.93159461e-01f,-5.33306897e-01f,+8.42974558e-02f,
-1.66855589e-01f,-2.46704128e-02f,+1.16448388e-01f,-6.29194319e-01f,-1.40122926e+00f,
+3.73810440e-01f,-4.15570736e-02f,+7.98856080e-01f,+5.07597744e-01f,+5.50105155e-01f,
+2.51285344e-01f,-7.28748679e-01f,-5.42141736e-01f,+6.22535646e-01f,+5.64871490e-01f,
+2.13758662e-01f,+4.41176713e-01f,-5.53940058e-01f,-1.47063816e+00f,-2.30075270e-01f,
+8.22921634e-01f,+2.06873953e-01f,+1.05314982e+00f,-2.89905220e-01f,-1.60374415e+00f,
-1.81196645e-01f,+1.62620589e-01f,+7.14124084e-01f,-1.14268696e+00f,-1.10884950e-01f,
+3.19889903e-01f,+5.70833981e-01f,+8.41503084e-01f,+3.38311970e-01f,+7.27876186e-01f,
+6.52446330e-01f,-1.64334726e+00f,+4.25418373e-03f,-5.37892543e-02f,+4.77396846e-01f,
-2.60442123e-03f,-1.53671372e+00f,+4.21714514e-01f,+1.17722523e+00f,-5.58884203e-01f,
-3.92473906e-01f,+5.98431468e-01f,+7.29762793e-01f,-1.80244517e+00f,+2.20800325e-01f,
-8.96170214e-02f,-6.11084044e-01f,-2.67872643e+00f,+5.30222505e-02f,-8.30300003e-02f,
+5.44729829e-01f,+1.11355722e+00f,-1.08929083e-01f,+4.71085429e-01f,-3.11645985e-01f,
-8.95965099e-01f,-6.02443404e-02f,-1.59496069e-01f,+3.93929213e-01f,+1.02012895e-01f,
-2.40032151e-01f,-1.17324245e+00f,+4.53641295e-01f,+6.00061595e-01f,+8.04471791e-01f,
-1.66161284e-01f,+5.33899188e-01f,+2.74981111e-01f,+8.55488718e-01f,-9.60230172e-01f,
-1.60418272e-01f,+5.37615240e-01f,-4.50582623e-01f,-1.36070475e-01f,-1.28683603e+00f,
+5.11286020e-01f,-7.37394154e-01f,+2.19480202e-01f,+7.22831786e-01f,-4.31852490e-01f,
-4.89338249e-01f,-2.89713979e-01f,+4.79058653e-01f,+3.46363187e-02f,-1.86719984e-01f,
-4.83169854e-01f,+5.31460270e-02f,+4.53444123e-01f,-1.68113208e+00f,+7.18529522e-01f,
-7.92016208e-01f,+3.17370594e-01f,+1.04733396e+00f,-2.84302160e-02f,+8.38532522e-02f,
+4.14595976e-02f,-4.10784315e-03f,+2.48721227e-01f,-4.63092215e-02f,-4.24778402e-01f,
+3.95890735e-02f,+1.53191894e-01f,+3.20734531e-01f,+2.54688352e-01f,+1.57699689e-01f,
-6.00014865e-01f,+1.24237522e-01f,+1.15927808e-01f,+8.55785683e-02f,+3.93395334e-01f,
-1.09173030e-01f,+6.69615641e-02f,+1.95648611e-01f,-8.87954384e-02f,-4.90924388e-01f,
-7.22087175e-02f,-1.33488685e-01f,-4.11062747e-01f,-2.74020940e-01f,+2.03470513e-01f,
+4.19005118e-02f,+1.45717114e-01f,-1.93137661e-01f,+1.57049835e-01f,-6.59148633e-01f,
+5.35495937e-01f,+1.39288336e-01f,+4.79877949e-01f,-2.69692421e-01f,-6.68607131e-02f,
-4.79925722e-01f,+9.04558450e-02f,-7.56510377e-01f,+1.93347216e-01f,-1.07874525e+00f,
+3.35126966e-02f,+8.57309029e-02f,+5.96071005e-01f,-1.81333929e-01f,-1.02091312e-01f,
-2.57163099e-03f,+5.04093766e-01f,+2.25942597e-01f,+2.55916029e-01f,+6.51853606e-02f,
-2.00047251e-02f,-2.40010247e-01f,-4.48730916e-01f,+1.05880193e-01f,+2.53757745e-01f,
-4.40239996e-01f,+2.35614538e-01f,+4.51490968e-01f,-1.16057344e-01f,-7.11957157e-01f,
+3.96097712e-02f,+7.80913293e-01f,-4.11818102e-02f,+8.64289105e-02f,-9.21782434e-01f,
-6.90018386e-02f,+2.52247266e-02f,+1.06057838e-01f,-1.44721556e+00f,-1.08430982e+00f,
+1.00876838e-01f,-1.66572958e-01f,-2.17580780e-01f,+1.24014594e-01f,-2.40374804e-01f,
+2.19028339e-01f,+2.44854987e-01f,+4.16847408e-01f,+1.59987569e-01f,+3.10245097e-01f,
-1.58690646e-01f,+1.78556666e-01f,+7.30082691e-02f,-1.81182635e+00f,-1.69094682e-01f,
-3.31664048e-02f,-1.05508052e-01f,-4.69095826e-01f,+2.83420086e-01f,+2.38786042e-01f,
+1.40264288e-01f,+1.92282528e-01f,+2.94689178e-01f,+9.86549724e-03f,+7.97236979e-01f,
+2.62829781e-01f,-2.44476318e-01f,-2.27846622e-01f,+2.49963999e-01f,-1.81915890e-02f,
-7.87465453e-01f,+1.14632940e+00f,+5.61956644e-01f,-1.31120586e+00f,+4.12450969e-01f,
+4.64169443e-01f,+1.98891267e-01f,-2.20009997e-01f,-4.10624564e-01f,+1.58845022e-01f,
-2.50271499e-01f,-1.70601571e+00f,-3.17184448e-01f,+5.22964522e-02f,-2.50186831e-01f,
-5.91467097e-02f,+9.45968986e-01f,+1.67201072e-01f,+3.59453797e-01f,-8.76118004e-01f,
+4.27814662e-01f,+4.96903926e-01f,+1.54162273e-01f,-2.13010597e+00f,+3.35202247e-01f,
+2.45629638e-01f,+1.32819736e+00f,+1.05242491e-01f,+2.41989449e-01f,-1.58069193e-01f,
+3.58276576e-01f,+4.10265386e-01f,+2.71250218e-01f,+9.95678782e-01f,+2.46004567e-01f,
-5.68834543e-01f,+2.15548053e-01f,+7.19011903e-01f,+4.07242090e-01f,-4.23677981e-01f,
+9.02561396e-02f,+2.31299296e-01f,-1.97710469e-02f,+2.60903567e-01f,+3.10671419e-01f,
+2.97498554e-01f,-1.46604910e-01f,+4.72401351e-01f,+3.54764648e-02f,+1.69450521e-01f,
+6.03764474e-01f,-1.13669738e-01f,-1.71942681e-01f,+1.04837406e+00f,-1.38983047e+00f,
-1.06176841e+00f,+6.56517982e-01f,+1.49920374e-01f,-1.32142484e-01f,+1.33845434e-01f,
+5.30699670e-01f,+2.62917250e-01f,+3.03013563e-01f,+1.37689316e+00f,+8.55898201e-01f,
-1.28976607e+00f,+4.44981992e-01f,+6.74817741e-01f,-3.85728478e-02f,+5.14966011e-01f,
-1.35927939e+00f,-4.40069050e-01f,+1.34529561e-01f,-4.16426025e-02f,+1.18269116e-01f,
-3.39955091e-01f,-2.44371980e-01f,+2.34650612e-01f,-4.57457341e-02f,+9.83753800e-02f,
+9.14332867e-01f,+7.07417667e-01f,+4.26989973e-01f,-2.17973089e+00f,-2.73646504e-01f,
+9.14374411e-01f,-2.73646563e-01f,+1.64394632e-01f,-1.78410578e+00f,+2.50407159e-01f,
-1.29309440e+00f,+7.61223674e-01f,+1.76699236e-01f,+2.52030402e-01f,+1.16812341e-01f,
+4.26549315e-01f,+3.52774411e-01f,-2.23459199e-01f,-1.74769557e+00f,-4.66739863e-01f,
-5.76916225e-02f,-1.59807295e-01f,-3.10289174e-01f,-4.45424175e+00f,-1.02596218e-02f,
-1.32475126e+00f,+4.49429661e-01f,-6.13929272e-01f,+2.05712169e-01f,-1.75116256e-01f,
-4.67929959e-01f,+2.13043347e-01f,+4.06629071e-02f,+2.26147279e-01f,+8.60548675e-01f,
-2.44229332e-01f,+5.20167232e-01f,-7.15759099e-01f,+4.95563269e-01f,-5.24921298e-01f,
-2.92659223e-01f,+1.15800098e-01f,+3.19338068e-02f,+6.42261147e-01f,-7.87843227e-01f,
-6.65668786e-01f,-5.55229709e-02f,+1.14467770e-01f,-7.35562742e-01f,+1.63668811e-01f,
+8.70766342e-01f,-2.76093245e-01f,+3.09571326e-01f,+2.21936703e-01f,+2.61474540e-03f,
+1.01661575e+00f,-3.65221292e-01f,+6.36422932e-01f,+5.00690126e+00f,-3.12821150e-01f,
-6.54515445e-01f,-9.81183529e-01f,+1.56963158e+00f,-2.42327396e-02f,+4.52204078e-01f,
+5.39292407e-04f,+2.81245261e-01f,-3.79263878e-01f,+2.36263648e-01f,+6.28025115e-01f,
+2.50557840e-01f,+1.00607462e-02f,+2.31948167e-01f,+2.01452732e-01f,-4.63759243e-01f,
+4.98270273e-01f,-7.67385185e-01f,-3.02276522e-01f,+9.96628329e-02f,+9.12990928e-01f,
+1.05092950e-01f,+9.76482313e-03f,+2.47064501e-01f,-1.39650047e+00f,-4.97835129e-01f,
+7.02269301e-02f,+6.86508715e-01f,-4.81897354e-01f,-5.12129404e-02f,+9.04701129e-02f,
+3.82172287e-01f,+9.61347595e-02f,+8.10013413e-02f,+1.43394157e-01f,-1.30655289e-01f,
-1.34905386e+00f,-1.23694730e+00f,-1.30686462e-01f,+1.19460970e-01f,-2.64628977e-01f,
-7.06199035e-02f,+2.76740164e-01f,-9.66776237e-02f,+5.61662495e-01f,+7.50955820e-01f,
+5.68128228e-01f,+1.17489886e+00f,+3.91702622e-01f,-1.99041627e-02f,+2.88936049e-01f,
-5.00282794e-02f,-2.81278312e-01f,+7.17408538e-01f,+4.34611470e-01f,+5.59205860e-02f,
+2.74741530e-01f,-1.18737891e-01f,+1.62329048e-01f,+3.07125360e-01f,-5.64700663e-01f,
+3.84120166e-01f,-9.97546241e-02f,+5.93697011e-01f,-2.85637349e-01f,+2.95731276e-01f,
+8.12197942e-03f,+1.71855837e-01f,-1.31448448e-01f,+3.14350247e-01f,+1.02564454e-01f,
+5.99491835e-01f,-1.85632885e-01f,+3.89000595e-01f,-2.43697762e-01f,+5.53354859e-01f,
+9.50225770e-01f,+4.17720437e-01f,+1.77839592e-01f,+1.46809161e-01f,+2.52444297e-01f,
-6.76893651e-01f,+2.48249888e-01f,+3.28577042e-01f,-5.62278688e-01f,-2.03626066e-01f,
+3.09794575e-01f,+3.82267207e-01f,-1.83908486e+00f,+2.97303677e-01f,+3.75199765e-01f,
+2.59939671e-01f,+2.12935105e-01f,+5.10627151e-01f,+3.05981040e-01f,+5.50811052e-01f,
+2.29619443e-02f,-1.26363099e-01f,+4.80401814e-01f,-1.95760299e-02f,-4.15069491e-01f,
-5.30028224e-01f,-3.70774008e-02f,+2.56772488e-01f,-3.46548170e-01f,+3.37002605e-01f,
+2.77860552e-01f,-8.65159705e-02f,-8.08813609e-03f,+8.01963732e-02f,+3.17543507e-01f,
+3.58647823e-01f,+1.84361294e-01f,-1.40913022e+00f,-1.38656735e-01f,+2.41965264e-01f,
-6.27525806e-01f,-2.58080155e-01f,-2.89411157e-01f,+9.49762166e-02f,+3.32149446e-01f,
-1.77975055e-02f,+1.27482414e-01f,+6.69367611e-01f,+2.93733805e-01f,-2.28338968e-02f,
-3.84476443e-04f,+5.57021618e-01f,-3.98289710e-01f,+2.77799577e-01f,+4.87786770e-01f,
-2.93772016e-02f,+5.70201516e-01f,+5.19095004e-01f,-1.54190928e-01f,-4.86499071e-01f,
-6.14912808e-01f,+4.87421781e-01f,-5.36537543e-02f,-3.00034970e-01f,+5.17547369e-01f,
-3.23552221e-01f,+4.08397138e-01f,-2.61664510e-01f,}; 
k2c_tensor dense_1_kernel = {&dense_1_kernel_array[0],2,2048,{64,32, 1, 1, 1}}; 
float dense_1_bias_array[32] = {
+1.95272550e-01f,-2.62543559e-01f,-2.07737520e-01f,+4.64230835e-01f,-3.09444696e-01f,
+2.46447593e-01f,+1.63696423e-01f,+9.52946305e-01f,-3.03233527e-02f,-1.54102206e-01f,
+4.34038103e-01f,-1.62293524e-01f,+1.13098241e-01f,+5.92751279e-02f,+7.44838715e-01f,
+5.52704990e-01f,+1.59388304e-01f,+1.08656935e-01f,+7.09782422e-01f,+3.60524237e-01f,
+3.34071666e-02f,-5.73861226e-02f,-1.05255336e-01f,+2.67870843e-01f,-7.18034863e-01f,
+4.08642590e-01f,+6.85302794e-01f,-3.06810260e-01f,-1.44637406e-01f,+6.75713420e-02f,
-3.69267585e-03f,+2.68008024e-01f,}; 
k2c_tensor dense_1_bias = {&dense_1_bias_array[0],1,32,{32, 1, 1, 1, 1}}; 
float dense_1_fwork[2112] = {0}; 

 
float dense_2_kernel_array[32] = {
+8.70422423e-01f,-2.54563355e+00f,+1.81285453e+00f,-1.32022738e+00f,+2.38023019e+00f,
-2.20184255e+00f,-1.58613300e+00f,-7.35998869e+00f,-3.30999613e+00f,+2.42430404e-01f,
+2.67707014e+00f,+2.83567381e+00f,-1.60768580e+00f,-2.02770019e+00f,+6.87246513e+00f,
+2.11759639e+00f,-1.33349395e+00f,-1.53421688e+00f,-2.22906303e+00f,-5.40058899e+00f,
-1.75003374e+00f,+1.13333321e+00f,-8.28069401e+00f,+3.03320312e+00f,-2.92960596e+00f,
+6.54114902e-01f,+1.20086968e+00f,+4.73503441e-01f,-7.23959744e-01f,-9.68729913e-01f,
-1.08217144e+00f,-1.61601269e+00f,}; 
k2c_tensor dense_2_kernel = {&dense_2_kernel_array[0],2,32,{32, 1, 1, 1, 1}}; 
float dense_2_bias_array[1] = {
+3.21576484e-02f,}; 
k2c_tensor dense_2_bias = {&dense_2_bias_array[0],1,1,{1,1,1,1,1}}; 
float dense_2_fwork[64] = {0}; 

 
k2c_dense(&dense_output,dense_input_input,&dense_kernel, 
	&dense_bias,k2c_relu,dense_fwork); 
k2c_dense(&dense_1_output,&dense_output,&dense_1_kernel, 
	&dense_1_bias,k2c_relu,dense_1_fwork); 
k2c_dense(dense_2_output,&dense_1_output,&dense_2_kernel, 
	&dense_2_bias,k2c_sigmoid,dense_2_fwork); 

 } 

void cPredictor_initialize() { 

} 

void cPredictor_terminate() { 

} 

