#include <math.h> 
 #include <string.h> 
#include "./include/k2c_include.h" 
#include "./include/k2c_tensor_include.h" 

 


void cPredictor(k2c_tensor* dense_input_input, k2c_tensor* dense_2_output) { 

float dense_output_array[32] = {0}; 
k2c_tensor dense_output = {&dense_output_array[0],1,32,{32, 1, 1, 1, 1}}; 
float dense_kernel_array[512] = {
-4.15257692e-01f,+8.02640557e-01f,+5.54145753e-01f,+1.71336774e-02f,-4.32913125e-01f,
+3.35277379e-01f,+3.25649798e-01f,+5.52276373e-01f,-8.28712463e-01f,-6.73868895e-01f,
-2.90064007e-01f,+5.32767713e-01f,+5.08219838e-01f,-1.98834464e-01f,-4.97751772e-01f,
+5.39885521e-01f,-6.10504925e-01f,+3.23245466e-01f,-5.24010837e-01f,+4.37667400e-01f,
+4.47685003e-01f,+4.00499195e-01f,+6.78918958e-01f,+8.39737892e-01f,+4.27273065e-01f,
-7.17748284e-01f,+8.82498443e-01f,+4.92082596e-01f,-2.22917944e-01f,-7.68937647e-01f,
+6.31026268e-01f,+1.17362535e+00f,-4.77697581e-01f,+7.62002587e-01f,-6.15875781e-01f,
-1.04702404e-02f,+4.32079136e-01f,-4.22565430e-01f,-1.82691351e-01f,+5.81144631e-01f,
-1.30414259e+00f,-2.19523385e-01f,+3.92492294e-01f,-4.12842363e-01f,+5.06843448e-01f,
-1.64903939e-01f,+5.20482779e-01f,+5.32019794e-01f,-4.52089876e-01f,-4.08961773e-02f,
-5.31399369e-01f,-4.48020935e-01f,+4.63307440e-01f,-6.16544604e-01f,-6.42204344e-01f,
+7.35661030e-01f,+2.87200123e-01f,-7.30006456e-01f,-9.72081661e-01f,-4.57159221e-01f,
-4.44065928e-02f,+7.77855098e-01f,+3.29872936e-01f,-1.18942881e+00f,-5.40077090e-01f,
+7.22085953e-01f,-7.35900626e-02f,-1.47340402e-01f,+4.14715827e-01f,-4.05396134e-01f,
-1.52606577e-01f,-5.76726496e-01f,-2.96581209e-01f,+8.30475464e-02f,+3.88863295e-01f,
-5.95206320e-01f,+4.47752684e-01f,-2.77164668e-01f,+5.15934885e-01f,-5.41016698e-01f,
-2.97724485e-01f,-1.56748980e-01f,-5.39382517e-01f,-4.41998005e-01f,-4.60674673e-01f,
-1.55519605e-01f,-6.40757978e-01f,+7.23518670e-01f,-3.91479641e-01f,-6.96513474e-01f,
-8.69701207e-01f,-4.97181177e-01f,+1.20228007e-01f,+7.87076175e-01f,+4.53343272e-01f,
-1.27221632e+00f,+4.68492270e-01f,-7.23604620e-01f,+1.15535140e-01f,+1.75909698e-01f,
-4.39849675e-01f,+3.54308575e-01f,+9.35422555e-02f,+5.68591237e-01f,+4.58265275e-01f,
+6.14267588e-02f,-3.32008630e-01f,+6.88055575e-01f,-5.03701687e-01f,+3.12122166e-01f,
-5.53147435e-01f,+5.59934139e-01f,+3.29149425e-01f,-2.01649382e-03f,+5.36082029e-01f,
+4.22502995e-01f,+4.31515723e-01f,-1.38577223e-01f,+6.88430190e-01f,-5.57887197e-01f,
-2.06903771e-01f,+7.31452882e-01f,-8.69573712e-01f,-5.04949331e-01f,+3.74273509e-01f,
-7.67870963e-01f,-4.00468081e-01f,+1.31083596e+00f,-4.79971141e-01f,+7.34224379e-01f,
-2.04085320e-01f,-1.14791822e+00f,-4.32381898e-01f,+2.99992412e-01f,+3.64096612e-01f,
-5.66086292e-01f,-2.30976477e-01f,-2.22620815e-01f,-3.88243884e-01f,+2.86085397e-01f,
+4.85769808e-01f,+2.84136534e-01f,-5.19228041e-01f,-5.26591659e-01f,-5.82490265e-01f,
+2.46387422e-01f,-5.07882357e-01f,+4.30737257e-01f,-4.60813791e-01f,-8.25568497e-01f,
+6.71120822e-01f,+8.43776405e-01f,-3.29305738e-01f,-7.28761435e-01f,-8.48283589e-01f,
-4.80625838e-01f,+7.41757601e-02f,-7.68361270e-01f,+4.84695226e-01f,+1.11657679e+00f,
+4.76959765e-01f,-7.26447284e-01f,-7.49928355e-02f,+9.36999470e-02f,+4.26640809e-01f,
-1.33138001e+00f,-5.37995934e-01f,-6.07887208e-01f,+1.62064433e-01f,+3.93107533e-01f,
-9.89207700e-02f,-1.57526284e-01f,-4.48025078e-01f,+3.34794968e-01f,+5.37737191e-01f,
-5.23046315e-01f,-8.53537247e-02f,-3.20016220e-02f,+5.23921907e-01f,+3.94888818e-01f,
-4.33278710e-01f,-7.11217523e-01f,+6.81737125e-01f,-8.39055777e-01f,-2.80050159e-01f,
+7.33407736e-01f,+8.70780468e-01f,+4.75842595e-01f,-1.43571019e-01f,+8.18874121e-01f,
-6.95217669e-01f,+1.19494140e+00f,+5.49112737e-01f,-7.10014284e-01f,-4.72861305e-02f,
-9.30319130e-02f,+4.29711550e-01f,-3.90513957e-01f,-4.35150504e-01f,+5.87283313e-01f,
+5.16222596e-01f,+5.27297437e-01f,+3.65100235e-01f,-2.00480357e-01f,-4.43629891e-01f,
+6.50630221e-02f,+5.35647869e-01f,+5.31937897e-01f,-1.59653991e-01f,+1.91631436e-01f,
+5.21666169e-01f,-4.49552685e-01f,+4.53421474e-01f,-1.18554436e-01f,-6.56935990e-01f,
-7.49058008e-01f,+3.22025210e-01f,+7.18978047e-01f,+8.50562453e-01f,+4.67227578e-01f,
-5.11332415e-02f,+7.58520365e-01f,-7.25173414e-01f,-1.19739950e+00f,-5.27359366e-01f,
+7.64592648e-01f,+4.03184630e-02f,-7.66533390e-02f,+4.26054537e-01f,-3.64824474e-01f,
-1.63964838e-01f,-5.82934797e-01f,+1.81160808e-01f,-8.77149478e-02f,+4.29425806e-01f,
-3.99782717e-01f,+4.71851319e-01f,+3.96177024e-02f,+5.40782154e-01f,-5.23392320e-01f,
-1.20455697e-01f,-5.15701175e-01f,-5.08035541e-01f,+4.47683483e-01f,-4.82785285e-01f,
+9.90660042e-02f,+6.63287520e-01f,+8.70338321e-01f,-3.16458076e-01f,-7.32004881e-01f,
-8.67808998e-01f,-4.74687129e-01f,+1.24133691e-01f,+7.23780632e-01f,+4.58285391e-01f,
+1.18499744e+00f,+4.72105682e-01f,-7.56064177e-01f,+1.41809314e-01f,+1.66607238e-02f,
-4.24475163e-01f,+3.75796765e-01f,+4.24653441e-02f,+5.61300814e-01f,+2.19329968e-02f,
-1.68801516e-01f,-4.00502324e-01f,+5.49954116e-01f,-4.59382027e-01f,+3.05790067e-01f,
-5.32822430e-01f,+5.47718346e-01f,+1.42289251e-01f,+4.21477407e-01f,+5.25061965e-01f,
+4.24109071e-01f,+4.40247029e-01f,-6.24097288e-02f,+6.69903874e-01f,-9.04523849e-01f,
+3.58136863e-01f,+7.36766577e-01f,+8.62507045e-01f,+4.88281816e-01f,-1.75436944e-01f,
-7.71296084e-01f,-3.41735572e-01f,+1.24532366e+00f,+5.85439563e-01f,-6.93333209e-01f,
-1.43880308e-01f,+6.45154938e-02f,-4.36673373e-01f,+2.81311363e-01f,+1.21452853e-01f,
+5.58225811e-01f,+2.80841261e-01f,+1.34001806e-01f,-4.47933495e-01f,+4.79288787e-01f,
-3.94629061e-01f,+5.11628911e-02f,-5.18167794e-01f,+5.16525507e-01f,+1.68151930e-01f,
+4.50664312e-01f,+5.16877115e-01f,-4.06257153e-01f,+4.63513941e-01f,-1.66891128e-01f,
-6.59137130e-01f,-9.63127673e-01f,+2.81001061e-01f,+7.05977380e-01f,+9.20322061e-01f,
+4.41779494e-01f,+1.06023446e-01f,-7.18984425e-01f,-3.41212392e-01f,-1.14876842e+00f,
-4.15109426e-01f,+7.75577962e-01f,-6.24903083e-01f,+3.27110738e-01f,-4.38338995e-01f,
+5.04995771e-02f,+3.69808733e-01f,-5.89933932e-01f,-4.92025092e-02f,-4.43690196e-02f,
-4.97000188e-01f,+3.80718112e-01f,+4.96307492e-01f,-2.92096287e-01f,-5.49361467e-01f,
-5.18496275e-01f,-6.65164948e-01f,-5.64540565e-01f,-5.26146293e-01f,-4.54731286e-01f,
-4.51024324e-01f,-5.90673804e-01f,-6.73468769e-01f,+7.73870230e-01f,-4.01832759e-01f,
-6.97560728e-01f,-8.90502870e-01f,-5.16854107e-01f,+2.36394882e-01f,-7.44855285e-01f,
+2.84612983e-01f,-1.21492624e+00f,+5.17280519e-01f,-7.05313385e-01f,-3.53813261e-01f,
+2.53040373e-01f,-4.38226461e-01f,+3.46225381e-01f,+1.33820564e-01f,-5.79057455e-01f,
-1.52787194e-01f,+4.17266548e-01f,+6.72224239e-02f,+5.16899407e-01f,-4.34918106e-01f,
+8.64945650e-02f,-5.20267308e-01f,-5.55541873e-01f,+2.79430747e-01f,+2.11808100e-01f,
+5.11455834e-01f,-4.12917972e-01f,-4.58059996e-01f,-4.55657512e-01f,-6.27686858e-01f,
-8.40389431e-01f,-3.94326299e-01f,+7.15281188e-01f,-9.11983669e-01f,-4.61707979e-01f,
+2.63661556e-02f,-7.80219138e-01f,-2.04474986e-01f,-1.11088371e+00f,+5.90685010e-01f,
-7.27121711e-01f,+1.13065369e-01f,-2.13760272e-01f,+4.26034689e-01f,-4.09822643e-01f,
-5.31915307e-01f,-5.94023347e-01f,-1.02162041e-01f,+6.53098822e-01f,+3.25628757e-01f,
-6.12639822e-02f,-4.67917562e-01f,-1.85888037e-01f,+5.19224942e-01f,-5.11630177e-01f,
-2.03624576e-01f,-5.90645475e-03f,+5.09381831e-01f,-4.14123803e-01f,-4.66973573e-01f,
+2.47171149e-01f,-6.51078701e-01f,-8.03308368e-01f,-3.51379991e-01f,+7.06406355e-01f,
+8.34696352e-01f,+4.44769561e-01f,+3.04528743e-01f,+7.49645770e-01f,-7.12423325e-01f,
-1.29559970e+00f,-5.12424409e-01f,+7.60797679e-01f,-1.39675841e-01f,-1.53183997e-01f,
-4.20073748e-01f,+1.64263099e-01f,+4.25912559e-01f,-5.68357170e-01f,-9.93798003e-02f,
+8.94787349e-03f,-4.01155084e-01f,+1.78457230e-01f,+4.75444108e-01f,-1.52708724e-01f,
-5.37626505e-01f,-5.52129209e-01f,+6.67840615e-02f,-2.28465870e-01f,-5.34528196e-01f,
-4.34606820e-01f,-4.47469354e-01f,+3.98394652e-02f,-6.75302804e-01f,+7.33334541e-01f,
-4.28281158e-01f,-6.94379508e-01f,-9.06201899e-01f,-4.78328913e-01f,-3.25313881e-02f,
-7.60985553e-01f,+4.94538695e-01f,-1.21377361e+00f,-5.10946989e-01f,+7.76973128e-01f,
+8.13479125e-02f,+6.74854964e-02f,+4.21052098e-01f,-4.62201595e-01f,-1.98293418e-01f,
-5.94624162e-01f,+2.04504818e-01f,+2.76621193e-01f,+3.43509018e-01f,-5.80259204e-01f,
+5.10094702e-01f,+8.22336227e-02f,+4.94131476e-01f,-5.32942355e-01f,-9.57455814e-01f,
+1.65252864e-01f,-5.33847392e-01f,-4.40218359e-01f,-4.74624574e-01f,+1.73819378e-01f,
-6.68187499e-01f,+6.38029039e-01f,-3.58895838e-01f,-7.18805015e-01f,-8.64090681e-01f,
-4.96918857e-01f,-1.13881922e+00f,+7.54147947e-01f,+2.84389943e-01f,-1.22697437e+00f,
-4.08425540e-01f,+7.38096178e-01f,-3.25449258e-01f,-1.90400593e-02f,+4.36084747e-01f,
-3.90424132e-01f,-3.10343117e-01f,-5.49712360e-01f,-2.63031155e-01f,+2.73309555e-02f,
+2.74868816e-01f,-1.22490205e-01f,+5.32867312e-01f,-6.63617730e-01f,+5.20380378e-01f,
-5.50532937e-01f,-3.72240305e-01f,-3.69646698e-01f,-5.05391002e-01f,-4.16653454e-01f,
-4.78076071e-01f,-1.24384157e-01f,-6.89077973e-01f,+4.91040170e-01f,+2.61185259e-01f,
-7.29196310e-01f,+8.40151489e-01f,+4.90781039e-01f,-2.56407917e-01f,+7.07145393e-01f,
+2.44489729e-01f,-1.34670746e+00f,}; 
k2c_tensor dense_kernel = {&dense_kernel_array[0],2,512,{16,32, 1, 1, 1}}; 
float dense_bias_array[32] = {
+4.05634403e-01f,+5.46329677e-01f,+2.55824506e-01f,+8.73329520e-01f,-8.36989999e-01f,
+7.14692101e-03f,+7.01334059e-01f,+1.66948866e-02f,+1.27642855e-01f,+1.62340105e+00f,
+2.85549968e-01f,+9.86995339e-01f,+7.02167809e-01f,+1.36974800e+00f,+4.92666870e-01f,
+4.99615788e-01f,-1.05751202e-01f,+1.05623674e+00f,+1.54290235e+00f,+8.01100016e-01f,
+8.81595790e-01f,+4.41906959e-01f,+5.38490176e-01f,-9.10274625e-01f,+4.73310411e-01f,
+1.36933863e+00f,-8.43942225e-01f,+1.19859697e-02f,+9.25148547e-01f,-2.15080585e-02f,
-3.90823573e-01f,-2.10243344e-01f,}; 
k2c_tensor dense_bias = {&dense_bias_array[0],1,32,{32, 1, 1, 1, 1}}; 
float dense_fwork[528] = {0}; 

 
float dense_1_output_array[16] = {0}; 
k2c_tensor dense_1_output = {&dense_1_output_array[0],1,16,{16, 1, 1, 1, 1}}; 
float dense_1_kernel_array[512] = {
-2.43212149e-01f,+3.82315427e-01f,-2.82185376e-01f,+2.97177792e-01f,-4.79500246e+00f,
+5.26583716e-02f,-5.61551601e-02f,-1.28802702e-01f,+9.66187835e-01f,+6.35825247e-02f,
+7.87692487e-01f,-6.47933006e-01f,+7.91143894e-01f,-8.94285291e-02f,-2.51593858e-01f,
+2.87522078e-01f,-2.02610083e-02f,-8.93817329e+00f,+2.41617694e-01f,+4.36286390e-01f,
+5.90830922e-01f,+5.95846698e-02f,+9.37280729e-02f,-5.39864182e-01f,-9.57695246e-01f,
+1.90117568e-01f,+3.50264519e-01f,+3.10427547e-02f,-7.69590282e+00f,+1.77073494e-01f,
-8.87273550e-02f,+1.45686164e-01f,-8.20106193e-02f,+3.57760102e-01f,+2.71265097e-02f,
-4.37577590e-02f,+1.00376046e+00f,+1.18683100e+00f,-8.16742241e-01f,+1.66075215e-01f,
+3.84428620e-01f,+4.22936752e-02f,+2.57953584e-01f,-2.67530531e-01f,-3.16841513e-01f,
-6.70381546e-01f,+3.40234667e-01f,+5.03289819e-01f,-2.12411478e-01f,+2.19528869e-01f,
+7.64451325e-01f,-4.69074130e-01f,-4.10838798e-02f,-1.72415581e-02f,+3.80507320e-01f,
+5.66124320e-01f,+2.36279026e-01f,+2.28819311e-01f,+3.65095437e-02f,+7.16439486e-01f,
+9.11533386e-02f,+2.26689145e-01f,+4.02693003e-02f,-1.55161619e-01f,+1.27267230e+00f,
+9.11542535e-01f,+1.54804456e+00f,+9.90768671e-01f,-1.04794061e+00f,-1.63354456e+00f,
+1.17812800e+00f,-7.24596262e-01f,-4.01972950e-01f,+2.38707826e-01f,-1.38678086e+00f,
+1.20165908e+00f,+1.01263225e+00f,+1.25649381e+00f,+2.67951936e-01f,-1.26726615e+00f,
-2.06192881e-01f,+4.17461507e-02f,+1.09609091e+00f,-1.19978927e-01f,-7.91587055e-01f,
-5.86473525e-01f,+5.09103835e-01f,+1.47417948e-01f,+2.93770641e-01f,-8.88461024e-02f,
+3.12556769e-03f,+6.88859105e-01f,+4.93585318e-02f,+4.33632046e-01f,-1.77861691e-01f,
-5.24030589e-02f,-1.36646736e+00f,-2.85639912e-01f,-2.40855649e-01f,-7.24896908e-01f,
+5.45820296e-01f,+3.41596484e-01f,+1.59108685e-03f,+5.19547462e-01f,-3.33880447e-02f,
+2.22324580e-03f,+3.39255482e-01f,+1.21489577e-01f,-3.61395597e-01f,-1.08466789e-01f,
+2.29570895e-01f,-1.50349617e-01f,+4.43377346e-03f,+3.19709003e-01f,+1.68254840e+00f,
+5.81783652e-01f,-1.32432365e+00f,-1.64070499e+00f,+9.46130335e-01f,-1.27782917e+00f,
-9.55612123e-01f,-7.90518463e-01f,-1.58112502e+00f,+1.55819941e+00f,+9.77960885e-01f,
+1.21116018e+00f,-5.02012312e-01f,+1.82814682e+00f,+3.34893107e-01f,+3.21447432e-01f,
+1.45176351e-01f,-9.89023745e-01f,-3.75364661e-01f,-4.49184515e-02f,+4.29903060e-01f,
+5.74448764e-01f,+1.45407826e-01f,+1.80813164e-01f,-2.40725487e-01f,+3.95103544e-01f,
-8.57207403e-02f,+4.28364992e-01f,-3.47754471e-02f,-1.94454193e-01f,-3.56952935e-01f,
+3.04557085e-01f,+9.91161585e-01f,-4.20290023e-01f,+1.02800824e-01f,+6.90667927e-02f,
+4.71115977e-01f,+4.84884411e-01f,+5.41350305e-01f,+1.00985751e-01f,+6.86587319e-02f,
+7.45435655e-01f,+1.67741388e-01f,+1.79856226e-01f,-1.05447389e-01f,-7.24735558e-01f,
+4.99623328e-01f,+1.30762324e-01f,+5.52782059e-01f,-3.53874981e-01f,+1.22657835e-01f,
+1.17949158e-01f,+4.30147558e-01f,+2.59322435e-01f,+3.72987419e-01f,-1.66120148e+00f,
+1.47442803e-01f,+2.14937642e-01f,-5.72481640e-02f,+2.50868767e-01f,-1.10047925e+00f,
-4.84587699e-01f,-1.58239675e+00f,-9.45162773e-03f,+7.09511459e-01f,-8.55688751e-01f,
+2.98581213e-01f,+1.07224181e-01f,-9.84848570e-03f,+3.72711122e-01f,+4.93717790e-01f,
+1.71102986e-01f,+3.05185348e-01f,+6.69107258e-01f,-1.29108027e-01f,+7.25406164e-04f,
+2.49272808e-01f,-6.24284297e-02f,-1.13427058e-01f,+3.17776895e+00f,+8.03730130e-01f,
+4.77194548e-01f,+4.01929677e-01f,-4.19367075e-01f,+1.83735758e-01f,-9.02413070e-01f,
-1.86601806e+00f,-2.61601627e-01f,-4.65998165e-02f,+6.13141060e-01f,+3.07845092e+00f,
+7.46281594e-02f,-1.92818329e-01f,-9.31123018e-01f,-1.38437748e-01f,-5.42185046e-02f,
+9.67849612e-01f,-6.25545263e-01f,+1.44483251e-02f,+1.39368877e-01f,+2.67469257e-01f,
+5.09196460e-01f,+3.63075621e-02f,+2.41019949e-01f,-6.05669618e-02f,+4.67654407e-01f,
+1.36541456e-01f,+5.58881521e-01f,+1.03686407e-01f,-2.42391098e-02f,+1.05157495e-01f,
-3.53988975e-01f,-3.70478362e-01f,-3.71868879e-01f,+3.04312140e-01f,+5.73578298e-01f,
-6.86369061e-01f,+3.28922980e-02f,+3.63511413e-01f,+4.87329340e+00f,+7.25513875e-01f,
-7.23758200e-03f,-2.22914934e-01f,-4.98253673e-01f,+3.83971572e+00f,+2.48123974e-01f,
-1.90490738e-01f,-9.46823478e-01f,-1.80868447e+00f,-4.72440332e-01f,+1.91185033e+00f,
+1.60849655e+00f,-1.18475699e+00f,+8.29098165e-01f,+1.24754083e+00f,+1.22543931e+00f,
+1.94724464e+00f,-1.50868547e+00f,-8.93364608e-01f,-1.59872389e+00f,+7.96655953e-01f,
+1.26649535e+00f,-2.80378103e-01f,-1.35242403e-01f,-5.03930748e-01f,-1.43169272e+00f,
-1.88637093e-01f,+6.34049535e-01f,+3.34210217e-01f,+3.37397426e-01f,+4.44985986e-01f,
+3.95421267e-01f,+2.35290289e-01f,-6.83840275e-01f,-3.88075024e-01f,+2.56273150e-01f,
+6.79937243e-01f,+1.68909013e-01f,-4.76925254e-01f,+3.02728079e-03f,+3.25381517e-01f,
-4.69493061e-01f,-7.00949058e-02f,-2.21182004e-01f,+5.16407251e-01f,+5.37300527e-01f,
+3.41692805e-01f,+3.91024113e-01f,+6.72525242e-02f,+8.10391665e-01f,+1.59868956e-01f,
+4.18688059e-01f,+2.37805605e-01f,-3.25946659e-01f,-3.46422978e-02f,+8.75130713e-01f,
-3.61519843e-01f,+1.29971600e+00f,+5.37657881e+00f,+8.12787116e-01f,-5.38172126e-01f,
+4.57894266e-01f,+1.00706565e+00f,+3.26150119e-01f,+1.09210277e+00f,-1.41127005e-01f,
+1.38926581e-01f,-8.84286404e-01f,+1.01557940e-01f,-5.97455651e-02f,-1.01196252e-01f,
+2.69664168e-01f,+8.71827662e-01f,+5.10407209e-01f,-1.58687341e+00f,-2.06717944e+00f,
+1.41852283e+00f,-2.11404276e+00f,-5.20075738e-01f,-4.56071608e-02f,-6.83372378e-01f,
+9.07556772e-01f,+1.02074194e+00f,+1.83455396e+00f,-1.93775284e+00f,-1.48980045e+00f,
-3.94551426e-01f,+6.80348635e-01f,+1.15615165e+00f,+4.36028808e-01f,-1.13021111e+00f,
-8.50954950e-01f,+5.76448321e-01f,-4.85771954e-01f,-4.92697954e-01f,-7.33732879e-01f,
-1.18306994e+00f,+1.08484232e+00f,+5.20174801e-01f,+7.58699298e-01f,-3.26869160e-01f,
+1.07557595e+00f,-3.68936509e-01f,+3.84745866e-01f,+8.25194418e-01f,-3.12145740e-01f,
-1.97956517e-01f,-5.27896166e-01f,+1.17493317e-01f,+1.44589618e-01f,+8.32247317e-01f,
+3.70729983e-01f,-2.36161917e-01f,+8.05976927e-01f,+3.37404698e-01f,+3.06161106e-01f,
-5.94485030e-02f,-9.74877402e-02f,+1.34961680e-01f,-5.73017783e-02f,-2.08961606e+00f,
-7.37957656e-01f,+1.35845864e+00f,+4.44663620e+00f,-2.06152296e+00f,+2.54168558e+00f,
+3.35751404e-03f,+4.02093351e-01f,+4.66179878e-01f,-2.28869843e+00f,-2.18283463e+00f,
-1.49236226e+00f,+3.96780992e+00f,+9.73043025e-01f,-1.96467102e-01f,-5.91983128e+00f,
-6.40404448e-02f,+9.88186002e-01f,+4.88117784e-01f,+3.44485044e-01f,-2.49187991e-01f,
-5.82664013e-01f,-1.71096995e-01f,-3.13005522e-02f,+6.78199708e-01f,+1.09118454e-01f,
-5.77875328e+00f,-3.10794026e-01f,-2.99431011e-02f,-2.13418677e-01f,+2.94588000e-01f,
-5.83634079e-01f,+5.53972200e-02f,-3.39081228e-01f,+3.18827569e-01f,+4.14612979e-01f,
-2.78040826e-01f,+3.00464690e-01f,+1.32163405e-01f,+2.49879211e-01f,+5.22108912e-01f,
-3.27987403e-01f,-5.90472937e-01f,-5.47513664e-01f,-5.97836003e-02f,+1.73690259e-01f,
-6.51465774e-01f,+5.81421673e-01f,+1.84224561e-01f,+3.79113227e-01f,-1.29785795e+01f,
+1.64207876e-01f,-1.41489044e-01f,-9.25426260e-02f,+5.08300781e-01f,-3.84513974e-01f,
-1.65451154e-01f,+1.86051682e-01f,+5.02009571e-01f,+5.20850062e-01f,+6.94957823e-02f,
-1.03756398e-01f,-4.45479125e-01f,-9.69607711e-01f,-4.87134039e-01f,+1.66978920e+00f,
+5.77970743e-01f,+8.98732841e-01f,-5.84858131e+00f,+4.67046350e-01f,+1.52988327e+00f,
+3.38788807e-01f,+1.54042220e+00f,-8.80808353e-01f,-2.40043029e-01f,-6.27331066e+00f,
-2.35630460e-02f,+3.41359794e-01f,-3.11693668e-01f,+6.94952190e-01f,+1.17083633e+00f,
+9.54726219e-01f,-7.29387045e-01f,-8.21311116e-01f,+2.54795790e+00f,-8.89512241e-01f,
-5.78352034e-01f,-5.18188596e-01f,-1.08898258e+00f,+1.26914978e+00f,+3.63373488e-01f,
+2.47617340e+00f,-6.55041397e-01f,-6.86441123e-01f,-3.48471761e-01f,+1.56268612e-01f,
+5.64472556e-01f,-6.50128841e-01f,-1.09047897e-01f,-2.17363358e-01f,+3.65762889e-01f,
+5.02041221e-01f,+5.98747909e-01f,+3.10594290e-01f,-1.70041278e-01f,+8.82484734e-01f,
+2.65038401e-01f,+4.01288211e-01f,+1.49735421e-01f,-2.10199878e-01f,+6.37275994e-01f,
-2.78842300e-01f,+9.27845389e-02f,-5.45721233e-01f,+2.81892926e-01f,+1.80518627e-01f,
-4.25881207e-01f,+3.91317993e-01f,+3.63766328e-02f,-9.16431236e+00f,+5.29847980e-01f,
-2.23579526e-01f,-3.09147149e-01f,-2.79791296e-01f,-5.55194426e+00f,+4.10677232e-02f,
-3.73657584e-01f,-2.21681476e+00f,+1.12209946e-01f,+4.74272847e-01f,+5.58428109e-01f,
+1.86545163e-01f,-2.09821090e-01f,-6.82450771e-01f,-1.16536057e+00f,+4.83988851e-01f,
-4.32192497e-02f,-1.88425243e-01f,-1.83928084e+00f,+2.09216014e-01f,+2.60030329e-01f,
-2.07129881e-01f,-8.03839803e-01f,-1.33206725e-01f,-3.12187004e+00f,+8.06126222e-02f,
-8.67968559e+00f,-8.90251255e+00f,-5.67199111e-01f,-7.88199615e+00f,-2.13833287e-01f,
-9.59303916e-01f,-7.66399205e-01f,-2.43405080e+00f,-1.43900108e+00f,-1.28677905e+00f,
-5.30948353e+00f,-3.83673835e+00f,}; 
k2c_tensor dense_1_kernel = {&dense_1_kernel_array[0],2,512,{32,16, 1, 1, 1}}; 
float dense_1_bias_array[16] = {
-7.18155801e-02f,+1.59909934e-01f,+7.56024122e-01f,-7.33139873e-01f,+3.22574496e-01f,
+1.51650198e-02f,+4.09973294e-01f,+7.49767780e-01f,+3.30908984e-01f,+3.44569832e-01f,
-1.35198176e-01f,+7.35639632e-01f,+1.87732115e-01f,+3.32673818e-01f,+1.46168053e-01f,
-2.64951825e-01f,}; 
k2c_tensor dense_1_bias = {&dense_1_bias_array[0],1,16,{16, 1, 1, 1, 1}}; 
float dense_1_fwork[544] = {0}; 

 
float dense_2_kernel_array[16] = {
-1.47067046e+00f,+2.33292890e+00f,+1.29575706e+00f,+4.17711830e+00f,-2.87441754e+00f,
-2.01560092e+00f,+1.42027688e+00f,-2.61167383e+00f,-1.20479202e+00f,-3.21010065e+00f,
-1.89925480e+00f,+1.82607377e+00f,+2.35159183e+00f,+1.67747962e+00f,-3.99991345e+00f,
-3.07103014e+00f,}; 
k2c_tensor dense_2_kernel = {&dense_2_kernel_array[0],2,16,{16, 1, 1, 1, 1}}; 
float dense_2_bias_array[1] = {
+1.79536593e+00f,}; 
k2c_tensor dense_2_bias = {&dense_2_bias_array[0],1,1,{1,1,1,1,1}}; 
float dense_2_fwork[32] = {0}; 

 
k2c_dense(&dense_output,dense_input_input,&dense_kernel, 
	&dense_bias,k2c_relu,dense_fwork); 
k2c_dense(&dense_1_output,&dense_output,&dense_1_kernel, 
	&dense_1_bias,k2c_relu,dense_1_fwork); 
k2c_dense(dense_2_output,&dense_1_output,&dense_2_kernel, 
	&dense_2_bias,k2c_sigmoid,dense_2_fwork); 

 } 

void cPredictor_initialize() { 

} 

void cPredictor_terminate() { 

} 

