#include <math.h> 
 #include <string.h> 
#include "./include/k2c_include.h" 
#include "./include/k2c_tensor_include.h" 

 


void cPredictor(k2c_tensor* dense_input_input, k2c_tensor* dense_5_output) { 

float dense_output_array[32] = {0}; 
k2c_tensor dense_output = {&dense_output_array[0],1,32,{32, 1, 1, 1, 1}}; 
float dense_kernel_array[1024] = {
+2.52605647e-01f,-2.43152425e-01f,-2.81355709e-01f,+1.07505471e-01f,-9.94489193e-02f,
+2.05880612e-01f,+2.99109250e-01f,+2.16456085e-01f,+1.81385487e-01f,-2.45954484e-01f,
+1.71320826e-01f,-1.86207741e-01f,-8.30377638e-02f,-1.53791517e-01f,+1.38534784e-01f,
+2.58846492e-01f,+1.31717831e-01f,-2.69554883e-01f,+2.70716995e-01f,+2.19841033e-01f,
+2.23667771e-01f,+1.13683134e-01f,+1.23476386e-01f,-2.73032337e-01f,+8.68317485e-02f,
+1.25161439e-01f,-1.51129335e-01f,-1.07481018e-01f,-1.44666374e-01f,-1.60378516e-02f,
+1.69823289e-01f,+1.56089187e-01f,-2.53973573e-01f,+1.37387365e-01f,-1.48889959e-01f,
+9.52911973e-02f,+1.38060480e-01f,+1.58239603e-02f,+2.40243405e-01f,-2.88197875e-01f,
-4.32032347e-03f,+2.11429507e-01f,-2.19689786e-01f,-1.24971211e-01f,+3.00625652e-01f,
-2.27568567e-01f,+3.02080601e-01f,+1.72513425e-02f,-7.01586455e-02f,+1.90775901e-01f,
+2.84902364e-01f,+1.93190753e-01f,-2.70269334e-01f,+2.63115913e-01f,-2.90432930e-01f,
-1.03230283e-01f,+3.02348524e-01f,-4.93238866e-02f,-2.04490855e-01f,-8.61815959e-02f,
+1.82030946e-01f,+2.88585424e-02f,+1.86709315e-01f,+7.27367997e-02f,+1.54319525e-01f,
+9.29536223e-02f,+1.24484867e-01f,-1.24490574e-01f,+2.65173048e-01f,+1.76806748e-01f,
-1.10055387e-01f,-1.90845907e-01f,+1.80649936e-01f,+2.97794312e-01f,+1.82068527e-01f,
+2.87728041e-01f,-2.06119508e-01f,+2.05381304e-01f,-6.09932244e-02f,-3.35310996e-02f,
-2.88400531e-01f,-7.42374063e-02f,+8.16655159e-03f,+1.65039510e-01f,-7.59922713e-02f,
-8.94172043e-02f,-1.32527560e-01f,-2.92906791e-01f,-1.26756445e-01f,+1.08045936e-02f,
-1.70861796e-01f,+6.43523335e-02f,+2.71028191e-01f,-1.73610851e-01f,-2.41879076e-01f,
-2.76767969e-01f,-2.68146932e-01f,-2.19551951e-01f,-1.13906458e-01f,+2.17928082e-01f,
-7.26383924e-03f,+2.23237306e-01f,+5.95973730e-02f,+2.33231157e-01f,+4.89525199e-02f,
+6.01968169e-03f,+2.09837407e-01f,-1.42819315e-01f,+2.06488878e-01f,+2.04987854e-01f,
+1.15313113e-01f,+7.72893429e-02f,+2.55299717e-01f,-1.33341148e-01f,-1.70022801e-01f,
+1.59212887e-01f,-1.34290308e-01f,-1.58011079e-01f,+3.90435755e-02f,+3.05655807e-01f,
-1.64354146e-02f,-6.12708926e-03f,-2.14992166e-02f,-2.64000863e-01f,+6.04965985e-02f,
-1.41652048e-01f,+6.81190789e-02f,+2.38194138e-01f,+2.98842788e-03f,-7.73176551e-02f,
-1.54122859e-01f,-9.33954120e-03f,+2.76032895e-01f,-2.06637368e-01f,-2.75591433e-01f,
-4.03407216e-03f,+2.88455278e-01f,+4.54563797e-02f,+5.18114269e-02f,+2.81539947e-01f,
-2.19539404e-02f,-3.07959020e-02f,-2.63031125e-01f,+2.91720361e-01f,-9.73337889e-03f,
+2.82109231e-01f,+2.18436152e-01f,+2.52368897e-01f,-4.72874641e-02f,-6.93593621e-02f,
+6.01145029e-02f,+2.54284412e-01f,+1.86253428e-01f,+1.85212076e-01f,+1.91016436e-01f,
+1.84225619e-01f,+8.46834779e-02f,-1.01617277e-02f,+1.48866981e-01f,+2.19571143e-01f,
-1.19385645e-01f,-8.26541483e-02f,-2.46149823e-01f,+1.55876994e-01f,+6.33126497e-03f,
-1.85420364e-01f,-3.16592753e-02f,+2.15752035e-01f,+1.82945788e-01f,-2.66914219e-01f,
-2.46358097e-01f,-2.05649585e-01f,-2.54873604e-01f,+2.77074963e-01f,-3.02975386e-01f,
-2.69719064e-01f,-2.61069536e-02f,-7.03375041e-02f,-2.87859827e-01f,-7.50582963e-02f,
+1.73615366e-01f,+1.77631706e-01f,-1.72815368e-01f,+1.80412173e-01f,+2.73455381e-02f,
+1.22147322e-01f,+1.03508472e-01f,+2.77476698e-01f,+1.02097392e-01f,+2.42915899e-01f,
+1.79978102e-01f,+2.49287516e-01f,+2.07729906e-01f,+5.39188981e-02f,-2.73876369e-01f,
+2.35197246e-02f,+1.04798704e-01f,+1.22934490e-01f,+4.30392623e-02f,-2.92849332e-01f,
-2.27584481e-01f,+1.70259178e-01f,+2.02857345e-01f,-2.29152620e-01f,+2.97377497e-01f,
-1.52000293e-01f,+2.03659028e-01f,-1.34386450e-01f,-5.90398759e-02f,-2.02877477e-01f,
-2.56530702e-01f,+2.55019754e-01f,+1.29954308e-01f,+6.92156255e-02f,-9.33238268e-02f,
-1.20522633e-01f,-2.92506367e-01f,-1.68932110e-01f,-1.51638806e-01f,+6.87196851e-03f,
+9.73419249e-02f,-7.68681914e-02f,-2.37899750e-01f,+1.76985294e-01f,+2.55235225e-01f,
+6.02001548e-02f,-2.39972964e-01f,-1.55569360e-01f,+5.65499663e-02f,+1.75586164e-01f,
-2.46896833e-01f,-2.75955915e-01f,+2.16844350e-01f,+3.97358537e-02f,-1.55526802e-01f,
+9.54934061e-02f,+2.19736427e-01f,-1.19231761e-01f,+2.07614332e-01f,+2.54216164e-01f,
+2.45335728e-01f,+1.09242320e-01f,-2.34392375e-01f,+1.94331795e-01f,-4.19716239e-02f,
+2.65078038e-01f,+2.21355110e-01f,-1.50013730e-01f,+1.92219704e-01f,-8.08531493e-02f,
+1.46836609e-01f,-9.23401415e-02f,+2.67513096e-02f,-3.39953005e-02f,-1.55378610e-01f,
-2.93560445e-01f,+1.84105992e-01f,+7.87518919e-02f,-1.14061430e-01f,+2.06124514e-01f,
+1.34370893e-01f,-2.26551026e-01f,+1.64789021e-01f,+2.06491381e-01f,+1.53601915e-01f,
+2.62917876e-02f,+8.95748734e-02f,+3.79428267e-03f,-1.71732306e-02f,+1.10240430e-01f,
+2.32840776e-02f,-2.56348431e-01f,-6.15678728e-02f,-4.45319712e-02f,-1.33924872e-01f,
-3.45512033e-02f,+2.05386013e-01f,-5.82216084e-02f,-2.57860482e-01f,-2.10295320e-02f,
-4.99081016e-02f,+2.60672420e-01f,-5.18232584e-04f,-2.97988921e-01f,-2.13148788e-01f,
-8.17019194e-02f,-2.94441611e-01f,+1.94768935e-01f,-9.90477949e-02f,-1.94587976e-01f,
-3.28410268e-02f,-1.11266315e-01f,+2.27439016e-01f,+6.06961846e-02f,+1.87401772e-02f,
-5.03659546e-02f,+2.07340330e-01f,-2.81105012e-01f,+2.37534672e-01f,-9.97969955e-02f,
-1.42407224e-01f,+1.99081331e-01f,-1.23927310e-01f,-1.75915956e-02f,+1.22438669e-01f,
-1.16839245e-01f,-3.90140116e-02f,-1.18316188e-01f,-2.98142135e-02f,-1.21224821e-01f,
-1.50527731e-01f,-4.20592427e-02f,-2.19682261e-01f,+2.00282305e-01f,-2.72699088e-01f,
+2.95506567e-01f,-9.38552618e-03f,+9.85757709e-02f,+2.73943692e-01f,+4.98269200e-02f,
-2.79489875e-01f,+3.53086591e-02f,+2.20591217e-01f,+1.89370841e-01f,-2.65214413e-01f,
-1.80477127e-01f,-6.96526170e-02f,+2.97047824e-01f,-1.10708773e-02f,+2.13090509e-01f,
+6.22246563e-02f,-2.43231058e-02f,-1.05237424e-01f,-2.60623127e-01f,+7.55570233e-02f,
+5.52333295e-02f,-2.45972440e-01f,-1.51006028e-01f,-2.70124853e-01f,-2.75397897e-02f,
-4.73930240e-02f,-1.34640783e-01f,+1.58189803e-01f,-5.85853010e-02f,-2.80583948e-01f,
+9.11812484e-02f,+1.16414458e-01f,-2.74785072e-01f,+3.03501099e-01f,+4.98991907e-02f,
+1.85189903e-01f,+2.98005849e-01f,+1.01369798e-01f,+2.70614833e-01f,-1.40215531e-01f,
+5.82280457e-02f,-1.54689640e-01f,-2.17920601e-01f,+1.00401342e-02f,+1.07598633e-01f,
-1.40767127e-01f,+1.61767036e-01f,-2.40401626e-02f,+1.19979650e-01f,+3.36022079e-02f,
-4.28558886e-02f,+1.98128432e-01f,-2.37567455e-01f,+2.89837569e-01f,+2.50917941e-01f,
-8.81419480e-02f,-2.56157815e-01f,+2.75570184e-01f,-1.50775909e-02f,+2.45586604e-01f,
-1.56970978e-01f,-4.30464745e-02f,+2.57123977e-01f,-3.77608836e-02f,+1.07954651e-01f,
-1.81404054e-02f,-8.86891633e-02f,+1.80545032e-01f,+1.54894620e-01f,+5.74556887e-02f,
+2.15535253e-01f,+1.95983082e-01f,-6.67384267e-02f,-2.72725940e-01f,-2.36287385e-01f,
-6.06725216e-02f,+1.58404261e-01f,-2.77740657e-02f,-1.02575243e-01f,+2.70157725e-01f,
+4.82626557e-02f,-5.10598123e-02f,+2.65193850e-01f,-2.36042768e-01f,-1.60166204e-01f,
-2.99326777e-02f,+7.73170590e-03f,-2.04293549e-01f,-5.02067506e-02f,+5.71333170e-02f,
-6.53493106e-02f,-5.94832748e-02f,+2.77304441e-01f,+9.26762819e-03f,+1.59571111e-01f,
-1.30258709e-01f,+2.73431152e-01f,+1.95137650e-01f,-1.90220207e-01f,+2.13847488e-01f,
+2.71202058e-01f,+2.03519493e-01f,-2.89315313e-01f,-2.91748643e-01f,-1.05337650e-01f,
+1.56525373e-02f,+1.68184727e-01f,+1.30157769e-02f,+2.25619823e-01f,-2.80806810e-01f,
+3.70817780e-02f,-8.09680521e-02f,-2.15342596e-01f,+1.19520694e-01f,+6.55513704e-02f,
-1.71191618e-01f,-1.34603620e-01f,-1.65256083e-01f,+2.08542019e-01f,+1.40912622e-01f,
-2.39839733e-01f,+2.44932979e-01f,+2.32919723e-01f,+2.12391317e-02f,-2.64891028e-01f,
-2.45812267e-01f,+5.91173768e-03f,-7.64246434e-02f,-2.00358599e-01f,-2.57625878e-02f,
-2.88540125e-01f,+4.80728745e-02f,-1.97884530e-01f,-2.54631758e-01f,-2.78809965e-02f,
+2.19402403e-01f,+3.90684605e-03f,+1.98840171e-01f,+1.63019508e-01f,-1.34278700e-01f,
-1.99018449e-01f,+2.65889376e-01f,+1.23835534e-01f,+2.81381994e-01f,+7.33542442e-02f,
-2.93967038e-01f,-2.35475481e-01f,+3.49504352e-02f,+1.05078727e-01f,-1.83852375e-01f,
-1.19999513e-01f,-2.20769092e-01f,+1.50257558e-01f,+9.73875523e-02f,+7.47405291e-02f,
+2.27838486e-01f,-2.59201288e-01f,+1.15373313e-01f,+2.02738315e-01f,-2.17301339e-01f,
-1.53884009e-01f,+2.52024740e-01f,+5.86534142e-02f,+2.81948119e-01f,+3.06064993e-01f,
+2.10290104e-01f,-1.69211328e-01f,+1.43942297e-01f,-2.35166907e-01f,+1.08449221e-01f,
-2.93660283e-01f,-2.47278556e-01f,+2.93061703e-01f,+2.27396488e-02f,+2.29192346e-01f,
+1.19946003e-01f,+2.89032310e-01f,+2.13924140e-01f,-3.05237591e-01f,-2.95233667e-01f,
-1.53678358e-01f,-1.83152527e-01f,+9.63742137e-02f,-1.19956225e-01f,-2.67731041e-01f,
+1.00542396e-01f,-1.27610758e-01f,+1.31584615e-01f,-1.09205663e-01f,-2.39582419e-01f,
-2.44571775e-01f,+2.52297372e-01f,-2.76001692e-02f,-2.59635121e-01f,-1.03586912e-03f,
+1.79138750e-01f,-2.29194462e-02f,-9.10298973e-02f,+4.36688066e-02f,+8.75594169e-02f,
+4.02985811e-02f,+8.98619145e-02f,+7.74436668e-02f,+1.10996999e-01f,+1.55521229e-01f,
-7.41542280e-02f,-3.90979871e-02f,-5.65529689e-02f,-1.10130019e-01f,-4.05708440e-02f,
-1.92967092e-03f,+1.33156255e-01f,+8.34068358e-02f,+2.17309278e-02f,+6.21374603e-03f,
+9.83729511e-02f,+1.63831115e-02f,-3.85801792e-02f,+3.43274660e-02f,+2.65716165e-02f,
-1.60727333e-02f,+3.66107747e-02f,-2.08750982e-02f,-4.22763005e-02f,+5.14743663e-02f,
-2.68120486e-02f,-2.83841100e-02f,+1.42457694e-01f,+6.54494911e-02f,-1.22015886e-02f,
+3.10145114e-02f,+2.48556063e-02f,-4.49850745e-02f,-9.57777500e-02f,-1.61340348e-02f,
+6.45145029e-02f,+1.89365931e-02f,+1.81826111e-02f,-3.24296057e-02f,-6.24058135e-02f,
+7.18188956e-02f,-3.31568792e-02f,+2.94261053e-02f,-4.30065244e-02f,+1.62589610e-01f,
-1.19916789e-01f,+2.69832136e-03f,+1.03612751e-01f,-6.17681928e-02f,+2.19559640e-01f,
-8.37265700e-02f,+5.76654486e-02f,+9.40586329e-02f,-1.70929596e-01f,+4.38870303e-02f,
+3.69249703e-03f,+1.61159754e-01f,-4.78978194e-02f,-5.09072989e-02f,-4.15779911e-02f,
+4.38371254e-03f,+3.38193290e-02f,-1.22722887e-01f,+3.99069227e-02f,-2.86490954e-02f,
+1.63994566e-01f,-6.46808371e-02f,+1.72409207e-01f,-1.69204652e-01f,-2.88563818e-02f,
+1.33123010e-01f,+5.63437585e-03f,-2.03230302e-03f,-8.51686578e-03f,-7.96830058e-02f,
+8.26017261e-02f,-2.38164086e-02f,-4.22695614e-02f,+3.09652705e-02f,+1.18290745e-01f,
-1.06285676e-01f,+3.13897990e-02f,+3.47452238e-02f,+6.61973283e-02f,+1.52737960e-01f,
+8.95392373e-02f,+8.72657746e-02f,+3.18449289e-02f,+4.58481722e-02f,+1.66218430e-02f,
+3.86964530e-02f,+2.65413597e-02f,+4.38686684e-02f,+1.86690316e-02f,-1.26206949e-01f,
-7.04269260e-02f,+2.02185884e-01f,+1.67051286e-01f,+1.74878657e-01f,+1.02391332e-01f,
-4.50320356e-02f,-8.10740367e-02f,-7.48107210e-02f,-1.59300826e-02f,+1.48790166e-01f,
-2.77312994e-02f,-9.74713191e-02f,-7.96407983e-02f,+2.40983337e-01f,-1.55243673e-03f,
-5.28711416e-02f,+9.56408530e-02f,-1.65994734e-01f,-4.93945666e-02f,+1.18716255e-01f,
+4.63622399e-02f,+6.87454492e-02f,+2.31766522e-01f,+2.86651915e-03f,+8.70069265e-02f,
+3.57867628e-02f,-1.63473673e-02f,+1.67345386e-02f,+1.67712811e-02f,-3.58528681e-02f,
+2.32011992e-02f,+2.57424176e-01f,-3.35564837e-02f,-2.64521480e-01f,-8.78110975e-02f,
+1.92019090e-01f,-4.16732021e-02f,+5.02260774e-02f,-7.00704753e-02f,-1.86405495e-01f,
+1.88460797e-02f,+6.48608655e-02f,-7.19429180e-02f,-6.38736039e-02f,+1.11006178e-01f,
-9.71846133e-02f,-4.68699224e-02f,+8.10775831e-02f,+2.22992245e-03f,-3.04158896e-01f,
+1.03501141e-01f,-3.75598297e-02f,+8.30730870e-02f,+1.68424353e-01f,+6.44227266e-02f,
+4.28970195e-02f,-1.42809480e-01f,+1.03001986e-02f,-1.48855165e-01f,+1.48113877e-01f,
-1.33058205e-01f,-6.49725571e-02f,+4.86847311e-02f,-5.84904738e-02f,-1.34364128e-01f,
-1.73218101e-01f,-1.77035838e-01f,-1.70263916e-01f,+2.01486349e-01f,-1.29165456e-01f,
+1.26223013e-01f,-1.74284130e-01f,+1.90969765e-01f,-2.75230229e-01f,-2.07186058e-01f,
+3.16163599e-01f,+7.13726059e-02f,+2.01120555e-01f,+1.43208855e-03f,+1.89362347e-01f,
+3.04246787e-03f,+2.39025369e-01f,-1.99343234e-01f,-9.82861966e-02f,-8.67490321e-02f,
-1.71988651e-01f,-5.82659729e-02f,-1.60353571e-01f,-1.63410768e-01f,+2.56207526e-01f,
-9.02387574e-02f,+2.24114046e-01f,-8.45344439e-02f,+1.50103092e-01f,+1.14514180e-01f,
+1.45229965e-01f,+4.47169170e-02f,-2.80405313e-01f,+1.49644434e-01f,-1.19434595e-01f,
+6.88111931e-02f,+2.08988369e-01f,-2.66837925e-01f,+2.52384245e-01f,+9.86080244e-02f,
+2.90449083e-01f,-3.16307582e-02f,-3.77098829e-01f,-7.88985640e-02f,-3.23094539e-02f,
-4.98170741e-02f,-2.77922601e-01f,+3.26754034e-01f,+1.62964329e-01f,-1.17507629e-01f,
-2.93304399e-02f,-5.24428450e-02f,-1.69411302e-01f,-2.06374284e-03f,+1.91424072e-01f,
+6.64882481e-01f,-2.07791880e-01f,+2.17730761e-01f,-1.22820623e-01f,+2.95058221e-01f,
+2.56558925e-01f,+4.29466039e-01f,-1.48024157e-01f,+1.66596547e-01f,-1.14143416e-02f,
-1.06049724e-01f,-2.01753721e-01f,+7.34841600e-02f,+2.42738947e-01f,+1.96445897e-01f,
+2.77850360e-01f,-2.96433121e-01f,+8.03257152e-03f,+1.06360756e-01f,+3.49968880e-01f,
+1.31797701e-01f,-1.51584357e-01f,-1.08661309e-01f,+6.20556772e-02f,+2.18173906e-01f,
+2.06672609e-01f,+2.88391948e-01f,+5.05146012e-02f,-5.13616651e-02f,-1.98135208e-02f,
-1.26494780e-01f,-2.55086660e-01f,-4.35253292e-01f,-3.45203608e-01f,+1.32030860e-01f,
-2.69562423e-01f,-1.66592509e-01f,+2.38165781e-01f,-2.16664255e-01f,+4.32622582e-01f,
-1.76653668e-01f,+2.70439327e-01f,+3.50383341e-01f,+6.73209503e-02f,-6.83974698e-02f,
+2.18534485e-01f,-1.23261437e-01f,+2.83425778e-01f,+4.61697459e-01f,+4.15961087e-01f,
+3.52301180e-01f,-1.70837626e-01f,-3.02684873e-01f,+1.37561932e-01f,-3.02223146e-01f,
-1.38486236e-01f,-9.65695903e-02f,+3.12919021e-02f,-1.13082260e-01f,-5.90059347e-02f,
+2.74644583e-01f,-1.75502405e-01f,+5.67572042e-02f,+6.63969666e-02f,-7.21453011e-01f,
-2.15748176e-01f,+2.12344974e-01f,+9.54816639e-02f,-1.15104474e-01f,+4.02993225e-02f,
-1.42703757e-01f,+3.63808542e-01f,-1.97370574e-01f,-1.04856998e-01f,+4.52279598e-01f,
+5.47284722e-01f,+3.06633830e-01f,+1.77299112e-01f,+4.59480852e-01f,+3.28613251e-01f,
-3.44487339e-01f,+4.07887071e-01f,+1.90981209e-01f,+3.42430234e-01f,-2.56415188e-01f,
+8.54765326e-02f,+3.57289821e-01f,+7.92830229e-01f,-2.71961898e-01f,+4.33047503e-01f,
+2.40820527e-01f,+8.18395615e-03f,-7.95946270e-02f,+9.89971533e-02f,+4.12321836e-02f,
-7.89082721e-02f,-3.81691456e-01f,-1.28723949e-01f,+3.37629467e-01f,+5.93325198e-01f,
+1.06121421e-01f,-3.71227592e-01f,-1.98060572e-01f,-2.12141275e-01f,+5.84430583e-02f,
+3.72726135e-02f,+1.32597968e-01f,-4.49937731e-02f,+2.91289479e-01f,+3.53740215e-01f,
+2.77815670e-01f,+1.03528924e-01f,-2.48767287e-01f,+2.81465858e-01f,+1.50969237e-01f,
-1.49078488e-01f,+2.25373358e-01f,+2.93648839e-01f,+4.02823567e-01f,-5.26527405e-01f,
-1.94493279e-01f,+3.00299644e-01f,-3.68202090e-01f,-1.40077755e-01f,+1.04220188e+00f,
-1.51231244e-01f,+4.11087722e-01f,-1.14921145e-01f,-3.79251659e-01f,+2.08434626e-01f,
+2.04385042e-01f,+1.17643028e-01f,-1.23285174e-01f,-4.14330304e-01f,+6.95820332e-01f,
-2.88580269e-01f,+6.30360305e-01f,-5.26330583e-02f,-8.17040578e-02f,-4.49175775e-01f,
+6.59553587e-01f,+2.89057881e-01f,+4.67953801e-01f,-3.17781210e-01f,-6.21769428e-01f,
+1.00993834e-01f,+3.76998752e-01f,+3.14317375e-01f,+3.83551478e-01f,-2.70723373e-01f,
+3.49737316e-01f,+1.06277376e-01f,-2.35198364e-02f,-2.12588876e-01f,-3.97457063e-01f,
-4.25852925e-01f,-9.81604576e-01f,+2.43354384e-02f,+3.51955444e-01f,+4.80909273e-02f,
+2.37924978e-01f,+7.31880844e-01f,+4.03983861e-01f,-3.97304326e-01f,+1.18397409e-02f,
-2.54919708e-01f,-2.42211431e-01f,+7.79962957e-01f,-4.03529733e-01f,-2.52491415e-01f,
-9.15358067e-02f,-1.81618169e-01f,-2.80817598e-01f,-5.98745644e-01f,+7.09804595e-01f,
+2.40830313e-02f,-2.94694245e-01f,-5.15464723e-01f,+1.02804601e+00f,+4.50916588e-01f,
+6.48350358e-01f,-1.61282904e-02f,+4.58644837e-01f,-7.37032473e-01f,+2.68372536e-01f,
+5.41175604e-01f,+3.06551039e-01f,+9.04986322e-01f,-1.12270415e+00f,-2.43295263e-02f,
+2.90959060e-01f,+7.69911468e-01f,-2.58165717e-01f,+7.90524542e-01f,+2.00447604e-01f,
-1.70322850e-01f,+8.19463611e-01f,-3.67390960e-01f,+3.25117052e-01f,+7.15739429e-01f,
+5.30268788e-01f,+3.50132823e-01f,-4.04175073e-01f,+3.53712738e-02f,-3.55682150e-02f,
-5.71723998e-01f,+1.90124318e-01f,+9.86524463e-01f,+1.08638965e-01f,+5.95391393e-01f,
-1.13608740e-01f,+3.77430081e-01f,-1.11651444e+00f,+6.66102052e-01f,+5.74462712e-01f,
-4.52204049e-01f,+3.25070143e-01f,-8.53505552e-01f,-4.92965341e-01f,-4.17832285e-01f,
-1.40880442e+00f,-1.97134614e-01f,+1.20224275e-01f,-5.26289999e-01f,+1.46326974e-01f,
-8.89929414e-01f,-7.38928139e-01f,-3.57555360e-01f,+1.22881842e+00f,+8.01197410e-01f,
+8.81985486e-01f,-5.23360789e-01f,+9.16090190e-01f,+6.88627899e-01f,-2.46690869e-01f,
+7.70399690e-01f,-3.47103268e-01f,-3.30383390e-01f,+1.52857438e-01f,+1.74185261e-01f,
-5.88377953e-01f,-7.00718015e-02f,+1.34484679e-01f,-6.51370049e-01f,-5.26762187e-01f,
-7.96240091e-01f,-2.57934630e-01f,-4.75845456e-01f,-8.32249820e-01f,-2.28245080e-01f,
+6.82990327e-02f,+6.54192567e-01f,-8.91520679e-01f,+1.38122296e+00f,+1.04702830e+00f,
-1.60869300e-01f,-1.37805626e-01f,-3.10957640e-01f,+7.92382896e-01f,+9.36344981e-01f,
+1.79292500e-01f,-8.80448282e-01f,+6.87195897e-01f,-8.84268165e-01f,-6.47150517e-01f,
+1.21560800e+00f,+1.25915468e+00f,+1.07152629e+00f,-1.44589376e+00f,+8.88095438e-01f,
+1.20736468e+00f,-9.72246349e-01f,+2.44296879e-01f,-4.54855770e-01f,-1.96235105e-01f,
-5.62626660e-01f,-1.21425604e-02f,+3.10631037e-01f,+1.04276049e+00f,-4.16200250e-01f,
+5.17594635e-01f,+4.77718115e-01f,+1.16932571e+00f,+1.39180291e+00f,-6.51273131e-01f,
-1.08771086e+00f,-9.13139403e-01f,+9.39507723e-01f,+1.00185871e+00f,-8.45626056e-01f,
-1.03171408e+00f,-7.36904442e-01f,-1.15245402e+00f,-4.81564879e-01f,}; 
k2c_tensor dense_kernel = {&dense_kernel_array[0],2,1024,{32,32, 1, 1, 1}}; 
float dense_bias_array[32] = {
-7.06616789e-02f,+9.70220342e-02f,-3.41348499e-02f,+1.09338671e-01f,+1.44712105e-01f,
+2.18305960e-02f,+1.78367645e-01f,+7.89520144e-02f,-1.53769389e-01f,+2.32317522e-02f,
+1.51902378e-01f,-1.27156854e-01f,-4.01211679e-02f,+2.98248064e-02f,+2.43509620e-01f,
+1.81067698e-02f,-4.57495861e-02f,+2.67223790e-02f,+2.00085834e-01f,+2.31845677e-02f,
+1.38729066e-01f,+2.86602378e-01f,+9.25388113e-02f,+2.80108606e-03f,+4.51909266e-02f,
+1.63497508e-01f,+1.06642045e-01f,+1.49213940e-01f,-1.73139181e-02f,+5.72559349e-02f,
+9.43572670e-02f,+1.19045518e-01f,}; 
k2c_tensor dense_bias = {&dense_bias_array[0],1,32,{32, 1, 1, 1, 1}}; 
float dense_fwork[1056] = {0}; 

 
float dense_1_output_array[32] = {0}; 
k2c_tensor dense_1_output = {&dense_1_output_array[0],1,32,{32, 1, 1, 1, 1}}; 
float dense_1_kernel_array[1024] = {
+3.37382197e-01f,+3.40302825e-01f,+2.67892718e-01f,-2.38637373e-01f,+5.01483440e-01f,
-1.37552634e-01f,+4.92613874e-02f,+3.16730052e-01f,+3.78212273e-01f,+2.62977093e-01f,
+1.02212816e-01f,+1.84940398e-01f,-1.16565317e-01f,+1.92671463e-01f,+1.09573290e-01f,
-1.21715881e-01f,+3.42538625e-01f,-3.70993540e-02f,-2.69852459e-01f,-2.57618815e-01f,
-5.41307449e-01f,+4.28498030e-01f,-3.89991045e-01f,-6.24360502e-01f,+1.30958721e-01f,
-1.68547556e-01f,-3.07372034e-01f,-4.37501119e-03f,-3.85067672e-01f,-4.34061557e-01f,
-2.57206500e-01f,+1.23659141e-01f,+2.68380433e-01f,-2.05661014e-01f,+4.98196602e-01f,
-2.70140935e-02f,-7.58884922e-02f,+5.39468639e-02f,+2.52535760e-01f,-9.67595540e-03f,
-3.44443947e-01f,-4.83564824e-01f,-5.50841615e-02f,+7.97984302e-02f,-1.36796430e-01f,
+4.29229349e-01f,-1.32600650e-01f,+5.01797348e-02f,-1.90206319e-01f,+3.98254208e-02f,
+4.54412460e-01f,+1.72964960e-01f,+1.91958457e-01f,-4.05908108e-01f,+6.92565590e-02f,
+7.88335919e-01f,-3.44665423e-02f,+5.79474926e-01f,+5.90114594e-02f,+1.78705841e-01f,
+2.77978092e-01f,+1.24722444e-01f,-1.84234679e-01f,-6.59851357e-02f,+4.20076162e-01f,
+2.55248785e-01f,+2.08846912e-01f,+1.87375695e-01f,+4.09614950e-01f,-6.61695004e-01f,
+4.08897966e-01f,+3.83572429e-01f,+5.19648015e-01f,+2.86064446e-01f,-1.42155126e-01f,
+1.30795045e-02f,-6.69967413e-01f,+3.41358840e-01f,-6.50753260e-01f,-2.39095524e-01f,
-1.23663113e-01f,-2.17860550e-01f,-3.84333253e-01f,-5.04058778e-01f,-4.59216028e-01f,
+4.19641584e-01f,-4.15814936e-01f,-2.43132472e-01f,+3.58799964e-01f,-6.73576668e-02f,
+1.94466799e-01f,+3.66110116e-01f,-3.02140683e-01f,+1.05289910e-02f,+1.49885520e-01f,
-8.44095498e-02f,+3.13596964e-01f,+8.81192446e-01f,+9.83702987e-02f,-2.35289693e-01f,
-2.68010139e-01f,+4.84610051e-01f,+2.44151410e-02f,-2.14757681e-01f,+5.15087843e-01f,
-9.23381969e-02f,-3.74797583e-02f,+7.19049335e-01f,-8.92733335e-02f,+2.85039060e-02f,
+6.78758740e-01f,-2.83310205e-01f,+5.66229999e-01f,-3.01452816e-01f,-4.39055681e-01f,
+1.13659710e-01f,-4.65882458e-02f,-1.27874523e-01f,+3.06882471e-01f,-4.63117033e-01f,
-9.89312157e-02f,-8.99946570e-01f,-9.57699046e-02f,+4.24346104e-02f,-2.33453661e-01f,
-4.04032230e-01f,-2.44387537e-01f,-2.35613845e-02f,+2.42363185e-01f,+2.06147417e-01f,
+4.75414060e-02f,-1.48042932e-01f,-1.58982709e-01f,+1.45251593e-02f,-2.78758675e-01f,
+5.29553771e-01f,+1.41975462e-01f,+1.12677000e-01f,+1.80771109e-02f,+1.93567798e-02f,
+2.56792549e-02f,-1.60827518e-01f,+3.51045191e-01f,-1.92746684e-01f,+6.08347297e-01f,
+2.41867468e-01f,+2.88844138e-01f,+2.85264701e-01f,+1.73879847e-01f,-4.22254980e-01f,
+9.59587768e-02f,-1.68421548e-02f,-2.21904054e-01f,-3.05258363e-01f,-2.35602170e-01f,
-2.41755068e-01f,-1.60652176e-01f,-9.87068168e-04f,+1.14155486e-01f,-2.45272920e-01f,
+1.43671274e-01f,+3.53587836e-01f,+8.86035487e-02f,-4.48208749e-02f,-2.32104257e-01f,
+2.90154219e-01f,-5.73872626e-02f,+1.16525754e-01f,-5.96172083e-03f,-4.70004156e-02f,
-1.79375723e-01f,+3.17431569e-01f,+2.39795327e-01f,+3.27724308e-01f,+2.78862178e-01f,
-8.74350369e-02f,+4.09619451e-01f,-2.45421380e-01f,-2.83861477e-02f,+7.52490088e-02f,
-1.03921190e-01f,-5.67055464e-01f,+2.42626205e-01f,-1.26360849e-01f,-4.68583524e-01f,
-6.03199340e-02f,-1.23228915e-01f,+9.07503143e-02f,+3.69924965e-04f,-3.71638924e-01f,
+1.85898215e-01f,-7.50152618e-02f,-2.67821014e-01f,-5.78280270e-01f,+3.53443414e-01f,
+1.10042147e-01f,+4.72250521e-01f,+5.36554605e-02f,+1.44073322e-01f,+4.32844609e-01f,
-1.89196229e-01f,+3.12371999e-01f,+1.89106330e-01f,-5.27590394e-01f,-5.20545542e-01f,
+5.05733751e-02f,-6.31652892e-01f,+5.69904000e-02f,+1.68236196e-01f,-1.10468730e-01f,
+3.55103374e-01f,-7.82880485e-02f,-3.45371902e-01f,+1.58867598e-01f,+4.68281321e-02f,
+1.87283996e-02f,+3.98349553e-01f,+4.53025222e-01f,+4.93067473e-01f,-1.85490653e-01f,
+1.22237489e-01f,-1.97516918e-01f,+3.52104008e-01f,+3.41437638e-01f,-6.02041520e-02f,
-3.22068095e-01f,-2.79597878e-01f,-2.05975682e-01f,+5.64793795e-02f,+1.72652945e-01f,
-6.38933420e-01f,+2.62323052e-01f,+2.70657420e-01f,+5.65143749e-02f,+9.20224711e-02f,
-4.16236013e-01f,-2.76331812e-01f,-1.79450884e-01f,+2.05206573e-02f,+8.01311806e-02f,
+3.58277619e-01f,+1.65321574e-01f,+3.73199224e-01f,+2.90561289e-01f,-1.63226798e-01f,
+4.85524461e-02f,+7.35040382e-02f,-5.40949583e-01f,-2.09484160e-01f,-2.06467271e-01f,
-2.67843515e-01f,+3.83182094e-02f,+1.15341889e-02f,-3.00574064e-01f,-1.61138996e-01f,
-3.92942607e-01f,+5.40613592e-01f,+6.03150845e-01f,+3.75532284e-02f,-1.94866642e-01f,
-1.24335051e-01f,+3.64991754e-01f,-2.73959368e-01f,-4.33206916e-01f,+5.68801403e-01f,
-3.33944976e-01f,+5.82168043e-01f,+3.61488491e-01f,+3.56544852e-01f,+9.13008600e-02f,
+6.85539544e-01f,+1.42526999e-02f,+2.52304792e-01f,+1.62137579e-02f,-2.08163500e-01f,
-1.16435602e-01f,+6.63406491e-01f,-5.31619906e-01f,+4.43780571e-01f,+3.32183540e-01f,
-1.77773442e-02f,-2.33471483e-01f,+7.32407048e-02f,+1.34600282e-01f,-5.54129362e-01f,
+4.87389863e-02f,-3.09830517e-01f,-1.56332299e-01f,-5.76563999e-02f,-4.71855670e-01f,
+1.56063408e-01f,+1.23918124e-01f,-2.09649727e-01f,-1.23955822e-03f,+3.76291841e-01f,
-1.26216069e-01f,-8.07518885e-03f,-4.47437882e-01f,+7.76727125e-02f,-1.00216791e-01f,
-2.48002112e-01f,+6.21426821e-01f,-7.95956925e-02f,+3.65749300e-01f,+5.14987633e-02f,
-9.93247256e-02f,+1.78675085e-01f,-3.23593691e-02f,-5.77161491e-01f,+1.48837119e-01f,
-2.88103651e-02f,+3.86036485e-01f,-3.98085505e-01f,-6.00145757e-03f,+3.13064367e-01f,
+1.34536266e-01f,+1.81132957e-01f,+1.83394238e-01f,+5.62571250e-02f,-6.93847165e-02f,
+2.05213115e-01f,-1.90271348e-01f,+1.13542154e-01f,-1.56068251e-01f,-2.25417301e-01f,
+4.01027203e-01f,+2.50906020e-01f,-3.50259900e-01f,+8.71621370e-02f,-4.72464204e-01f,
+2.07637981e-01f,-5.11878505e-02f,-1.33209936e-02f,+4.39884998e-02f,+6.43663630e-02f,
+8.78574029e-02f,-2.23925844e-01f,+1.98041881e-03f,+3.86679053e-01f,+3.94866914e-01f,
+1.24377102e-01f,-4.74272102e-01f,+1.61386281e-02f,+6.86424911e-01f,-4.19727176e-01f,
+7.71588832e-02f,-1.12045482e-01f,-3.82873923e-01f,-3.79736125e-01f,+3.01943868e-01f,
-3.70497972e-01f,+2.04471424e-01f,+3.18228453e-01f,-3.68096441e-01f,+1.45833686e-01f,
+1.05452381e-01f,-9.04956907e-02f,-3.00832987e-01f,+1.01483479e-01f,+4.24644798e-01f,
+2.90566266e-01f,+8.62959251e-02f,+5.85075505e-02f,+5.13073094e-02f,-4.47759867e-01f,
+4.99145985e-02f,+2.13975862e-01f,+3.47041100e-01f,+4.50554118e-02f,-1.89304084e-01f,
+2.36706451e-01f,+3.90816718e-01f,-3.82577628e-01f,-6.58902526e-01f,-3.19885984e-02f,
+1.32172331e-01f,-2.82577395e-01f,+1.00553781e-01f,+2.95858514e-02f,-8.69109556e-02f,
+1.61276087e-01f,+1.11774608e-01f,+7.75287077e-02f,+5.14991209e-02f,+4.35175300e-01f,
+2.81350106e-01f,-4.30753291e-01f,+2.24669904e-01f,-3.66336037e-03f,+2.03412659e-02f,
+3.75880629e-01f,+1.54957354e-01f,+1.58914119e-01f,-2.16191918e-01f,+3.10546517e-01f,
+2.06922233e-01f,-5.32259196e-02f,+8.59337524e-02f,+2.30089784e-01f,+5.01514554e-01f,
-1.34962186e-01f,-2.81811684e-01f,-4.48781475e-02f,-2.71076546e-03f,+5.51338196e-01f,
-7.27004111e-01f,-1.96818411e-01f,+4.14072335e-01f,+5.05330563e-01f,+1.77670985e-01f,
+1.96129411e-01f,+3.72438848e-01f,-1.12654805e-01f,+2.22990066e-01f,-5.46616875e-02f,
+3.40126067e-01f,+5.12900651e-02f,-3.38677466e-01f,+4.16805595e-01f,-1.37042582e-01f,
+5.11245549e-01f,-2.04075962e-01f,+2.40820676e-01f,-2.12726325e-01f,-2.42905751e-01f,
+9.56196338e-03f,+2.20966056e-01f,-1.95241079e-01f,+3.09275299e-01f,+1.27452374e-01f,
+1.59127355e-01f,+4.27807420e-01f,+3.57749313e-01f,+1.01798475e-01f,+4.36181128e-01f,
-1.30370751e-01f,-1.02215372e-01f,+2.05505565e-01f,-2.21458718e-01f,-7.56592602e-02f,
+4.65706438e-02f,+6.13523722e-01f,+2.18126565e-01f,+2.07779452e-01f,+4.08587120e-02f,
+3.58343124e-01f,-1.24424160e-01f,+1.19017392e-01f,+3.11995327e-01f,+1.41332537e-01f,
-4.94899154e-01f,+1.07083261e-01f,+4.44415122e-01f,+3.34164917e-01f,+1.61199272e-02f,
-5.41997068e-02f,-6.80672601e-02f,-4.62733172e-02f,-7.30113834e-02f,-7.89998937e-03f,
+5.84083200e-01f,-4.56696004e-01f,+3.06421876e-01f,+4.24794137e-01f,-5.82639098e-01f,
+9.22877640e-02f,+1.07808217e-01f,-1.50284648e-01f,+2.76768148e-01f,+6.27047598e-01f,
-2.47355588e-02f,-1.82601660e-01f,+5.94385624e-01f,+1.78270712e-01f,-2.79196322e-01f,
+1.66482925e-01f,-1.99984089e-01f,+3.03129643e-01f,+3.18792433e-01f,+5.29597640e-01f,
-1.58073887e-01f,-1.48544073e-01f,+2.32371435e-01f,-2.60240197e-01f,+2.66370714e-01f,
+2.14916468e-01f,+1.45130255e-03f,-2.90953249e-01f,+2.97863901e-01f,-1.39115438e-01f,
+1.39065966e-01f,+1.14111006e-01f,+2.45718211e-01f,-2.19421834e-01f,-1.46117747e-01f,
+1.08658791e-01f,-1.72150955e-01f,-2.77536988e-01f,-4.84290868e-02f,+1.31377682e-01f,
+1.41981676e-01f,-4.45156366e-01f,-1.98232859e-01f,+1.40198722e-01f,-4.04268950e-01f,
-2.79089138e-02f,+1.49271533e-01f,-4.21307504e-01f,-3.69670361e-01f,+1.27450213e-01f,
-1.97106898e-01f,-5.40011488e-02f,+5.37347615e-01f,-6.43991381e-02f,+2.07969815e-01f,
-2.24929586e-01f,-9.59501192e-02f,+2.26986572e-01f,-2.15338945e-01f,-2.36029074e-01f,
+8.57804000e-01f,-4.50406462e-01f,+4.26637232e-01f,+3.09579611e-01f,-1.31001711e-01f,
-2.26835147e-01f,+4.21845704e-01f,-2.99953371e-01f,+2.81826407e-01f,+1.87265307e-01f,
+4.15113062e-01f,-1.35729849e-01f,+2.03797638e-01f,-3.19814324e-01f,+3.20805192e-01f,
-4.22878750e-02f,-1.14018209e-01f,+2.13594019e-01f,+3.41684788e-01f,-2.65692443e-01f,
-4.91783082e-01f,+3.39314006e-02f,-3.67168963e-01f,-3.54042292e-01f,+2.55000256e-02f,
-6.57599807e-01f,-4.53714922e-04f,-2.74029464e-01f,+7.04870105e-01f,-5.43873161e-02f,
+4.44661342e-02f,+1.68146580e-01f,-3.93926322e-01f,+4.15452160e-02f,-5.85524321e-01f,
-2.08978683e-01f,+3.42273831e-01f,+5.21222174e-01f,-4.43984091e-01f,+1.07118413e-01f,
+1.05280256e+00f,-3.00492138e-01f,+2.19826147e-01f,+1.69125706e-01f,-6.24888897e-01f,
+6.46920651e-02f,-5.21606326e-01f,+4.34079506e-02f,-1.71812296e-01f,+7.88966238e-01f,
+5.87032855e-01f,-2.38111228e-01f,+6.90167427e-01f,-1.09114714e-01f,+8.19509253e-02f,
+2.81556752e-02f,+2.68522441e-01f,+1.89558323e-02f,+1.79216325e-01f,-2.82163590e-01f,
-1.28680049e-02f,+2.20781282e-01f,-2.38302141e-01f,-3.45844746e-01f,+2.12064907e-01f,
+5.68849035e-02f,+2.69907504e-01f,-8.35043937e-02f,+1.66196972e-01f,-1.52126089e-01f,
+1.04535475e-01f,-2.57448077e-01f,-1.27896398e-01f,-1.62620932e-01f,+3.62743884e-01f,
-2.85237640e-01f,+2.93322187e-02f,+3.31981122e-01f,+1.41255781e-01f,+3.96616817e-01f,
+2.71327525e-01f,+5.32879755e-02f,-1.56296477e-01f,-3.85625601e-01f,+3.20443213e-02f,
+2.21081614e-01f,-4.18624520e-01f,-3.00527215e-01f,-1.57727152e-01f,+5.91039695e-02f,
-4.86652479e-02f,+1.61553957e-02f,-3.93421482e-03f,+5.02606511e-01f,+3.08745969e-02f,
-2.51981258e-01f,-1.09594651e-01f,+3.50601763e-01f,-2.21947834e-01f,+3.26930523e-01f,
+5.95582604e-01f,+8.51510614e-02f,+2.43261278e-01f,+2.22859651e-01f,+4.55478758e-01f,
-1.12899736e-01f,+4.53529060e-01f,+2.57956386e-01f,+1.83541477e-01f,-8.41772109e-02f,
+3.56083274e-01f,-9.48356651e-03f,-3.70518379e-02f,-3.23924646e-02f,-1.94303151e-02f,
+4.18588698e-01f,+5.02814829e-01f,+1.09413810e-01f,+5.09461343e-01f,+1.28877804e-01f,
+3.52937698e-01f,+3.20748806e-01f,-1.02910191e-01f,-6.01748228e-02f,-4.41183120e-01f,
+2.87870407e-01f,-8.66984650e-02f,-1.41841069e-01f,+1.42174035e-01f,-5.08500896e-02f,
-2.98522621e-01f,+1.06537588e-01f,+1.73743740e-01f,-1.27178311e-01f,-1.60453059e-02f,
-3.68589967e-01f,+6.15682721e-01f,+7.26080779e-03f,+2.84951687e-01f,-1.07045613e-01f,
-1.46646455e-01f,+3.79956394e-01f,+1.43331736e-01f,+2.47508064e-01f,+8.39816332e-02f,
-2.03848816e-02f,-4.72629406e-02f,-4.31459025e-02f,+4.80521053e-01f,-3.06431741e-01f,
+9.48207602e-02f,-1.56732515e-01f,+2.10739985e-01f,+7.46547401e-01f,-1.50209544e-02f,
-9.34628844e-02f,-1.06556666e+00f,+3.59559834e-01f,+1.75297141e-01f,-7.46772528e-01f,
-1.19197987e-01f,-1.81564033e-01f,-2.67293900e-01f,+7.55589068e-01f,+8.16467345e-01f,
+3.08152914e-01f,+3.99085283e-01f,+1.44750357e-01f,+1.05315678e-01f,-1.17897056e-01f,
+5.44493310e-02f,+4.80385959e-01f,+5.87191582e-01f,+4.63229001e-01f,-1.83698505e-01f,
+1.96446508e-01f,+2.40239710e-01f,-9.88572910e-02f,-6.02637470e-01f,+3.33878875e-01f,
+1.54594764e-01f,-1.94937289e-02f,+3.92676666e-02f,-8.79444927e-02f,-5.69514155e-01f,
-2.77328849e-01f,-5.05611479e-01f,+8.68612677e-02f,-1.90062970e-01f,+7.19793022e-01f,
-5.26499391e-01f,-5.01990654e-02f,-1.54580623e-01f,+5.10989189e-01f,+7.55279288e-02f,
-4.78089571e-01f,-8.60317275e-02f,-5.46547472e-01f,-2.50143737e-01f,+8.18372816e-02f,
-4.67029989e-01f,-2.23981917e-01f,+8.45726848e-01f,+7.44499862e-01f,-2.75976628e-01f,
-4.24888611e-01f,+3.86360377e-01f,-7.12426826e-02f,-5.86591363e-01f,-5.10540724e-01f,
-3.18926066e-01f,-3.86812568e-01f,-5.26705310e-02f,-5.83506465e-01f,+4.48557287e-01f,
-5.06116807e-01f,-1.99056238e-01f,+3.73087496e-01f,-4.98592794e-01f,-2.51463026e-01f,
-3.21588725e-01f,-2.18195602e-01f,+1.55873582e-01f,+1.94410563e-01f,-2.98621833e-01f,
-3.31301123e-01f,-5.56766391e-01f,+6.11664712e-01f,+1.56532541e-01f,+7.87381530e-01f,
-5.59327066e-01f,-4.31341976e-01f,+1.83190033e-02f,+6.29727244e-02f,-5.16617894e-01f,
+2.02884957e-01f,-2.15040237e-01f,+4.99000847e-02f,-4.86390203e-01f,-1.76864743e-01f,
+3.25293541e-01f,-3.26450765e-01f,-8.10744881e-04f,+6.70503378e-02f,+5.27289271e-01f,
-2.64608413e-01f,+5.56526244e-01f,-2.40015462e-01f,-2.59216011e-01f,+1.47409752e-01f,
-2.33378500e-01f,+3.52104418e-02f,+1.95911333e-01f,-2.47110039e-01f,+5.78815758e-01f,
-1.27915248e-01f,+3.75845999e-01f,+4.00954843e-01f,+2.09414333e-01f,+4.19753462e-01f,
+7.20555112e-02f,+3.66318673e-01f,-3.99185270e-01f,-2.78890077e-02f,-7.59023070e-01f,
-1.37376443e-01f,-3.42727512e-01f,+3.35567556e-02f,+1.58657223e-01f,-6.37261987e-01f,
-4.21697572e-02f,-5.36100417e-02f,+1.46673888e-01f,-1.89739689e-01f,+3.63215059e-01f,
+2.06831589e-01f,-5.66362627e-02f,-3.68647389e-02f,+5.12615740e-01f,-1.22583151e-01f,
+2.03248277e-01f,+3.77727985e-01f,-2.14275643e-02f,-1.78778116e-02f,-6.34260654e-01f,
+1.34935975e-01f,-2.80351967e-01f,+4.75993156e-02f,+1.74161382e-02f,-1.62421808e-01f,
+2.08475679e-01f,+5.41595034e-02f,+1.38525411e-01f,-1.46683350e-01f,+4.60270435e-01f,
+1.69737220e-01f,-2.22072244e-01f,+1.01390041e-01f,-5.35525717e-02f,+3.49103272e-01f,
+3.58602613e-01f,+9.68170613e-02f,-9.13103372e-02f,+4.52400148e-01f,+3.42072546e-01f,
+1.97912492e-02f,-5.11167884e-01f,+2.90540248e-01f,+1.21780530e-01f,+4.34735537e-01f,
+2.47981340e-01f,-1.59410223e-01f,+2.59836525e-01f,+5.02629876e-01f,+3.21542114e-01f,
+2.24360839e-01f,-7.22918436e-02f,-2.73378909e-01f,-7.24687755e-01f,+5.21103263e-01f,
+7.51859009e-01f,-1.83018684e-01f,+4.59848791e-01f,-2.61196762e-01f,-6.00224674e-01f,
+9.82091278e-02f,+1.09481029e-01f,-1.91321462e-01f,+1.28698051e-01f,-1.67979419e-01f,
-2.75793523e-01f,-6.88695014e-01f,+6.58128619e-01f,+1.89529791e-01f,+2.39089891e-01f,
-1.97783664e-01f,+2.53515750e-01f,-2.47288510e-01f,-5.03389776e-01f,+7.21510276e-02f,
-3.96666288e-01f,+6.97375834e-01f,-5.14752746e-01f,-4.82129723e-01f,-1.12616226e-01f,
+3.44377995e-01f,-3.67205113e-01f,-8.93399194e-02f,+5.79394400e-01f,+8.84558037e-02f,
+5.07028818e-01f,-1.06938686e-02f,-2.85140216e-01f,+3.83078456e-01f,+2.84924179e-01f,
-1.10175647e-01f,+3.80675018e-01f,-4.10847723e-01f,+2.72962540e-01f,+4.03113991e-01f,
-7.28561163e-01f,-2.88196683e-01f,-1.86691042e-02f,-2.27036208e-01f,-5.25489412e-02f,
-1.85046911e-01f,+2.16808230e-01f,+1.34018928e-01f,+6.04213059e-01f,+4.84964430e-01f,
+2.89210320e-01f,+2.57235885e-01f,-8.59625917e-03f,+5.92871904e-01f,+4.53078806e-01f,
+7.05155194e-01f,-3.66800159e-01f,-1.46533072e-01f,-7.05219150e-01f,+3.62855308e-02f,
-1.28046855e-01f,-3.26176554e-01f,+2.70448893e-01f,+4.30960715e-01f,-8.20708215e-01f,
+7.78674126e-01f,-3.77061576e-01f,+1.02308750e-01f,-8.15185606e-02f,+6.97709024e-02f,
-2.05294400e-01f,+4.95846063e-01f,-2.88883924e-01f,+7.55316913e-02f,-1.40017703e-01f,
+6.34729445e-01f,-9.80588719e-02f,-3.71459097e-01f,+2.67489143e-02f,-4.80536997e-01f,
+3.92413527e-01f,+3.61613005e-01f,-2.72179544e-01f,+5.40155172e-01f,+6.55731618e-01f,
-4.38943684e-01f,+8.66092741e-01f,+5.69672585e-01f,+1.05574273e-01f,+3.70810442e-02f,
+2.79546559e-01f,-3.93369608e-02f,-1.93982005e-01f,-3.17102700e-01f,+3.87231648e-01f,
-1.19613282e-01f,-2.07539007e-01f,+1.04365543e-01f,-3.21768254e-01f,+1.06449395e-01f,
+5.43756969e-03f,+3.66684377e-01f,+3.36167328e-02f,-1.54757813e-01f,+2.65547067e-01f,
-8.32599998e-02f,+1.64345443e-01f,+3.85788411e-01f,-1.33174479e-01f,-7.40630209e-01f,
-1.64422646e-01f,-1.00940235e-01f,-5.58286011e-02f,+4.57432866e-01f,+4.72212821e-01f,
-1.11701868e-01f,+2.97923416e-01f,-1.20222948e-01f,+4.43447590e-01f,-8.24245811e-02f,
+2.82880455e-01f,+3.83647412e-01f,+5.16505480e-01f,-3.13520012e-03f,-5.22398472e-01f,
-3.50237697e-01f,+3.74993622e-01f,+1.53097799e-02f,+8.27951953e-02f,-1.25707820e-01f,
+4.43013608e-01f,+3.01634699e-01f,-9.79842022e-02f,+5.59167802e-01f,-4.05353904e-01f,
+3.09705377e-01f,-3.02074552e-01f,+2.82958984e-01f,-9.24669355e-02f,-3.29727769e-01f,
+1.84831113e-01f,-2.69469339e-02f,-2.13224158e-01f,+6.22244298e-01f,+7.64663219e-02f,
+2.91505188e-01f,+3.14945102e-01f,-3.59340981e-02f,-1.11505650e-01f,+4.89690393e-01f,
+2.85669230e-02f,-1.07696617e-03f,+3.75780791e-01f,-2.45684519e-01f,+5.60367703e-01f,
-9.73497555e-02f,+1.32397756e-01f,-1.11330323e-01f,-9.62985754e-02f,-2.16477156e-01f,
+3.03935856e-01f,-4.94091213e-02f,+5.28281510e-01f,+6.80354312e-02f,-1.85157061e-01f,
-1.96670517e-01f,-3.29263985e-01f,-4.85572845e-01f,+3.32295150e-01f,-7.99155682e-02f,
+2.81898141e-01f,-2.33060732e-01f,-8.44011083e-02f,+2.43318886e-01f,+1.26928478e-01f,
+9.81726348e-02f,-8.28027949e-02f,+2.55403787e-01f,+1.85291231e-01f,+6.17818208e-03f,
-1.03422225e-01f,+9.01753232e-02f,-5.48771381e-01f,+4.00373898e-02f,}; 
k2c_tensor dense_1_kernel = {&dense_1_kernel_array[0],2,1024,{32,32, 1, 1, 1}}; 
float dense_1_bias_array[32] = {
+2.67786253e-02f,+3.20410840e-02f,+3.10831126e-02f,-4.44602482e-02f,+4.69963290e-02f,
+2.07749918e-01f,+1.25613005e-03f,-1.31888017e-02f,+6.23664409e-02f,-2.49099582e-02f,
+9.10418183e-02f,-3.63935903e-02f,+8.79840106e-02f,-1.56387776e-01f,-6.37000576e-02f,
-6.76508844e-02f,-6.09002784e-02f,-2.99542118e-02f,+3.12356740e-01f,+5.76660745e-02f,
-1.43073779e-02f,+2.69313790e-02f,+3.00889574e-02f,+1.99557677e-01f,+1.83963746e-01f,
+1.10506751e-01f,+3.61245722e-02f,-1.92514643e-01f,+8.38226359e-03f,+6.02628849e-02f,
+5.85379750e-02f,+2.73014838e-03f,}; 
k2c_tensor dense_1_bias = {&dense_1_bias_array[0],1,32,{32, 1, 1, 1, 1}}; 
float dense_1_fwork[1056] = {0}; 

 
float dense_2_output_array[32] = {0}; 
k2c_tensor dense_2_output = {&dense_2_output_array[0],1,32,{32, 1, 1, 1, 1}}; 
float dense_2_kernel_array[1024] = {
+2.35633776e-01f,-1.67877097e-02f,-1.14992820e-03f,-2.42271379e-01f,-2.40452543e-01f,
-2.12904081e-01f,-4.86376546e-02f,+3.20354313e-01f,+1.11775048e-01f,-9.80390087e-02f,
+2.67411172e-01f,-2.73898095e-01f,-2.62001544e-01f,-2.43811354e-01f,+2.70150751e-01f,
+1.33933455e-01f,+1.48852304e-01f,+1.43717900e-01f,-5.13455272e-01f,+2.38091331e-02f,
-2.40610376e-01f,-3.86614650e-01f,+4.78723608e-02f,-3.76936346e-02f,-3.25767785e-01f,
-1.50884658e-01f,-1.42043173e-01f,+3.10774565e-01f,+2.07808793e-01f,+6.61938637e-02f,
+3.44030201e-01f,+2.66465664e-01f,+1.01077273e-01f,-1.65188596e-01f,-7.97787607e-02f,
-1.06222481e-01f,-6.80937842e-02f,+1.52910486e-01f,+2.47646898e-01f,+6.15578592e-01f,
+1.10740229e-01f,+7.20897317e-02f,+9.46372375e-02f,+1.07794695e-01f,+4.12958860e-01f,
-2.04822853e-01f,+3.01270872e-01f,-6.09972715e-01f,-5.93574643e-01f,-2.63322562e-01f,
-5.43126941e-01f,+4.27543104e-01f,-7.03918755e-01f,+4.13563669e-01f,-1.89583465e-01f,
+4.65008676e-01f,-7.00533204e-03f,-4.18901712e-01f,+5.21325432e-02f,+4.06260371e-01f,
+1.75714672e-01f,+8.42197910e-02f,+3.63057911e-01f,+2.98874140e-01f,+1.80388540e-01f,
+5.89829423e-02f,+1.53337419e-01f,-3.12157482e-01f,+4.96249832e-03f,+1.99174210e-01f,
+2.16029063e-01f,-2.08124757e-01f,+2.88660109e-01f,-3.05877417e-01f,-2.76430584e-02f,
+3.93019468e-02f,-2.95591533e-01f,+3.24021168e-02f,+5.57002366e-01f,+4.51979458e-01f,
+4.54291776e-02f,+2.31369749e-01f,+2.13740677e-01f,+6.71917573e-03f,-1.10803485e-01f,
-5.39444268e-01f,+1.89140484e-01f,+3.29136252e-01f,-3.07569176e-01f,+2.16097474e-01f,
-3.69026929e-01f,+4.88592446e-01f,-2.30892301e-01f,+2.00868815e-01f,+3.35255623e-01f,
+3.25398505e-01f,-2.43178055e-01f,-2.28899851e-01f,+1.58646643e-01f,-1.22049481e-01f,
+1.45469919e-01f,-7.03794509e-03f,+1.33242831e-01f,+1.22548275e-01f,+2.17115894e-01f,
-1.70595706e-01f,-2.37132072e-01f,-3.51130962e-03f,+1.25314370e-01f,-2.26375803e-01f,
-2.15197280e-01f,+1.34655923e-01f,-2.30990961e-01f,-1.65228873e-01f,+1.27710745e-01f,
+1.32302284e-01f,-1.28894538e-01f,+2.43374303e-01f,-3.84783782e-02f,-1.30288452e-01f,
-2.25653008e-01f,+1.92326725e-01f,+8.07849467e-02f,-1.47405162e-01f,+2.06377089e-01f,
-3.09200168e-01f,-2.48780608e-01f,+1.04511216e-01f,+8.04029778e-02f,+1.34586886e-01f,
-1.45560771e-01f,-1.07519165e-01f,+1.17708044e-03f,+1.48411229e-01f,-3.03133190e-01f,
-4.70269740e-01f,+1.42879784e-01f,-1.19499847e-01f,+1.70487270e-01f,-2.19983891e-01f,
-4.13256675e-01f,-3.60757589e-01f,-1.79239064e-01f,-1.57448232e-01f,+2.96912909e-01f,
+6.32087111e-01f,-1.21113863e-02f,-2.33215347e-01f,-3.25263113e-01f,+2.81562269e-01f,
+3.48281562e-01f,-2.03780502e-01f,+1.85656488e-01f,+6.17112517e-01f,-2.50216544e-01f,
-3.97061080e-01f,+4.14394848e-02f,-1.30577520e-01f,+5.66581041e-02f,+3.98269743e-01f,
+5.32824039e-01f,-4.14387941e-01f,+4.66540307e-01f,+2.93762714e-01f,-2.57878721e-01f,
-2.64784545e-01f,+5.20557106e-01f,+6.32815480e-01f,-4.36961114e-01f,-3.02107692e-01f,
+4.38014537e-01f,-1.70329437e-01f,+2.03350693e-01f,-9.73754749e-02f,+2.09223449e-01f,
-2.52170265e-02f,-3.01846415e-01f,+2.61868030e-01f,+4.19661343e-01f,-9.76652950e-02f,
+7.35645443e-02f,-1.78796309e-03f,+1.81081161e-01f,+1.28686920e-01f,+2.35327557e-01f,
+3.66570950e-01f,-3.35491747e-01f,-2.80205041e-01f,+4.39023018e-01f,+1.12715125e-01f,
-1.77017033e-01f,-6.29290402e-01f,-2.01634556e-01f,+4.84974533e-01f,-2.45058089e-01f,
-1.11101583e-01f,-1.03530668e-01f,-1.61285147e-01f,-7.88947761e-01f,-3.77197564e-01f,
+6.70243025e-01f,+1.77793372e-02f,-3.17819983e-01f,-1.35546952e-01f,+5.37077248e-01f,
+7.74367511e-01f,-2.74584621e-01f,+2.45724633e-01f,-4.82304424e-01f,+2.30703741e-01f,
+2.48027787e-01f,+2.47482553e-01f,-3.33282560e-01f,+4.77936789e-02f,-7.33861983e-01f,
-6.05703175e-01f,+1.62421986e-01f,-1.54549524e-01f,-1.04374606e-02f,+7.40271389e-01f,
-1.40078709e-01f,-1.21108606e-01f,+4.83104110e-01f,+1.71327844e-01f,-5.64532876e-01f,
+4.85807955e-01f,-2.05544531e-01f,+1.28896341e-01f,-1.60353561e-03f,-1.71564683e-01f,
-5.18922687e-01f,-2.16583516e-02f,+1.48215771e-01f,-2.06375599e-01f,-1.32305458e-01f,
-1.79252177e-01f,-4.29750204e-01f,+1.31409969e-02f,-2.12482020e-01f,-1.65322438e-01f,
+4.68199939e-01f,+2.60793287e-02f,+4.57874775e-01f,+6.92428499e-02f,+8.27682018e-02f,
+5.13919055e-01f,+3.83706033e-01f,-3.84990066e-01f,-2.41467819e-01f,-4.64926101e-02f,
+4.60692272e-02f,-1.75362647e-01f,-1.66666299e-01f,-2.98840910e-01f,+3.54908705e-01f,
+6.99862301e-01f,-9.19604450e-02f,-5.00315502e-02f,-6.84448361e-01f,-2.61760175e-01f,
-2.32212618e-02f,-2.74689198e-01f,+4.13376004e-01f,+9.30250511e-02f,-2.03923628e-01f,
-1.40949190e-01f,-5.83172679e-01f,+1.09609082e-01f,-1.25315651e-01f,-6.31445885e-01f,
+3.46666127e-01f,-1.01039417e-01f,-3.36965881e-02f,+6.54393807e-02f,-1.07885357e-02f,
+1.12464681e-01f,-5.34969233e-02f,-2.22783610e-01f,+3.24165493e-01f,+4.82201874e-01f,
-2.87138432e-01f,+3.52175087e-01f,-1.98232010e-01f,+4.14321363e-01f,-5.89207172e-01f,
+1.05370536e-01f,+2.32760340e-01f,+1.76737532e-01f,-3.12849283e-01f,-2.40699649e-02f,
-1.06369905e-01f,+3.16374809e-01f,-9.77195352e-02f,+1.65477514e-01f,+1.73059031e-01f,
+2.03651607e-01f,-2.48328899e-03f,+2.65425205e-01f,-1.16475210e-01f,-7.43227676e-02f,
+2.39622623e-01f,-1.08489506e-01f,-2.60033965e-01f,-5.07525802e-01f,+5.85616171e-01f,
-1.86394885e-01f,+3.47870976e-01f,-4.51914668e-02f,+1.62252367e-01f,+6.02487564e-01f,
+1.63574159e-01f,+1.17069513e-01f,-3.67450491e-02f,+2.03030065e-01f,+5.61139248e-02f,
-2.75815517e-01f,+1.30545005e-01f,-4.69947234e-02f,-1.61749348e-01f,+5.04806936e-01f,
+2.15839893e-01f,-5.34534603e-02f,-4.15266782e-01f,+3.00407737e-01f,+5.23782447e-02f,
-1.80977538e-01f,+1.37245581e-01f,-1.30495846e-01f,-1.99061871e-01f,-6.70657232e-02f,
+9.95428562e-02f,+1.52672175e-02f,-5.09707034e-01f,-4.53145832e-01f,+3.29231173e-01f,
+7.78478831e-02f,-2.92852521e-01f,+3.16132903e-01f,-2.41331294e-01f,+5.70206866e-02f,
-3.45242858e-01f,+3.70395154e-01f,-1.55270368e-01f,-6.31029829e-02f,+8.62466171e-02f,
+6.09384716e-01f,-3.49128485e-01f,+1.69574380e-01f,-3.41010630e-01f,-2.88984478e-01f,
+2.34594792e-01f,-3.49465400e-01f,+8.20547119e-02f,-1.25713602e-01f,+2.65748590e-01f,
-4.61043537e-01f,-1.32922754e-01f,-5.31053310e-03f,-1.40684128e-01f,+4.31139201e-01f,
+2.30633274e-01f,-2.26880789e-01f,-1.77818045e-01f,-1.64405450e-01f,+3.75069886e-01f,
+2.09184021e-01f,+3.47564340e-01f,+1.83998436e-01f,-4.31188136e-01f,-3.64511997e-01f,
-3.90115470e-01f,+6.09030090e-02f,-7.61472285e-02f,-1.44856185e-01f,+1.99053913e-01f,
+1.59220293e-01f,-8.51708055e-02f,-3.07583243e-01f,-1.23480476e-01f,+5.80440998e-01f,
+5.12121506e-02f,+1.17918320e-01f,+2.56387591e-01f,+1.63064361e-01f,-1.83595762e-01f,
-8.42899084e-02f,+3.95463854e-01f,+3.50512683e-01f,-7.74792880e-02f,+1.26963258e-01f,
+1.92282364e-01f,+6.08570695e-01f,+3.34096998e-01f,+2.33715236e-01f,+3.94810706e-01f,
-1.16679519e-01f,+6.69818521e-01f,+2.72190273e-01f,-4.78185974e-02f,-1.98389769e-01f,
+9.52634867e-03f,+3.22027683e-01f,+1.04773477e-01f,+3.53459805e-01f,+1.06306657e-01f,
-2.44583279e-01f,+1.01460211e-01f,+5.88148758e-02f,+9.58166793e-02f,-9.27596763e-02f,
-1.82394579e-01f,+3.65770310e-01f,+5.77269316e-01f,+2.19768122e-01f,-1.25164941e-01f,
-3.25142413e-01f,-2.97997534e-01f,+5.95004797e-01f,-1.17653668e-01f,-3.15064907e-01f,
-2.56911010e-01f,-6.92835897e-02f,-3.11325312e-01f,+2.39187792e-01f,+6.92563713e-01f,
+9.26837102e-02f,-5.91288149e-01f,+2.28434041e-01f,-1.60651371e-01f,+9.32702199e-02f,
-2.80476123e-01f,+3.76925439e-01f,-4.55373265e-02f,-1.64426759e-01f,-6.79123923e-02f,
-1.13664135e-01f,+4.02668834e-01f,-1.97983682e-01f,+2.63563320e-02f,-1.80767566e-01f,
-2.22674340e-01f,-5.12373209e-01f,-8.43047649e-02f,+7.30542958e-01f,-1.72415107e-01f,
-1.16547137e-01f,+7.06646621e-01f,+5.25917053e-01f,-2.58513037e-02f,-9.93062705e-02f,
-1.87623382e-01f,-1.69298247e-01f,+1.64117157e-01f,-1.76007763e-01f,+4.22092736e-01f,
+4.25367743e-01f,+1.85939431e-01f,+7.29324147e-02f,+8.10050592e-02f,-2.37579942e-02f,
-4.12390102e-03f,+4.36350480e-02f,+3.54368895e-01f,-9.57510173e-02f,-1.22117534e-01f,
-3.05353522e-01f,-2.09586069e-01f,+5.49411654e-01f,-3.89283121e-01f,-3.99706475e-02f,
+2.30171755e-01f,+2.10353449e-01f,+2.81157404e-01f,-2.07032785e-01f,-1.57592654e-01f,
-1.40445247e-01f,+5.46111882e-01f,-1.52779669e-01f,+5.26314855e-01f,-4.13505763e-01f,
-1.28133789e-01f,+5.39564431e-01f,-2.17076227e-01f,+2.44580209e-01f,-1.78991020e-01f,
-1.19176790e-01f,-1.45492285e-01f,-5.28615080e-02f,+6.42006397e-02f,+2.41181195e-01f,
-5.61635382e-02f,-2.05552936e-01f,+5.32674082e-02f,+2.64777273e-01f,+2.89238155e-01f,
-3.57604653e-01f,-2.12602019e-01f,+9.02914032e-02f,+2.17673883e-01f,+2.20022485e-01f,
+1.95845519e-03f,+3.92351508e-01f,+3.20009738e-01f,-3.27851295e-01f,+1.90745071e-01f,
+1.70828640e-01f,+1.75300479e-01f,+8.41539260e-03f,+4.34076071e-01f,-1.77782968e-01f,
+2.31757164e-01f,-1.24715067e-01f,+3.20749164e-01f,+1.50417849e-01f,+2.23401830e-01f,
-4.92016435e-01f,-8.70453864e-02f,-2.95904666e-01f,+1.22891955e-01f,-3.51494215e-02f,
-1.83986768e-01f,-3.04136932e-01f,-2.07857639e-01f,-2.31675997e-01f,-1.11581579e-01f,
+2.15441976e-02f,-7.72382617e-02f,+2.94562042e-01f,+7.02609479e-01f,-2.83179939e-01f,
+2.39130646e-01f,-1.74237594e-01f,+1.10181369e-01f,-6.32780254e-01f,+8.30900908e-01f,
+2.95082986e-01f,-2.28991523e-01f,-4.15600419e-01f,-3.57996315e-01f,-5.00627086e-02f,
+1.00639358e-03f,-2.85872102e-01f,+3.83515358e-01f,+4.41671669e-01f,+2.27633998e-01f,
+1.51686683e-01f,-6.87039122e-02f,-2.28426248e-01f,-1.70944512e-01f,+2.65390515e-01f,
-2.50729561e-01f,+1.69594944e-01f,-2.16592357e-01f,-1.69339105e-01f,+2.51741886e-01f,
-2.11362749e-01f,+2.71476537e-01f,+2.76555270e-01f,+9.47379917e-02f,+6.77271485e-02f,
-1.51440963e-01f,+1.99167714e-01f,+1.15497075e-01f,+6.54777959e-02f,+1.23393334e-01f,
-1.02819286e-01f,-1.62719518e-01f,-1.05397768e-01f,-1.32649258e-01f,+1.90123677e-01f,
-1.04520962e-01f,-2.21668094e-01f,-1.06076747e-01f,-9.46304277e-02f,-1.64534003e-01f,
+9.67655629e-02f,+6.14544690e-01f,+1.98531345e-01f,+2.56271720e-01f,+3.30588311e-01f,
-1.96462661e-01f,-2.89611608e-01f,+4.18892920e-01f,-1.01122260e-01f,+4.98777367e-02f,
-1.03506118e-01f,+2.29512051e-01f,-2.76167721e-01f,-7.32460096e-02f,-1.76641773e-02f,
+5.21039125e-03f,+3.23242508e-02f,+2.41188779e-01f,+4.61299270e-01f,+3.28800321e-01f,
-2.99600303e-01f,+5.05928993e-01f,+4.99915816e-02f,+3.22356611e-01f,+3.09982270e-01f,
-2.14621678e-01f,+6.88770294e-01f,-2.46901885e-01f,-1.74048901e-01f,+3.31618130e-01f,
-3.28935981e-01f,-9.30804312e-02f,-1.35515079e-01f,+1.70988664e-01f,+1.13107130e-01f,
+1.94388062e-01f,+3.31284441e-02f,-3.02024875e-02f,+2.87622027e-02f,+1.65762439e-01f,
-4.01625447e-02f,-2.93184161e-01f,-2.63971359e-01f,-1.61753312e-01f,+2.83482313e-01f,
+2.14625239e-01f,+2.06269965e-01f,-1.70858026e-01f,+2.71559328e-01f,-2.07742780e-01f,
-1.72751531e-01f,+5.58825731e-01f,-2.54551768e-01f,+5.34408629e-01f,+2.87976861e-01f,
+1.18504703e-01f,+2.78576970e-01f,-1.70621157e-01f,-8.40268563e-03f,-1.80026948e-01f,
+1.01244636e-01f,+5.64796984e-01f,-2.10894674e-01f,+9.26429927e-02f,+2.17055812e-01f,
+3.92327338e-01f,+7.69083872e-02f,-1.06287062e-01f,+9.51562375e-02f,+2.07527190e-01f,
-3.11743885e-01f,+1.27558634e-01f,+1.94803149e-01f,+1.52103111e-01f,-2.03198254e-01f,
+1.53617039e-01f,-1.34567380e-01f,+2.22166255e-01f,-1.16152883e-01f,+5.40331304e-01f,
-1.75360113e-01f,-4.22277480e-01f,-6.71300590e-02f,-2.32040271e-01f,+1.54463589e-01f,
-2.53801733e-01f,+2.80135840e-01f,-3.43671262e-01f,+1.34000704e-01f,-1.60490438e-01f,
+3.90538990e-01f,+6.24710098e-02f,+1.05596431e-01f,+1.27741471e-01f,+7.09004253e-02f,
+5.70678771e-01f,-3.93975675e-01f,-4.87018853e-01f,+3.82642120e-01f,-6.44734204e-01f,
+2.05243170e-01f,-1.01475634e-01f,+1.04143411e-01f,+5.00345707e-01f,-4.78556573e-01f,
+9.23588395e-01f,-1.52867716e-02f,+7.73038864e-01f,+1.11754082e-01f,+3.68400104e-02f,
-7.26900637e-01f,-4.67792839e-01f,-7.88431823e-01f,+1.14340973e+00f,+1.09480165e-01f,
-3.69723529e-01f,+3.57419103e-02f,-6.40704989e-01f,-4.44926202e-01f,+8.74525070e-01f,
-3.96623425e-02f,-9.66135189e-02f,+6.96799278e-01f,-2.76438802e-01f,-1.59967080e-01f,
-1.46873683e-01f,-7.04373866e-02f,-5.45106649e-01f,+1.16674602e+00f,-1.17313564e-02f,
+2.36023106e-02f,+2.47549757e-01f,+3.04908127e-01f,+2.11340100e-01f,+1.28341705e-01f,
+1.63304150e-01f,+2.24109948e-01f,-2.57498026e-01f,+2.57868528e-01f,+2.59648263e-01f,
-2.16072295e-02f,+6.74436167e-02f,-2.57676363e-01f,+1.58091664e-01f,-5.26114483e-04f,
-1.80677757e-01f,+2.75110930e-01f,+6.39034286e-02f,+2.19933778e-01f,+3.36457551e-01f,
+3.30885202e-01f,+3.31974149e-01f,+3.18413615e-01f,-4.94158156e-02f,+3.26763421e-01f,
-1.08458944e-01f,-1.29107848e-01f,-1.09995902e-01f,-5.23566492e-02f,+3.54085803e-01f,
-1.11406274e-01f,+2.37011328e-01f,+1.01790681e-01f,+6.96085513e-01f,-1.88098460e-01f,
+1.95136890e-01f,-8.85835290e-02f,-7.26748258e-02f,+6.31100610e-02f,+2.48481855e-01f,
-2.69188523e-01f,+2.83064425e-01f,-6.45629019e-02f,+1.07979082e-01f,+5.81893504e-01f,
+1.78619340e-01f,+5.11492550e-01f,-7.96740890e-01f,+6.01358652e-01f,-1.20059803e-01f,
-1.53575554e-01f,+3.53217542e-01f,-5.92558123e-02f,-5.99930942e-01f,+3.55108351e-01f,
-2.27373198e-01f,-1.42070547e-01f,+1.37929261e-01f,+5.31063974e-01f,-6.22285493e-02f,
-3.70481938e-01f,+8.44010338e-02f,-5.38737893e-01f,-4.38308299e-01f,+4.62196201e-01f,
+6.23469725e-02f,+2.92443037e-01f,-1.25762165e-01f,+8.26365426e-02f,-6.60411194e-02f,
+3.90534550e-01f,+6.97701454e-01f,+4.73584160e-02f,+4.24599022e-01f,+4.91170250e-02f,
+5.00271678e-01f,-2.82580644e-01f,-1.30671695e-01f,-5.44441938e-01f,+2.50712782e-01f,
-4.97008748e-02f,-9.56582665e-01f,+1.35432690e-01f,-1.28321373e+00f,+5.06082892e-01f,
-4.37375642e-02f,-3.63211930e-01f,-1.58216313e-01f,+3.93236399e-01f,+7.52814859e-02f,
-2.46482771e-02f,-1.36592686e-01f,-8.53069052e-02f,+2.18574494e-01f,+3.76926869e-01f,
+3.33985120e-01f,+6.15410268e-01f,+3.60716879e-01f,+1.81951478e-01f,+2.98786052e-02f,
+1.47132888e-01f,-3.41635704e-01f,-4.98742789e-01f,+3.05068851e-01f,+4.30625975e-02f,
+4.50669557e-01f,-1.61946878e-01f,-5.58038838e-02f,+6.43899262e-01f,-5.94859757e-02f,
+3.06149006e-01f,+4.62564588e-01f,+4.30883020e-01f,+3.70755851e-01f,-2.82134324e-01f,
+2.20032837e-02f,+2.23847389e-01f,-4.02130961e-01f,-4.88584369e-01f,-1.42468229e-01f,
+2.93258429e-01f,+1.74669400e-01f,+4.11875039e-01f,+1.07567675e-01f,+2.57474452e-01f,
+1.88660547e-01f,+7.68706501e-02f,-2.12614372e-01f,+3.14597517e-01f,-2.10239068e-01f,
-3.35441709e-01f,+1.64246000e-02f,+8.57322440e-02f,-4.70165074e-01f,-6.98590815e-01f,
+3.42960991e-02f,-7.03800768e-02f,-4.34579141e-02f,-2.34838858e-01f,-1.50486350e-01f,
+8.87676794e-03f,-3.41540202e-02f,+2.06569463e-01f,+2.65922964e-01f,+4.91514921e-01f,
+2.19037414e-01f,+7.14327693e-02f,+2.88959503e-01f,-4.65494655e-02f,-1.55741856e-01f,
-5.44052660e-01f,-1.12932384e-01f,+3.10762674e-01f,-1.42384991e-01f,+2.87707001e-01f,
-1.61063299e-01f,+8.84108022e-02f,+3.95082504e-01f,+3.22448164e-01f,+2.60775059e-01f,
+3.82779986e-01f,-2.61202604e-01f,+4.36368547e-02f,-2.94553012e-01f,-2.29148760e-01f,
+4.19267081e-02f,+5.09052634e-01f,+4.74202931e-01f,+4.77516800e-02f,-1.32046565e-01f,
-2.10265025e-01f,+3.95525724e-01f,+1.29313737e-01f,+3.91980745e-02f,-2.02835202e-01f,
+7.82904923e-02f,-1.36206429e-02f,-3.27666551e-01f,+6.15426525e-02f,-3.87240231e-01f,
+1.03893146e-01f,+2.27886155e-01f,-6.23415932e-02f,-2.59912461e-01f,+5.88030964e-02f,
-2.20320169e-02f,+1.51805446e-01f,+1.25875056e-01f,-3.47510993e-01f,+1.89760447e-01f,
+1.93860397e-01f,+3.26763839e-01f,+4.01316971e-01f,+4.38265093e-02f,-1.59022465e-01f,
+3.71982828e-02f,+1.83209673e-01f,+3.64946634e-01f,+3.71291451e-02f,+1.76536545e-01f,
-1.99175879e-01f,+1.52798206e-01f,-8.83005559e-02f,+4.76683050e-01f,+3.20785254e-01f,
-3.19980294e-01f,-3.95744368e-02f,+1.57412186e-01f,+1.20936342e-01f,+5.29506914e-02f,
-1.53332604e-02f,+3.91139239e-01f,-1.88121825e-01f,-1.46368548e-01f,+2.32097447e-01f,
+1.15432777e-01f,-2.59336144e-01f,+4.05596495e-02f,+8.53573829e-02f,+5.54376662e-01f,
+1.04453437e-01f,-1.67939514e-02f,+4.03007567e-01f,-2.57094264e-01f,+2.86701947e-01f,
-2.12289050e-01f,+4.28885043e-01f,-1.71480589e-02f,-1.88580140e-01f,-1.00347482e-01f,
-3.25854532e-02f,+3.91734719e-01f,+1.96075231e-01f,+4.21949416e-01f,-1.50431335e-01f,
+1.31039515e-01f,+1.99275151e-01f,+5.77966690e-01f,-1.13818191e-01f,-3.33632499e-01f,
+4.32059824e-01f,+5.11011332e-02f,+1.05546959e-01f,-3.47305715e-01f,+7.68793225e-02f,
-3.31085145e-01f,+2.16441438e-01f,+1.31370664e-01f,+3.31661493e-01f,-3.92512739e-01f,
+1.30185291e-01f,-2.10183933e-01f,+1.17522314e-01f,-6.93694204e-02f,-3.72682601e-01f,
-3.84236008e-01f,+6.11268021e-02f,-3.13798398e-01f,+3.48371655e-01f,+1.05136663e-01f,
-1.79637045e-01f,-1.25430211e-01f,+7.10205808e-02f,+3.40498894e-01f,-1.98942319e-01f,
-1.87411919e-01f,-2.59647280e-01f,+9.32624936e-01f,+4.93948668e-01f,-8.41001987e-01f,
-5.24096489e-01f,+1.64423026e-02f,-6.53455734e-01f,+4.27240759e-01f,+2.00547919e-01f,
+3.73864621e-01f,+5.28791904e-01f,-7.59638995e-02f,-2.40927592e-01f,-1.38439447e-01f,
+1.03706516e-01f,-2.62708008e-01f,-1.83442593e-01f,+8.01103890e-01f,-3.30026805e-01f,
-7.12263227e-01f,+8.29411577e-03f,-2.15095669e-01f,+6.58682168e-01f,+2.72292405e-01f,
+4.87347931e-01f,+2.70552367e-01f,-3.04470271e-01f,-4.75153834e-01f,-1.57369226e-01f,
+5.82334101e-01f,-1.12098470e-01f,+2.43017569e-01f,-2.59468257e-01f,+1.52075008e-01f,
+4.08298016e-01f,-1.13713406e-01f,-3.32809299e-01f,+4.12428111e-01f,+3.24198157e-01f,
+2.14144036e-01f,+2.88144141e-01f,-5.60484290e-01f,+5.05667746e-01f,-2.41283685e-01f,
-2.96699703e-01f,-1.72991455e-01f,-9.14967246e-03f,+1.39876366e-01f,-1.68082684e-01f,
-1.53125316e-01f,-1.50994375e-01f,-6.47961348e-02f,+2.08678290e-01f,}; 
k2c_tensor dense_2_kernel = {&dense_2_kernel_array[0],2,1024,{32,32, 1, 1, 1}}; 
float dense_2_bias_array[32] = {
+1.89439088e-01f,-2.79911384e-02f,+1.65028289e-01f,+8.31172094e-02f,-2.74559800e-02f,
-5.00690974e-02f,+1.07271984e-01f,+1.36151150e-01f,-4.97074276e-02f,-2.80087423e-02f,
+1.89480871e-01f,-3.62469256e-02f,-1.30397016e-02f,+4.19086069e-02f,+6.84053898e-02f,
+5.78188635e-02f,+1.24334320e-01f,+1.56127185e-01f,+8.86269193e-03f,-9.73024666e-02f,
+1.07025065e-01f,+4.65607308e-02f,+7.06779212e-03f,+1.03285231e-01f,-1.86712109e-02f,
+3.66162837e-01f,-7.72852078e-02f,-1.55518521e-02f,+7.55650550e-02f,-4.61330712e-02f,
-1.07435748e-01f,-4.49071303e-02f,}; 
k2c_tensor dense_2_bias = {&dense_2_bias_array[0],1,32,{32, 1, 1, 1, 1}}; 
float dense_2_fwork[1056] = {0}; 

 
float dense_3_output_array[32] = {0}; 
k2c_tensor dense_3_output = {&dense_3_output_array[0],1,32,{32, 1, 1, 1, 1}}; 
float dense_3_kernel_array[1024] = {
+3.90142173e-01f,+1.14691980e-01f,-8.45859945e-02f,-7.12213397e-01f,-6.70011565e-02f,
+2.81723469e-01f,-9.67707299e-03f,-2.02894524e-01f,-9.76138487e-02f,+9.01916772e-02f,
-2.86366642e-02f,-2.46299326e-01f,-1.63323224e-01f,+1.68905735e-01f,-6.67436793e-02f,
-3.63722146e-01f,+3.75895560e-01f,-1.71698257e-01f,-9.00031775e-02f,-1.01313375e-01f,
-6.22474432e-01f,+1.90988749e-01f,+4.35396612e-01f,-5.22560142e-02f,-5.20391576e-02f,
+1.85085848e-01f,-1.61934063e-01f,-3.62843663e-01f,+7.51882419e-02f,-2.73993790e-01f,
+2.32976750e-01f,-1.79436579e-01f,-2.60522753e-01f,+1.37003347e-01f,+4.37035441e-01f,
+1.36013046e-01f,-3.54121029e-01f,+2.26828545e-01f,-4.36467022e-01f,+4.24082607e-01f,
+3.73045318e-02f,+1.15449831e-01f,-5.11236787e-02f,-7.62713403e-02f,-1.95080098e-02f,
-5.23634851e-01f,+2.08239302e-01f,+1.61551461e-02f,+2.75923428e-03f,+2.59151936e-01f,
-9.54477414e-02f,-2.09600955e-01f,+3.19493353e-01f,-5.79918623e-01f,-2.27684423e-01f,
-1.21102750e-01f,-2.65998960e-01f,-3.29532847e-02f,-1.13695897e-01f,+2.54474342e-01f,
-3.05621196e-02f,+6.08436942e-01f,+2.05725253e-01f,-1.41125411e-01f,+1.61709726e-01f,
+1.15087420e-01f,-3.24777871e-01f,-5.61477721e-01f,+1.35645047e-01f,+7.24181056e-01f,
+1.21971466e-01f,-6.06014282e-02f,+1.41653717e-02f,+2.33366594e-01f,-3.07496071e-01f,
-2.70366073e-01f,-1.31428838e-01f,+2.68307120e-01f,-7.50576794e-01f,+5.48311742e-03f,
+4.21719849e-01f,-6.11116886e-02f,-3.63254189e-01f,+3.21579665e-01f,+3.93016264e-02f,
-1.27943069e-01f,+4.73247230e-01f,+2.28905365e-01f,-1.85073495e-01f,+9.46647078e-02f,
-1.49285913e-01f,-1.07080531e+00f,+1.23300642e-01f,+2.48000428e-01f,+9.06288344e-03f,
+2.71084625e-03f,+4.15713787e-02f,-5.31380296e-01f,-2.28868023e-01f,-1.30841404e-01f,
+1.78632975e-01f,-2.65788823e-01f,+5.01735687e-01f,+7.22134188e-02f,-1.15739234e-01f,
-8.42090309e-01f,-3.11297864e-01f,-1.37273833e-01f,-4.95566204e-02f,-1.49520645e-02f,
+6.29093125e-02f,-2.82071084e-01f,+7.82042965e-02f,+1.39042452e-01f,+1.70844048e-01f,
+1.19436108e-01f,-4.37825948e-01f,-3.36872816e-01f,+3.98567803e-02f,-1.92959085e-01f,
+9.09728035e-02f,+4.22049105e-01f,-1.68088540e-01f,+3.02119553e-01f,-9.65691656e-02f,
+2.12810695e-01f,+6.35278881e-01f,+1.38860404e-01f,-9.65901315e-02f,-2.44686738e-01f,
+2.17405945e-01f,+2.50455469e-01f,+1.74919337e-01f,+1.86535895e-01f,-9.06082019e-02f,
-1.41087368e-01f,-2.12430462e-01f,+5.50656244e-02f,-2.28644222e-01f,-2.71919131e-01f,
-2.41159216e-01f,+5.32307588e-02f,-1.41060337e-01f,-2.29182512e-01f,+1.69890299e-02f,
-4.24661413e-02f,-2.08484858e-01f,+2.19777208e-02f,+2.33399227e-01f,-7.29468688e-02f,
-3.39705981e-02f,-4.04670648e-02f,-4.92919832e-02f,+9.64520425e-02f,-5.67011461e-02f,
+2.52759129e-01f,+7.05005825e-02f,-1.48180708e-01f,-9.56489593e-02f,-5.88982552e-02f,
-2.09762573e-01f,-1.68736875e-01f,+5.98719926e-04f,-9.70816091e-02f,+2.86447465e-01f,
+2.30228826e-01f,+1.73284039e-01f,-5.79903834e-02f,-2.71137446e-01f,-4.96950299e-02f,
+2.43986608e-03f,-1.81925088e-01f,-2.85326928e-01f,-2.96592683e-01f,-4.36763912e-02f,
+1.36859179e-01f,+2.81272858e-01f,-2.70443290e-01f,-2.16304779e-01f,+3.14525515e-02f,
-1.28082901e-01f,+1.14172511e-03f,+1.08997285e-01f,+2.47418121e-01f,+9.95316431e-02f,
-3.03356498e-01f,-5.87333441e-02f,-1.96129635e-01f,+2.95113921e-02f,+2.93259382e-01f,
+2.80416131e-01f,+4.16757204e-02f,+4.56133425e-01f,+3.45925748e-01f,-4.67239231e-01f,
-3.17576587e-01f,+1.29689705e-02f,-4.41413112e-02f,-1.13499947e-01f,-4.38942254e-01f,
+8.53557587e-02f,-2.00271040e-01f,-1.28340140e-01f,+3.49779725e-02f,-1.67444468e-01f,
+7.20383286e-01f,+5.76152168e-02f,-2.21213058e-01f,+3.14703763e-01f,-1.24075539e-01f,
+2.20823288e-01f,-2.09507227e-01f,-8.10739040e-01f,+5.52315176e-01f,+2.66020030e-01f,
+1.34698544e-02f,-8.28115940e-02f,-1.05933040e-01f,-3.54438908e-02f,+2.06688717e-01f,
-1.40808478e-01f,+1.03194095e-01f,-1.94820702e-01f,+3.01232308e-01f,+6.31283000e-02f,
-2.27916509e-01f,-2.52399176e-01f,+1.63572341e-01f,+5.85265517e-01f,-2.62389854e-02f,
-2.83599794e-02f,+1.72588989e-01f,-1.10499233e-01f,-2.33513430e-01f,-8.91319290e-02f,
+1.44694567e-01f,-2.15351835e-01f,+4.47321624e-01f,-2.22415298e-01f,-1.70893148e-01f,
+2.08972663e-01f,+1.33219823e-01f,+3.72186899e-02f,-2.54653603e-01f,+9.44113210e-02f,
+4.04712945e-01f,-1.57135446e-02f,+3.90620708e-01f,-1.30560681e-01f,+5.60970187e-01f,
-2.05844671e-01f,-2.84343034e-01f,+2.71579266e-01f,+2.35591531e-01f,-3.88122380e-01f,
-5.34681305e-02f,-1.92021579e-01f,-2.21230254e-01f,+4.48887527e-01f,+1.43900841e-01f,
+2.18064293e-01f,+9.34255421e-02f,-3.62275869e-01f,+2.29715079e-01f,+4.76581939e-02f,
+3.23389727e-03f,-1.44602433e-01f,+1.86785251e-01f,+2.86813527e-01f,-1.79170340e-01f,
+7.29382709e-02f,-9.54646617e-02f,-4.51015115e-01f,+3.21621716e-01f,-4.09589857e-02f,
-5.36217511e-01f,+3.66921693e-01f,-2.08064973e-01f,+1.46922514e-01f,+1.84846774e-01f,
-1.61027089e-01f,+4.93057184e-02f,-2.99679935e-01f,-3.00526500e-01f,-5.34533784e-02f,
+4.86430138e-01f,+3.11580241e-01f,-3.90310526e-01f,-1.28668427e-01f,-2.48098105e-01f,
-1.17409319e-01f,-1.81990251e-01f,+1.12856321e-01f,-2.46057346e-01f,+2.33134657e-01f,
+7.50103220e-02f,-1.34108469e-01f,-1.12319678e-01f,+1.03443049e-01f,+5.84850013e-02f,
+5.12592047e-02f,-2.94943243e-01f,-2.13627815e-01f,+1.53267216e-02f,-2.94515371e-01f,
+3.09298068e-01f,-2.69687325e-01f,+2.56205380e-01f,+4.15858328e-02f,-2.80320853e-01f,
-4.78297286e-02f,+2.21286207e-01f,+2.53816366e-01f,+2.30198458e-01f,+1.08633541e-01f,
+1.97850794e-01f,-2.03134075e-01f,-1.57120705e-01f,-1.49851114e-01f,+3.84394266e-03f,
+3.87518704e-02f,-1.42992198e-01f,-3.83264154e-01f,-5.33139586e-01f,-1.54009074e-01f,
+3.19294751e-01f,+1.40181243e-01f,+6.60681352e-02f,-2.66028285e-01f,-2.65314549e-01f,
-4.44850028e-02f,-9.28871334e-02f,-1.03124417e-01f,+2.84045964e-01f,+3.93255264e-01f,
-1.17537729e-01f,+1.52341574e-01f,+2.78555572e-01f,-2.78286546e-01f,-2.88513154e-02f,
-6.80707812e-01f,+2.92529672e-01f,+1.97535963e-03f,+3.11236650e-01f,-1.02366306e-01f,
+9.32190195e-02f,+6.27509207e-02f,-7.11378157e-02f,-2.06681132e-01f,+3.54444861e-01f,
+5.10534585e-01f,-1.75842568e-01f,-4.90434431e-02f,+2.80737370e-01f,+1.14420205e-01f,
-2.94605374e-01f,-1.21800780e-01f,+1.89726204e-01f,+2.67602116e-01f,+8.95174518e-02f,
+2.00718254e-01f,+1.88151181e-01f,-1.69215798e-02f,+3.77714634e-04f,+1.08729869e-01f,
+1.30896598e-01f,+1.45037666e-01f,+1.79614276e-01f,-2.38839418e-01f,+1.97114706e-01f,
-1.16031460e-01f,+8.07530992e-03f,+2.35057801e-01f,+2.88152605e-01f,+2.80473113e-01f,
-8.48833248e-02f,+9.03102756e-03f,-7.43125826e-02f,-2.97253355e-02f,-1.84754655e-01f,
+8.19658339e-02f,-5.87537549e-02f,+1.65353313e-01f,-2.07246840e-01f,-2.38206282e-01f,
-1.24110073e-01f,-7.64237270e-02f,+3.29414636e-01f,+1.16437711e-01f,+3.22357602e-02f,
+4.58268821e-01f,+3.87353480e-01f,-2.51492374e-02f,-4.40319836e-01f,+9.60567743e-02f,
-1.07559860e-01f,+1.08575605e-01f,+2.89204091e-01f,+1.54418675e-02f,-2.25232109e-01f,
-1.26181558e-01f,-3.34677815e-01f,+9.47628990e-02f,+8.75851288e-02f,+4.27794456e-01f,
+2.91129351e-01f,+4.47004408e-01f,+4.78805989e-01f,+2.02924311e-01f,+4.62828308e-01f,
+7.50983274e-03f,-3.32144871e-02f,-1.94470733e-01f,+5.45207381e-01f,+6.03972226e-02f,
+1.07565463e-01f,+1.81389377e-01f,+2.61242151e-01f,+3.74756753e-01f,+1.07075525e-02f,
+1.92323372e-01f,+8.83630216e-02f,+4.23960268e-01f,+4.82347578e-01f,-2.11897209e-01f,
+1.75196946e-01f,+1.07893795e-01f,+1.32188171e-01f,-2.23158933e-02f,-5.26551127e-01f,
+1.98375672e-01f,-6.14063628e-02f,+1.34067342e-01f,-2.25724161e-01f,-1.02642179e-01f,
-2.91820616e-01f,+3.51235494e-02f,-5.14124095e-01f,-1.11569965e-03f,-1.41116306e-01f,
+1.93662599e-01f,+2.07971424e-01f,-3.04995835e-01f,-2.25236893e-01f,+1.99795619e-01f,
+2.69944429e-01f,-8.08845856e-04f,-9.50028896e-02f,+1.11609824e-01f,+1.88328624e-01f,
-8.20665434e-02f,-7.13195950e-02f,-1.16997465e-01f,+3.48625660e-01f,-6.96487352e-02f,
-6.72459602e-01f,-4.70486581e-02f,-2.65724033e-01f,-3.28740239e-01f,-2.32668102e-01f,
-1.87753260e-01f,+3.34045023e-01f,+1.37876838e-01f,+1.35647461e-01f,-5.95145464e-01f,
+8.46411437e-02f,-2.39198789e-01f,-1.89659551e-01f,-5.42339802e-01f,+1.45114690e-01f,
-2.47051671e-01f,-1.81243718e-01f,-1.60077363e-01f,+2.70918339e-01f,+2.38972977e-01f,
-5.93952417e-01f,-1.05645791e-01f,-5.71776211e-01f,+1.92119479e-01f,-3.89914423e-01f,
+3.88796985e-01f,+5.35420835e-01f,+1.68724909e-01f,-3.32093298e-01f,-3.94941241e-01f,
+2.14484632e-01f,-2.73992002e-01f,-1.69164583e-01f,-1.19638279e-01f,+4.84964937e-01f,
-1.10417984e-01f,+5.67012429e-02f,-2.63981260e-02f,-1.90370873e-01f,-6.55788779e-02f,
-2.75334358e-01f,+3.56414497e-01f,-2.74606586e-01f,+1.30882740e-01f,-1.97700635e-01f,
+2.46624783e-01f,-1.72754005e-01f,+9.23838243e-02f,+1.08764432e-01f,-2.19231322e-01f,
-2.46997997e-01f,-9.24531221e-02f,-6.12777710e-01f,-2.25727811e-01f,-3.30544472e-01f,
-1.87589988e-01f,-2.36100927e-01f,-1.06111571e-01f,+2.15326086e-01f,+3.04560035e-01f,
+1.49378821e-01f,+3.75817239e-01f,-2.46381924e-01f,-5.79521477e-01f,-9.73389670e-02f,
-1.29796788e-01f,+2.41120532e-01f,-1.69048980e-01f,+1.91707671e-01f,-1.81744248e-01f,
-3.06382686e-01f,+7.92331576e-01f,-1.72972411e-01f,-9.95093510e-02f,-2.42902741e-01f,
+1.82401419e-01f,-2.01335028e-01f,-1.35405168e-01f,+3.91856998e-01f,+4.07073408e-01f,
-5.99471152e-01f,+8.28757361e-02f,-7.01331615e-01f,+1.71510100e-01f,+4.26653296e-01f,
-2.27403373e-01f,+3.07136178e-01f,+3.92038256e-01f,+2.48681232e-01f,+3.76409620e-01f,
-1.02865219e-01f,-1.98139511e-02f,-2.72326529e-01f,-5.03407061e-01f,+3.47844481e-01f,
-2.07764000e-01f,+2.53317282e-02f,+1.11238867e-01f,+4.15084273e-01f,+9.46333259e-02f,
-9.66562182e-02f,-2.76731998e-01f,-9.81056690e-02f,-2.72915035e-01f,-2.20020086e-01f,
+6.44376501e-02f,+4.90447462e-01f,-4.17268068e-01f,-3.55176777e-02f,-7.57808983e-01f,
-3.55463117e-01f,-1.13393143e-01f,-2.95403242e-01f,-4.39139642e-02f,-4.68348742e-01f,
-3.12558301e-02f,-3.22775185e-01f,-3.18173498e-01f,-8.94335508e-02f,+9.00555193e-01f,
-3.16320062e-01f,-6.64005354e-02f,+6.92602769e-02f,+4.93238270e-02f,-1.22513488e-01f,
-4.49082643e-01f,-4.53584529e-02f,+4.88576084e-01f,+4.23771352e-01f,+1.66876495e-01f,
+7.80059874e-01f,+1.80751935e-01f,-2.61305898e-01f,+2.37511069e-01f,-5.02593875e-01f,
-9.31284428e-02f,+2.04665273e-01f,+3.69931251e-01f,-5.59819162e-01f,+5.45710802e-01f,
+4.14178044e-01f,-1.74829632e-01f,+2.29965895e-01f,+3.75662714e-01f,-5.07313490e-01f,
-5.00588911e-03f,-6.06627464e-01f,-9.93596092e-02f,+3.32019895e-01f,+5.03373779e-02f,
-1.70062989e-01f,+6.56314865e-02f,+3.95487934e-01f,-3.23300868e-01f,+9.40639004e-02f,
+2.91321784e-01f,-9.01583955e-02f,+4.24065411e-01f,-2.61639744e-01f,+6.38262630e-02f,
+1.70932204e-01f,+7.98608586e-02f,-1.56116271e-02f,+1.46303326e-01f,-2.65503794e-01f,
+1.85096323e-01f,+2.35033095e-01f,+2.26698205e-01f,+8.19003507e-02f,-3.48951578e-01f,
+9.28934515e-02f,-1.15787201e-01f,-1.18403129e-01f,+1.25528388e-02f,-9.36651900e-02f,
+1.66315794e-01f,+1.48759931e-01f,-1.57983854e-01f,+3.58199775e-01f,-2.97593325e-02f,
+1.68595035e-02f,-3.32891911e-01f,-1.73587561e-01f,+2.35854328e-01f,+6.39475361e-02f,
+3.05560857e-01f,+3.71237755e-01f,+2.88255572e-01f,-2.74863720e-01f,-4.37329173e-01f,
+2.57813185e-01f,+5.99143028e-01f,+4.80308264e-01f,-1.85045213e-01f,+6.93004191e-01f,
-1.09571815e-01f,+2.50789255e-01f,+1.99725851e-02f,-5.79077959e-01f,-5.76373875e-01f,
+1.45074531e-01f,+8.35384130e-01f,-7.31472850e-01f,-6.54467419e-02f,+6.10762000e-01f,
-2.59909719e-01f,+7.01992586e-02f,+2.58048177e-01f,-8.39582235e-02f,+7.76298791e-02f,
-3.45114797e-01f,+2.53921807e-01f,+1.22390181e-01f,+2.04213709e-01f,-1.12573318e-01f,
-7.14226186e-01f,-4.20883708e-02f,-6.36873692e-02f,-6.29216075e-01f,-4.26893234e-02f,
+2.11281434e-01f,+2.39845410e-01f,-7.03624263e-02f,+6.58656895e-01f,+3.46319288e-01f,
+7.45975301e-02f,-7.72076726e-01f,+1.23219460e-01f,-1.56774461e-01f,-2.42356330e-01f,
+3.78258258e-01f,-4.15422618e-01f,-1.47050899e-02f,-2.66312301e-01f,+3.29827219e-02f,
+4.14422661e-01f,+3.32331359e-02f,+1.27612457e-01f,-5.43579042e-01f,-4.17721450e-01f,
+9.89108309e-02f,+6.37835730e-03f,+4.01427090e-01f,+1.95861652e-01f,+9.35785472e-01f,
+9.34230015e-02f,+7.22608715e-02f,+2.17840433e-01f,+1.91061601e-01f,+3.92606705e-02f,
+1.29539192e-01f,+5.77136390e-02f,-2.43961647e-01f,+2.74508059e-01f,-5.12427032e-01f,
-4.63020802e-02f,-5.49363866e-02f,-2.65114337e-01f,+3.62644225e-01f,+8.88582021e-02f,
-1.51956931e-01f,+3.83044332e-02f,+2.51986504e-01f,+6.47331715e-01f,+1.49397515e-02f,
+7.84290135e-02f,+2.59741515e-01f,+4.60638285e-01f,+1.12780057e-01f,-4.10579145e-01f,
+7.81275272e-01f,+3.58899981e-01f,-5.42143047e-01f,-9.46535170e-02f,-6.64705515e-01f,
-1.73298661e-02f,+5.43612480e-01f,-6.15989827e-02f,+1.63354620e-01f,-3.21492672e-01f,
+2.22270474e-01f,+2.10231826e-01f,+2.37975299e-01f,+8.40391666e-02f,-4.12179902e-02f,
-6.92691803e-02f,+2.10931152e-01f,-6.45138100e-02f,-3.08879822e-01f,+4.68831547e-02f,
+3.41060370e-01f,-1.69357955e-02f,+2.07783908e-01f,+2.60416597e-01f,+4.77165550e-01f,
+3.98946851e-01f,-3.32262725e-01f,-1.09047323e-01f,-1.41796336e-01f,-1.11853167e-01f,
+2.58290380e-01f,+7.21165314e-02f,+2.75920540e-01f,+3.65301400e-01f,+3.49504320e-04f,
-8.65044594e-02f,+3.98160338e-01f,+1.77512214e-01f,+1.02007404e-01f,-6.98715672e-02f,
-2.86709040e-01f,-3.13841701e-01f,-2.40012676e-01f,+1.71308205e-01f,-1.33428723e-01f,
-8.74462277e-02f,-1.67564437e-01f,-2.58785486e-01f,+1.56921059e-01f,-2.79494703e-01f,
-2.81587571e-01f,+2.17294902e-01f,+2.08148628e-01f,+2.44374812e-01f,-2.96748221e-01f,
+7.68171176e-02f,-2.53039747e-01f,-1.50342777e-01f,+7.39246188e-03f,+2.37625107e-01f,
-8.22571293e-02f,+5.34163788e-02f,+1.29916891e-01f,+2.88795441e-01f,+3.48552205e-02f,
-2.52860814e-01f,-1.32039353e-01f,-2.99746364e-01f,+1.76961586e-01f,+2.47859642e-01f,
-5.16145714e-02f,+6.64274395e-02f,+1.03966706e-01f,-2.49973029e-01f,-2.26878822e-02f,
+4.10969794e-01f,-2.24392101e-01f,-1.08970605e-01f,-5.86529076e-01f,+6.68331236e-02f,
+2.81822234e-01f,+4.54545349e-01f,+7.00985640e-02f,-2.01239556e-01f,+2.56383158e-02f,
+1.95775285e-01f,-2.30585247e-01f,-2.25909173e-01f,+1.60054237e-01f,+3.59477371e-01f,
+1.60340548e-01f,+2.43006781e-01f,+3.22471201e-01f,-1.95139438e-01f,-1.41105533e-01f,
-1.11074972e+00f,-6.89170649e-03f,-1.64097458e-01f,-5.63099496e-02f,+6.48330301e-02f,
-3.20627213e-01f,-3.16251785e-01f,+5.67185462e-01f,-2.71163993e-02f,-1.32882759e-01f,
+4.40672785e-01f,+8.31888914e-02f,-1.87882170e-01f,+2.58667588e-01f,-2.77970880e-01f,
+1.09003939e-01f,-2.25073114e-01f,-5.22751920e-02f,+2.50912458e-01f,+3.03343922e-01f,
+1.58708811e-01f,-1.50137499e-01f,-1.47436157e-01f,-2.68351376e-01f,-3.01259071e-01f,
-2.39109844e-01f,+3.61084454e-02f,+2.82466739e-01f,-1.40383139e-01f,-2.77434736e-01f,
+2.90591985e-01f,-1.78331375e-01f,-1.86449066e-01f,+1.66128814e-01f,+1.28220618e-01f,
-2.23779067e-01f,+2.08770648e-01f,+1.77531749e-01f,-9.54548568e-02f,+6.46186173e-02f,
+1.24039859e-01f,-1.33745253e-01f,+2.23636955e-01f,+9.20259207e-02f,-4.24660861e-01f,
+2.14904845e-01f,+5.40725887e-01f,+2.57270008e-01f,-1.75786074e-02f,-1.64766252e-01f,
-4.16091710e-01f,-1.83762133e-01f,+1.24352693e-03f,+3.68613869e-01f,-3.28055739e-01f,
+4.98269200e-02f,-2.79781640e-01f,-1.19222552e-01f,-2.06120461e-01f,-3.36251482e-02f,
-2.35425234e-01f,+4.45182621e-01f,-2.29864702e-01f,-5.32382548e-01f,+2.95130461e-01f,
-1.13722291e-02f,-1.66441277e-01f,+1.58419013e-01f,-8.33058879e-02f,+3.40285718e-01f,
+2.59386241e-01f,-6.90530300e-01f,-2.47560427e-01f,-9.90191847e-02f,-1.27437383e-01f,
-5.43866813e-01f,+2.38924026e-01f,+1.90546103e-02f,-6.26448542e-02f,-2.06881583e-01f,
+3.84586036e-01f,-2.09964350e-01f,+2.71616548e-01f,+5.07297039e-01f,+2.61851195e-02f,
-3.60322177e-01f,-7.00128451e-02f,-6.83199167e-02f,-1.13860764e-01f,-9.72884297e-02f,
-5.67979664e-02f,+1.14454202e-01f,+4.39113796e-01f,-5.14696300e-01f,+3.94184053e-01f,
+1.54298928e-03f,-2.86557764e-01f,+5.45736887e-02f,+5.96367776e-01f,+2.59806514e-01f,
-2.31120989e-01f,+9.46526155e-02f,-2.61723608e-01f,+6.30494133e-02f,-1.76827222e-01f,
+3.92028153e-01f,-1.13012373e-01f,+4.69086803e-02f,+1.87374368e-01f,-2.17801780e-01f,
+1.99047878e-01f,+2.18334317e-01f,-1.41362458e-01f,-1.86762691e-01f,+4.43429500e-02f,
+9.66671482e-02f,-2.80219287e-01f,+9.86288637e-02f,+2.06268094e-02f,-6.71081096e-02f,
+1.20089896e-01f,+3.33338268e-02f,-1.36442959e-01f,-2.23918274e-01f,-2.29359061e-01f,
-3.19552459e-02f,+1.25887832e-02f,+7.21113011e-02f,+3.32410373e-02f,-2.29564756e-01f,
-3.19057792e-01f,-1.73592433e-01f,+1.60692081e-01f,-7.90220723e-02f,-3.14361840e-01f,
+3.08212731e-02f,+3.41111422e-02f,+1.61904655e-02f,+1.18963815e-01f,+2.84055114e-01f,
-2.40991473e-01f,+9.21013728e-02f,+3.76197338e-01f,-1.14901930e-01f,+2.77925730e-01f,
+1.23790473e-01f,-5.46599686e-01f,-2.68449951e-02f,-1.27357244e-01f,+4.01778042e-01f,
-1.13602400e-01f,-2.60066062e-01f,-1.84904128e-01f,-3.35138552e-02f,+1.07136600e-01f,
+1.95208460e-01f,-3.90779465e-01f,-2.90599018e-01f,-1.06282653e-02f,-2.34802291e-01f,
-9.26673636e-02f,-6.43444434e-02f,-2.53197968e-01f,-2.65199691e-01f,+4.41558175e-02f,
+1.62025243e-01f,-1.48941383e-01f,-2.81381875e-01f,-2.63517648e-01f,-2.02638417e-01f,
-8.95336047e-02f,-2.81348646e-01f,-1.15935601e-01f,-8.02182406e-02f,+4.82150406e-01f,
+3.67436945e-01f,+4.13486958e-02f,-4.77186531e-01f,-5.49270451e-01f,-6.81168959e-02f,
+6.35676682e-02f,+2.40171462e-01f,-1.84709936e-01f,-2.32386976e-01f,-2.99584538e-01f,
-1.64881393e-01f,+5.00303328e-01f,-2.74503320e-01f,-1.04324445e-01f,+1.83747754e-01f,
+3.71888161e-01f,-1.35504082e-02f,+2.68382221e-01f,+4.43994910e-01f,+3.04328769e-01f,
-3.26022089e-01f,-2.90740514e-03f,-1.74893457e-02f,-1.96022987e-01f,+3.82621378e-01f,
+4.10281457e-02f,+2.68269032e-01f,-2.76518762e-01f,-2.21364886e-01f,}; 
k2c_tensor dense_3_kernel = {&dense_3_kernel_array[0],2,1024,{32,32, 1, 1, 1}}; 
float dense_3_bias_array[32] = {
+2.73473054e-01f,-1.38667598e-01f,-1.42429322e-01f,-5.52152917e-02f,+3.42355818e-02f,
-4.66671661e-02f,+1.71407327e-01f,-1.07462145e-02f,-5.72929624e-03f,+6.33953661e-02f,
-2.52168924e-02f,+0.00000000e+00f,-9.23460070e-03f,+2.27616191e-01f,+1.14317872e-01f,
-8.12500790e-02f,+2.83173174e-01f,+1.59701422e-01f,+1.98539738e-02f,-1.11144274e-01f,
-1.84049040e-01f,+7.09925964e-02f,+9.79780406e-03f,-5.41162118e-03f,-4.51394729e-02f,
+5.24310879e-02f,-2.54727658e-02f,-7.50487149e-02f,-3.13243605e-02f,+5.24395481e-02f,
+2.75146484e-01f,-2.39513181e-02f,}; 
k2c_tensor dense_3_bias = {&dense_3_bias_array[0],1,32,{32, 1, 1, 1, 1}}; 
float dense_3_fwork[1056] = {0}; 

 
float dense_4_output_array[32] = {0}; 
k2c_tensor dense_4_output = {&dense_4_output_array[0],1,32,{32, 1, 1, 1, 1}}; 
float dense_4_kernel_array[1024] = {
+1.76339298e-01f,-1.94625556e-01f,-2.74469376e-01f,+4.99798693e-02f,+3.90099585e-01f,
-2.32774794e-01f,-2.31747761e-01f,-6.45193219e-01f,-1.26883879e-01f,+1.28584476e-02f,
+2.86108762e-01f,-6.03573630e-03f,+2.70853907e-01f,+3.02160710e-01f,-7.02371746e-02f,
-2.34598994e-01f,-3.98502201e-01f,-6.83607236e-02f,-3.76769900e-01f,+4.05450106e-01f,
+7.83461779e-02f,-7.18226790e-01f,+1.00102335e-01f,+1.65921360e-01f,+3.53834331e-02f,
-9.75309592e-03f,+4.17080522e-01f,+2.28211194e-01f,-7.11650133e-01f,-5.89772537e-02f,
-1.02667935e-01f,-1.54841468e-01f,+2.83588916e-01f,+2.30545383e-02f,+7.72673711e-02f,
+1.82210475e-01f,+3.07859093e-01f,+1.84946075e-01f,-3.37045863e-02f,+2.44785860e-01f,
-1.99448004e-01f,+2.48901501e-01f,+3.36247891e-01f,-1.75145090e-01f,+2.88292378e-01f,
+2.35729098e-01f,+2.59137779e-01f,+3.34484547e-01f,+5.22723436e-01f,+1.44952253e-01f,
-1.32682145e-01f,+1.70276135e-01f,+2.49772608e-01f,-7.95754045e-02f,+5.95033884e-01f,
+2.03901455e-01f,+4.31129336e-02f,+2.53372453e-02f,-2.09490955e-01f,+1.05001345e-01f,
-3.01882476e-01f,+8.57915450e-03f,-3.99497181e-01f,+3.66244107e-01f,-1.50209386e-02f,
+3.03028107e-01f,+3.75667840e-01f,+2.90817708e-01f,+1.11749833e-02f,+3.98061991e-01f,
+1.95283219e-01f,+3.34021509e-01f,-3.21000993e-01f,+9.01018679e-02f,+4.33240056e-01f,
+2.01370746e-01f,-2.19134137e-01f,+2.67959386e-01f,-4.25060511e-01f,+3.97713035e-02f,
+9.49962795e-01f,+2.47136191e-01f,+4.97829199e-01f,-3.91174883e-01f,+3.73533547e-01f,
+4.43020225e-01f,+3.60736647e-03f,-5.41046321e-01f,-4.76587564e-02f,-1.20091110e-01f,
-4.99488831e-01f,-2.05536842e-01f,+5.61371267e-01f,+3.23896825e-01f,+1.09980911e-01f,
+4.08309788e-01f,-2.84760799e-02f,-1.70104951e-02f,-2.94501990e-01f,+1.20426498e-01f,
-1.02616623e-01f,+3.66130471e-01f,+2.91756302e-01f,-2.81590521e-01f,-7.04789400e-01f,
+4.09207214e-03f,-1.25505179e-01f,-4.13796306e-01f,+3.59529927e-02f,-7.66146509e-03f,
-7.39560276e-02f,+3.51972222e-01f,-2.18826726e-01f,-1.23596981e-01f,-3.83117557e-01f,
-9.61258113e-02f,+2.95971930e-01f,+1.56092986e-01f,-2.51768231e-01f,+2.28845626e-01f,
-2.44250193e-01f,-7.07032144e-01f,+3.76471967e-01f,+1.46673834e-02f,+3.87429059e-01f,
+2.86761243e-02f,-9.74412262e-02f,+8.88490642e-04f,+3.24564695e-01f,+1.57146364e-01f,
+2.25338325e-01f,+2.82725871e-01f,-4.27100062e-01f,+4.50598031e-01f,+3.68133187e-01f,
-1.94609702e-01f,-9.01489693e-04f,-8.56418088e-02f,-4.55440521e-01f,+3.51325944e-02f,
-6.67097449e-01f,-2.95444012e-01f,+1.04452558e-01f,-1.96074858e-01f,+1.58730552e-01f,
-1.93977773e-01f,-2.79423892e-02f,+2.95277059e-01f,+3.81148636e-01f,+1.04110494e-01f,
+4.10912037e-01f,-9.34578180e-02f,-8.89437459e-03f,-7.59843215e-02f,+4.78298753e-01f,
-3.97935450e-01f,+2.84525067e-01f,+1.26264676e-01f,-3.14797461e-01f,+2.51034468e-01f,
+2.58527935e-01f,+1.21559262e-01f,+2.81444818e-01f,-2.89419621e-01f,+2.32644938e-02f,
-2.01837182e-01f,-1.65916249e-01f,-1.53887114e-02f,+1.23355366e-01f,-1.45923540e-01f,
-8.17160010e-02f,+1.46048829e-01f,+3.19905758e-01f,+2.80767351e-01f,+2.59290069e-01f,
+2.39240885e-01f,+3.28552201e-02f,+1.49222687e-01f,+2.02123031e-01f,-1.67576075e-01f,
-1.71305701e-01f,-6.23944759e-01f,-3.05999760e-02f,+2.14324489e-01f,+4.04301554e-01f,
+1.24346413e-01f,-1.07900113e-01f,+2.22166151e-01f,-3.92104000e-01f,+2.26600200e-01f,
-1.18820675e-01f,-4.32217687e-01f,-2.63520163e-02f,+1.18449271e-01f,+1.93361685e-01f,
-6.94537103e-01f,+4.05809671e-01f,-8.47202122e-01f,-4.03744966e-01f,+6.79937840e-01f,
+6.94092929e-01f,-6.20429933e-01f,-6.86338618e-02f,-9.26846545e-03f,+4.11206275e-01f,
+3.18324655e-01f,-5.85485101e-01f,+1.04368761e-01f,-1.61187202e-01f,+8.55047628e-02f,
-3.31354797e-01f,+8.48328710e-01f,+6.79109275e-01f,-1.29275978e-01f,-5.03923535e-01f,
-6.05072320e-01f,-5.18648267e-01f,-5.73306203e-01f,-1.76005736e-01f,+9.79542807e-02f,
-3.48030664e-02f,+3.12259104e-02f,+3.09379786e-01f,-2.70352773e-02f,+1.25536531e-01f,
-2.97327965e-01f,-1.60794660e-01f,+4.87381220e-01f,+4.76114839e-01f,+1.22801185e-01f,
-3.69485021e-01f,+3.12751114e-01f,+3.99059057e-01f,-2.74858654e-01f,+2.27714434e-01f,
+6.33674264e-02f,+2.02861950e-02f,-9.43042755e-01f,+2.89921075e-01f,+2.09750488e-01f,
+1.82278454e-01f,+3.80102605e-01f,-1.46570802e-01f,-1.16932534e-01f,+4.16672558e-01f,
+2.19464794e-01f,-2.83266872e-01f,-6.56377316e-01f,-5.05457282e-01f,+9.88566801e-02f,
-4.36117947e-01f,-1.43770635e-01f,+2.53764987e-01f,+1.02611884e-01f,-2.22367451e-01f,
-2.62442548e-02f,+1.52376473e-01f,+1.45415189e-02f,+6.53738379e-02f,+2.57606238e-01f,
-8.76249671e-02f,-2.66079605e-01f,-7.43186846e-02f,+4.64168377e-02f,+1.63593575e-01f,
-1.44513071e-01f,+2.71666139e-01f,-3.84093858e-02f,-3.77124175e-02f,+1.46615475e-01f,
+2.82570004e-01f,-2.87145078e-01f,+2.72109210e-01f,-2.84443051e-01f,+2.20483452e-01f,
-2.99358070e-01f,-4.22449708e-02f,+9.63442996e-02f,+9.75809991e-02f,+2.72659570e-01f,
-7.63412192e-02f,+2.02142566e-01f,-2.85405844e-01f,-2.96175480e-04f,-7.21040666e-02f,
+2.39674792e-01f,-2.15571016e-01f,-2.70586073e-01f,+1.92155868e-01f,-3.55644464e-01f,
-2.06473723e-01f,-1.72145385e-02f,+2.22916499e-01f,+2.73752153e-01f,-4.09910008e-02f,
-1.44376233e-02f,-1.56616986e-01f,-9.81666744e-02f,+6.31487787e-01f,+1.86173856e-01f,
-1.96389928e-01f,+5.46067357e-01f,+2.39961594e-01f,+1.52402982e-01f,+5.16389251e-01f,
+2.98790187e-01f,+3.74703735e-01f,-4.36208919e-02f,+2.45018303e-01f,-1.17914848e-01f,
+1.07949980e-01f,+4.78032157e-02f,+5.40689290e-01f,-1.46539152e-01f,+2.35512089e-02f,
+4.42898601e-01f,-9.03138444e-02f,-2.67998427e-01f,-2.54672527e-01f,+7.83926845e-02f,
-2.22931206e-01f,-3.33944596e-02f,+6.80509880e-02f,+1.93094939e-01f,-2.46321559e-01f,
+2.52267838e-01f,-2.44163722e-02f,+2.81292796e-01f,+1.60442039e-01f,+1.97982807e-02f,
-1.80270031e-01f,-1.04241766e-01f,+1.45852312e-01f,-1.37323096e-01f,+2.68676400e-01f,
-1.80875346e-01f,-2.31194794e-01f,+4.90907393e-02f,-3.59548181e-02f,-2.05193177e-01f,
+6.08425662e-02f,+2.37982452e-01f,+2.61384875e-01f,+1.03804125e-02f,+6.55004680e-02f,
-2.69196391e-01f,-1.13796964e-01f,+2.51005441e-02f,+5.59672303e-02f,-1.66729853e-01f,
-2.22955227e-01f,+1.45627961e-01f,+2.30449229e-01f,+1.92648441e-01f,-2.14521497e-01f,
+1.67979300e-02f,+1.79241449e-01f,+2.00611949e-02f,-5.73432744e-02f,+1.59965962e-01f,
-2.21445560e-02f,+2.60517210e-01f,-1.43606707e-01f,+1.00837320e-01f,-2.73184299e-01f,
-1.94172382e-01f,+3.00949365e-01f,-3.87769043e-02f,-9.71528441e-02f,+8.75799954e-02f,
+2.85318702e-01f,+8.51059258e-02f,-2.64959484e-01f,-2.11664468e-01f,+7.53351152e-02f,
-4.37427759e-02f,-1.63361147e-01f,+4.48211432e-02f,+1.10824943e-01f,+2.95835137e-02f,
+3.97056341e-04f,+1.86658502e-02f,+9.69501138e-02f,+8.18043947e-03f,-6.90443888e-02f,
-1.33371353e-03f,-3.60130034e-02f,-1.71490148e-01f,+1.62069872e-01f,+1.41173797e-02f,
+2.44030714e-01f,+1.04620017e-01f,+6.06880821e-02f,-2.03225002e-01f,+1.63446024e-01f,
-8.41991454e-02f,-1.53432125e-02f,-2.89479733e-01f,+6.79871589e-02f,+2.68627584e-01f,
+1.11764029e-01f,+2.15058759e-01f,-1.02079518e-01f,+3.16765681e-02f,+8.79811496e-02f,
-1.13896906e-01f,+5.95650263e-02f,+8.74190554e-02f,-1.80967703e-01f,+2.22943291e-01f,
+1.48757562e-01f,+2.87485570e-01f,-4.58810516e-02f,-7.70600513e-02f,+2.22657323e-02f,
+2.20852435e-01f,-2.07575828e-01f,-4.33139324e-01f,+1.89123139e-01f,-1.06215999e-01f,
-3.69899422e-01f,+2.03379750e-01f,+5.32329977e-01f,-2.93503404e-01f,+4.97342646e-03f,
-1.48500994e-01f,-4.67163861e-01f,+1.74357295e-02f,+1.05622252e-02f,+4.52318221e-01f,
-1.63738802e-03f,-2.52928197e-01f,-5.94171762e-01f,-3.91942233e-01f,-4.77223337e-01f,
+3.13572437e-01f,+2.59869337e-01f,-6.48255706e-01f,+5.00241816e-01f,-4.83396687e-02f,
+3.06353360e-01f,-1.72836855e-01f,+5.84679663e-01f,-3.93586099e-01f,-7.60809660e-01f,
+3.49085957e-01f,+7.03325048e-02f,-1.41148791e-01f,+2.44333327e-01f,-1.68738440e-01f,
-4.61656749e-01f,+1.05420515e-01f,+6.75580055e-02f,+2.41380572e-01f,+4.54002827e-01f,
+2.95658320e-01f,+1.68304771e-01f,+5.30665934e-01f,+2.24823684e-01f,+3.34970236e-01f,
+1.67873248e-01f,-1.88130587e-01f,+5.48224226e-02f,-2.56161571e-01f,-5.49705811e-02f,
+1.28620237e-01f,+5.27286649e-01f,-4.51744288e-01f,-6.74453005e-02f,+1.85867697e-01f,
+3.91837001e-01f,+2.12263182e-01f,+3.26029867e-01f,+3.44533831e-01f,+3.29201669e-01f,
-1.55669168e-01f,+2.94922352e-01f,-1.40891075e-01f,-6.47155121e-02f,+2.68285032e-02f,
-9.23734456e-02f,+3.08908314e-01f,-2.07178324e-01f,+1.77649274e-01f,-2.59470105e-01f,
-1.54925942e-01f,+1.11122532e-02f,-6.58900812e-02f,+1.38323754e-01f,-1.06858119e-01f,
+1.44362271e-01f,+1.35877043e-01f,-9.69032869e-02f,+3.28966647e-01f,+2.30953708e-01f,
+7.12824520e-03f,-1.21193558e-01f,+2.28108600e-01f,+1.37449605e-02f,-1.19247995e-01f,
+2.28146344e-01f,-2.75926411e-01f,-9.43670701e-03f,-1.56684279e-01f,+6.76062033e-02f,
-1.81167766e-01f,+1.31709605e-01f,+1.16036713e-01f,+2.56620795e-01f,-2.76364028e-01f,
-1.78167120e-01f,-2.17513084e-01f,+2.66130358e-01f,-2.70934314e-01f,-4.17553365e-01f,
-4.90318090e-02f,+5.97442389e-01f,+1.33321986e-01f,-3.72410268e-01f,-7.10963488e-01f,
+9.41790119e-02f,-2.50557140e-02f,+2.45827466e-01f,-8.03709179e-02f,-8.15072563e-03f,
+2.19699830e-01f,+5.00128925e-01f,+2.57290393e-01f,-2.78519958e-01f,+5.97652122e-02f,
+1.81819405e-02f,+7.73897052e-01f,+3.99220377e-01f,-4.25539404e-01f,-1.58371583e-01f,
+5.21202505e-01f,+9.82046798e-02f,-3.39854836e-01f,+1.38029888e-01f,+4.87983346e-01f,
-4.76490587e-01f,-1.53097793e-01f,+2.12808967e-01f,-1.59577563e-01f,-4.42145346e-03f,
+7.82006830e-02f,-2.98381578e-02f,+2.03302443e-01f,+2.65572593e-02f,-2.80378789e-01f,
+5.87868154e-01f,+9.82952490e-02f,-2.90830899e-02f,+3.53373796e-01f,+1.09697901e-01f,
+1.12525240e-01f,+1.21452622e-01f,+3.21642727e-01f,-2.70743072e-01f,+8.17999020e-02f,
-5.74903935e-02f,-3.04935187e-01f,-6.28675446e-02f,-4.27723974e-01f,+9.21606496e-02f,
+3.38917494e-01f,+3.92804533e-01f,+2.50709951e-01f,-6.56773988e-03f,+3.32061887e-01f,
+2.10320652e-01f,+4.68827337e-01f,-1.79520592e-01f,+5.18024147e-01f,-8.54516774e-03f,
-1.10188425e-01f,+1.27645373e-01f,+2.96883434e-01f,-5.15261404e-02f,+3.01989168e-01f,
+2.93733597e-01f,+3.31629843e-01f,+4.28465635e-01f,+3.31300907e-02f,+1.20087154e-01f,
-1.79103822e-01f,+6.01887465e-01f,+1.01845019e-01f,+8.55138302e-02f,-4.29594936e-03f,
-4.64444578e-01f,-1.99971676e-01f,-1.35292158e-01f,-7.36148879e-02f,+1.60878599e-01f,
+5.72921447e-02f,+2.20601484e-01f,+5.38602531e-01f,+2.96473145e-01f,-2.78914511e-01f,
+4.28201765e-01f,-4.33327824e-01f,-1.85133860e-01f,-3.73290122e-01f,+8.80361572e-02f,
-9.35374647e-02f,+1.59906834e-01f,-1.75601486e-02f,+2.89056152e-01f,-8.80958047e-03f,
-1.53180271e-01f,+9.59480531e-05f,+4.57468927e-01f,+6.65197521e-02f,-2.06070274e-01f,
-2.88424373e-01f,-1.64382964e-01f,+1.13412157e-01f,+4.00168926e-01f,-7.94035420e-02f,
-3.63176376e-01f,+8.65489468e-02f,+1.22155823e-01f,-1.25993311e-01f,+6.89361766e-02f,
-2.69380957e-01f,-6.31290376e-02f,+6.49128973e-01f,+1.25621840e-01f,-1.54886514e-01f,
+6.03735894e-02f,-2.72467643e-01f,+1.47107616e-01f,+6.77877571e-03f,-6.06122538e-02f,
-5.53481244e-02f,+1.39538065e-01f,-1.34326711e-01f,-7.41823539e-02f,-8.42830390e-02f,
+3.89685094e-01f,+1.54347168e-02f,+1.11970194e-01f,-1.34981081e-01f,+7.41067767e-01f,
+1.24379909e+00f,+6.07778072e-01f,-4.37509567e-01f,-2.50260293e-01f,+7.00452328e-01f,
-2.70880520e-01f,-6.20495617e-01f,-3.73962194e-01f,-5.34993112e-01f,+2.97099724e-03f,
+7.61398524e-02f,-2.25660995e-01f,+9.71776694e-02f,-4.58341122e-01f,-3.96454245e-01f,
+6.59684002e-01f,+7.13205159e-01f,-6.84079766e-01f,-2.50743162e-02f,+1.04907557e-01f,
-9.70744371e-01f,+1.09950915e-01f,-2.97911376e-01f,+6.35245323e-01f,+3.96860272e-01f,
-2.64012754e-01f,+1.93750396e-01f,+1.95051417e-01f,-4.01145965e-01f,-2.29676291e-01f,
+7.68735185e-02f,+2.04397067e-01f,+4.33578253e-01f,+4.72259372e-01f,-1.46716675e-02f,
-3.87261599e-01f,+5.35986871e-02f,+1.90893039e-01f,-1.74474671e-01f,-1.09015942e-01f,
-3.35086719e-03f,+1.92651093e-01f,-4.92268950e-01f,-1.92201331e-01f,+3.12177658e-01f,
+3.44303459e-01f,+3.78439516e-01f,+2.87886202e-01f,-1.90116793e-01f,+4.87168252e-01f,
+1.04382969e-02f,+3.60599011e-01f,-2.31899530e-01f,+5.65116167e-01f,-1.04556046e-01f,
-2.81711340e-01f,-4.47697580e-01f,+2.82276541e-01f,+5.75688958e-01f,+4.69962269e-01f,
-3.23242158e-01f,-4.40082669e-01f,+3.46782774e-01f,+8.81262124e-02f,+6.54079393e-02f,
-1.87738314e-02f,-5.27545989e-01f,+2.06150651e-01f,+1.54368028e-01f,+1.04171708e-02f,
-5.31564832e-01f,-5.65945404e-03f,-6.74932599e-01f,+5.44613563e-02f,+4.14499968e-01f,
-2.30748653e-01f,+3.63579720e-01f,-1.06446542e-01f,+8.23770612e-02f,+4.20589179e-01f,
-2.52112657e-01f,+3.69373679e-01f,+1.75024420e-01f,-8.61345306e-02f,-5.73701076e-02f,
+4.05892909e-01f,-1.12647220e-01f,-1.10403821e-01f,-4.33689743e-01f,-8.37011859e-02f,
+5.40152751e-02f,+8.85690898e-02f,+2.23390572e-02f,+2.62497872e-01f,+2.83431321e-01f,
+1.02556050e-01f,+1.71571732e-01f,+4.75255191e-01f,+3.70504320e-01f,+2.23061964e-02f,
-1.78027198e-01f,-5.48345506e-01f,-4.22412157e-01f,-5.66216171e-01f,-8.40664059e-02f,
+4.73637342e-01f,+1.82309270e-01f,+1.53576761e-01f,-2.09532171e-01f,-2.84334242e-01f,
+3.80011201e-01f,+4.42942441e-01f,-2.21336305e-01f,-1.70337390e-02f,+9.05172084e-04f,
-2.96916455e-01f,+6.92415833e-02f,-8.36932361e-02f,-1.30095437e-01f,-9.23033990e-03f,
+1.04396582e-01f,-1.53608307e-01f,+2.49634817e-01f,-2.27587417e-01f,-2.02991236e-02f,
+1.11377612e-01f,-2.90550530e-01f,+6.23481907e-02f,-1.03128761e-01f,-7.43841007e-02f,
+1.08213268e-01f,+2.68782526e-01f,-9.93253812e-02f,-1.64725646e-01f,-2.47764751e-01f,
-5.35796769e-02f,-1.91172644e-01f,-1.00997441e-01f,-2.45567292e-01f,+2.77609557e-01f,
+3.63418236e-02f,+1.07959181e-01f,-9.98210683e-02f,-2.18663886e-01f,+1.35307759e-01f,
-9.43619758e-02f,+1.93614081e-01f,+2.40354851e-01f,+8.57866555e-03f,-2.31222034e-01f,
-2.79354304e-01f,+2.61593282e-01f,+1.40860796e-01f,+7.76588023e-02f,-1.83210403e-01f,
+2.16715530e-01f,-1.38619030e-02f,+4.80807155e-01f,+5.09482801e-01f,-1.72402054e-01f,
+4.24336374e-01f,+4.69677716e-01f,+1.58919528e-01f,-3.71022612e-01f,-7.19153285e-02f,
-4.83993828e-01f,-1.47956103e-01f,+2.66682148e-01f,+4.76085335e-01f,+1.10205397e-01f,
+1.86602861e-01f,+5.95585585e-01f,-5.05359292e-01f,-5.99357605e-01f,+2.56160438e-01f,
-6.69431919e-03f,+1.00525059e-01f,+2.77433451e-02f,-4.23374236e-01f,-1.66522160e-01f,
-5.11999168e-02f,-5.11220694e-02f,-2.09026620e-01f,+9.13969055e-02f,+1.17267442e+00f,
-4.49370533e-01f,+2.11879700e-01f,+2.42853299e-01f,-6.33409917e-02f,-2.72362083e-01f,
-2.68270999e-01f,-1.18087180e-01f,+1.45009661e-03f,+1.54064164e-01f,+1.89960718e-01f,
+2.70512074e-01f,-1.48789138e-01f,+1.67174995e-01f,+1.20028034e-02f,-1.80102706e-01f,
-1.93590790e-01f,+8.17287192e-02f,+2.27635890e-01f,-1.60368621e-01f,-1.66988462e-01f,
-8.12672749e-02f,+3.23528498e-01f,-2.25788668e-01f,-2.89186627e-01f,-2.51268029e-01f,
-2.38177612e-01f,-2.45522231e-01f,+3.02742958e-01f,+1.42680511e-01f,+1.11325741e-01f,
+3.81177962e-02f,+4.13462445e-02f,+2.34483570e-01f,-1.94127843e-01f,-2.06263453e-01f,
+1.49148554e-02f,+1.53639257e-01f,+4.66660857e-01f,+4.52400520e-02f,-1.82112664e-01f,
-1.50195941e-01f,+4.45422918e-01f,+8.19871366e-01f,+1.85090348e-01f,+4.48960453e-01f,
+9.10204291e-01f,-4.28329825e-01f,-1.01250291e+00f,-2.38456443e-01f,-4.18784559e-01f,
+2.03287467e-01f,-2.99918503e-01f,+5.03092527e-01f,+6.72562644e-02f,+6.83182418e-01f,
+4.77614284e-01f,-1.63495541e-01f,-4.00328636e-01f,-1.66043729e-01f,+7.67791271e-02f,
+5.98715544e-01f,-7.34258056e-01f,+6.59152389e-01f,-4.18198735e-01f,+3.71154457e-01f,
-4.34410095e-01f,+1.76740482e-01f,+9.32377577e-02f,-3.58814299e-02f,+3.80432941e-02f,
-1.82326227e-01f,-1.29268527e-01f,+2.21335262e-01f,+2.30491191e-01f,+1.60637289e-01f,
-6.97148740e-02f,+4.08331677e-02f,-6.56651706e-02f,-1.96055427e-01f,+1.64999127e-01f,
-1.06682517e-01f,-9.58973840e-02f,+1.04225099e-01f,+1.26124024e-01f,+2.05791742e-01f,
-1.53796114e-02f,-2.93373894e-02f,-2.99540699e-01f,-6.25678450e-02f,+3.74369626e-03f,
+1.12715535e-01f,-1.84603557e-01f,+6.63267449e-02f,+3.35077234e-02f,+1.58962399e-01f,
-3.06676384e-02f,-1.35057196e-01f,+1.15734100e-01f,+3.90731812e-01f,+1.05771691e-01f,
+3.83907445e-02f,+3.65602463e-01f,-4.24076244e-02f,-2.59253174e-01f,-2.51464605e-01f,
-3.98653597e-01f,+3.80524933e-01f,+6.49865627e-01f,+1.65147915e-01f,-5.78359216e-02f,
-9.12280202e-01f,-7.94456542e-01f,+4.82310146e-01f,-4.93809842e-02f,+2.74025738e-01f,
+5.25954604e-01f,-2.51017302e-01f,-4.75065082e-01f,+2.98292458e-01f,+2.17944935e-01f,
-3.62882137e-01f,-3.29852253e-01f,-4.86084580e-01f,+5.51728785e-01f,-2.85831153e-01f,
-3.88606459e-01f,-4.27035578e-02f,+4.22557861e-01f,-5.80398552e-02f,+8.88068154e-02f,
+9.76932645e-02f,-3.29321325e-01f,-2.39274353e-01f,-6.46239519e-02f,+1.44664824e-01f,
-7.43596613e-01f,+1.81492448e-01f,+2.51129150e-01f,+3.71119738e-01f,+3.48033369e-01f,
-5.94825670e-02f,+4.41046059e-01f,-7.21098110e-02f,+5.18085182e-01f,+1.07122183e-01f,
+1.64421558e-01f,-1.56382605e-01f,+4.22350526e-01f,+1.84666961e-01f,-1.36334047e-01f,
-1.48771852e-01f,+8.42049271e-02f,-1.52289808e-01f,+2.24923700e-01f,-1.11421593e-01f,
+6.45582438e-01f,+1.16730615e-01f,+5.52765131e-01f,+2.75027286e-02f,+4.20926213e-01f,
-6.21562824e-02f,-5.03287613e-01f,-2.20830008e-01f,+1.29471824e-01f,-2.23866343e-01f,
-1.53254807e-01f,+3.79953444e-01f,+6.94975257e-02f,+4.12107348e-01f,-5.83790429e-02f,
+3.20460021e-01f,-1.15365490e-01f,+3.76954854e-01f,+6.45600706e-02f,+3.00162975e-02f,
-2.27042153e-01f,-3.87945652e-01f,-1.52446330e-01f,+3.98489553e-03f,+1.50307611e-01f,
+2.83907037e-02f,+2.34272927e-02f,-8.42756480e-02f,+4.81799729e-02f,+4.12575692e-01f,
-2.10394356e-02f,-1.49858370e-01f,-3.55485052e-01f,-5.52421175e-02f,-7.26988241e-02f,
+7.87619650e-02f,-1.03652231e-01f,+2.29317009e-01f,-3.23689580e-01f,}; 
k2c_tensor dense_4_kernel = {&dense_4_kernel_array[0],2,1024,{32,32, 1, 1, 1}}; 
float dense_4_bias_array[32] = {
-3.65827791e-02f,-2.85758171e-02f,-1.79039061e-01f,-1.23110980e-01f,+1.62092954e-01f,
-3.46557766e-01f,+1.71732411e-01f,-2.34559238e-01f,-1.32712652e-03f,+2.54675359e-01f,
-1.17858117e-02f,+4.90337126e-02f,-1.46497324e-01f,+1.71852961e-01f,+1.65534794e-01f,
-9.15996060e-02f,-3.44169885e-01f,+3.57010812e-01f,-4.43693772e-02f,+6.07991479e-02f,
+2.17592232e-02f,-1.54661790e-01f,+1.27751911e-02f,+8.16366151e-02f,+1.91388577e-01f,
-9.11307782e-02f,+2.42255837e-01f,+4.44516152e-01f,-1.35734275e-01f,+9.60520357e-02f,
-5.66682629e-02f,-1.87126115e-01f,}; 
k2c_tensor dense_4_bias = {&dense_4_bias_array[0],1,32,{32, 1, 1, 1, 1}}; 
float dense_4_fwork[1056] = {0}; 

 
float dense_5_kernel_array[1024] = {
-3.78621906e-01f,-1.10667078e-02f,-1.29304886e-01f,-7.27115795e-02f,-1.22607306e-01f,
-3.23703438e-01f,-2.57065475e-01f,-3.83115634e-02f,-3.56050968e-01f,-5.00793993e-01f,
+5.70462570e-02f,-1.14958689e-01f,-3.62282753e-01f,+1.38155133e-01f,-2.26595744e-01f,
-1.32330758e-02f,-1.41974181e-01f,+1.10783733e-01f,-3.32917534e-02f,+3.60947684e-03f,
-7.96072483e-02f,-2.55761236e-01f,-3.50180835e-01f,-2.43737902e-02f,+1.95960805e-01f,
+1.32353306e-01f,-3.20631126e-03f,-3.68664682e-01f,-3.03670485e-03f,-3.84512991e-01f,
-2.44972438e-01f,-2.91512966e-01f,-1.13333784e-01f,-2.04466451e-02f,+2.44029656e-01f,
-2.54759312e-01f,+1.79899603e-01f,+1.13165509e-02f,-1.01376973e-01f,+6.55881464e-02f,
-1.79285854e-01f,-8.32415000e-02f,+5.09242788e-02f,-1.40770286e-01f,+7.87336081e-02f,
+1.64211746e-02f,-2.98649997e-01f,-7.04557151e-02f,+2.27983013e-01f,-1.35720581e-01f,
-2.51280535e-02f,+2.66318798e-01f,+2.57919967e-01f,-4.76043105e-01f,+1.54077575e-01f,
+3.91113088e-02f,-1.63092017e-01f,+6.90191090e-02f,-8.10557231e-02f,-2.88473908e-02f,
-2.95758784e-01f,-5.09150214e-02f,-1.17118895e-01f,+3.70062627e-02f,-4.42377254e-02f,
-2.60033131e-01f,+1.65697038e-01f,+4.77138422e-02f,+5.65873422e-02f,+1.54232215e-02f,
-2.33627483e-01f,-3.68632972e-01f,-3.13737184e-01f,-1.99132502e-01f,-3.56697857e-01f,
-1.70519680e-01f,-1.70212761e-01f,+1.38272688e-01f,-1.58781290e-01f,-3.81224424e-01f,
-3.37845951e-01f,-4.63379286e-02f,-2.20211029e-01f,+1.40462488e-01f,-2.07852259e-01f,
-7.19296515e-01f,-3.74332517e-01f,-6.39074385e-01f,-7.79906332e-01f,-7.44906247e-01f,
-1.13542810e-01f,-9.86637697e-02f,+1.32946655e-01f,-1.00443795e-01f,-7.00632036e-02f,
+1.59904789e-02f,+6.67518564e-03f,-2.35587746e-01f,-2.14186311e-01f,-3.41218919e-01f,
-1.57059595e-01f,+2.01628178e-01f,-2.10906133e-01f,+1.04580790e-01f,-3.01233202e-01f,
-1.57755151e-01f,-8.00829660e-03f,-1.00839078e-01f,-7.35807270e-02f,-6.00541905e-02f,
+3.77186164e-02f,+8.21392983e-02f,-1.97665974e-01f,-2.53625680e-02f,-9.67136994e-02f,
-1.16116665e-01f,-5.82552142e-02f,-5.54155052e-01f,-4.11576957e-01f,+8.20989236e-02f,
-6.66654289e-01f,+3.06268752e-01f,-6.17362410e-02f,+1.11520216e-01f,+1.15528107e-01f,
-2.67807335e-01f,+7.43263541e-03f,+2.62089372e-01f,-1.46524265e-01f,-3.35873038e-01f,
-4.05338287e-01f,-6.74716011e-02f,+1.28746286e-01f,-3.06246400e-01f,-3.14053476e-01f,
-2.41567746e-01f,-2.46407241e-01f,-2.37128466e-01f,-2.00729415e-01f,+5.88039383e-02f,
+8.36943239e-02f,+1.42918667e-02f,-1.24419004e-01f,+4.68968488e-02f,-2.83724278e-01f,
-1.50644124e-01f,-1.21210694e-01f,-2.25513861e-01f,+2.11065430e-02f,-1.54894758e-02f,
-3.69903386e-01f,-3.22977871e-01f,-9.60150063e-02f,+3.49426046e-02f,+1.31555855e-01f,
-4.47225660e-01f,-2.91175604e-01f,-3.27020347e-01f,-2.41417587e-01f,-4.68752831e-01f,
+1.46083623e-01f,+2.86508072e-02f,-1.02176547e-01f,-3.45590204e-01f,-2.42305443e-01f,
-3.01010787e-01f,+1.01283647e-01f,+5.08965515e-02f,+2.97620818e-02f,-4.99620847e-02f,
+1.39906898e-01f,-2.43577302e-01f,-2.93834805e-01f,-1.58321187e-01f,+2.64709480e-02f,
+2.00230718e-01f,-3.97718966e-01f,-3.90670031e-01f,-3.62354577e-01f,-4.98229861e-01f,
-2.24496260e-01f,+4.64637578e-02f,-7.00315833e-01f,-4.83322978e-01f,-1.83437273e-01f,
+1.31571829e-01f,-2.79990464e-01f,-3.95629257e-01f,-3.77972573e-01f,-3.29801470e-01f,
+2.86423534e-01f,+5.14729857e-01f,-4.42377403e-02f,-3.05481497e-02f,+1.17663302e-01f,
+8.84366129e-03f,-7.69828409e-02f,-2.28717417e-01f,+2.03474462e-02f,-4.93249111e-02f,
-1.54411644e-01f,+4.92724627e-02f,-5.72238490e-02f,-7.52675459e-02f,-2.94904798e-01f,
-1.14619762e-01f,-1.35301441e-01f,-1.38987273e-01f,-3.56944390e-02f,-2.17291787e-01f,
+1.36913225e-01f,+2.92334378e-01f,-4.36648935e-01f,-7.06433356e-01f,-5.14723249e-02f,
+2.25475565e-01f,-8.64055276e-01f,-6.95525825e-01f,-2.20335364e-01f,-3.48436296e-01f,
-8.37345943e-02f,+6.25444055e-02f,+8.38183686e-02f,+7.72962952e-03f,-6.86445879e-03f,
-1.21564187e-01f,+1.63767472e-01f,-3.21532875e-01f,+9.00578201e-02f,+1.62907124e-01f,
-2.04749852e-01f,+1.42321900e-01f,-2.34354198e-01f,-2.56085008e-01f,+4.19663079e-02f,
-1.02151334e-01f,-9.72464159e-02f,+5.57966158e-02f,-1.40675530e-01f,-2.63444185e-01f,
+2.18881592e-01f,-2.11252764e-01f,-3.86501402e-01f,-1.73546493e-01f,-4.21423644e-01f,
-1.55560449e-01f,-3.08756500e-01f,-4.90492851e-01f,-3.59175295e-01f,-4.33400542e-01f,
-2.69469351e-01f,+4.06161875e-01f,+1.06984898e-01f,+4.64701772e-01f,-4.76517044e-02f,
+4.16864008e-02f,-2.74440527e-01f,-2.58795053e-01f,-9.75675136e-02f,-2.82943368e-01f,
-2.95368023e-02f,-1.81504220e-01f,-3.14346224e-01f,-2.29033694e-01f,-9.66554508e-03f,
-1.00124270e-01f,-3.19322079e-01f,-2.70372003e-01f,-1.41157866e-01f,+4.92815487e-02f,
-2.11849168e-01f,+6.84001744e-02f,-1.94363490e-01f,-2.97688365e-01f,+4.13596071e-02f,
-2.11473376e-01f,+1.06125213e-02f,+2.56226689e-01f,-3.05712849e-01f,-7.94772357e-02f,
-1.49240434e-01f,-3.97633314e-01f,+2.47568831e-01f,+1.54617488e-01f,+3.60345691e-02f,
-7.02722311e-01f,-3.07360768e-01f,-4.99356955e-01f,-2.05205262e-01f,-3.62099439e-01f,
-2.22832993e-01f,-3.16851914e-01f,-8.41724277e-02f,+8.68350714e-02f,+6.00117482e-02f,
-4.02272463e-01f,-3.52226704e-01f,+1.37139648e-01f,+7.19786361e-02f,-3.58008921e-01f,
-1.60505041e-01f,-3.64270389e-01f,-3.84008288e-01f,-9.00118798e-02f,-2.56208837e-01f,
+1.19261228e-01f,+8.54553953e-02f,-3.53006124e-01f,-2.80705422e-01f,+5.91499470e-02f,
-7.68742478e-03f,+4.77867782e-01f,-3.24519336e-01f,-2.57192217e-02f,-4.73303914e-01f,
+2.05897689e-02f,-1.57017354e-02f,-2.01624721e-01f,+9.59058702e-02f,-5.89539349e-01f,
-1.56786114e-01f,-1.42051131e-01f,-2.51217663e-01f,+1.61523283e-01f,-3.48474652e-01f,
-1.88948140e-01f,+8.03260133e-02f,-1.27625778e-01f,+1.71947360e-01f,-3.07146320e-03f,
-1.04235403e-01f,-3.40455234e-01f,-6.68754578e-02f,-2.51439929e-01f,+2.13954315e-01f,
-9.93667394e-02f,-3.83211464e-01f,-3.36240947e-01f,-8.09633911e-01f,-9.34047699e-01f,
-1.12714291e+00f,-1.64378524e-01f,-6.87311292e-01f,-1.36308074e-01f,-1.08535178e-01f,
+3.36472988e-01f,+2.96076555e-02f,+1.04579270e-01f,-4.62763458e-01f,+1.35767296e-01f,
+9.97536778e-02f,-2.28773490e-01f,-1.76336974e-01f,-3.26787978e-02f,-1.55967370e-01f,
+1.03107922e-01f,-2.64496535e-01f,-1.72056094e-01f,-1.41424656e-01f,-3.44051495e-02f,
+1.55552149e-01f,-1.98963836e-01f,-8.96556228e-02f,+2.09741786e-01f,-2.91053236e-01f,
-1.29790351e-01f,-1.55672818e-01f,-1.43783644e-01f,+7.88379367e-03f,-2.59693205e-01f,
-4.43142682e-01f,-5.48906207e-01f,-6.45047545e-01f,+5.52180782e-02f,+8.87583792e-02f,
-1.64895207e-01f,-3.21912706e-01f,-1.76528081e-01f,+5.55047616e-02f,+2.13044018e-01f,
-7.28106946e-02f,-3.67312692e-02f,-2.94824064e-01f,-3.74912560e-01f,-2.77584251e-02f,
-3.60100567e-01f,-1.81472301e-01f,+1.47040501e-01f,-9.78814960e-02f,-9.26101580e-02f,
-2.24844962e-01f,+1.56225428e-01f,-1.06476136e-01f,+1.70535251e-01f,+1.66612193e-01f,
-2.05279604e-01f,-3.06363292e-02f,-3.58891577e-01f,-3.63375783e-01f,-1.88383907e-01f,
-1.99080691e-01f,-3.89398575e-01f,-4.50092196e-01f,-2.89470732e-01f,-1.24405036e-02f,
