#include <math.h> 
 #include <string.h> 
#include "./include/k2c_include.h" 
#include "./include/k2c_tensor_include.h" 

 


void cPredictor(k2c_tensor* dense_1_input_input, k2c_tensor* dense_3_output) { 

float dense_1_output_array[44] = {0}; 
k2c_tensor dense_1_output = {&dense_1_output_array[0],1,44,{44, 1, 1, 1, 1}}; 
float dense_1_kernel_array[968] = {
+1.74277037e-01f,+1.89492464e-01f,+1.79846257e-01f,-1.52524278e-01f,+4.42141593e-02f,
+1.40801787e-01f,+2.99572468e-01f,-1.94971770e-01f,+2.99798548e-01f,+1.12540543e-01f,
-2.19366893e-01f,+8.89429450e-03f,-9.39196348e-03f,-1.25480801e-01f,+1.26025200e-01f,
-1.78217232e-01f,-1.45210758e-01f,+1.92336500e-01f,-2.99033374e-01f,-3.93942595e-02f,
-1.28510594e-03f,+1.05140746e-01f,+1.45666212e-01f,-1.81961343e-01f,-5.93169481e-02f,
+1.24563098e-01f,+8.59169662e-02f,+1.77866220e-01f,-1.52273327e-01f,+3.20225060e-02f,
-7.01633096e-02f,-1.42685473e-01f,+7.97916949e-02f,+3.85634005e-02f,+2.67935216e-01f,
-2.61574566e-01f,+2.28551328e-01f,-6.32444322e-02f,+7.36568868e-02f,+2.19784677e-01f,
-1.54252633e-01f,+1.52777970e-01f,-2.73452908e-01f,+2.54331231e-01f,-1.81219324e-01f,
-3.45629662e-01f,+3.37692380e-01f,-2.30156943e-01f,-8.81102204e-01f,-3.70650798e-01f,
+1.44973531e-01f,+4.61108953e-01f,-1.82554170e-01f,+2.58609354e-01f,-9.44666713e-02f,
+4.23601381e-02f,+8.19434598e-02f,-7.76493847e-01f,-3.23893368e-01f,-2.69323647e-01f,
-1.54017672e-01f,+5.94706461e-02f,-1.70080200e-01f,-3.31862181e-01f,+1.45282805e-01f,
+7.39295185e-01f,-3.73816729e-01f,-2.20748588e-01f,-3.56574714e-01f,-3.35143536e-01f,
-3.91689777e-01f,-2.58448094e-01f,-9.40004513e-02f,+2.47532979e-01f,+5.70975482e-01f,
-1.82767957e-01f,-2.32268274e-01f,-2.83718288e-01f,-6.01651847e-01f,+2.46730428e-02f,
-4.67246436e-02f,+1.80820689e-01f,-1.69601336e-01f,-4.19873893e-01f,-2.83434331e-01f,
-1.91564247e-01f,+7.32870176e-02f,-4.01475042e-01f,+6.81222558e-01f,-3.42360318e-01f,
+1.77852958e-01f,-2.31285408e-01f,-8.92794251e-01f,+4.17102724e-01f,-2.77342469e-01f,
+5.59382021e-01f,-1.82497993e-01f,+2.23935753e-01f,-1.77779377e-01f,-1.71791017e-01f,
-8.47851038e-02f,+4.04616266e-01f,-3.51727605e-01f,-2.54418910e-01f,-1.90032408e-01f,
-8.62948835e-01f,-3.65225077e-02f,+4.71773148e-02f,-6.44010484e-01f,+6.29114389e-01f,
-3.80175352e-01f,-1.23256274e-01f,-2.64043421e-01f,-3.56310993e-01f,-3.99646878e-01f,
-2.65428036e-01f,-2.10507751e-01f,-3.02958071e-01f,-1.79225743e-01f,+1.10767372e-01f,
-2.05853745e-01f,-2.44926900e-01f,-6.00406766e-01f,-1.97570249e-01f,+4.80206490e-01f,
-1.42787218e-01f,-1.79247066e-01f,-1.92425221e-01f,-3.03626388e-01f,-1.92194432e-01f,
-2.42298871e-01f,-3.86669971e-02f,+1.03773803e-01f,-3.49115878e-01f,+1.67184114e-01f,
-2.08660483e-01f,-9.41780925e-01f,-4.96831477e-01f,-2.54651662e-02f,+4.68924731e-01f,
-1.88899219e-01f,+2.23856091e-01f,+2.11303189e-01f,-1.10458791e-01f,-2.98704624e-01f,
-4.10858691e-01f,-3.67169082e-01f,-3.29448760e-01f,-1.63394555e-01f,-2.70937264e-01f,
-3.82114112e-01f,-9.54916775e-02f,+3.67808372e-01f,+6.50386274e-01f,-3.83417517e-01f,
-4.25200701e-01f,-3.78646076e-01f,-3.54212373e-01f,-4.00081903e-01f,-2.46143341e-01f,
-1.26993939e-01f,+1.16918452e-01f,-3.03201228e-01f,-2.10198134e-01f,-2.02700898e-01f,
-2.74605125e-01f,-5.77871919e-01f,+6.17046244e-02f,-2.67888457e-01f,-1.25781879e-01f,
-1.70417681e-01f,+3.40215683e-01f,-3.27460498e-01f,-1.72569677e-01f,-3.65934670e-02f,
+8.68251994e-02f,+2.35597938e-01f,+3.50132436e-01f,-4.51796979e-01f,+2.74481863e-01f,
+8.50018978e-01f,+8.13604534e-01f,-8.86759013e-02f,-4.98012662e-01f,+2.08573774e-01f,
-3.99660707e-01f,-1.65852765e-03f,+6.47203624e-02f,+7.54186586e-02f,-7.74442613e-01f,
+3.51674616e-01f,+2.12856576e-01f,+1.72605544e-01f,-1.58325464e-01f,-5.11698604e-01f,
-2.67089814e-01f,-4.56500798e-01f,-3.51923913e-01f,+3.92187953e-01f,+1.89660545e-02f,
+5.05621076e-01f,+3.69584680e-01f,+3.97329986e-01f,+2.52003700e-01f,-2.90360600e-01f,
+1.60253242e-01f,+2.30105132e-01f,+2.49902323e-01f,+2.51541346e-01f,+2.74616331e-01f,
+5.99435627e-01f,-7.15276241e-01f,-2.78236955e-01f,-1.68341950e-01f,+2.00169474e-01f,
-5.61936498e-01f,+3.30914915e-01f,+2.21042126e-01f,+2.04479918e-01f,+4.73926328e-02f,
-5.45951426e-02f,-3.60535145e-01f,+2.40451351e-01f,-2.27040991e-01f,-9.09190178e-01f,
+4.73515511e-01f,-2.07394660e-01f,+4.59900916e-01f,-1.96695969e-01f,+4.20661092e-01f,
-4.37139273e-01f,-3.17026824e-02f,+1.84974253e-01f,-3.32813770e-01f,-3.52894098e-01f,
+6.80725813e-01f,-1.82570532e-01f,-3.72612238e-01f,-3.37292224e-01f,+2.48494551e-01f,
+2.33780616e-03f,+6.12758279e-01f,-3.75656605e-01f,-3.79103273e-01f,-4.54046041e-01f,
-3.47113073e-01f,-3.90930355e-01f,-2.59527177e-01f,-5.23728831e-03f,-3.93421769e-01f,
-3.87510329e-01f,+9.54487175e-02f,-2.30647087e-01f,-2.68472254e-01f,-5.90119898e-01f,
-5.59377789e-01f,-1.66877601e-02f,+1.48337334e-01f,-1.83618486e-01f,+2.96343803e-01f,
-2.99861580e-01f,-1.32717177e-01f,-8.70538056e-02f,-3.73001903e-01f,-6.60734713e-01f,
+3.49014401e-01f,-7.13114083e-01f,+2.33939871e-01f,+8.83535802e-01f,-2.50009239e-01f,
-8.22653770e-02f,-3.98625821e-01f,+1.97796240e-01f,-4.46470737e-01f,-4.57675517e-01f,
-8.43845233e-02f,-6.62318617e-02f,-2.66685218e-01f,+3.61159831e-01f,+2.00500265e-01f,
+1.86855435e-01f,-1.68619737e-01f,-2.60211647e-01f,-3.70501310e-01f,-2.60982096e-01f,
-4.09190416e-01f,+4.01682556e-01f,+1.03600368e-01f,+4.71141666e-01f,+3.72708589e-01f,
+4.07315731e-01f,+2.67404974e-01f,+1.03798844e-01f,+7.21402317e-02f,+2.21218035e-01f,
-7.67351449e-01f,+2.73554623e-01f,+2.77726680e-01f,+6.04547262e-01f,+6.85061961e-02f,
-8.08417499e-02f,-7.05422580e-01f,+1.78688228e-01f,-1.32655275e+00f,+2.94567049e-01f,
+1.79656506e-01f,-2.08141431e-01f,+8.60787407e-02f,-5.21089256e-01f,-3.48379850e-01f,
+2.73536026e-01f,-2.77306885e-01f,-9.02092099e-01f,-1.52741000e-01f,-7.22443387e-02f,
+5.40717125e-01f,-2.03046471e-01f,+3.59600931e-01f,+1.01326369e-01f,-1.54009074e-01f,
-2.95858234e-01f,+4.75452915e-02f,-3.21691602e-01f,-2.37043202e-01f,-1.70854405e-01f,
-3.04959640e-02f,-2.96321243e-01f,-5.08282520e-02f,-1.70326084e-01f,+5.07096589e-01f,
-3.79983872e-01f,-1.73491374e-01f,-3.77091467e-01f,-3.55742455e-01f,-4.14133430e-01f,
-2.85789669e-01f,-1.21815525e-01f,+3.02865356e-01f,-3.23366821e-01f,-2.35222384e-01f,
-1.98488057e-01f,-2.47034073e-01f,-6.05001867e-01f,-3.43907744e-01f,+2.97476470e-01f,
+1.13753371e-01f,-1.83424994e-01f,-2.62294561e-01f,-2.92027861e-01f,-2.16803476e-01f,
-1.47091851e-01f,-6.97910964e-01f,-3.16207886e-01f,-3.50056142e-01f,+2.35713884e-01f,
-2.26916343e-01f,-8.83908093e-01f,+8.80462751e-02f,-3.22490901e-01f,+4.99943346e-01f,
-1.99838310e-01f,+2.55182981e-01f,-7.12007210e-02f,-1.42070577e-01f,-3.14630628e-01f,
-3.08492035e-01f,-3.55911344e-01f,-3.17994267e-01f,-1.77735731e-01f,+4.66362715e-01f,
-2.36492574e-01f,+4.50552218e-02f,+3.13435376e-01f,+6.39657974e-01f,-3.83725494e-01f,
-3.46303642e-01f,-2.84927338e-01f,-3.53062034e-01f,-3.97312641e-01f,-2.33900115e-01f,
-1.03698388e-01f,+9.14550051e-02f,-1.32838130e-01f,+6.13805294e-01f,-1.96022183e-01f,
-2.63327658e-01f,-6.07297301e-01f,-2.14687079e-01f,+2.12797150e-01f,+9.11218598e-02f,
-1.78958759e-01f,-2.19084173e-01f,-3.12739074e-01f,-1.14539452e-01f,-1.34462014e-01f,
-3.71771365e-01f,-4.65115547e-01f,-3.47088367e-01f,+2.95047343e-01f,-2.50001222e-01f,
-8.91032100e-01f,-6.95019424e-01f,-9.73834023e-02f,+5.27918279e-01f,-1.82595268e-01f,
+3.39153439e-01f,+1.27213478e-01f,-8.08500648e-02f,-2.03565508e-01f,+1.56635299e-01f,
-3.26079220e-01f,-2.58918971e-01f,-1.67375490e-01f,+7.89263621e-02f,+6.16200082e-02f,
-3.83664399e-01f,-4.56492007e-02f,+5.59040189e-01f,-3.76716852e-01f,-3.77895683e-01f,
-3.43068600e-01f,-3.55284393e-01f,-4.07724082e-01f,-2.60582358e-01f,-9.45135430e-02f,
-2.92984039e-01f,-3.09426725e-01f,-2.15720654e-01f,-2.01925635e-01f,-2.80851096e-01f,
-6.00535452e-01f,-3.77649873e-01f,+2.17570454e-01f,+2.03001112e-01f,-1.70528680e-01f,
+1.39620394e-01f,-2.56802559e-01f,-1.97593525e-01f,-5.95701225e-02f,-3.92656267e-01f,
+1.12796769e-01f,+3.46308768e-01f,-2.13647768e-01f,+2.19526634e-01f,+9.14844215e-01f,
-7.69043684e-01f,+1.02549486e-01f,-5.42674243e-01f,+1.82818830e-01f,-3.02850425e-01f,
-9.48056281e-02f,+1.19956657e-01f,-3.70520473e-01f,-5.38032293e-01f,+3.67064923e-01f,
+2.01415226e-01f,+1.92134276e-01f,-1.24671971e-02f,+3.06469142e-01f,+4.52048302e-01f,
+2.28972584e-01f,-5.31237006e-01f,+3.87193292e-01f,+1.16271488e-01f,+5.15016794e-01f,
+3.66748840e-01f,+4.04961705e-01f,+2.76645362e-01f,+1.00500770e-01f,-2.70004421e-01f,
+2.34362260e-01f,+8.66186798e-01f,+2.26084203e-01f,+2.72890747e-01f,+5.97916067e-01f,
-6.07158303e-01f,-3.40627670e-01f,-2.94531077e-01f,+1.99495211e-01f,-2.10811540e-01f,
+2.95300245e-01f,+2.26007134e-01f,+3.37781906e-02f,-1.22103281e-02f,-3.57728116e-02f,
-3.58088464e-01f,+1.97573245e-01f,-2.15186790e-01f,-8.87685597e-01f,-2.18376685e-02f,
-2.23541766e-01f,+4.74851489e-01f,-2.02442229e-01f,+3.18954080e-01f,-5.55673093e-02f,
+2.53133606e-02f,-5.25568239e-02f,-3.41915749e-02f,-3.78342062e-01f,-2.88099140e-01f,
-1.97241113e-01f,+2.32018054e-01f,+3.59131992e-01f,+4.16343063e-01f,+6.42595291e-02f,
+6.28851652e-01f,-3.88129681e-01f,-1.36029109e-01f,-3.31312448e-01f,-3.32256258e-01f,
-4.01164383e-01f,-2.61216640e-01f,-1.05932988e-01f,-2.78266788e-01f,-1.69618234e-01f,
-5.50138593e-01f,-2.57331163e-01f,-2.81042248e-01f,-6.14409328e-01f,+2.62876451e-01f,
-5.49256615e-03f,+3.68950009e-01f,-1.86607823e-01f,+4.30727243e-01f,-2.99382061e-01f,
-2.44223192e-01f,-8.04677326e-03f,+1.84995770e-01f,+1.66142523e-01f,+3.53093654e-01f,
-5.07272720e-01f,+2.63463140e-01f,+8.70141268e-01f,-5.64294159e-01f,+1.82479978e-01f,
-4.52005297e-01f,+1.98818028e-01f,-3.06039929e-01f,-4.45253789e-01f,+3.72440368e-02f,
-4.36212122e-01f,-5.51249802e-01f,+3.23671103e-01f,+1.95204228e-01f,+2.04797044e-01f,
-1.60760239e-01f,+2.66893283e-02f,-5.08335531e-01f,+4.69460458e-01f,-4.96990442e-01f,
+3.89524609e-01f,-1.40987635e-01f,+5.30559301e-01f,+3.69440764e-01f,+4.05114919e-01f,
+2.84191012e-01f,-2.35716980e-02f,-6.39456391e-01f,+2.01047450e-01f,-3.93031150e-01f,
+2.08374158e-01f,+2.64895231e-01f,+6.06663823e-01f,-3.92752945e-01f,+2.69465372e-02f,
-3.80949467e-01f,+1.81290016e-01f,-1.88363150e-01f,+3.08435798e-01f,+1.86682418e-01f,
-6.55970052e-02f,+1.63535386e-01f,-2.10444182e-01f,+3.44120771e-01f,-4.27257299e-01f,
+2.57599562e-01f,+8.79422963e-01f,+8.76188278e-01f,+1.10040633e-02f,-4.34444577e-01f,
+2.20857769e-01f,-4.01477396e-01f,-1.16940045e+00f,+5.59077784e-02f,+2.87593871e-01f,
-3.82937044e-01f,+3.55259925e-01f,+1.73998415e-01f,+2.01677889e-01f,+8.93339336e-01f,
+8.95660594e-02f,-1.39431074e-01f,-3.63596529e-01f,-4.05113876e-01f,+3.85271609e-01f,
-2.10452378e-01f,+5.53115487e-01f,+3.87498319e-01f,+4.11041021e-01f,+2.46672451e-01f,
-3.95389274e-02f,+1.00875311e-01f,+2.29469210e-01f,-1.22735210e-01f,+2.20179990e-01f,
+2.58938223e-01f,+6.16965830e-01f,+5.59985280e-01f,+3.08236033e-01f,-8.02863300e-01f,
+2.06342682e-01f,-3.58678758e-01f,+3.07082921e-01f,+2.35181019e-01f,-1.41747683e-01f,
+9.71932709e-02f,+7.71866962e-02f,-3.51917952e-01f,+5.67415729e-02f,-2.41440520e-01f,
-8.89589369e-01f,+1.57512188e-01f,+4.19327803e-02f,+4.34311956e-01f,-1.93526462e-01f,
+2.40649402e-01f,-6.83575034e-01f,-2.89627165e-01f,-4.42816950e-02f,+4.30387259e-01f,
-3.19062084e-01f,-2.92245567e-01f,-1.85006097e-01f,+3.37758034e-01f,-3.70869219e-01f,
-7.76423454e-01f,+2.98367143e-01f,+6.70547903e-01f,-3.87884915e-01f,-3.26668441e-01f,
-4.77268547e-01f,-3.49097550e-01f,-3.99092615e-01f,-2.45066881e-01f,-1.45471305e-01f,
+1.80886984e-02f,-2.63385534e-01f,-3.54407668e-01f,-1.97436929e-01f,-2.53885031e-01f,
-5.89343846e-01f,-2.44626850e-01f,-3.35270494e-01f,+6.58966452e-02f,-1.79763794e-01f,
-7.78265074e-02f,-3.34518075e-01f,-1.96562946e-01f,-5.19145966e-01f,-3.84508550e-01f,
-5.73194683e-01f,+3.50191444e-01f,-6.11783922e-01f,+2.62513787e-01f,+8.46580863e-01f,
-1.56935260e-01f,-5.00994269e-03f,-4.85302061e-01f,+2.15001523e-01f,-4.30023044e-01f,
-1.03200948e+00f,+4.28747050e-02f,+3.09984118e-01f,-9.06169236e-01f,+3.72846544e-01f,
+2.67167330e-01f,+1.87366113e-01f,+4.77616116e-02f,+9.35516581e-02f,-1.07660227e-01f,
-5.17622471e-01f,-4.11147833e-01f,+3.85421604e-01f,+3.33208144e-01f,+5.04572034e-01f,
+3.66857469e-01f,+3.98211002e-01f,+2.90690154e-01f,-1.13260604e-01f,-3.84308100e-01f,
+3.04466397e-01f,-2.48446409e-02f,+2.45514572e-01f,+2.33599991e-01f,+6.02700889e-01f,
-5.40181436e-02f,+4.05430675e-01f,-4.44229573e-01f,+1.83557719e-01f,-9.18468356e-01f,
+2.81920552e-01f,+1.44827470e-01f,-2.64106184e-01f,+3.26008014e-02f,-5.01654804e-01f,
-3.48061025e-01f,+4.26874280e-01f,-2.17670724e-01f,-9.01765287e-01f,+1.13172449e-01f,
-7.09679052e-02f,+4.49846864e-01f,-1.90645576e-01f,+2.14116976e-01f,+1.14806443e-01f,
-2.03767642e-01f,-1.35354415e-01f,+6.24744713e-01f,-3.46572459e-01f,-2.61684895e-01f,
-1.56796157e-01f,+1.27124518e-01f,-2.96107143e-01f,-5.08079343e-02f,+2.82030199e-02f,
+6.30250156e-01f,-3.75073373e-01f,-3.16238701e-01f,-3.93752456e-01f,-3.47568661e-01f,
-3.96526366e-01f,-2.96200663e-01f,+5.92922717e-02f,+1.04414470e-01f,+6.79436475e-02f,
-2.81943567e-02f,-1.99421495e-01f,-2.63238013e-01f,-6.02532625e-01f,+1.47906154e-01f,
+2.40126073e-01f,-5.67388758e-02f,-1.76373526e-01f,+4.79254127e-02f,-3.10153604e-01f,
-1.92716509e-01f,+7.32723400e-02f,-1.87758848e-01f,-3.33404422e-01f,+3.45482260e-01f,
-7.19007611e-01f,+2.80955732e-01f,+8.93519223e-01f,-7.27573693e-01f,-5.15011586e-02f,
-3.13131243e-01f,+2.26607025e-01f,-3.88298243e-01f,-5.49555659e-01f,-1.27654180e-01f,
-1.51990175e-01f,-3.05962592e-01f,+4.23881948e-01f,+2.02738106e-01f,+1.93441883e-01f,
-3.81279767e-01f,-7.20196724e-01f,-5.16699553e-01f,-8.17351788e-02f,-4.17291075e-01f,
+3.86861295e-01f,-6.90145092e-03f,+3.95487189e-01f,+3.83201182e-01f,+4.11575615e-01f,
+2.65362889e-01f,+9.44678113e-02f,-1.16872057e-01f,+3.02141190e-01f,-6.10434294e-01f,
+2.66078919e-01f,+2.84365565e-01f,+6.20535254e-01f,-7.79578984e-01f,-2.29555164e-02f,
-8.68681669e-01f,+2.03074068e-01f,-7.83450723e-01f,+3.11507165e-01f,+2.44503468e-01f,
-4.03275549e-01f,+4.58769388e-02f,-1.54042654e-02f,-3.47302586e-01f,+2.99790800e-01f,
-2.09505409e-01f,-9.07409489e-01f,+7.31406808e-02f,+6.05963804e-02f,+5.78078628e-01f,
-1.96019813e-01f,+3.15440387e-01f,+5.90437427e-02f,+6.98093623e-02f,+7.76416361e-02f,
+4.07506019e-01f,-3.39774758e-01f,-2.21743658e-01f,-1.92361549e-01f,-3.62481207e-01f,
-7.29147971e-01f,-5.32230794e-01f,+3.48737501e-02f,+5.41356325e-01f,-3.82394642e-01f,
-5.64669013e-01f,-4.43171620e-01f,-3.61835867e-01f,-4.10165846e-01f,-2.49512613e-01f,
-3.48605752e-01f,-1.40525609e-01f,-2.97596544e-01f,+3.81199747e-01f,-2.23299608e-01f,
-2.96048313e-01f,-5.93625128e-01f,-4.18139756e-01f,-1.98724389e-01f,-1.63636189e-02f,
-1.75456941e-01f,+6.28095448e-01f,-3.35729897e-01f,-1.88761353e-01f,-1.53053805e-01f,
-1.30832076e-01f,+3.71448189e-01f,-3.49205136e-01f,+1.77694932e-01f,-2.57238299e-01f,
-8.95462930e-01f,-6.27342224e-01f,-4.96624827e-01f,+5.47327876e-01f,-1.89060718e-01f,
+2.29648963e-01f,+4.53393579e-01f,-1.34860784e-01f,-3.10373724e-01f,-3.40859443e-01f,
-3.51832449e-01f,-2.80076683e-01f,-1.90381601e-01f,-3.97646546e-01f,+3.67231160e-01f,
+1.43954590e-01f,-2.46368319e-01f,+6.35603070e-01f,-3.72002065e-01f,-5.41187301e-02f,
-3.58034968e-01f,-3.43023062e-01f,-3.98395002e-01f,-2.82722533e-01f,-8.33067521e-02f,
-3.05405945e-01f,-2.41727084e-01f,+1.45800143e-01f,-1.89648971e-01f,-2.55805343e-01f,
-5.94060361e-01f,+2.61652589e-01f,+1.00157261e-01f,-2.53201962e-01f,-1.74308881e-01f,
-4.86347526e-02f,-3.03703636e-01f,-1.73796058e-01f,-6.36504233e-01f,-3.18789482e-01f,
+3.94433826e-01f,-3.50223124e-01f,+2.96207756e-01f,-2.60121286e-01f,-9.18194354e-01f,
-3.20330232e-01f,-4.29777205e-01f,+6.71828032e-01f,-2.03044042e-01f,+1.94006756e-01f,
+8.11576605e-01f,-1.66770130e-01f,-1.06949555e-02f,-3.61948609e-01f,-3.41689587e-01f,
-2.57644653e-01f,-1.60928160e-01f,-6.26757801e-01f,+2.65225679e-01f,-1.50952414e-01f,
-1.92864031e-01f,+5.79458833e-01f,-3.74189734e-01f,-4.04525429e-01f,-5.14011025e-01f,
-3.42478603e-01f,-3.97059590e-01f,-2.82008857e-01f,-5.39522804e-02f,-2.19859242e-01f,
-3.67097139e-01f,-8.13383639e-01f,-1.60265774e-01f,-2.70249009e-01f,-5.94071448e-01f,
+2.82838315e-01f,-9.83211696e-01f,-3.17306101e-01f,-1.78416356e-01f,-3.01023781e-01f,
-2.82133698e-01f,-1.70540720e-01f,-5.01136601e-01f,-2.14667127e-01f,-7.09804744e-02f,
-3.39894563e-01f,+1.58908308e-01f,-2.44339302e-01f,-9.20887172e-01f,+4.04582083e-01f,
-2.44528726e-01f,+5.29976666e-01f,-2.02541143e-01f,+1.13689691e-01f,-4.50865507e-01f,
-1.46737933e-01f,-3.91267501e-02f,+1.61255538e-01f,-3.64272654e-01f,-2.59628296e-01f,
-1.67680219e-01f,-6.41436595e-03f,+1.44893587e-01f,+2.57441580e-01f,-4.87761378e-01f,
+6.61738157e-01f,-3.71564597e-01f,-3.78210768e-02f,-2.31075183e-01f,-3.34859192e-01f,
-4.02431995e-01f,-2.72315174e-01f,+4.47694622e-02f,-3.77574921e-01f,-9.83114839e-02f,
+2.63061106e-01f,-2.00267985e-01f,-2.76783526e-01f,-6.18840635e-01f,+2.70521224e-01f,
-6.06659055e-01f,+5.03171682e-02f,-1.91082567e-01f,+5.99155377e-04f,-2.96453327e-01f,
-2.04738662e-01f,+1.96336478e-01f,-1.31752089e-01f,}; 
k2c_tensor dense_1_kernel = {&dense_1_kernel_array[0],2,968,{22,44, 1, 1, 1}}; 
float dense_1_bias_array[44] = {
+8.82198215e-02f,+1.74022329e+00f,-8.57530534e-01f,+1.79082978e+00f,+9.49318409e-01f,
-1.81550980e-01f,+1.08948398e+00f,-1.19072616e+00f,+1.86852372e+00f,-5.24323359e-02f,
-2.17713550e-01f,+1.53810143e+00f,-3.42949301e-01f,-4.41466086e-02f,+2.63550520e+00f,
+3.77132714e-01f,+1.69319952e+00f,-9.10891965e-03f,-1.98794991e-01f,-1.39389619e-01f,
+1.18980836e-02f,-2.74947464e-01f,+1.83877885e+00f,+5.29481471e-01f,+3.96123469e-01f,
+1.27720702e+00f,+1.56798005e+00f,+2.02442384e+00f,+1.15427756e+00f,-4.12157118e-01f,
-7.34465942e-03f,-8.24386254e-03f,+1.95173955e+00f,+2.05724788e+00f,+1.73936427e+00f,
-3.25480580e-01f,+1.32468855e-02f,+3.91382962e-01f,+1.73140335e+00f,+1.34580418e-01f,
+2.30165768e+00f,+1.31412005e+00f,+5.93869686e-01f,+2.69719493e-02f,}; 
k2c_tensor dense_1_bias = {&dense_1_bias_array[0],1,44,{44, 1, 1, 1, 1}}; 
float dense_1_fwork[990] = {0}; 

 
float dense_2_output_array[22] = {0}; 
k2c_tensor dense_2_output = {&dense_2_output_array[0],1,22,{22, 1, 1, 1, 1}}; 
float dense_2_kernel_array[968] = {
+2.34218448e-01f,-1.65830374e-01f,+3.81457329e-01f,-6.97742775e-02f,+6.20838888e-02f,
-7.62352645e-02f,-3.64053339e-01f,-7.82028437e-02f,-7.70939708e-01f,+5.27999818e-01f,
+1.97275683e-01f,-2.38942981e-01f,-4.35434371e-01f,-3.92974652e-02f,+1.88323185e-01f,
-3.61127742e-02f,-1.26495704e-01f,+5.00838935e-01f,-3.07302326e-01f,-1.77889556e-01f,
-4.76947203e-02f,-5.16003706e-02f,-3.74574393e-01f,+3.93650651e-01f,+1.06833808e-01f,
+2.07569504e+00f,-3.77681106e-01f,+2.09329534e+00f,+6.52264178e-01f,+1.47187078e+00f,
+1.77792037e+00f,-1.03402662e+00f,+7.30550408e-01f,-1.98203132e-01f,+7.15660095e-01f,
+9.66475159e-02f,-3.14993054e-01f,+3.00916642e-01f,+3.75265390e-01f,+4.93735433e-01f,
+5.74314415e-01f,+4.42927986e-01f,+8.39299083e-01f,-2.55459976e+00f,-1.60224423e-01f,
-3.90710562e-01f,-5.25314689e-01f,-5.76263309e-01f,-6.10023141e-02f,-6.66148007e-01f,
-6.55844629e-01f,-4.41658586e-01f,-1.12277851e-01f,+1.20869443e-01f,-5.47212660e-01f,
-6.00519121e-01f,-5.99352241e-01f,-4.80956435e-01f,-4.73014772e-01f,-3.71307701e-01f,
-2.38528699e-01f,-7.02364504e-01f,-4.83814746e-01f,-3.82424444e-01f,-6.63412273e-01f,
-8.79319131e-01f,+1.39806092e-01f,+1.97365563e-02f,+1.33836329e-01f,+4.34827387e-01f,
-4.04832572e-01f,+4.09772933e-01f,+3.95995498e-01f,+1.97374448e-01f,-4.90542501e-01f,
+7.83110797e-01f,+1.63465440e+00f,+4.33267504e-01f,+4.30479407e-01f,+5.48242033e-02f,
-2.67789412e+00f,+2.01696336e-01f,+1.84573174e-01f,+6.19716085e-02f,+2.63385206e-01f,
+1.90625116e-02f,+2.95701712e-01f,+1.17461741e+00f,-4.01445776e-01f,-1.27225971e+00f,
+2.50832364e-02f,-1.18913186e+00f,-1.40634283e-01f,-1.47931433e+00f,+6.60675228e-01f,
-4.63289595e+00f,-4.11568373e-01f,+3.03138375e+00f,-1.11852479e+00f,+1.04329519e-01f,
+2.86919808e+00f,-1.31905246e+00f,+1.44525409e-01f,-5.39798355e+00f,-5.06070518e+00f,
+2.48319173e+00f,+2.91487622e+00f,-1.60373998e+00f,+1.19140577e+00f,-7.63568163e+00f,
+2.46189401e-01f,-1.64596960e-01f,-3.10850769e-01f,-9.66969877e-03f,+2.44133949e-01f,
-3.20961922e-02f,-6.95195645e-02f,-6.54990822e-02f,-1.90870774e+00f,+9.46121991e-01f,
+2.96723425e-01f,-2.88501173e-01f,-1.67132929e-01f,-5.64240515e-02f,+2.14435980e-01f,
-3.38881314e-02f,-9.85068232e-02f,-6.74968287e-02f,-1.44516498e-01f,-2.30222091e-01f,
-1.88913226e-01f,+2.95631662e-02f,+1.69495597e-01f,-4.49467562e-02f,-2.97157735e-01f,
+8.74673054e-02f,+2.62717873e-01f,+8.78909826e-02f,-2.60724396e-01f,-3.81198525e-02f,
-3.75181973e-01f,+2.29303494e-01f,+2.86326230e-01f,+4.62551206e-01f,-6.49695769e-02f,
-7.31510893e-02f,+5.25887370e-01f,-8.28755870e-02f,-5.79272807e-02f,+1.67888880e-01f,
-1.06638566e-01f,-3.53745818e-02f,-1.25788733e-01f,+2.30700001e-01f,-3.28509361e-01f,
-5.83467901e-01f,-7.06202090e-02f,-5.77839673e-01f,-1.05626114e-01f,-7.91794479e-01f,
-8.29440653e-01f,-6.90476298e-01f,+2.95950204e-01f,+1.95882767e-01f,-6.01924419e-01f,
-1.84128359e-01f,-7.43595243e-01f,-3.88752043e-01f,-3.24481755e-01f,-1.97409526e-01f,
-4.29359674e-01f,-7.37565279e-01f,-7.47940540e-01f,-5.65042853e-01f,-1.10777330e+00f,
-8.57915819e-01f,+9.14546669e-01f,-8.94205347e-02f,-4.16075736e-02f,+1.07090957e-01f,
-6.15845442e-01f,+1.37228772e-01f,-2.40033180e-01f,+2.36102659e-02f,-5.73585796e+00f,
+2.33197618e+00f,+6.64159477e-01f,+4.90573108e-01f,-2.13145539e-01f,+1.10677723e-03f,
+2.06505132e+00f,-2.44201601e-01f,-2.28156164e-01f,-1.16372690e-01f,-2.86657840e-01f,
-2.09307358e-01f,-3.80804628e-01f,+4.95901585e-01f,-1.21748500e-01f,-5.74885786e-01f,
-3.50105047e-01f,-2.16045856e-01f,-6.26475215e-01f,-2.96503663e-01f,-1.77229714e+00f,
-3.81388247e-01f,+6.83064386e-02f,+1.64648935e-01f,-3.99676561e-01f,+4.62455451e-02f,
-1.16452241e+00f,-5.17326653e-01f,-7.01051205e-02f,-8.29181254e-01f,-7.51601636e-01f,
-1.01284349e+00f,-1.28687370e+00f,-5.46246529e-01f,-1.77865303e+00f,-8.83833230e-01f,
+3.97313207e-01f,-4.97648895e-01f,-5.32280624e-01f,+1.26750646e-02f,+1.57746777e-01f,
+6.97006062e-02f,-8.12520087e-01f,-1.22316733e-01f,+9.85589921e-01f,-9.96298313e-01f,
+2.13886723e-01f,+3.98174822e-01f,-6.00113988e-01f,-5.86597621e-01f,+2.57930104e-02f,
-2.42772684e-01f,-3.81249249e-01f,+1.38893604e-01f,-7.23623514e-01f,-5.09631455e-01f,
-9.00691032e-01f,+4.19570476e-01f,+3.62472713e-01f,-2.63490789e-02f,-5.72112538e-02f,
+7.72920623e-02f,+2.98283160e-01f,+1.06926151e-01f,-1.72621265e-01f,-4.48724069e-02f,
+1.84991330e-01f,+3.39591146e-01f,+5.07865071e-01f,-2.16596738e-01f,-2.97795385e-01f,
+5.36963418e-02f,+1.05195951e+00f,-2.15169713e-01f,-2.00783297e-01f,-3.91326994e-01f,
-2.22261265e-01f,-6.76485971e-02f,-4.09128338e-01f,+4.32564437e-01f,+4.29525562e-02f,
-3.40384156e-01f,-3.45428228e-01f,+2.54260134e-02f,+3.09145153e-01f,-1.30951414e-02f,
-1.07968532e-01f,-1.76734120e-01f,+1.77858397e-01f,-3.70161831e-02f,+3.05626035e-01f,
-3.42830032e-01f,-1.20204896e-01f,-1.17371380e-01f,+2.84204394e-01f,-1.01642758e-01f,
-5.54891117e-02f,-3.08922142e-01f,-1.40033200e-01f,-2.60989606e-01f,+3.25031616e-02f,
+1.65080979e-01f,+3.01689327e-01f,-5.10955274e-01f,+6.41127050e-01f,-1.98536530e-01f,
-5.18176198e-01f,-1.77354142e-01f,-4.35654193e-01f,-7.43724108e-02f,+8.59237671e-01f,
-8.49433005e-01f,+3.44701558e-02f,-6.80537075e-02f,-6.81278110e-01f,-3.51747513e-01f,
+1.72043636e-01f,-6.92091584e-01f,-1.38956144e-01f,-1.05335379e+00f,-4.62604612e-01f,
-3.50324899e-01f,-5.44746995e-01f,+2.11196750e-01f,-1.77979544e-02f,+2.11025074e-01f,
+3.01152021e-01f,+5.50564408e-01f,-2.23846629e-01f,+6.98119044e-01f,+6.12789392e-01f,
+4.79161263e-01f,+5.19705963e+00f,-1.47983837e+00f,+3.23107719e+00f,-6.32079959e-01f,
+5.15883803e-01f,+2.62898445e-01f,-2.93893194e+00f,+2.56194890e-01f,+3.02107841e-01f,
+2.41102323e-01f,+4.39010739e-01f,+2.25881115e-01f,+5.39349973e-01f,+2.20909548e+00f,
-2.73472637e-01f,+2.46922627e-01f,+1.37336224e-01f,+8.18874955e-01f,-3.59543025e-01f,
+1.05306208e+00f,+3.20594430e-01f,-5.25814742e-02f,-2.23683763e+00f,+1.22584796e+00f,
-8.54546905e-01f,-4.37259078e-01f,+2.51730442e-01f,+2.87481189e-01f,-2.91352779e-01f,
+1.55655116e-01f,+1.18614301e-01f,+2.70007670e-01f,+2.54009753e-01f,+2.02516198e-01f,
+2.94419885e-01f,+5.78114450e-01f,+4.59652930e-01f,+3.02051138e-02f,+2.22574696e-01f,
+1.87312290e-01f,-6.73049539e-02f,+1.21844113e-01f,-2.15656936e-01f,-2.49705929e-02f,
-4.75460625e+00f,+1.38296139e+00f,+4.75392729e-01f,-1.93033442e-02f,-1.19281776e-01f,
-1.41581655e-01f,+1.46721864e+00f,-1.76920861e-01f,-1.29420429e-01f,-8.78036469e-02f,
-5.38388640e-03f,+3.97833344e-03f,+1.07533321e-01f,+4.94502664e-01f,-3.99042934e-01f,
-8.12313110e-02f,+4.52710301e-01f,+3.20158852e-03f,+6.83224261e-01f,-9.22643580e-03f,
-2.42261942e-02f,-1.35785773e-01f,+6.30155802e-01f,-4.52755511e-01f,-1.15696259e-01f,
+1.41253605e-01f,-4.70601283e-02f,-1.05611145e-01f,+3.05265456e-01f,-8.20187181e-02f,
-1.03262432e-01f,-7.47921392e-02f,-1.27845377e-01f,-1.85469434e-01f,-4.36477028e-02f,
+4.44864761e-03f,-6.49027107e-03f,-2.24421024e-01f,+4.03855443e-01f,-6.61228821e-02f,
-4.77688789e-01f,-4.91074212e-02f,-9.10047516e-02f,+4.67614271e-02f,-7.07562268e-01f,
+7.93181896e-01f,+3.61731499e-01f,-5.47125459e-01f,-2.42237374e-01f,-2.93460846e-01f,
+1.37102410e-01f,-4.91525978e-04f,-3.48230451e-02f,+8.62344876e-02f,+2.08730981e-01f,
-2.33428821e-01f,-7.70059675e-02f,+7.30598420e-02f,+1.71036810e-01f,-2.61373430e-01f,
+3.53205092e-02f,+3.04777492e-02f,+3.16326767e-01f,+9.25307069e-03f,-1.44914344e-01f,
-2.04758018e-01f,-6.66685879e-01f,+6.84228778e-01f,+4.93925959e-01f,+5.18210195e-02f,
-3.35114509e-01f,-6.79179579e-02f,+1.11556672e-01f,-1.26703411e-01f,+6.19528443e-02f,
-5.06699458e-02f,-3.26154321e-01f,-2.08127975e-01f,-2.16975376e-01f,+1.54165432e-01f,
+4.03503150e-01f,-1.14293650e-01f,-3.86353559e-03f,-1.14194348e-01f,+3.41456622e-01f,
-1.21099621e-01f,-6.92639127e-02f,-3.52455825e-02f,-3.44901204e-01f,+4.41891581e-01f,
+1.62710816e-01f,-7.91196376e-02f,-9.03721601e-02f,-3.98745872e-02f,+9.51871052e-02f,
+1.14272744e-03f,+6.49979338e-02f,+6.58644065e-02f,-2.17923000e-01f,-1.77379578e-01f,
-4.10477459e-01f,+3.84513363e-02f,+3.34014058e-01f,-3.72118562e-01f,-4.08513397e-01f,
-4.91939932e-01f,-3.15803945e-01f,-4.66827363e-01f,-1.87406099e+00f,-4.43861932e-01f,
+1.75261587e-01f,+7.00176582e-02f,-5.37495852e-01f,-8.08049142e-02f,-1.43092120e+00f,
-4.24918085e-01f,-1.54665068e-01f,-7.41946578e-01f,-6.90558076e-01f,-5.87959945e-01f,
-1.30353129e+00f,-3.66016626e-01f,-1.94404304e+00f,-9.59423721e-01f,-9.05026644e-02f,
+3.61894757e-01f,-4.98207867e-01f,+9.51083243e-01f,-9.30834487e-02f,+1.85833371e+00f,
+6.76223457e-01f,+1.28838372e+00f,+8.95155013e-01f,-4.87057328e-01f,-1.41210794e-01f,
-2.82236487e-01f,+4.01855856e-01f,+5.45804985e-02f,-1.71952948e-01f,+6.13133729e-01f,
+7.40566313e-01f,+3.57309878e-01f,+5.10479033e-01f,+2.63767302e-01f,+9.49072659e-01f,
-1.55297816e+00f,-6.59163356e-01f,-1.60837010e-01f,+3.47483337e-01f,+1.41648541e-03f,
-3.17320526e-02f,-5.44953486e-03f,-6.78199157e-02f,-1.20730788e-01f,-2.32592732e-01f,
+6.75283849e-01f,+2.24768132e-01f,+1.82389334e-01f,+9.75214243e-02f,-1.49340361e-01f,
+3.44255358e-01f,+1.35496771e-02f,+8.35490748e-02f,+7.91270733e-02f,-4.91600335e-02f,
-1.67117864e-01f,+1.63593933e-01f,-8.91456380e-02f,-8.69798124e-01f,-3.78088593e-01f,
+3.32264394e-01f,-4.27327424e-01f,-3.31498116e-01f,-7.75130153e-01f,+1.54290954e-02f,
-1.46623775e-01f,+2.24399075e-01f,+2.77447164e-01f,-3.75107884e-01f,+2.81735301e-01f,
+1.53880462e-01f,-2.70091407e-02f,-6.59159645e-02f,+7.30702430e-02f,+2.90858984e-01f,
+1.42946437e-01f,+2.03627065e-01f,+1.06758274e-01f,+3.61712366e-01f,-8.95909309e-01f,
-5.46478570e-01f,+4.93082970e-01f,+1.02920234e-01f,-1.58532751e+00f,+1.45784721e-01f,
-2.21528673e+00f,+7.40614533e-01f,+1.67429042e+00f,-6.13036036e-01f,+7.86074460e-01f,
-7.07056522e-01f,+2.76465088e-01f,+3.42227608e-01f,+7.64332175e-01f,-1.82529733e-01f,
+2.02787191e-01f,+5.20551443e-01f,+2.52954483e-01f,+4.58902627e-01f,+7.73849189e-01f,
+8.58028352e-01f,-3.31993997e-01f,-2.78419763e-01f,+7.88505018e-01f,+2.20553540e-02f,
-1.50508773e+00f,-1.19162925e-01f,-3.51709270e+00f,+8.20461810e-01f,+2.53989482e+00f,
-1.43986344e+00f,+1.79236555e+00f,-1.15466142e+00f,+1.31031603e-01f,+3.84284437e-01f,
+7.57710874e-01f,+4.75753769e-02f,+4.81414378e-01f,+2.84730136e-01f,+9.17505249e-02f,
+3.82059157e-01f,+9.85920429e-01f,+8.55314314e-01f,+6.19997501e-01f,-2.29102716e-01f,
+7.15731457e-02f,-3.31152052e-01f,+3.51571530e-01f,+7.15763196e-02f,+3.51072162e-01f,
+7.83503707e-03f,+6.07864037e-02f,-2.59463453e+00f,+2.17354751e+00f,+2.38637137e+00f,
-2.25827456e-01f,-3.48017402e-02f,+9.36329663e-02f,-5.91988564e+00f,-1.60256028e-01f,
-9.39973965e-02f,-1.86446860e-01f,+2.87394859e-02f,+8.56764540e-02f,-1.37444492e-02f,
+1.29965377e+00f,-4.80971001e-02f,-6.73157498e-02f,-1.22316755e-01f,+7.04351533e-03f,
+4.63247150e-02f,+1.05101606e-02f,-5.65646708e-01f,-9.38246623e-02f,+1.27552208e-02f,
-3.20681721e-01f,+3.36202323e-01f,-9.08383578e-02f,-5.13292611e-01f,-9.42531899e-02f,
+5.68351448e-01f,-2.93811768e-01f,-2.89537817e-01f,-3.39188933e-01f,-4.28189754e-01f,
-4.89603281e-02f,-4.19649005e-01f,+2.48010099e-01f,+1.96929991e-01f,+2.16362521e-01f,
-4.29291040e-01f,+7.36894533e-02f,+3.47572833e-01f,+2.43453741e-01f,-4.87685464e-02f,
-2.13530779e-01f,-6.47215694e-02f,-1.77389994e-01f,+3.67586225e-01f,-2.79938191e-01f,
+3.99868071e-01f,+9.94391218e-02f,-1.88964918e-01f,+8.73843282e-02f,+7.00455755e-02f,
+4.35274601e-01f,-2.06738174e-01f,-2.38842554e-02f,-2.44321644e-01f,+1.70684099e-01f,
+2.17012048e-01f,+1.69862598e-01f,-1.48820087e-01f,+7.09129870e-01f,+1.87476039e-01f,
+6.09421074e-01f,+3.65989566e-01f,-6.93607330e-02f,-1.88947344e+00f,+1.20389593e+00f,
-3.04254830e-01f,-8.83237943e-02f,+3.48841161e-01f,+3.21366429e-01f,-3.74666780e-01f,
+2.16528237e-01f,+1.74411222e-01f,+1.86769053e-01f,+4.67103928e-01f,+1.23615257e-01f,
+4.79693800e-01f,+1.21426761e-01f,-3.55746858e-02f,-2.11732015e-01f,+3.94360453e-01f,
-7.70543516e-02f,-1.44619793e-01f,-5.50124906e-02f,-1.96024388e-01f,-4.87121753e-02f,
+1.11817002e+00f,-7.43561089e-01f,+6.33355156e-02f,+2.31804758e-01f,-4.44626845e-02f,
-7.81342313e-02f,-7.55855218e-02f,-5.69222867e-03f,-5.11637740e-02f,-5.37094288e-02f,
-4.61173169e-02f,-1.22481205e-01f,+8.87039900e-02f,+1.72286972e-01f,+7.40739226e-01f,
-6.09074766e-03f,+3.09940368e-01f,+2.20350772e-01f,-2.19071478e-01f,+2.80052215e-01f,
-2.12007999e-01f,+4.54580933e-02f,-2.81724334e+00f,+1.51753163e+00f,+8.70423377e-01f,
+3.01750749e-01f,-3.32511701e-02f,+8.57911706e-02f,+2.38006306e+00f,-1.37540698e-01f,
-2.34798327e-01f,+2.61570718e-02f,+2.69716792e-02f,-7.16231912e-02f,-1.89257875e-01f,
+7.88506150e-01f,+2.00921059e-01f,+1.03708692e-02f,+2.29815125e-01f,+3.51540565e-01f,
+4.40190464e-01f,+3.87451530e-01f,-8.10567141e-02f,+1.23114936e-01f,-3.18016124e+00f,
+2.45549631e+00f,+2.08558679e+00f,-1.43605685e-02f,-6.42232690e-03f,+6.79914802e-02f,
-5.72680044e+00f,-1.57292083e-01f,-1.99534059e-01f,-1.00693423e-02f,-1.08558401e-01f,
-2.42573991e-02f,-1.65939271e-01f,+1.35324430e+00f,+2.17284679e-01f,+1.54055285e+00f,
-1.98896572e-01f,+2.87875921e-01f,-2.55616516e-01f,+2.20808327e-01f,+1.50843310e+00f,
-5.87459183e+00f,+8.26337576e-01f,-8.60468030e-01f,-6.77172005e-01f,+2.22063899e-01f,
+1.01287675e+00f,+6.27459466e-01f,-8.41672570e-02f,+1.65767896e+00f,+1.10450697e+00f,
+9.08906996e-01f,+1.01117051e+00f,+1.72378099e+00f,+1.27871525e+00f,-4.08685207e+00f,
+2.63908178e-01f,-6.32213056e-01f,-1.41575918e-01f,+1.43637545e-02f,+4.48114455e-01f,
+1.22934068e-02f,-4.49688137e-01f,-1.14758492e-01f,-8.07021916e-01f,+1.37087882e+00f,
+9.15984452e-01f,+9.48811397e-02f,-3.10738862e-01f,-5.11164069e-01f,+9.27959830e-02f,
-2.65501916e-01f,-1.96296245e-01f,-4.99605238e-01f,-6.77789822e-02f,-3.93751085e-01f,
-2.94962764e-01f,+1.73914686e-01f,+4.66663748e-01f,-3.18126008e-02f,+3.15261066e-01f,
-1.54024083e-02f,-1.55041009e-01f,-6.32157028e-02f,-1.14213012e-01f,-4.45047133e-02f,
-8.91956031e-01f,+7.12918162e-01f,+1.03400148e-01f,-1.73424795e-01f,+9.82941035e-03f,
-1.38511479e-01f,+1.56972647e-01f,-7.76512027e-02f,-1.23183154e-01f,-1.15998173e-02f,
-6.61472157e-02f,-1.08175576e-01f,-9.46137011e-02f,-3.36784050e-02f,-1.81561679e-01f,
-5.91096222e-01f,-3.01318884e-01f,-9.49894115e-02f,-1.03537790e-01f,-9.50234905e-02f,
-4.90086317e-01f,-1.67738959e-01f,+8.90711918e-02f,+3.66171151e-01f,+2.01404676e-01f,
+4.07717861e-02f,-1.91317096e-01f,-5.06257832e-01f,+5.79467863e-02f,-2.40198448e-02f,
-7.90173933e-02f,+2.12960422e-01f,-3.08117747e-01f,-5.16257644e-01f,-3.14613998e-01f,
+7.87757635e-02f,-1.94864199e-01f,-1.28169224e-01f,+4.51386958e-01f,+2.03794390e-01f,
+1.56004265e-01f,+2.51206517e-01f,-4.47037481e-02f,+7.74342939e-02f,-4.79904461e+00f,
+2.17547607e+00f,+6.18755996e-01f,-4.17533129e-01f,-7.80311972e-02f,-1.63349569e-01f,
+1.68483019e+00f,-8.55506435e-02f,-1.18972063e-01f,+7.15782121e-02f,-1.25972122e-01f,
-1.12307929e-01f,-1.42523095e-01f,+5.64475298e-01f,+3.33737195e-01f,-7.87712693e-01f,
+1.57081619e-01f,-6.12877756e-02f,-3.30874771e-01f,-7.13223889e-02f,-3.31569016e-01f,
-1.22213662e-01f,-6.55513585e-01f,+9.54885066e-01f,+2.74849534e-01f,-1.52020678e-01f,
-2.38524020e-01f,-5.34964204e-01f,+1.93719372e-01f,-6.05704561e-02f,+2.83254636e-03f,
-1.99670330e-01f,-6.20054662e-01f,-5.75140774e-01f,-5.02254844e-01f,-1.12670340e-01f,
-2.18604311e-01f,+6.00105301e-02f,-3.76047254e-01f,+5.05093515e-01f,-5.74022718e-03f,
+5.33073723e-01f,+3.80634516e-01f,+1.94398403e-01f,-3.90347576e+00f,+3.04419231e+00f,
+2.71347451e+00f,-2.50355184e-01f,+4.28635806e-01f,+3.64005789e-02f,-6.18652248e+00f,
+2.93306768e-01f,+2.52874941e-01f,+2.59163678e-01f,+4.08314407e-01f,+1.72213480e-01f,
+3.75683933e-01f,+1.61838043e+00f,+6.53181493e-01f,-2.72137057e-02f,+9.41705927e-02f,
+2.64448404e-01f,+1.75978750e-01f,+2.73179501e-01f,-1.66361630e-01f,+1.12273477e-01f,
-1.94570795e-01f,+2.02078566e-01f,+1.27991652e+00f,-9.51653812e-03f,+9.88157988e-02f,
+6.39964491e-02f,-2.33120704e+00f,-8.96209329e-02f,-1.18151195e-01f,-2.94688344e-01f,
+1.42241344e-01f,-1.17759675e-01f,+1.36627689e-01f,+9.15804446e-01f,-1.49113089e-01f,
-1.86635375e-01f,-5.17641842e-01f,+3.88591811e-02f,-3.42109203e-01f,+3.96746304e-03f,
-2.00066686e-01f,-1.24180265e-01f,-4.40771937e-01f,+1.45972848e-01f,+2.33919900e-02f,
-6.34947598e-01f,-1.82604283e-01f,-1.52021587e-01f,+1.28756195e-01f,-9.21283737e-02f,
-1.65333197e-01f,+2.82454818e-01f,-1.36360556e-01f,-1.57516360e-01f,-2.99246639e-01f,
+5.10901175e-02f,+5.56053698e-01f,-1.08428046e-01f,-4.44354974e-02f,-5.48608340e-02f,
+2.07950711e-01f,-7.20848218e-02f,+2.87718296e-01f,-1.29914284e-01f,-2.75998771e-01f,
+3.40212226e-01f,+3.46834064e-02f,-2.84858763e-01f,+2.02705994e-01f,-5.90021117e-03f,
-6.23700731e-02f,-4.56878096e-02f,-7.88820982e-02f,+2.62098134e-01f,+5.16654029e-02f,
-1.46521881e-01f,-9.69153456e-03f,+2.24986095e-02f,}; 
k2c_tensor dense_2_kernel = {&dense_2_kernel_array[0],2,968,{44,22, 1, 1, 1}}; 
float dense_2_bias_array[22] = {
+9.72102433e-02f,+1.82160348e-01f,+1.10810623e-01f,+1.67435288e-01f,-4.46989387e-03f,
+2.34588146e-01f,-8.82355869e-01f,+7.50766695e-02f,+1.59358606e-01f,-7.93437194e-03f,
+5.15352130e-01f,-4.16426919e-02f,-9.83212948e-01f,+1.90480322e-01f,+5.91145575e-01f,
-4.97332931e-01f,-4.64881271e-01f,-5.72182596e-01f,-1.08896220e+00f,+2.63360411e-01f,
-8.26511860e-01f,+5.96689701e-01f,}; 
k2c_tensor dense_2_bias = {&dense_2_bias_array[0],1,22,{22, 1, 1, 1, 1}}; 
float dense_2_fwork[1012] = {0}; 

 
float dense_3_kernel_array[22] = {
-5.27033806e-01f,-1.23158896e+00f,-6.73328876e-01f,-2.29011130e+00f,-3.89598250e-01f,
-3.79996586e+00f,+2.28733277e+00f,+4.70620584e+00f,-2.09410286e+00f,+1.53356254e+00f,
-3.76820898e+00f,-2.43519753e-01f,+2.53407145e+00f,-9.24736917e-01f,-6.97217512e+00f,
+4.76944256e+00f,+5.28841782e+00f,+1.85630536e+00f,+2.62273788e+00f,-1.46729052e+00f,
+2.14510012e+00f,+6.64878178e+00f,}; 
k2c_tensor dense_3_kernel = {&dense_3_kernel_array[0],2,22,{22, 1, 1, 1, 1}}; 
float dense_3_bias_array[1] = {
-3.12784404e-01f,}; 
k2c_tensor dense_3_bias = {&dense_3_bias_array[0],1,1,{1,1,1,1,1}}; 
float dense_3_fwork[44] = {0}; 

 
k2c_dense(&dense_1_output,dense_1_input_input,&dense_1_kernel, 
	&dense_1_bias,k2c_relu,dense_1_fwork); 
k2c_dense(&dense_2_output,&dense_1_output,&dense_2_kernel, 
	&dense_2_bias,k2c_relu,dense_2_fwork); 
k2c_dense(dense_3_output,&dense_2_output,&dense_3_kernel, 
	&dense_3_bias,k2c_sigmoid,dense_3_fwork); 

 } 

void cPredictor_initialize() { 

} 

void cPredictor_terminate() { 

} 

