#include <math.h> 
 #include <string.h> 
#include "./include/k2c_include.h" 
#include "./include/k2c_tensor_include.h" 

 


void cPredictor(k2c_tensor* dense_input_input, k2c_tensor* dense_5_output) { 

float dense_output_array[34] = {0}; 
k2c_tensor dense_output = {&dense_output_array[0],1,34,{34, 1, 1, 1, 1}}; 
float dense_kernel_array[1156] = {
+6.62566423e-01f,-2.58372277e-01f,+1.40292108e-01f,-8.82908285e-01f,-2.54742503e-01f,
-9.10293579e-01f,+4.32623364e-02f,+1.87069491e-01f,-2.12086990e-01f,+3.77565414e-01f,
+1.22128278e-01f,+2.59758860e-01f,-1.25426307e-01f,+6.14112139e-01f,+5.31458020e-01f,
+1.37698159e-01f,+2.29824319e-01f,+5.29174149e-01f,+2.99276501e-01f,+6.76191598e-02f,
+5.37771881e-01f,+8.36721584e-02f,+5.97890317e-01f,-3.67529601e-01f,-1.92664444e-01f,
-4.75290626e-01f,+3.65189135e-01f,-8.37361991e-01f,-5.78941882e-01f,-1.05541921e+00f,
+5.71694911e-01f,+7.76015162e-01f,+3.68117541e-01f,-7.81720936e-01f,+1.85279489e-01f,
+2.10672915e-01f,+2.39320323e-01f,-1.58800304e-01f,-9.50462967e-02f,+1.81379393e-01f,
+2.89559305e-01f,-9.51103270e-02f,-2.29392037e-01f,-9.03883204e-02f,-5.20382188e-02f,
-1.93838894e-01f,+9.52466130e-02f,-2.06631690e-01f,+3.39346290e-01f,+3.67742211e-01f,
+1.01000249e-01f,-1.04207270e-01f,-1.47431552e-01f,+1.99620888e-01f,+2.66876400e-01f,
-1.11621603e-01f,-2.96759069e-01f,-3.38475294e-02f,-2.25408256e-01f,+6.85850754e-02f,
+1.18637756e-02f,-8.33385587e-02f,+9.83929187e-02f,-1.99507788e-01f,+1.75446481e-01f,
-3.10938388e-01f,-1.22413576e-01f,-1.69415325e-01f,+3.78507487e-02f,-2.59558290e-01f,
+2.47691005e-01f,+2.86923975e-01f,+1.74521148e-01f,-1.63715765e-01f,-1.96073294e-01f,
-1.43538222e-01f,-2.52274424e-01f,+1.22833438e-01f,-1.13253370e-01f,-2.00913846e-01f,
-2.29988098e-02f,-1.60852388e-01f,-3.73827755e-01f,+1.30245000e-01f,+9.75172408e-03f,
-2.13209897e-01f,-2.77206093e-01f,+7.90983364e-02f,+1.88188568e-01f,+3.70771170e-01f,
-3.66697878e-01f,-4.54986207e-02f,-2.59559751e-01f,-2.11275071e-01f,+2.26782426e-01f,
+2.70611852e-01f,+1.44507051e-01f,+9.42528918e-02f,-3.98562811e-02f,+1.03229575e-01f,
-2.37707317e-01f,-2.33950809e-01f,-4.32192415e-01f,-1.26831636e-01f,+4.34447944e-01f,
+2.25874662e-01f,-6.01379573e-02f,-3.15987729e-02f,-1.64449170e-01f,-3.30661312e-02f,
-5.82995899e-02f,-8.55695382e-02f,-9.70530733e-02f,-1.42683759e-01f,-1.73389971e-01f,
+5.17353788e-02f,-3.32770586e-01f,+1.76113829e-01f,-1.22433435e-02f,+2.47882649e-01f,
+1.65848628e-01f,-2.27762058e-01f,-2.91311324e-01f,-6.51983842e-02f,-1.28660932e-01f,
+2.50634521e-01f,+8.73427391e-02f,+2.91308910e-01f,+3.09606731e-01f,+3.92108448e-02f,
+1.54946119e-01f,-2.65975654e-01f,+2.39418045e-01f,+1.24525726e-01f,-2.18338460e-01f,
-2.08332688e-01f,-8.53180960e-02f,-2.59319335e-01f,-4.93695959e-02f,+2.63321097e-03f,
-1.70285434e-01f,+8.12976733e-02f,+3.59994769e-01f,-1.39853626e-01f,-2.42041603e-01f,
-1.17460020e-01f,+5.77814989e-02f,+7.21769929e-02f,+1.64421331e-02f,-6.00340515e-02f,
+6.94406172e-03f,+1.19298637e-01f,-1.20594174e-01f,-7.70592242e-02f,-3.50617230e-01f,
+2.40702167e-01f,+8.46628565e-03f,+3.54994923e-01f,-1.00635432e-01f,-4.25318554e-02f,
+1.06804982e-01f,+1.28927097e-01f,-3.70288998e-01f,+1.91452384e-01f,+6.55375272e-02f,
+2.99831808e-01f,-1.30026892e-01f,+1.26302438e-02f,-1.97627530e-01f,-1.24690354e-01f,
-1.93039387e-01f,-3.22517812e-01f,+3.65814984e-01f,-1.88468084e-01f,+3.36696714e-01f,
-2.13004738e-01f,-2.68867761e-01f,-2.92747229e-01f,+1.95762470e-01f,-1.76491439e-01f,
+8.70335102e-02f,+9.70908031e-02f,-7.35834837e-02f,+1.98736399e-01f,-2.18850613e-01f,
-2.85241395e-01f,-1.02882951e-01f,+5.24127111e-02f,-1.11207873e-01f,-1.23760074e-01f,
+2.04517484e-01f,-4.38056923e-02f,+1.75947681e-01f,+1.94980413e-01f,-2.93254286e-01f,
-1.31995112e-01f,-2.53503434e-02f,-2.62683686e-02f,-5.92799596e-02f,+1.59030467e-01f,
+2.46026143e-01f,-2.37581074e-01f,+2.67442428e-02f,+2.25800455e-01f,+1.60066605e-01f,
+1.03822261e-01f,+9.60673839e-02f,+1.73902959e-02f,+1.90529525e-01f,+3.33635181e-01f,
-2.20910385e-01f,-1.97332382e-01f,+9.57050622e-02f,+8.87345895e-02f,+9.97476950e-02f,
+2.08227292e-01f,+7.87885673e-03f,-1.60319041e-02f,+8.48722607e-02f,+2.55285203e-01f,
-2.17256263e-01f,-2.85860617e-02f,-3.47295731e-01f,+2.69629151e-01f,+2.21609116e-01f,
+3.18686336e-01f,+5.68283573e-02f,-5.54421963e-03f,-2.84293085e-01f,+1.99651897e-01f,
-3.40322226e-01f,+2.79466867e-01f,+6.52171522e-02f,-2.18614504e-01f,-3.05734519e-02f,
-1.63495377e-01f,-9.02108774e-02f,+1.08513087e-01f,-2.47090474e-01f,+2.33610556e-01f,
+9.99829024e-02f,-9.89460945e-03f,+2.17942670e-01f,+5.74281737e-02f,-3.19144607e-01f,
-1.29148513e-01f,+2.16440484e-01f,-1.76374570e-01f,-1.11049920e-01f,-2.65943766e-01f,
+2.43509531e-01f,+1.66022941e-01f,-1.86219364e-01f,-4.32473540e-01f,-4.54776399e-02f,
-7.42031960e-03f,-3.00755799e-01f,-1.20558210e-01f,+2.89087176e-01f,-4.61902209e-02f,
+1.11547671e-01f,+6.34692516e-03f,-4.78479266e-02f,-5.50128380e-03f,+1.49052694e-01f,
-1.27055556e-01f,+2.41864264e-01f,+7.86865950e-02f,-1.53607294e-01f,-5.92771135e-02f,
+2.77680624e-02f,+2.93563545e-01f,+2.52798617e-01f,+1.38030171e-01f,+3.10306791e-02f,
+1.40632659e-01f,+1.76949754e-01f,+9.68206897e-02f,-2.54652470e-01f,-9.63765383e-03f,
-2.77896225e-01f,+2.29912877e-01f,+3.80800441e-02f,-2.30335444e-01f,-2.36611828e-01f,
-4.36868668e-02f,+2.34931763e-02f,-5.46047129e-02f,-1.09401986e-01f,-2.01569363e-01f,
+3.79698873e-02f,+1.42290950e-01f,-1.38800979e-01f,-1.34064957e-01f,+6.46903142e-02f,
-1.59032792e-01f,+1.94560468e-01f,+1.20643899e-01f,+1.07905962e-01f,+1.24659620e-01f,
-2.62176394e-01f,-4.58681770e-02f,-9.09317583e-02f,+5.18273786e-02f,+9.51033160e-02f,
-4.81275320e-02f,-1.30280361e-01f,+1.26399890e-01f,-4.71758563e-03f,-2.15463161e-01f,
+1.61748812e-01f,+3.84778708e-01f,-2.76818275e-01f,-9.15331244e-02f,-4.92564067e-02f,
-1.03339247e-01f,-2.02672094e-01f,+9.69885513e-02f,-2.03482017e-01f,+3.00519228e-01f,
+1.21204384e-01f,+2.71725133e-02f,+4.97550145e-02f,+4.97879311e-02f,-3.89450073e-01f,
-7.56334364e-02f,-6.32681418e-04f,-3.57053488e-01f,-1.61999226e-01f,-1.67137995e-01f,
+4.03266847e-02f,-2.34883413e-01f,-7.03145331e-03f,+3.37364376e-02f,-1.30466238e-01f,
-2.51844615e-01f,+1.57751039e-01f,-1.86989814e-01f,+1.59020856e-01f,-1.29108876e-01f,
+2.99765199e-01f,+1.79650754e-01f,-2.95485079e-01f,+2.25557700e-01f,-6.51951507e-02f,
+6.14135787e-02f,+1.26667589e-01f,+2.56079137e-02f,+2.32866108e-02f,-2.27003843e-01f,
+2.35451013e-01f,+1.95407599e-01f,-7.50399530e-02f,-3.21946949e-01f,+1.97795317e-01f,
+2.13922411e-01f,-5.95040247e-02f,+2.01212522e-02f,+1.79347247e-01f,-8.16065166e-03f,
+1.17690541e-01f,-2.50546098e-01f,+1.81486472e-01f,+1.86424553e-01f,+5.76154143e-02f,
-2.14792922e-01f,-1.69525430e-01f,-1.52715310e-01f,-9.02188495e-02f,+1.16205975e-01f,
-2.24435538e-01f,-1.76528722e-01f,-6.80034235e-02f,+1.98880255e-01f,+7.10933283e-02f,
+2.42542848e-01f,-8.65700915e-02f,-2.72725463e-01f,+2.38880783e-01f,+2.33457237e-01f,
+1.67738840e-01f,+1.29588891e-03f,-2.09829971e-01f,-2.66897261e-01f,+1.58595070e-01f,
-1.62862167e-01f,-2.21213862e-01f,+2.03986198e-01f,+1.39032885e-01f,+4.44370098e-02f,
+3.47883373e-01f,-1.01873830e-01f,+1.50556386e-01f,+2.01685101e-01f,-1.68814883e-01f,
+2.12003924e-02f,+7.19716921e-02f,-2.19468161e-01f,+7.73210227e-02f,-7.46491104e-02f,
+1.03356816e-01f,-4.74597663e-02f,+1.53986216e-01f,-2.75553465e-01f,-1.82123601e-01f,
+1.87787294e-01f,+3.18929791e-01f,+2.26721734e-01f,+1.50688022e-01f,-1.12201869e-01f,
+2.55167224e-02f,-1.70359924e-01f,+3.51692587e-01f,+3.70423824e-01f,-2.08142966e-01f,
+1.22834563e-01f,-2.33269364e-01f,-1.93010405e-01f,+3.46985579e-01f,-4.46017645e-02f,
+1.94933712e-02f,+2.07629994e-01f,+7.96925575e-02f,-4.96470407e-02f,-1.93377230e-02f,
-2.10445285e-01f,+1.03351623e-01f,+1.71954930e-01f,+1.13429077e-01f,-6.22056238e-02f,
+2.18794540e-01f,-2.56159782e-01f,+1.45811796e-01f,-1.51299983e-01f,-8.73373225e-02f,
+3.11864674e-01f,-1.99706033e-01f,-1.44180194e-01f,-1.91650972e-01f,+1.06611937e-01f,
-4.92939167e-02f,+1.20012075e-01f,-1.83994040e-01f,+3.02247524e-01f,-1.30318701e-01f,
+1.67233378e-01f,-3.41453915e-03f,-1.34799004e-01f,-8.54968056e-02f,+1.28643289e-01f,
-2.01514810e-01f,-9.17795300e-02f,-3.33736449e-01f,-1.54333517e-01f,+1.11296974e-01f,
-1.89748183e-01f,+2.68477947e-01f,-5.22862226e-02f,+1.13337681e-01f,-2.56684095e-01f,
-3.21659386e-01f,-3.40453535e-01f,-1.99720725e-01f,-8.38510096e-02f,+2.44757291e-02f,
+1.51918456e-01f,-4.01932597e-02f,+3.40858400e-02f,-9.64907836e-03f,-8.64146352e-02f,
+1.34235844e-01f,+1.24926180e-01f,+1.22202300e-01f,+2.79220492e-01f,-2.03972012e-02f,
+1.10031277e-01f,+2.41986006e-01f,+7.09574223e-02f,+2.15826020e-01f,+3.08529228e-01f,
+2.72282451e-01f,+1.15111679e-01f,-1.42102018e-01f,-2.08639085e-01f,+1.64356828e-02f,
+5.08609926e-03f,+2.10855737e-01f,+1.86728254e-01f,+8.21628273e-02f,-4.31979969e-02f,
-2.51251936e-01f,+1.68446377e-01f,+7.08791893e-04f,-1.75488248e-01f,-2.26455718e-01f,
+2.75119901e-01f,+1.82970852e-01f,-2.38868177e-01f,-3.89584675e-02f,-9.37641114e-02f,
-1.61664471e-01f,-1.41408527e-03f,+2.36719802e-01f,-1.04713887e-01f,+1.66905954e-01f,
+1.83166228e-02f,+5.87027930e-02f,+9.45373029e-02f,-2.47101068e-01f,+7.91247785e-02f,
+8.35599825e-02f,+1.36397198e-01f,-1.77736208e-01f,-1.50626585e-01f,-1.87882055e-02f,
+1.85366094e-01f,+1.23449624e-01f,-2.85726283e-02f,+1.51179507e-01f,-2.48564631e-01f,
-2.93472350e-01f,-1.45951286e-01f,-2.60478139e-01f,-5.85057214e-02f,+2.41448224e-01f,
-4.17488486e-01f,+1.67281032e-01f,+1.57082498e-01f,+2.01015815e-01f,+8.38938132e-02f,
+1.24716416e-01f,-2.89978921e-01f,+1.48039669e-01f,+2.97296405e-01f,-1.32986099e-01f,
+6.17397241e-02f,-1.92783941e-02f,-2.64405966e-01f,-2.59282827e-01f,-1.56565413e-01f,
+4.84974682e-02f,-8.40900168e-02f,+1.52941793e-01f,+3.09365839e-02f,-1.10643998e-01f,
-2.23767042e-01f,-1.11189254e-01f,-9.86821577e-02f,+2.36677468e-01f,+3.21733505e-01f,
-1.36056960e-01f,-6.97282553e-02f,+1.98176503e-02f,+3.32107931e-01f,+1.48458689e-01f,
+1.99534208e-01f,+9.47023928e-02f,+3.18690479e-01f,+2.64014602e-01f,+1.91608012e-01f,
+1.08900845e-01f,+2.69574821e-02f,-1.04696319e-01f,+3.35604578e-01f,-2.07801029e-01f,
+6.39616400e-02f,-5.13413548e-02f,+3.87633406e-02f,+1.45903498e-01f,-3.89362752e-01f,
-3.93506497e-01f,+6.64028525e-03f,-1.57466620e-01f,+1.85495734e-01f,-2.62601733e-01f,
-1.54797241e-01f,-2.36780688e-01f,-2.71437019e-01f,+1.13800734e-01f,+1.23248607e-01f,
-2.78941453e-01f,-4.48433459e-02f,+1.91051707e-01f,+2.41768450e-01f,+5.06005734e-02f,
-2.32478771e-02f,-1.83428392e-01f,-2.65327632e-01f,-1.15578204e-01f,+1.07561551e-01f,
+2.64619261e-01f,+1.16692081e-01f,-9.04847160e-02f,-2.32274666e-01f,-1.80540577e-01f,
+1.07331261e-01f,-2.83508122e-01f,+6.42307326e-02f,-1.07818313e-01f,-1.46880364e-02f,
+2.27195859e-01f,-5.96519113e-02f,-2.52293199e-01f,+1.11739926e-01f,-1.52495682e-01f,
-2.80923098e-01f,-4.53159586e-02f,-1.19302928e-01f,-6.37725294e-02f,+2.52462834e-01f,
+2.87812144e-01f,-2.02112287e-01f,+1.84865102e-01f,-1.03608668e-02f,-1.16944179e-01f,
+2.18436360e-01f,+1.10245295e-01f,-1.69377446e-01f,-2.77981430e-01f,-1.38333634e-01f,
-2.86863059e-01f,+4.17799473e-01f,+1.00075021e-01f,+2.24348649e-01f,-8.73603076e-02f,
+1.24468476e-01f,+1.35020658e-01f,-2.27635741e-01f,-1.41308829e-03f,-1.82213962e-01f,
+6.41778782e-02f,+3.74813586e-01f,-2.18448192e-01f,-1.69522524e-01f,-4.62291874e-02f,
-5.05248643e-02f,-6.48363680e-02f,-2.67498255e-01f,+1.71514198e-01f,+4.98782881e-02f,
+1.00630194e-01f,+1.91263497e-01f,+1.65144995e-01f,-2.14762509e-01f,+1.19138651e-01f,
+5.69268167e-02f,-1.66108370e-01f,+3.84984724e-02f,-2.25423053e-01f,+1.87055647e-01f,
+9.59290564e-02f,+3.22321117e-01f,-1.29723296e-01f,+1.66533813e-01f,+1.91008300e-01f,
-1.01714849e-01f,-3.15452188e-01f,+1.79992303e-01f,-1.82599917e-01f,-1.20242923e-01f,
+1.31243452e-01f,-2.46784240e-01f,+2.42570236e-01f,+4.36604396e-02f,-6.06412739e-02f,
-1.78043127e-01f,-2.19945222e-01f,-3.47388163e-02f,+1.23572908e-01f,-5.82077615e-02f,
-1.43290743e-01f,+3.61598693e-02f,-3.37262690e-01f,+1.18872970e-01f,+1.33828774e-01f,
+1.01467907e-01f,+2.61780508e-02f,+1.34206876e-01f,+1.34158999e-01f,+1.78886861e-01f,
-5.51421568e-02f,+2.55289376e-01f,+7.14981044e-03f,+2.24965084e-02f,+3.41477662e-01f,
+2.57113338e-01f,-1.95089698e-01f,+1.57066673e-01f,-8.78928155e-02f,-1.56276837e-01f,
-5.57547212e-02f,+2.38498479e-01f,-1.95252299e-02f,-3.83736612e-03f,+1.80634275e-01f,
-1.94509447e-01f,-3.22108273e-03f,-2.49032974e-01f,+1.92990318e-01f,+1.77913114e-01f,
-1.69345260e-01f,+1.69919606e-03f,-3.59168439e-03f,-8.88057947e-02f,-2.03701526e-01f,
+8.97598565e-02f,-2.95119323e-02f,-2.42727399e-01f,+1.55861437e-01f,+7.12915212e-02f,
-1.61356688e-01f,+9.78599936e-02f,+1.45493820e-01f,-1.38860539e-01f,+3.76022488e-01f,
-3.64502072e-01f,-1.31257117e-01f,-3.42166126e-02f,+2.14516982e-01f,-1.42036647e-01f,
+1.02871619e-01f,-1.83340907e-03f,-1.16358563e-01f,-1.67335704e-01f,+2.04642177e-01f,
+7.00285733e-02f,-9.16128084e-02f,+1.42717317e-01f,+3.51300299e-01f,-9.62495431e-02f,
+3.39520246e-01f,+7.58691952e-02f,+5.62323220e-02f,-3.74056548e-02f,+9.05280337e-02f,
-2.41385639e-01f,-1.19739644e-01f,+4.16708291e-01f,-2.28741229e-01f,-6.76329294e-03f,
-7.66027868e-02f,+1.63150251e-01f,+5.07411994e-02f,-1.30361676e-01f,-1.85032964e-01f,
-1.07292786e-01f,+4.35716629e-01f,-2.00619042e-01f,+1.84119403e-01f,+1.05800450e-01f,
-4.91853058e-02f,-5.98455481e-02f,-2.95041054e-01f,-2.47644275e-01f,-1.73032314e-01f,
-2.31998146e-01f,+1.21803612e-01f,+4.68697697e-01f,+2.28488728e-01f,+9.86964852e-02f,
-6.39951229e-03f,+7.70818144e-02f,+4.01748419e-01f,-4.05041967e-03f,+2.36520842e-01f,
-1.79838836e-01f,-2.68536061e-01f,+5.31879246e-01f,-3.24427545e-01f,-2.31767088e-01f,
+1.00110203e-01f,-2.01296732e-01f,+2.42338538e-01f,-1.60718799e-01f,-1.66151077e-01f,
+1.69617355e-01f,+7.82560110e-02f,+1.07058369e-01f,-1.10120445e-01f,+1.64841220e-01f,
+1.46301612e-01f,+1.69154167e-01f,+1.83746129e-01f,-1.49670634e-02f,-2.18865335e-01f,
-2.58544981e-02f,-9.00494307e-02f,-2.60810219e-02f,+3.79061103e-02f,+8.62884223e-02f,
+2.64471531e-01f,+2.34622061e-01f,+1.97213098e-01f,+2.34204441e-01f,+1.89164698e-01f,
+2.19100103e-01f,+3.29143554e-02f,-7.78507516e-02f,+3.29820901e-01f,-2.11205572e-01f,
+2.37780690e-01f,-2.32798129e-01f,-5.12972534e-01f,-5.58229089e-02f,+1.56150863e-01f,
+6.76306188e-02f,-2.85100400e-01f,-1.90780506e-01f,-4.17416990e-01f,-1.82389915e-02f,
+2.47284681e-01f,-2.62232482e-01f,+6.63603693e-02f,-1.25265315e-01f,+3.38861525e-01f,
-3.37131098e-02f,-1.94507048e-01f,-6.78299665e-02f,+8.08522776e-02f,+9.63596553e-02f,
+4.26919386e-02f,+1.31824404e-01f,-2.20966443e-01f,+1.27837569e-01f,-1.95666105e-01f,
-8.91686592e-04f,-1.27888814e-01f,+1.12591833e-01f,+1.02634758e-01f,+2.97743857e-01f,
+2.66289622e-01f,-2.93609232e-01f,-3.08198715e-03f,+1.29118562e-01f,-1.32169649e-01f,
+4.30676520e-01f,-1.55252635e-01f,+2.27657109e-01f,+2.38448635e-01f,+1.34180829e-01f,
+2.07530081e-01f,-2.65455276e-01f,-6.84773102e-02f,+1.34634748e-01f,+1.28457621e-01f,
-1.75611928e-01f,+1.57663718e-01f,+4.19363193e-02f,-2.59857982e-01f,-2.10750252e-01f,
+2.61626989e-01f,-5.71033359e-02f,+2.31903091e-01f,-1.10150188e-01f,+1.51124746e-01f,
-2.04700351e-01f,+1.30312756e-01f,-5.21326065e-03f,-1.58197775e-01f,+6.95625246e-02f,
+1.97937533e-01f,-9.82497260e-02f,-1.76318750e-01f,+4.33967531e-01f,+3.30586523e-01f,
+1.60552468e-02f,+2.20847577e-02f,-1.65932551e-01f,-2.40396529e-01f,-2.42508441e-01f,
-2.46536195e-01f,+2.60560699e-02f,+2.36478925e-01f,+2.08641827e-01f,+9.18730199e-02f,
+1.60186410e-01f,-2.15582594e-01f,-2.00376272e-01f,+2.83591807e-01f,-2.62912363e-01f,
-1.68386757e-01f,-1.66903332e-01f,+4.43491638e-01f,+8.18158314e-02f,-2.32617527e-01f,
-4.28638458e-02f,+6.52945088e-03f,+1.36035845e-01f,-2.01340005e-01f,+3.07097703e-01f,
+1.11280829e-01f,+1.26499385e-01f,-9.28658545e-02f,-7.25012869e-02f,+7.49854445e-02f,
+3.53525579e-01f,-3.73999476e-02f,-6.54033059e-03f,-1.48506045e-01f,-4.35037851e-01f,
-1.80977598e-01f,-6.27094060e-02f,-1.93093106e-01f,+4.78941470e-01f,-2.69227743e-01f,
-1.64382476e-02f,+1.00380287e-01f,+1.08290119e-02f,-1.80553004e-01f,-2.79065430e-01f,
-1.71464637e-01f,+2.45297790e-01f,-8.52522403e-02f,-7.40660280e-02f,-1.65263832e-01f,
-3.44576478e-01f,-3.05747360e-01f,-1.48340702e-01f,-1.14696704e-01f,+8.37457180e-02f,
-2.57267088e-01f,+5.51929176e-02f,-1.09851286e-01f,-7.06468150e-02f,+6.46596998e-02f,
-1.80320427e-01f,-1.57512099e-01f,-6.79719597e-02f,-3.65201175e-01f,-1.35514110e-01f,
+2.16384590e-01f,+4.19122070e-01f,+7.51866102e-02f,-1.16039086e-02f,+3.19178343e-01f,
+2.66825080e-01f,+5.13096526e-02f,-2.68319756e-01f,+8.04138109e-02f,+2.42602095e-01f,
-1.52283357e-02f,+4.00449991e-01f,+1.10017240e-01f,+5.66004328e-02f,-2.42377460e-01f,
+2.77997971e-01f,+3.31404030e-01f,+1.19617730e-01f,+1.15984701e-01f,-3.38423043e-01f,
+4.83116060e-01f,-1.82740524e-01f,+3.57414782e-01f,-1.77104101e-01f,-3.39266390e-01f,
+2.65877187e-01f,+3.03722888e-01f,+2.64053911e-01f,+4.48873341e-02f,-2.18837425e-01f,
-2.54288018e-02f,+1.57471016e-01f,-2.69048870e-01f,+4.00131136e-01f,-8.07004571e-02f,
+4.68432456e-01f,-3.61328647e-02f,-2.57904291e-01f,+2.86189705e-01f,+2.77300119e-01f,
-1.57723889e-01f,+5.25854290e-01f,-2.09302261e-01f,+1.06650360e-01f,+5.78187346e-01f,
+1.94480702e-01f,-1.87738419e-01f,-7.53369853e-02f,-2.65644550e-01f,-2.67648667e-01f,
+2.58532017e-01f,+1.32482611e-02f,+1.15709513e-01f,-2.21785277e-01f,-1.72590435e-01f,
-5.81375659e-02f,+2.67274499e-01f,+1.77931078e-02f,-3.77140969e-01f,-2.39927664e-01f,
-4.18894917e-01f,-3.42636585e-01f,+2.03591958e-03f,-1.51056185e-01f,+5.98118268e-02f,
+2.76829779e-01f,-3.98051441e-02f,-2.45639727e-01f,-2.49115616e-01f,+4.69645672e-02f,
-2.09968284e-01f,-7.56061450e-02f,+5.80884695e-01f,+1.83723904e-02f,-2.19523504e-01f,
+9.38412845e-02f,-3.03043127e-01f,-9.16748643e-02f,-1.99819759e-01f,+4.79447514e-01f,
+4.98184562e-02f,+3.99498343e-02f,+2.92235404e-01f,-1.88359737e-01f,+2.44286656e-01f,
-2.96556473e-01f,-3.28885972e-01f,-5.26018262e-01f,+3.78903717e-01f,+2.80438751e-01f,
+3.09405595e-01f,+3.61063182e-02f,-1.32103235e-01f,+3.34169120e-01f,-3.83622795e-01f,
-1.78160556e-02f,-2.11750031e-01f,+2.28110135e-01f,-6.66437894e-02f,-3.15512747e-01f,
-4.88535881e-01f,+3.18011194e-01f,-7.27131367e-02f,+2.86966056e-01f,-2.98785567e-02f,
-8.11081946e-01f,+5.84827721e-01f,-7.29411095e-02f,-1.14440909e-02f,+7.55887210e-01f,
-3.51064414e-01f,-6.18714206e-02f,+6.01039231e-01f,+3.87327336e-02f,-2.27759093e-01f,
-5.98591454e-02f,-2.56023794e-01f,-1.55280069e-01f,+1.76135316e-01f,+1.90667436e-01f,
-3.74770254e-01f,-5.37120521e-01f,+1.09176248e-01f,+1.63405865e-01f,-1.92289561e-01f,
-3.79926443e-01f,-1.12152562e-01f,-1.52478129e-01f,+1.01492912e-01f,-1.05170481e-01f,
+2.85321381e-03f,-2.63189137e-01f,-1.98704213e-01f,+1.54321522e-01f,-6.77751824e-02f,
-9.64520127e-02f,-1.63833499e-02f,-8.00330639e-02f,-6.16452098e-01f,-5.52145466e-02f,
+6.26612902e-01f,-1.67284116e-01f,-2.09661335e-01f,-2.18414903e-01f,-1.54557735e-01f,
-9.46118683e-02f,+2.43267372e-01f,+4.25358385e-01f,+1.57864690e-02f,-4.52069342e-02f,
-2.24453464e-01f,-1.86637163e-01f,+1.41530454e-01f,+1.26662850e-03f,-2.43143290e-01f,
-3.16190183e-01f,+7.14744210e-01f,+2.32481688e-01f,-8.96226019e-02f,-2.34374821e-01f,
-4.90019172e-01f,-3.57577689e-02f,-2.87457556e-01f,+5.26580820e-03f,+4.43064570e-02f,
-1.62342265e-01f,+8.17505121e-02f,-4.65112329e-01f,-6.47261500e-01f,+6.87506855e-01f,
+1.64777219e-01f,+3.04680288e-01f,-5.45131981e-01f,-2.73903817e-01f,+5.16973138e-01f,
+3.91278267e-02f,+1.73296675e-01f,+1.35282028e+00f,-8.43880698e-02f,-9.05490220e-01f,
+7.76371896e-01f,+7.67290145e-02f,-2.35571191e-01f,+2.33698338e-01f,-3.18162054e-01f,
-7.48342648e-02f,+1.99117050e-01f,+2.94357777e-01f,-7.00178444e-02f,-7.65293166e-02f,
-1.69711784e-01f,-1.03100389e-01f,+2.01234058e-01f,-3.78308028e-01f,-4.35015172e-01f,
+6.90623224e-02f,-3.79492164e-01f,+1.61726505e-01f,+2.70441324e-01f,+2.89235413e-01f,
+1.90101266e-01f,-6.56680912e-02f,-4.10191752e-02f,-2.84919143e-03f,-1.26282617e-01f,
+1.29507361e-02f,-8.06547165e-01f,+5.31510822e-02f,+8.18100750e-01f,+9.41793397e-02f,
+1.38435215e-01f,-5.25145978e-02f,-2.72648364e-01f,-1.97219491e-01f,+2.36900244e-02f,
+5.53686678e-01f,-1.62783340e-01f,+1.32122055e-01f,-1.09217398e-01f,+1.73773736e-01f,
+3.33666988e-02f,-1.66217089e-01f,-1.97173685e-01f,-1.96301103e-01f,+2.63633311e-01f,
+1.12164430e-02f,}; 
k2c_tensor dense_kernel = {&dense_kernel_array[0],2,1156,{34,34, 1, 1, 1}}; 
float dense_bias_array[34] = {
-7.20346421e-02f,-4.00285274e-02f,+1.42680854e-01f,+5.32363169e-02f,+2.62428112e-02f,
+3.40928957e-02f,+1.63716450e-02f,-8.35264549e-02f,-3.17868777e-02f,-3.57827954e-02f,
-2.28597105e-01f,-1.00370064e-01f,-9.56038311e-02f,-1.53173730e-01f,-2.99114287e-02f,
+2.31239572e-01f,-2.32607409e-01f,-2.85158288e-02f,+1.52854547e-01f,-7.96192363e-02f,
+7.43207410e-02f,+3.13126117e-01f,-8.66220370e-02f,-1.06884763e-02f,-2.02988647e-02f,
-1.59065817e-02f,+4.34461050e-02f,+3.66204209e-03f,-2.41733063e-02f,+3.07598300e-02f,
-1.28160954e-01f,-7.77585506e-02f,-2.50301324e-02f,+2.44451202e-02f,}; 
k2c_tensor dense_bias = {&dense_bias_array[0],1,34,{34, 1, 1, 1, 1}}; 
float dense_fwork[1190] = {0}; 

 
float dense_1_output_array[34] = {0}; 
k2c_tensor dense_1_output = {&dense_1_output_array[0],1,34,{34, 1, 1, 1, 1}}; 
float dense_1_kernel_array[1156] = {
-2.13820741e-01f,+1.83866348e-03f,-4.90553290e-01f,+5.59277013e-02f,+2.92309970e-01f,
-4.06464338e-02f,+9.14648920e-02f,-3.16632003e-01f,-1.66856855e-01f,+8.90744403e-02f,
+1.78419799e-01f,-1.05978316e-02f,+4.76055950e-01f,-2.12566450e-01f,+9.26820040e-02f,
+1.85038760e-01f,-1.05903475e-02f,+2.03647494e-01f,+2.51876656e-02f,-5.73091447e-01f,
-3.72749776e-01f,+1.28879055e-01f,-2.87742436e-01f,-4.40224521e-02f,-8.92947763e-02f,
-4.53641951e-01f,-7.32582733e-02f,+8.30453485e-02f,-2.10599214e-01f,-2.72316873e-01f,
+3.93219531e-01f,+1.28840238e-01f,+5.10729611e-01f,+1.68116286e-01f,-3.37308884e-01f,
+5.40343113e-02f,+2.28946581e-01f,+2.17548087e-01f,+1.04756802e-02f,-8.54984224e-02f,
+1.32982448e-01f,+2.39525527e-01f,+1.16484292e-01f,-2.01119587e-01f,+8.74675885e-02f,
-2.07613885e-01f,-2.46397302e-01f,-1.73213795e-01f,-5.19036055e-01f,-2.38009825e-01f,
+3.19382787e-01f,+9.05594081e-02f,+1.59435391e-01f,+1.84294701e-01f,+1.64234694e-02f,
-1.03756033e-01f,+5.12379743e-02f,-3.29852700e-01f,+3.20588440e-01f,-1.41725112e-02f,
+1.64090455e-01f,+1.35460034e-01f,+8.05412009e-02f,+3.49126667e-01f,+1.31691784e-01f,
+3.64473425e-02f,-5.58418920e-03f,+1.88542366e-01f,-2.29252398e-01f,-2.96076406e-02f,
-5.94595373e-02f,-1.06053457e-01f,-2.85586119e-01f,-3.72184336e-01f,-1.21029302e-01f,
+4.12405401e-01f,-1.15335554e-01f,-8.41285959e-02f,-2.46788397e-01f,+2.46715456e-01f,
-3.22382264e-02f,-8.78541768e-02f,+5.05342521e-02f,-2.57702619e-01f,+1.28404960e-01f,
-4.30418074e-01f,+1.28433958e-01f,-8.21985081e-02f,-6.35811031e-01f,-4.21364009e-01f,
-1.95809424e-01f,-8.67419392e-02f,+2.45745838e-01f,+2.50561386e-01f,-1.14968695e-01f,
-1.92010775e-02f,+2.68072993e-01f,-4.60696444e-02f,+2.12330177e-01f,-2.08626706e-02f,
-3.44968617e-01f,-2.21617773e-01f,+6.50512993e-01f,+2.46747270e-01f,-1.34873122e-01f,
+1.93623230e-01f,-3.54126304e-01f,+9.12351757e-02f,+1.74842596e-01f,-1.92232743e-01f,
+3.71274740e-01f,+5.12949526e-02f,-3.18654299e-01f,+5.45812488e-01f,-7.56664813e-01f,
-2.38773674e-01f,-3.15696746e-01f,+1.00566380e-01f,+2.02015832e-01f,-1.21473186e-01f,
-8.32839310e-02f,+1.46613792e-01f,+1.37884587e-01f,+4.46308078e-03f,+8.44821408e-02f,
-2.96034932e-01f,-1.81626186e-01f,-3.57088119e-01f,-3.62930596e-01f,+1.48906142e-01f,
+2.70266801e-01f,+2.47694999e-01f,-6.18569434e-01f,+2.59695351e-01f,-2.36437440e-01f,
+1.00590706e-01f,-1.97082505e-01f,+3.31995040e-02f,-2.93053538e-01f,+2.44031355e-01f,
-2.78744519e-01f,+1.44009590e-01f,-1.89887837e-01f,+2.35552311e-01f,-9.92037952e-02f,
-1.23994295e-02f,+1.10673018e-01f,+6.54671565e-02f,-2.48384163e-01f,-4.59053427e-01f,
-4.34186965e-01f,-1.22470416e-01f,+1.90087795e-01f,-4.14887786e-01f,-2.79525995e-01f,
+1.44083738e-01f,+3.06372195e-02f,+4.22657803e-02f,+2.40011573e-01f,+1.53406560e-01f,
+1.82462648e-01f,+2.65641659e-01f,+1.19097769e-01f,-3.96185517e-01f,+8.88244063e-02f,
+2.77427286e-01f,+1.05420195e-01f,-5.07668853e-02f,-1.87943280e-01f,-1.01152010e-01f,
+4.45435077e-01f,-1.98631033e-01f,+3.62049967e-01f,-7.25807846e-02f,-3.11073244e-01f,
+2.96363413e-01f,-4.71347421e-01f,-2.86625952e-01f,+4.38782901e-01f,+3.26074570e-01f,
-1.41348258e-01f,-2.05287606e-01f,-1.41389787e-01f,-2.00143576e-01f,-1.39611542e-01f,
-1.20513827e-01f,+4.85837758e-01f,-2.68206596e-01f,+1.72923237e-01f,+3.87601793e-01f,
+8.51816535e-02f,-2.76848912e-01f,+6.05564237e-01f,-5.04598022e-01f,-1.58777907e-01f,
+3.78563523e-01f,+2.61039417e-02f,-3.28492671e-01f,-1.56768113e-01f,+2.73292005e-01f,
-1.49347574e-01f,+1.92220971e-01f,-1.42143816e-01f,-4.61955875e-01f,+9.86805558e-02f,
-8.60344023e-02f,-1.07390121e-01f,-1.46720037e-01f,+2.48383582e-01f,-6.35036156e-02f,
+2.44534567e-01f,+1.73751384e-01f,-8.26394856e-02f,+1.23527080e-01f,-1.08928226e-01f,
+9.42935571e-02f,-9.79415327e-02f,-1.02665685e-02f,+3.75446349e-01f,+1.17614307e-01f,
-2.20732152e-01f,+4.57356162e-02f,+2.70072639e-01f,+2.11353764e-01f,+2.41738800e-02f,
+3.09192151e-01f,-1.66081294e-01f,+1.17558479e-01f,+5.31660132e-02f,-3.23027939e-01f,
+2.24209502e-02f,+1.39438540e-01f,+2.85143346e-01f,+2.96855390e-01f,+1.29870176e-01f,
+4.32624012e-01f,+2.31540009e-01f,-3.47919405e-01f,+2.64973730e-01f,-2.62031138e-01f,
+1.49128363e-01f,-1.98908895e-01f,+1.40028939e-01f,-3.57169509e-02f,+2.45343074e-01f,
+1.15459770e-01f,-2.41070360e-01f,-7.06049800e-02f,+1.97865739e-01f,-1.11108661e-01f,
+2.46749416e-01f,-2.42856324e-01f,-5.59955761e-02f,+1.87823415e-01f,+1.18347518e-01f,
+1.80239245e-01f,+6.32074177e-02f,-2.50305831e-01f,-5.69845289e-02f,-2.26615027e-01f,
+2.60216385e-01f,+9.79212895e-02f,+2.37728938e-01f,+2.97387782e-02f,-1.33550063e-01f,
+2.79691905e-01f,-2.88505163e-02f,-1.18548788e-01f,+2.06516147e-01f,-1.41867818e-02f,
+4.16483358e-02f,+2.10303470e-01f,+2.77992547e-01f,+6.31895065e-02f,-2.41343796e-01f,
+2.36022338e-01f,-1.86982572e-01f,+2.34724581e-02f,-2.65210688e-01f,+2.81084061e-01f,
+1.14396214e-03f,+1.32571697e-01f,-3.77503037e-02f,-2.86666214e-01f,+1.12878211e-01f,
+2.15606153e-01f,-6.79500848e-02f,-7.66292140e-02f,+7.06379488e-02f,-2.55749226e-01f,
+3.01570296e-02f,-2.73136765e-01f,+2.00011015e-01f,-1.50095716e-01f,+1.51936993e-01f,
+1.98361486e-01f,+1.05892003e-01f,-7.59068280e-02f,-2.96761066e-01f,+8.98095313e-03f,
+1.92459434e-01f,-4.80662845e-02f,-1.98499858e-01f,-5.30183427e-02f,-5.73316775e-02f,
+4.76228409e-02f,-2.30926834e-02f,+8.38821828e-02f,-2.46003330e-01f,-4.66055702e-04f,
+2.72808373e-01f,+2.43743077e-01f,-1.21547095e-01f,+1.62823908e-02f,-4.76798341e-02f,
-1.19107910e-01f,-1.32508755e-01f,-1.47633776e-01f,+4.72627789e-01f,+2.86538213e-01f,
-3.23674828e-01f,+3.22452456e-01f,+3.58187735e-01f,+3.01757067e-01f,-3.25091816e-02f,
+6.20447583e-02f,-1.76633492e-01f,+1.20412216e-01f,-1.24277629e-01f,+3.47572900e-02f,
+1.74125016e-01f,+1.50356159e-01f,-8.36118087e-02f,+1.90484166e-01f,+1.78120285e-02f,
-2.02055275e-01f,+2.56890416e-01f,+4.10620421e-01f,+3.86739284e-01f,+3.65763484e-03f,
-1.51553363e-01f,+1.05100594e-01f,-1.85157433e-01f,-3.37970629e-02f,+3.07186823e-02f,
+2.20912382e-01f,-2.17275336e-01f,-2.60847807e-01f,+3.20360899e-01f,+2.45863926e-02f,
-5.57488613e-02f,-4.00607973e-01f,+1.54589385e-01f,-1.36089370e-01f,+9.97782499e-03f,
-5.39298393e-02f,+2.38643646e-01f,-1.77575931e-01f,+2.02075660e-01f,-7.12947100e-02f,
-1.64683104e-01f,-1.28405303e-01f,-1.24843322e-01f,-1.93724424e-01f,-3.36310893e-01f,
-1.43046379e-01f,-9.23190862e-02f,-3.14771801e-01f,-1.63411453e-01f,-1.18261747e-01f,
+4.24014479e-01f,+2.56082237e-01f,+9.58964601e-02f,-2.61549056e-01f,-7.72763928e-03f,
-2.45110795e-01f,+2.07206625e-02f,+6.39647916e-02f,+2.16456816e-01f,-2.72878259e-01f,
-2.24730462e-01f,-4.59046215e-01f,+2.45367229e-01f,-1.93541110e-01f,+2.79439747e-01f,
+1.68371111e-01f,+1.00708166e-02f,-4.29665372e-02f,-1.10171333e-01f,+1.65962562e-01f,
+2.39231169e-01f,+3.61107945e-01f,-1.23344392e-01f,-2.85502851e-01f,-1.73263952e-01f,
+1.87478557e-01f,+3.29869509e-01f,-5.06880805e-02f,+8.49149227e-02f,+8.55516195e-02f,
+2.82941852e-02f,-4.03599769e-01f,-2.33064324e-01f,-6.63952902e-02f,+1.87324271e-01f,
-1.59105435e-01f,+2.44917944e-01f,-4.55082089e-01f,+1.58134654e-01f,-2.91000865e-02f,
-2.22862493e-02f,-2.25193307e-01f,+2.38958046e-01f,-1.85936049e-01f,-5.35569564e-02f,
+5.64022474e-02f,+1.04517983e-02f,+1.61988616e-01f,+3.71310934e-02f,-1.02489531e-01f,
+3.80150899e-02f,-9.78105366e-02f,-2.33444095e-01f,-1.98193997e-01f,-1.90147057e-01f,
+1.70708731e-01f,+2.25014001e-01f,+1.07349120e-01f,-4.27836180e-03f,+1.64612442e-01f,
+1.98955044e-01f,+5.15132509e-02f,-2.75857925e-01f,-1.39482245e-01f,-5.14844581e-02f,
-8.72065797e-02f,+1.17566466e-01f,-9.82335880e-02f,+1.41310245e-01f,+4.45360355e-02f,
+2.18675807e-01f,+1.79707240e-02f,-5.02929986e-01f,+2.28335653e-02f,+2.89126635e-02f,
-9.28782374e-02f,-3.87470238e-02f,-9.76129770e-02f,-1.14211172e-01f,+6.74508512e-02f,
-1.20305322e-01f,-2.78224707e-01f,+3.36686403e-01f,+1.96489021e-01f,+1.80139437e-01f,
-1.85649887e-01f,-1.26261324e-01f,+4.48053151e-01f,+1.68063030e-01f,+1.10676009e-02f,
-2.73447335e-02f,+9.90646891e-03f,-8.78615421e-04f,+2.80218959e-01f,-1.33449614e-01f,
-1.76969171e-01f,+3.19211662e-01f,-2.71615773e-01f,+3.22659552e-01f,+1.46896675e-01f,
-2.00378895e-01f,-1.59862086e-01f,-4.73874241e-01f,+1.25947952e-01f,+2.75876015e-01f,
+9.13060531e-02f,+3.06833759e-02f,+9.22055393e-02f,+1.95303440e-01f,+7.90795013e-02f,
+4.90465969e-01f,-2.60828406e-01f,-5.01117826e-01f,-3.63828875e-02f,-1.04477815e-01f,
-6.21509850e-01f,+1.48218703e-02f,-2.83899456e-01f,+2.67148405e-01f,-6.54088631e-02f,
-2.54507899e-01f,+3.93611640e-01f,+1.73150655e-02f,+3.54223311e-01f,-9.96734351e-02f,
-1.10985026e-01f,+2.18227208e-01f,+3.99246514e-02f,-3.92048359e-01f,+1.35490581e-01f,
+2.08623916e-01f,-3.03908139e-01f,+4.37718153e-01f,-1.56501651e-01f,+1.96746588e-02f,
+3.22203040e-02f,-2.54526287e-02f,+2.11486191e-01f,+1.45942554e-01f,+1.17101714e-01f,
+1.19148932e-01f,+3.45174558e-02f,+2.20055059e-01f,-2.72858918e-01f,-5.64808249e-01f,
+2.03389704e-01f,+6.73500299e-02f,-1.08561171e-02f,-2.91913152e-01f,+1.72446564e-01f,
+6.29069433e-02f,-1.71118632e-01f,-6.80291057e-02f,+2.10275933e-01f,+7.25477114e-02f,
-2.82555401e-01f,-4.57533449e-01f,-4.52193975e-01f,-3.02587956e-01f,-9.77789611e-02f,
-3.64863425e-01f,-6.75987303e-01f,+1.27521053e-01f,+2.30454087e-01f,-1.52674749e-01f,
+1.80953771e-01f,-7.51036331e-02f,+2.18870983e-01f,+3.50284785e-01f,+9.55770612e-02f,
+1.71170011e-01f,+4.66495246e-01f,+2.90992926e-03f,+6.55217394e-02f,-1.94865659e-01f,
-9.17392001e-02f,-2.44080797e-01f,-6.75589666e-02f,+1.82921626e-02f,+9.91139561e-03f,
+2.53842294e-01f,-1.20319352e-01f,-2.83243775e-01f,+2.76138097e-01f,+2.26114884e-01f,
+3.35699409e-01f,-1.66973434e-02f,+6.20667040e-02f,-1.39103994e-01f,+2.30757147e-01f,
-7.12436587e-02f,+2.00191140e-01f,-7.12667778e-02f,+2.35523701e-01f,+1.55348405e-01f,
+2.76103199e-01f,+4.24693704e-01f,+1.16432421e-01f,+9.19632241e-02f,-2.36449577e-02f,
+7.63946399e-02f,-1.36610344e-01f,-1.54913902e-01f,-1.22467890e-01f,-7.75019303e-02f,
+2.71164235e-02f,+2.19264835e-01f,+2.33710676e-01f,-3.33580166e-01f,-8.16551968e-02f,
+2.23795827e-02f,+9.35677737e-02f,+3.42964470e-01f,+3.15547250e-02f,+1.43869117e-01f,
+2.38678381e-01f,-2.62265235e-01f,+6.74771592e-02f,-1.16234832e-03f,+3.47543865e-01f,
-7.77036622e-02f,-4.38216865e-01f,+1.09996974e-01f,+2.09785238e-01f,+1.15093067e-01f,
-1.47156209e-01f,+1.82350308e-01f,-3.84887397e-01f,-2.46316478e-01f,+1.69939369e-01f,
-2.23155081e-01f,-2.59660631e-01f,+7.74178132e-02f,+5.59919141e-02f,+2.19900250e-01f,
+3.63446057e-01f,+3.79606988e-03f,-6.43037707e-02f,-1.82660475e-01f,+2.89744735e-01f,
+3.14824469e-02f,+3.79778773e-01f,+1.98822528e-01f,-3.02379221e-01f,+2.94376642e-01f,
+3.01192522e-01f,+3.59452218e-02f,+1.92428738e-01f,-1.48780152e-01f,-1.38126805e-01f,
+1.53483987e-01f,-2.98277348e-01f,-2.96516926e-03f,-1.93724349e-01f,-3.15329581e-01f,
+2.16677532e-01f,+1.04584452e-02f,+5.05548306e-02f,-2.98464149e-01f,+3.28407399e-02f,
+2.09468901e-02f,+5.75688742e-02f,-2.28430152e-01f,-1.42827973e-01f,-2.37222642e-01f,
+3.22971106e-01f,-2.22597107e-01f,-1.27270550e-01f,+6.35574162e-02f,+3.84679854e-01f,
+2.68393725e-01f,+6.70743138e-02f,+2.57309943e-01f,+4.07574415e-01f,-3.19796115e-01f,
-2.30816782e-01f,+1.71778336e-01f,-2.32617676e-01f,-3.71897668e-01f,-1.08787850e-01f,
-6.94707781e-02f,+9.75286439e-02f,+2.21899539e-01f,-2.30045006e-01f,+3.50085825e-01f,
+3.47400516e-01f,+1.43675342e-01f,+1.34542286e-01f,+3.90178561e-01f,+1.20836041e-04f,
-1.43531859e-01f,+3.94122571e-01f,+2.34619126e-01f,+1.77060142e-01f,-1.84923932e-01f,
-2.71129787e-01f,-2.21791491e-01f,+2.10596740e-01f,-3.84392054e-03f,+3.43297869e-01f,
-1.90738320e-01f,-1.08940385e-01f,-3.24681699e-01f,+5.26415855e-02f,+1.65396202e-02f,
-1.35656729e-01f,-1.98091000e-01f,+1.03987549e-02f,+4.61978793e-01f,-2.83342212e-01f,
+3.23005542e-02f,+1.24285586e-01f,-8.03519040e-02f,-1.40869364e-01f,-2.89679646e-01f,
-1.09750211e-01f,-1.69962570e-01f,-6.43812567e-02f,-1.20757692e-01f,-3.19016755e-01f,
-3.47818524e-01f,+1.78814456e-01f,+7.18190894e-02f,+2.00881928e-01f,-6.43631294e-02f,
-1.08806632e-01f,-3.61595064e-01f,-2.51364350e-01f,-4.32739221e-03f,-3.27558935e-01f,
-5.48396289e-01f,-1.35770425e-01f,-3.19250375e-02f,+6.28994703e-02f,+6.56009763e-02f,
-3.82665604e-01f,+1.38041481e-01f,+3.69383752e-01f,-2.40834013e-01f,-8.15727785e-02f,
-6.59769997e-02f,+9.59260315e-02f,+3.02514911e-01f,+8.53953436e-02f,+1.97119996e-01f,
-2.65688986e-01f,+1.17779993e-01f,-1.63779587e-01f,-2.68973112e-01f,-5.40509112e-02f,
-6.83175772e-02f,+3.08158010e-01f,-8.36521760e-02f,+9.49769840e-02f,-4.45888378e-03f,
-3.82471114e-01f,-9.37977657e-02f,+2.49458179e-01f,+8.34137201e-02f,-3.13784957e-01f,
-7.59248808e-02f,-4.21885699e-01f,+1.21743575e-01f,+1.68985173e-01f,-1.43425286e-01f,
-7.15041533e-02f,-5.01893759e-01f,-2.39827365e-01f,-2.73039043e-01f,-4.01482016e-01f,
-1.70113400e-01f,+4.84544992e-01f,+4.33505923e-01f,+9.04638991e-02f,+9.95392650e-02f,
+4.51581836e-01f,-6.23211488e-02f,-3.58220071e-01f,-4.05207612e-02f,-1.01506598e-01f,
-2.44895905e-01f,-5.88872097e-02f,+2.55157113e-01f,-3.26797545e-01f,+1.49415582e-01f,
-1.87993854e-01f,-6.84433058e-02f,-2.55825400e-01f,+2.02820301e-01f,+2.09285319e-01f,
+1.94245622e-01f,-1.72236077e-02f,+2.73800790e-01f,+3.41915846e-01f,-1.62881970e-01f,
+3.39588076e-01f,-1.96414977e-01f,-4.66544181e-01f,-2.87670940e-01f,+5.56904256e-01f,
-2.97285378e-01f,+6.93876073e-02f,-1.03427514e-01f,-1.48034737e-01f,+2.40163177e-01f,
-5.74426726e-02f,-5.32030575e-02f,-1.63896427e-01f,+7.38115385e-02f,-2.25707233e-01f,
+2.34748319e-01f,+4.35178727e-01f,+2.80099828e-02f,-2.04056539e-02f,+1.31422821e-02f,
-7.33497590e-02f,-1.51965290e-01f,-2.63510179e-02f,+4.34156328e-01f,-1.24984697e-01f,
-2.06657887e-01f,+5.95319606e-02f,+3.55741113e-01f,-3.07621360e-02f,-4.97815311e-01f,
-2.28639580e-02f,+1.08389873e-02f,+2.02342972e-01f,+1.42423689e-01f,-2.62620211e-01f,
+1.15891218e-01f,+1.82799041e-01f,+3.32779080e-01f,+1.69050679e-01f,-1.14868887e-01f,
+1.16290286e-01f,-1.80942878e-01f,+2.35215321e-01f,-1.22859158e-01f,-6.09268323e-02f,
-2.45574236e-01f,+5.55988140e-02f,+1.71202123e-02f,-1.83487669e-01f,+7.77675584e-02f,
-1.79190248e-01f,+2.55545855e-01f,+1.13674581e-01f,-1.22486949e-02f,-1.40193254e-02f,
+1.11289404e-01f,-5.78467697e-02f,+4.39643264e-02f,-2.10913837e-01f,+1.24374628e-01f,
-8.36992562e-02f,-8.79772194e-03f,-1.27446011e-01f,-3.05090696e-01f,-2.71713078e-01f,
-2.17027813e-01f,-1.97789386e-01f,-2.44093925e-01f,+2.37438217e-01f,-4.41547632e-02f,
+1.50929779e-01f,-2.39144459e-01f,+9.91288349e-02f,-2.59101182e-01f,-1.61234200e-01f,
-4.95884866e-02f,-3.16981375e-02f,+2.88309813e-01f,-2.74489045e-01f,+2.35869586e-01f,
+1.31432861e-01f,+2.22521186e-01f,+2.67840981e-01f,+7.23969489e-02f,+1.03540689e-01f,
+8.96886736e-02f,+1.32208586e-01f,-4.25654463e-02f,-3.64449233e-01f,+6.98041264e-03f,
-3.27911265e-02f,-8.19124952e-02f,-9.97267962e-02f,-2.75832802e-01f,+6.37949407e-02f,
-1.24532051e-01f,-1.60767630e-01f,-1.87220216e-01f,+3.50077629e-01f,+2.55937129e-01f,
-1.03829369e-01f,+3.81805077e-02f,-3.86167824e-01f,+9.89830717e-02f,-9.94229093e-02f,
+3.33462328e-01f,-1.05083629e-01f,+8.34060386e-02f,-2.26769045e-01f,+7.12190345e-02f,
+2.86679447e-01f,-1.04458719e-01f,+2.14992851e-01f,-2.55856782e-01f,+1.56440094e-01f,
+1.89619899e-01f,-3.13899487e-01f,-3.31929445e-01f,-1.26034394e-01f,-1.14365041e-01f,
+1.46533102e-01f,+1.68118864e-01f,+2.73864269e-01f,-4.51789349e-01f,-2.10509598e-01f,
-3.80479425e-01f,+3.86102907e-02f,-2.62163728e-01f,-3.80522400e-01f,+5.23061939e-02f,
+2.00190097e-01f,+1.44190818e-01f,+1.99521258e-01f,+1.95921078e-01f,-1.90900285e-02f,
+3.11157331e-02f,-2.61813123e-02f,+7.81416893e-02f,+1.36833742e-01f,-4.51127380e-01f,
-5.27620852e-01f,-1.31439999e-01f,-6.58664629e-02f,+2.18210936e-01f,-1.66167945e-01f,
-6.27440885e-02f,+1.05622232e-01f,+5.43249883e-02f,+2.73421735e-01f,+1.73323363e-01f,
+1.66051105e-01f,-1.64777488e-01f,+3.76526527e-02f,+2.95124888e-01f,-2.78460741e-01f,
+1.11736007e-01f,-2.85426736e-01f,-3.12181026e-01f,+1.89821273e-01f,-2.81734794e-01f,
+2.97069073e-01f,+2.31028304e-01f,+4.61426020e-01f,-1.69567853e-01f,+4.24708992e-01f,
-1.92752331e-01f,+1.50494307e-01f,+4.09889445e-02f,-3.53705913e-01f,-5.89467138e-02f,
-3.19424689e-01f,+8.30879807e-02f,+2.20544606e-01f,-1.00717098e-01f,+2.26275355e-01f,
-8.31408147e-03f,+5.99305928e-02f,+5.87324202e-02f,-8.13659728e-02f,-4.60316390e-01f,
+1.21688932e-01f,+2.82932222e-01f,+3.72826844e-01f,-5.47270477e-02f,+3.83731395e-01f,
-9.10970476e-03f,+2.17265457e-01f,+3.15600276e-01f,-2.97339022e-01f,-2.47933231e-02f,
-3.53562653e-01f,+1.37085810e-01f,-2.73892730e-01f,+9.39447731e-02f,+2.01440930e-01f,
+1.86987981e-01f,-5.57331108e-02f,+6.81121275e-02f,+3.58411781e-02f,-3.09857994e-01f,
+7.57714584e-02f,-2.01107532e-01f,-1.45763502e-01f,+3.30324173e-01f,-3.77254337e-01f,
-3.24984998e-01f,+1.38447270e-01f,+3.52466136e-01f,+1.91928461e-01f,+3.56970638e-01f,
-2.63936847e-01f,+1.39134839e-01f,+3.01838547e-01f,-6.27317131e-02f,+2.22734600e-01f,
+1.93056375e-01f,+1.70170665e-01f,-1.18626118e-01f,-3.88480425e-02f,-2.24738598e-01f,
-3.13367933e-01f,+4.61424500e-01f,-1.15002297e-01f,+2.55004555e-01f,+6.91234367e-03f,
-1.96613520e-01f,-4.97781150e-02f,+1.74207523e-01f,+1.00581460e-01f,+3.07316538e-02f,
+4.59197968e-01f,-3.23722400e-02f,+9.47592482e-02f,-6.12116516e-01f,-2.53293544e-01f,
+1.65485844e-01f,-1.84483424e-01f,-6.55384660e-02f,-5.49257755e-01f,-1.68659270e-01f,
+1.96068585e-01f,-4.53022830e-02f,+2.48809606e-01f,+4.39889915e-02f,+8.89299288e-02f,
-4.10340607e-01f,-2.54897177e-01f,+2.43061874e-02f,-2.10012510e-01f,-4.82203364e-02f,
+2.09124476e-01f,-1.86586395e-01f,+2.96061039e-01f,-2.20832840e-01f,-4.42155510e-01f,
-2.06977040e-01f,-2.86101639e-01f,-1.43829748e-01f,+8.89322087e-02f,+3.22860479e-01f,
-1.69777468e-01f,+9.64846835e-03f,-1.39407784e-01f,+8.70429873e-02f,+1.41261503e-01f,
-2.52040058e-01f,+2.78788120e-01f,-4.04134601e-01f,-1.13524735e-01f,+9.53615680e-02f,
-1.53023347e-01f,+1.47972628e-01f,-5.72685599e-02f,-2.18082130e-01f,-1.50853515e-01f,
-2.55009532e-01f,-5.71494736e-02f,-1.85450003e-01f,+2.07565218e-01f,+3.09649646e-01f,
+2.26538077e-01f,+3.16644073e-01f,-1.54671311e-01f,+1.52245328e-01f,+3.17936659e-01f,
-1.95940107e-01f,+1.39602542e-01f,+1.69943184e-01f,+4.15063560e-01f,-3.72308671e-01f,
+2.02374291e-02f,+5.16460538e-02f,-3.65908265e-01f,+2.52140433e-01f,-4.06399667e-01f,
-4.95484859e-01f,+1.87995974e-02f,-5.12711346e-01f,-6.58126652e-01f,+1.41707271e-01f,
-4.01941836e-01f,+3.69100630e-01f,+7.58108497e-02f,+1.75496247e-02f,+3.69273201e-02f,
+5.89991473e-02f,+1.87726408e-01f,-2.33718902e-01f,+3.86740603e-02f,+8.74152333e-02f,
-2.62909472e-01f,-2.89297439e-02f,+3.18194032e-01f,+3.82015854e-01f,-1.36331707e-01f,
+4.29518193e-01f,+2.59746641e-01f,-1.03150476e-02f,-2.44265765e-01f,-7.41771087e-02f,
+2.13683322e-01f,+2.95825601e-01f,+1.86544225e-01f,+1.87551886e-01f,-9.56217721e-02f,
-1.70313135e-01f,-3.02343726e-01f,+1.05948277e-01f,-4.73339409e-01f,+2.33996645e-01f,
-1.71326563e-01f,-2.95848787e-01f,+4.31693196e-01f,+3.91077340e-01f,+2.82759160e-01f,
-3.25634181e-02f,+3.71392936e-01f,-4.93975520e-01f,+4.29599047e-01f,+4.27983612e-01f,
-2.46723279e-01f,+1.44625306e-02f,+1.61137171e-02f,-3.25145423e-02f,+2.92148381e-01f,
-5.00812754e-03f,-2.31655627e-01f,+2.39819214e-01f,-3.20659459e-01f,+2.82949746e-01f,
-5.07646799e-01f,-4.23167884e-01f,-1.89075634e-01f,+2.54439134e-02f,-5.14183223e-01f,
-2.16154709e-01f,+1.92196518e-01f,+1.06971100e-01f,+1.23253793e-01f,+1.97282076e-01f,
-3.56757015e-01f,-6.73147619e-01f,+2.35214993e-01f,+1.29895926e-01f,-1.64783373e-02f,
-6.06422536e-02f,-2.54892200e-01f,+1.74795657e-01f,-4.01997775e-01f,+1.81778282e-01f,
+4.71864134e-01f,-1.84234545e-01f,+2.40935367e-02f,+1.95153013e-01f,-2.40642726e-01f,
-2.61491269e-01f,+6.87117800e-02f,+6.84902817e-02f,-8.67120206e-01f,+4.53092456e-01f,
+1.31240740e-01f,-2.91954041e-01f,+4.14856136e-01f,-5.60365558e-01f,+3.73592943e-01f,
+3.60011794e-02f,-5.64030185e-02f,+4.67263937e-01f,-2.33304381e-01f,-4.40143317e-01f,
-2.38659382e-01f,}; 
k2c_tensor dense_1_kernel = {&dense_1_kernel_array[0],2,1156,{34,34, 1, 1, 1}}; 
float dense_1_bias_array[34] = {
+1.10812932e-02f,-7.64273629e-02f,+3.50753479e-02f,-1.25698999e-01f,-1.35310143e-01f,
-5.89590333e-02f,-1.41772300e-01f,+6.91802204e-02f,-8.71674940e-02f,-8.27871934e-02f,
-1.85999542e-01f,-9.65377092e-02f,-5.04768901e-02f,+5.74136972e-02f,+2.58704871e-02f,
-1.77461043e-01f,-1.11856319e-01f,-1.10562034e-01f,-4.54468504e-02f,+6.49401695e-02f,
-3.02526802e-02f,-6.07099421e-02f,+4.22491319e-02f,-9.99080613e-02f,+5.57136722e-02f,
+4.48887944e-02f,-4.67502177e-02f,+2.90667206e-01f,+1.20531127e-01f,+6.20622784e-02f,
+3.61557528e-02f,+2.62287736e-01f,-3.38755101e-02f,-9.63550527e-03f,}; 
k2c_tensor dense_1_bias = {&dense_1_bias_array[0],1,34,{34, 1, 1, 1, 1}}; 
float dense_1_fwork[1190] = {0}; 

 
float dense_2_output_array[34] = {0}; 
k2c_tensor dense_2_output = {&dense_2_output_array[0],1,34,{34, 1, 1, 1, 1}}; 
float dense_2_kernel_array[1156] = {
+2.12585032e-01f,+5.34016490e-01f,+5.26195526e-01f,+2.62086213e-01f,-1.00581110e-01f,
-8.87610912e-02f,+5.91336489e-01f,+1.68789402e-01f,-5.87979078e-01f,-3.96170646e-01f,
+8.87661334e-03f,+6.07907400e-02f,+1.17301501e-01f,-6.45063594e-02f,+1.48683563e-01f,
-9.30985957e-02f,-2.69211680e-01f,-1.06840372e+00f,-5.69045007e-01f,+6.16364181e-02f,
-1.17791295e-02f,+3.77147377e-01f,+1.08859353e-01f,+2.52134651e-01f,-9.23678204e-02f,
-2.70450443e-01f,+2.25055933e-01f,-2.90821120e-02f,+9.70449112e-03f,-2.25885063e-01f,
+1.80437997e-01f,+1.43992811e-01f,-2.93563813e-01f,-4.05317336e-01f,-8.40798020e-03f,
+3.19353461e-01f,-1.80849582e-01f,-2.41115823e-01f,-2.48400241e-01f,+9.45091844e-02f,
+2.86355674e-01f,+1.06808409e-01f,-1.07478611e-01f,+1.10407636e-01f,-2.50100583e-01f,
+2.22968996e-01f,-2.95052946e-01f,-2.74376988e-01f,-1.94126964e-02f,-3.69913317e-02f,
-1.73984259e-01f,+1.43954381e-01f,+2.35063091e-01f,+2.37236023e-01f,+3.80882323e-02f,
-1.12489909e-01f,+2.76965767e-01f,+2.94447601e-01f,-7.77786076e-02f,+2.23647773e-01f,
-1.63400039e-01f,-1.84712887e-01f,+1.54258922e-01f,+1.57789886e-01f,-2.30964079e-01f,
+1.46456510e-01f,+9.08682048e-02f,-1.00410774e-01f,+4.60495681e-01f,-4.75541130e-02f,
+2.71015108e-01f,-2.41472751e-01f,+1.92888126e-01f,-1.22780673e-01f,+5.21251149e-02f,
-2.23572150e-01f,-4.34249163e-01f,-2.45749384e-01f,+3.17832351e-01f,+3.06562006e-01f,
+1.61847860e-01f,+1.10418722e-01f,+1.87940538e-01f,+8.08575675e-02f,+8.75343382e-02f,
+1.33882299e-01f,+1.72811121e-01f,+1.35798290e-01f,+4.92852330e-01f,-1.18467443e-01f,
-4.58235219e-02f,-2.95888424e-01f,-2.92724699e-01f,+3.44168872e-01f,+2.69945949e-01f,
-2.57820517e-01f,-1.02967612e-01f,-1.67585760e-01f,-2.74178892e-01f,-2.99992207e-02f,
-3.27360839e-01f,+1.55147552e-01f,-1.81318939e-01f,+5.75341210e-02f,+1.65385604e-01f,
-1.65702939e-01f,-1.02816209e-01f,-2.06282824e-01f,+2.26982255e-02f,-8.44201222e-02f,
-1.54303715e-01f,-2.68267673e-02f,-2.64975671e-02f,+2.82053828e-01f,-1.44115970e-01f,
-8.87257829e-02f,+1.25815094e-01f,-2.49645114e-01f,+1.36803627e-01f,+2.85471305e-02f,
+1.54024316e-02f,-1.63410276e-01f,+1.16045475e-01f,+1.69337224e-02f,+1.59290016e-01f,
+3.69020887e-02f,+2.79959619e-01f,-2.65710682e-01f,+2.05871444e-02f,+2.77490616e-01f,
+9.51646641e-02f,-2.93086976e-01f,-2.13779792e-01f,+2.43488088e-01f,+2.45940730e-01f,
-1.13789096e-01f,-1.67692453e-02f,+2.07091928e-01f,-1.88344717e-01f,-2.57920057e-01f,
-3.91452193e-01f,-5.72911873e-02f,+1.66378886e-01f,-3.51267785e-01f,+2.30160043e-01f,
-2.41931416e-02f,-5.34859113e-02f,+8.70846659e-02f,+2.34637856e-01f,-2.56320357e-01f,
-1.22411594e-01f,+2.04704821e-01f,-1.83248773e-01f,+2.51172334e-01f,-1.48704991e-01f,
-2.63226271e-01f,-1.61025062e-01f,+3.83499622e-01f,+4.02003288e-01f,+2.41645023e-01f,
-2.20083207e-01f,-1.86558887e-01f,+3.20300125e-02f,+2.66183496e-01f,-4.23865505e-02f,
-3.93156081e-01f,-1.18449822e-01f,-4.92529571e-03f,+4.49466445e-02f,+4.56673861e-01f,
-9.69886482e-02f,-1.18189596e-01f,+5.78134716e-01f,+3.89241129e-01f,-1.03193678e-01f,
-1.74965531e-01f,+4.37929958e-01f,-1.42097384e-01f,-1.69267267e-01f,+2.64383942e-01f,
-2.09871814e-01f,+1.61288574e-01f,+2.40038738e-01f,-2.17674240e-01f,-9.26844403e-02f,
-5.15359826e-02f,+5.22657871e-01f,-3.58324230e-01f,-2.23862126e-01f,-2.84487724e-01f,
+2.07057968e-01f,+3.44343692e-01f,+5.81385754e-02f,-1.80382594e-01f,-2.16772661e-01f,
-3.13779414e-01f,+2.08383828e-01f,+8.64418224e-03f,-2.16877118e-01f,+1.45949684e-02f,
-3.36249858e-01f,-1.62700817e-01f,-2.67709196e-01f,-4.14818704e-01f,-2.67568618e-01f,
+1.72759622e-01f,-5.05542576e-01f,+7.05120623e-01f,+1.35969110e-02f,+2.80663252e-01f,
-5.89157462e-01f,+7.78913140e-01f,-4.03402060e-01f,+1.79065704e-01f,-6.72948480e-01f,
+4.30465162e-01f,-9.79956239e-02f,+1.60406187e-01f,+2.49642894e-01f,+2.44188920e-01f,
-1.40097588e-01f,+6.48256615e-02f,-4.31124955e-01f,-2.12653980e-01f,+1.40134513e-01f,
+3.59675258e-01f,+4.67873544e-01f,-1.45165861e-01f,-9.34084952e-02f,+2.42668241e-01f,
-1.90564364e-01f,-1.29125178e-01f,-2.73843914e-01f,+4.43913862e-02f,+4.17775720e-01f,
-1.12341523e-01f,+1.35352433e-01f,-5.51062673e-02f,+3.48978043e-01f,-5.97891845e-02f,
+4.53540444e-01f,-3.04511506e-02f,+2.30590746e-01f,+3.22556146e-03f,+2.61353925e-02f,
-2.38020897e-01f,+1.65946763e-02f,+1.92720629e-02f,-3.75027321e-02f,+2.75108904e-01f,
+5.36893941e-02f,-1.32400781e-01f,-1.43517002e-01f,+2.29718477e-01f,-2.12311655e-01f,
+1.40271872e-01f,-2.87716001e-01f,-2.62435555e-01f,+2.64366746e-01f,+6.42121509e-02f,
+4.78585586e-02f,-1.14897162e-01f,-2.25421846e-01f,-9.04342309e-02f,-3.36459726e-02f,
-3.39215547e-01f,+3.17221493e-01f,+1.00215606e-01f,-1.04714856e-01f,+2.02735320e-01f,
+6.71296790e-02f,-4.30992007e-01f,-6.41806185e-01f,+1.08504772e-01f,+8.64891261e-02f,
-2.00986519e-01f,+2.24008977e-01f,+2.67646402e-01f,+3.12167168e-01f,+5.20309567e-01f,
-1.56973422e-01f,-5.31129479e-01f,-6.47128820e-01f,+9.55622569e-02f,-8.33645463e-02f,
-3.87444526e-01f,-4.48135018e-01f,-5.68791568e-01f,+7.00398535e-02f,-1.63683910e-02f,
-3.94646265e-02f,-4.67367396e-02f,-2.29934812e-01f,+1.28724277e-01f,+7.57035241e-02f,
-3.03940335e-03f,+2.00169138e-03f,-1.95329830e-01f,+2.40759984e-01f,-3.27932924e-01f,
-4.92664665e-01f,-1.85320407e-01f,+1.03776880e-01f,+2.88130462e-01f,+3.36938910e-02f,
+3.16576540e-01f,-2.96975642e-01f,+4.63329196e-01f,+4.61876631e-01f,+3.22844267e-01f,
+2.67803818e-01f,+2.32816294e-01f,+2.73889035e-01f,+4.93130833e-01f,-3.94227207e-01f,
-6.73373461e-01f,-6.17393292e-02f,-3.12291712e-01f,+2.44366843e-02f,+1.27400383e-01f,
+6.36900291e-02f,-2.26013586e-01f,-1.17449552e-01f,-4.68713135e-01f,-3.30143094e-01f,
+1.00988097e-01f,+9.69702974e-02f,+6.14762187e-01f,+1.20070368e-01f,-5.97824492e-02f,
-1.22434773e-01f,-1.73382051e-02f,-1.35885179e-01f,-3.74028087e-01f,-2.89956361e-01f,
+2.41304815e-01f,+3.36910896e-02f,-8.06367248e-02f,-2.33550817e-01f,+1.32043958e-01f,
-1.79080650e-01f,-1.90308094e-01f,-4.58700895e-01f,+3.92826229e-01f,-2.44457051e-02f,
+1.78554803e-01f,-3.37709449e-02f,+8.09904486e-02f,+2.78944131e-02f,+1.85897604e-01f,
-2.92896241e-01f,+2.03310415e-01f,+2.82125864e-02f,+3.96225840e-01f,+3.23805034e-01f,
+2.94094533e-01f,+1.35927394e-01f,+1.12052917e-01f,+2.47590140e-01f,-8.31622332e-02f,
-3.89225930e-02f,+2.63412058e-01f,+4.52599227e-02f,-2.13866353e-01f,+1.98532179e-01f,
+3.13744992e-02f,-2.76541799e-01f,+2.68063903e-01f,-1.73610315e-01f,-2.06481725e-01f,
+1.24667592e-01f,-4.12068546e-01f,-6.75025582e-02f,-9.13754397e-04f,-3.18395913e-01f,
+9.18995291e-02f,+6.76838383e-02f,+3.34012330e-01f,+2.85729975e-01f,-1.79617871e-02f,
+3.61979038e-01f,+3.12082052e-01f,-3.40970784e-01f,-4.65499945e-02f,+9.55469459e-02f,
+1.91292658e-01f,+1.73451111e-01f,-2.73841918e-01f,-2.41069809e-01f,+2.47355446e-01f,
-2.92582035e-01f,-3.67916256e-01f,-4.20868874e-01f,-1.15325890e-01f,-4.53200519e-01f,
-6.25717565e-02f,-1.58821478e-01f,-5.61954193e-02f,-3.25784504e-01f,-1.32605836e-01f,
+1.96882099e-01f,-1.22553073e-01f,-2.16489017e-01f,-2.40842044e-01f,-1.91382200e-01f,
+3.35419774e-01f,-3.19489092e-01f,+2.61756480e-01f,+1.92507833e-01f,-6.02195621e-01f,
-4.12234068e-01f,+1.31634504e-01f,-3.58295888e-01f,-1.02579758e-01f,-3.57873976e-01f,
-3.66597980e-01f,+3.29282910e-01f,+2.63003558e-01f,-1.53791919e-01f,+7.10354447e-02f,
+1.47652224e-01f,-1.15119405e-01f,+2.31543198e-01f,-9.93371531e-02f,+9.61867645e-02f,
+8.19470435e-02f,+2.86878675e-01f,+1.96423531e-01f,-4.07718122e-01f,-4.21219468e-01f,
-1.84377745e-01f,-2.71873891e-01f,+1.25435427e-01f,-1.14494070e-01f,-7.16205388e-02f,
+2.68930256e-01f,-8.81997943e-02f,-1.27073064e-01f,-2.67058879e-01f,-5.67050725e-02f,
-3.80006395e-02f,+8.19394067e-02f,+7.70671144e-02f,+9.69263464e-02f,-1.12631105e-01f,
+4.65349913e-01f,+2.27287233e-01f,-1.71364918e-01f,-7.24242777e-02f,-4.58868556e-02f,
-1.12363271e-01f,+1.69847518e-01f,+1.92858487e-01f,+4.24156524e-03f,-1.45980552e-01f,
+1.42736927e-01f,+3.81344140e-01f,+3.91366780e-01f,-1.89405888e-01f,-3.85891855e-01f,
-4.88120735e-01f,+3.80395688e-02f,+3.36417109e-01f,+7.55411461e-02f,-5.73430359e-01f,
+8.52050409e-02f,+1.03777125e-01f,+3.01918209e-01f,-1.80826440e-01f,-1.49627134e-01f,
+2.50494301e-01f,+1.39494032e-01f,+1.37284800e-01f,-5.19482613e-01f,+1.57414615e-01f,
-1.51348814e-01f,+3.38585734e-01f,-1.80468053e-01f,-4.43588803e-03f,+1.46566793e-01f,
-1.16247892e-01f,-2.26457462e-01f,+1.84076741e-01f,-2.27064744e-01f,-2.56060779e-01f,
+1.14264153e-01f,+8.38779807e-02f,+1.32134140e-01f,-3.13271552e-01f,-1.48095503e-01f,
-2.53569663e-01f,-4.64651287e-01f,+7.64341280e-02f,+2.74982184e-01f,+1.77504346e-01f,
-1.35376930e-01f,+1.51124030e-01f,+1.37816221e-01f,-2.88649380e-01f,+2.15800464e-01f,
+2.11994439e-01f,-1.50246382e-01f,-2.49160513e-01f,-3.12373310e-01f,+2.05403388e-01f,
+1.60372898e-01f,-3.60311836e-01f,-2.32830107e-01f,-1.06422171e-01f,-1.36519283e-01f,
+1.09086782e-01f,+6.28013611e-02f,-2.67937422e-01f,+2.01343879e-01f,-2.23471195e-01f,
+2.08187073e-01f,-2.33683944e-01f,+1.19172603e-01f,+3.15235227e-01f,-1.85869448e-02f,
-1.45358980e-01f,-6.35804236e-02f,-2.30443273e-02f,-9.47334915e-02f,-9.49021801e-02f,
+9.30112675e-02f,+3.97794805e-02f,+1.81195289e-01f,-4.04824108e-01f,-2.53749728e-01f,
+1.00102192e-02f,-1.11253280e-03f,-1.01377018e-01f,-2.35438824e-01f,-2.90038675e-01f,
-2.05471233e-01f,-2.78513432e-01f,+3.55249166e-01f,-4.19016659e-01f,+1.29282892e-01f,
-6.39864355e-02f,-2.75005996e-01f,-2.91063756e-01f,+1.90732926e-01f,-4.47828025e-02f,
+2.21421361e-01f,-1.87576875e-01f,-6.15875870e-02f,+1.87723592e-01f,-3.33507150e-01f,
+1.93273008e-01f,-5.54577932e-02f,-1.56387299e-01f,+1.43579409e-01f,-2.64951319e-01f,
+1.79762483e-01f,-2.17171893e-01f,+5.18205203e-03f,+2.76217639e-01f,+1.51072359e-02f,
+2.30133891e-01f,+7.18920976e-02f,+1.63894907e-01f,+1.60555914e-01f,-1.54135048e-01f,
+3.68451029e-01f,-9.74199325e-02f,-1.85968280e-01f,-1.46807685e-01f,+1.69108137e-01f,
-1.07439987e-01f,+2.09376618e-01f,-4.61852876e-03f,+3.26519847e-01f,+1.66715495e-02f,
+2.35379800e-01f,+2.31943414e-01f,+4.11537945e-01f,+1.43350989e-01f,-5.31161070e-01f,
-3.13549787e-01f,-1.44082263e-01f,+2.31658980e-01f,-2.45008633e-01f,+9.44264233e-02f,
-2.33860254e-01f,+2.41393954e-01f,-8.00949037e-02f,-2.43782714e-01f,-1.51383206e-01f,
-2.35325515e-01f,+1.00713484e-02f,+1.96160823e-01f,+7.53609911e-02f,-3.13434601e-01f,
+3.49002689e-01f,-2.92631477e-01f,-1.65036142e-01f,+1.69336885e-01f,-4.00168031e-01f,
-2.34470695e-01f,+9.40341949e-02f,+1.36789083e-01f,+1.25390515e-02f,+3.14270884e-01f,
+2.41709292e-01f,-2.57904857e-01f,+8.76739547e-02f,-1.34633437e-01f,-2.08767205e-01f,
+1.19788826e-01f,+3.13125938e-01f,-1.64812356e-01f,+2.50707179e-01f,+7.32338652e-02f,
+2.28189230e-02f,+2.35470966e-01f,+2.65789866e-01f,+9.46636647e-02f,+1.15110315e-01f,
-2.37901419e-01f,-2.38710850e-01f,+2.64841944e-01f,-1.59597218e-01f,+2.76176631e-02f,
+2.31618822e-01f,+3.03947628e-02f,-1.02005892e-01f,+1.96057990e-01f,-1.08680427e-02f,
+2.91758180e-01f,+2.08885550e-01f,+2.61369109e-01f,-2.04612523e-01f,-1.33682132e-01f,
-2.20278203e-01f,-2.52273083e-01f,-2.59774029e-01f,-2.63067603e-01f,-2.34736592e-01f,
-2.25338385e-01f,+2.94427156e-01f,+2.21644759e-01f,+6.86298534e-02f,+9.27630365e-02f,
+1.78376868e-01f,+2.70676732e-01f,-5.55063188e-01f,-4.73618478e-01f,+1.25746757e-01f,
+3.00827861e-01f,-3.40180695e-02f,-2.27446388e-02f,+3.63495052e-02f,-1.23400576e-01f,
+2.32593477e-01f,+3.34945589e-01f,-1.55207232e-01f,-9.77159068e-02f,+9.45212841e-02f,
+3.74277413e-01f,-2.96702534e-01f,-3.47088277e-02f,-2.08607391e-01f,+3.22255135e-01f,
+4.79719758e-01f,-9.56233218e-02f,-4.42821741e-01f,-3.57732624e-01f,-2.99655050e-01f,
-1.10371947e-01f,+4.14405823e-01f,-2.97106415e-01f,+2.60339200e-01f,+2.95864701e-01f,
+4.83008653e-01f,+1.14961989e-01f,-5.95522046e-01f,-1.49648502e-01f,-2.23213971e-01f,
-1.07968964e-01f,-5.61625779e-01f,-7.42533684e-01f,+1.79802150e-01f,+7.10051775e-01f,
-4.56071138e-01f,-4.36085016e-01f,-1.83447301e-01f,-1.29064724e-01f,+1.28770813e-01f,
-1.76153824e-01f,-2.89069951e-01f,-8.24263990e-02f,+4.65049028e-01f,+2.11942971e-01f,
+3.64795849e-02f,+2.59031206e-01f,+1.78786680e-01f,+9.44276899e-02f,+4.32283759e-01f,
+1.94424808e-01f,-2.07057938e-01f,-4.22834456e-01f,-2.46388584e-01f,+9.84501466e-03f,
+5.45678139e-01f,+9.54384059e-02f,+2.27105305e-01f,-2.82615721e-01f,+6.34938240e-01f,
+1.78399801e-01f,-2.14100763e-01f,+8.60938728e-02f,-1.44588217e-01f,-3.06191415e-01f,
+3.55944157e-01f,-1.06845677e-01f,+3.38519663e-01f,-2.34683976e-01f,+9.60147455e-02f,
+2.94716746e-01f,+4.52193558e-01f,+1.96072906e-01f,+1.05014175e-01f,-3.95912856e-01f,
+2.29849577e-01f,-3.44955862e-01f,-3.85926008e-01f,-2.87657171e-01f,+3.10932398e-01f,
-8.51999596e-02f,+1.82618901e-01f,-5.73691487e-01f,-1.39485717e-01f,-2.53531605e-01f,
-1.34151861e-01f,+3.51093501e-01f,-2.75940169e-02f,-3.62327784e-01f,-4.75817174e-01f,
+9.65320021e-02f,-1.49904966e-01f,-5.39942682e-01f,-3.36338103e-01f,-2.87884653e-01f,
-2.77792156e-01f,-2.77351975e-01f,+3.13771665e-01f,-1.60058424e-01f,-8.30527246e-02f,
+1.93741113e-01f,+2.85873026e-01f,+1.33266374e-01f,-3.54067311e-02f,+4.68086302e-02f,
+2.17881367e-01f,-7.49040842e-01f,+1.86433434e-01f,+1.34841233e-01f,-2.23809592e-02f,
-1.68774482e-02f,-1.06147984e-02f,+3.98010939e-01f,-4.88346219e-01f,+3.30347270e-02f,
-3.66201252e-01f,+1.27978101e-01f,+5.40812016e-01f,-2.48964339e-01f,+1.74052924e-01f,
-2.17096239e-01f,+1.82940915e-01f,-8.08107629e-02f,+2.61793643e-01f,-2.96193898e-01f,
-2.48052612e-01f,+2.00434893e-01f,+1.55693784e-01f,-1.42214429e-02f,+2.04083789e-02f,
+9.99885499e-02f,-2.81447202e-01f,+1.28361002e-01f,+2.99329042e-01f,-1.33420452e-01f,
+1.46465778e-01f,+1.11881290e-02f,-6.68194965e-02f,-1.48736075e-01f,+1.76299110e-01f,
+3.81416790e-02f,+7.51546472e-02f,+2.90595651e-01f,+1.78764462e-01f,-2.39475787e-01f,
-1.47096768e-01f,-1.66219031e-03f,-2.23348171e-01f,-1.66524395e-01f,-9.60287526e-02f,
+1.71540216e-01f,+8.98168758e-02f,-4.03115034e-01f,-3.80480811e-02f,-2.75210321e-01f,
-1.89906210e-02f,-3.72584164e-02f,+7.92049915e-02f,+3.68834175e-02f,+2.16155469e-01f,
-1.23097695e-01f,+1.46348253e-01f,+6.62452057e-02f,-8.38544443e-02f,-2.27110714e-01f,
+2.79479742e-01f,-1.66938961e-01f,+2.09027693e-01f,+4.04954076e-01f,-2.01759711e-02f,
+2.62766957e-01f,+2.59352267e-01f,+3.62645924e-01f,-1.02178313e-01f,-2.32792124e-01f,
-1.16140231e-01f,+4.71573025e-02f,+1.47886261e-01f,+2.16853529e-01f,+9.50979069e-02f,
+2.74201959e-01f,+3.14792335e-01f,+8.69591236e-02f,-3.69168878e-01f,-1.89574122e-01f,
+3.07396919e-01f,-4.02101636e-01f,+3.87310296e-01f,+2.93663025e-01f,-9.26328003e-02f,
-2.29864925e-01f,+1.89589933e-01f,-1.90500811e-01f,+2.24417988e-02f,-8.64493772e-02f,
+2.64947683e-01f,-2.63492107e-01f,-1.02659494e-01f,-2.77933598e-01f,-3.14430028e-01f,
+5.17720401e-01f,-6.01311922e-01f,-2.75044888e-01f,+2.72759259e-01f,+5.42813182e-01f,
-8.80372226e-02f,+1.15174524e-01f,-4.51593071e-01f,+1.36856154e-01f,+5.70570827e-01f,
+2.82335162e-01f,-3.39164525e-01f,-2.94177473e-01f,+3.24853629e-01f,+2.07199112e-01f,
-4.65107918e-01f,+1.32540269e-02f,+1.35739893e-01f,+1.22696653e-01f,+1.22901484e-01f,
+2.03191191e-01f,-3.54014695e-01f,-1.62608877e-01f,+5.94711676e-02f,+5.98749146e-02f,
+8.19620267e-02f,+1.18393287e-01f,-1.34281397e-01f,+7.38830268e-01f,+4.31435943e-01f,
+1.47080287e-01f,-2.52552748e-01f,-2.05992945e-02f,+1.46076947e-01f,-4.21977907e-01f,
-1.62381176e-02f,-5.33914603e-02f,-3.56290722e-03f,-1.54095918e-01f,-2.80216157e-01f,
+2.90802181e-01f,-3.77182871e-01f,-3.92364055e-01f,-2.70558178e-01f,+9.08852890e-02f,
-5.75419217e-02f,-1.53498739e-01f,-1.69762939e-01f,+2.34492391e-01f,+2.94695199e-01f,
+2.48135820e-01f,-3.42667639e-01f,+4.14110161e-02f,+3.14811081e-01f,-2.74107158e-01f,
+3.05088103e-01f,+1.05224652e-02f,+2.93901742e-01f,+4.37568501e-02f,-1.18606441e-01f,
+2.13480264e-01f,-1.20820478e-02f,-2.39369273e-01f,+4.91091050e-02f,-2.09155530e-02f,
+1.99175611e-01f,+2.55591683e-02f,-6.16329536e-02f,+1.76585421e-01f,+1.73310563e-01f,
+3.17803025e-01f,-1.35780305e-01f,-2.18500763e-01f,-2.08336756e-01f,+1.46726742e-01f,
-3.41944396e-01f,+4.79596741e-02f,+2.48030633e-01f,+2.63619006e-01f,-1.99685127e-01f,
-8.81559104e-02f,-8.53222981e-02f,+1.24011328e-02f,-1.46145865e-01f,-2.63904274e-01f,
-3.01812381e-01f,-7.81138018e-02f,+6.72105998e-02f,+2.97891051e-01f,-1.17087349e-01f,
-1.93061367e-01f,+6.68073632e-03f,-3.06227863e-01f,-2.91839182e-01f,-6.75642490e-02f,
-2.60741919e-01f,+4.41823989e-01f,-2.20576853e-01f,-2.87415743e-01f,+7.44533085e-04f,
-2.93254614e-01f,-2.81465203e-01f,-1.45043507e-01f,+1.87945515e-01f,+3.58618617e-01f,
-4.74257380e-01f,+1.42387956e-01f,+1.28470317e-01f,-1.96720380e-02f,+4.49206792e-02f,
+2.31295437e-01f,-1.26884719e-02f,+2.11036786e-01f,+5.78219891e-02f,-7.50187561e-02f,
-9.45618600e-02f,-2.51898587e-01f,-7.16532860e-03f,-2.98608780e-01f,-5.32746390e-02f,
-6.65717795e-02f,-2.22709730e-01f,-1.06663920e-01f,-2.26791084e-01f,-3.37695479e-01f,
-1.20780123e-02f,+1.38496011e-01f,-7.57735297e-02f,-9.14829075e-02f,+3.42888422e-02f,
-4.38511819e-02f,-2.08935767e-01f,+1.65583536e-01f,-4.34799701e-01f,+1.83759332e-01f,
-1.62274420e-01f,+1.12410054e-01f,+9.00582969e-02f,+3.76014858e-01f,-9.42131802e-02f,
+5.07328175e-02f,-3.57799858e-01f,+1.23538554e-01f,+9.88665745e-02f,-5.62952995e-01f,
+3.01047731e-02f,+1.89546317e-01f,+5.64820133e-03f,-3.14999759e-01f,+2.73829907e-01f,
+1.18780784e-01f,+2.33141884e-01f,+3.03371161e-01f,-2.70632178e-01f,+2.84990251e-01f,
+7.57336542e-02f,+1.99655108e-02f,+2.01987654e-01f,+2.26061698e-02f,+1.88298300e-01f,
+2.65499294e-01f,-1.24585226e-01f,+1.11095063e-01f,-1.34521544e-01f,+2.36804336e-01f,
+6.04548156e-02f,-2.59794116e-01f,+9.59979817e-02f,-2.10258216e-01f,-1.62002966e-01f,
+2.89003134e-01f,-2.72783786e-01f,-3.33050758e-01f,+4.65000868e-02f,-2.94695705e-01f,
-1.24703288e-01f,+6.86194450e-02f,+5.89563958e-02f,+1.91151768e-01f,+3.68139029e-01f,
+2.34649345e-01f,-3.04703325e-01f,-2.53165215e-01f,-1.90943852e-01f,-2.35269219e-03f,
-2.73483008e-01f,-1.47169575e-01f,-3.26592028e-01f,+4.23604429e-01f,-3.60844344e-01f,
-4.46248055e-02f,-2.00920552e-01f,+1.15385368e-01f,-2.21679434e-02f,-2.14589275e-02f,
+3.58812749e-01f,-1.96401387e-01f,+2.05698654e-01f,-1.49004892e-01f,+5.25538847e-02f,
-2.82227963e-01f,-1.26080543e-01f,+1.07243992e-01f,-1.95866942e-01f,+1.96613654e-01f,
+2.36154988e-01f,+3.18171918e-01f,-4.78177339e-01f,-3.20309222e-01f,-2.43819177e-01f,
+2.65876174e-01f,-4.51879501e-02f,+2.57008046e-01f,-9.38609615e-02f,+4.75870401e-01f,
-8.81810766e-03f,-2.44480465e-02f,-1.32719919e-01f,-1.28563568e-01f,-1.07637823e-01f,
+8.20987225e-02f,-2.98419833e-01f,-5.63602783e-02f,-2.56780297e-01f,-1.79026276e-01f,
+2.87790745e-01f,+3.14878404e-01f,-3.11718047e-01f,-2.71304101e-01f,-1.38488919e-01f,
-2.73812920e-01f,-2.35536322e-02f,+2.87590295e-01f,+2.30780691e-02f,-1.41889257e-02f,
-2.05846161e-01f,-3.10700685e-01f,-7.13880584e-02f,-2.01582178e-01f,+1.34966165e-01f,
-3.56212467e-01f,-2.96667904e-01f,-1.27664730e-01f,-1.54296076e-02f,-3.97199094e-02f,
+1.82673082e-01f,+3.96757185e-01f,+3.09791803e-01f,+4.01643485e-01f,-1.13408327e-01f,
-7.30401874e-02f,-1.24678813e-01f,-1.86943784e-01f,-2.89724804e-02f,+1.77973472e-02f,
+1.21896207e-01f,+1.54995993e-01f,-2.18973219e-01f,-2.62441188e-01f,-1.55275926e-01f,
+2.45824784e-01f,-1.91424683e-01f,+1.31035030e-01f,-3.08555812e-01f,-2.34996364e-01f,
+2.05347762e-02f,-2.52220243e-01f,-4.82880533e-01f,-9.54053923e-02f,+2.88904130e-01f,
+1.92806572e-01f,+2.41994426e-01f,-6.81223497e-02f,+2.07129210e-01f,+3.41482460e-01f,
-1.26954928e-01f,-2.14113489e-01f,+3.30444843e-01f,-1.06704101e-01f,+5.13049625e-02f,
-7.39465579e-02f,-5.32405257e-01f,+5.75689822e-02f,+3.04611683e-01f,-1.63383171e-01f,
-1.81607276e-01f,-1.95105270e-01f,+3.81878108e-01f,-1.77953318e-01f,+7.18084276e-02f,
-6.55334666e-02f,-2.05045462e-01f,+2.72471040e-01f,+3.45351636e-01f,+2.50495315e-01f,
-1.00931287e-01f,+1.54429942e-01f,-3.92645508e-01f,+2.29820922e-01f,+2.30038213e-03f,
-2.64258176e-01f,-5.15501559e-01f,-1.31389633e-01f,+2.59091824e-01f,+1.01265468e-01f,
+1.61079392e-01f,}; 
k2c_tensor dense_2_kernel = {&dense_2_kernel_array[0],2,1156,{34,34, 1, 1, 1}}; 
float dense_2_bias_array[34] = {
+2.02397659e-01f,-2.63711959e-02f,+1.69399753e-01f,-2.06116691e-01f,+4.66003977e-02f,
-1.08439580e-01f,+1.58663899e-01f,-2.07038313e-01f,-1.06047593e-01f,-7.87951704e-03f,
+5.19236028e-01f,-1.23597592e-01f,-6.53417557e-02f,-2.68194843e-02f,-2.22279057e-02f,
-2.79903263e-02f,-2.40702927e-01f,-1.83640033e-01f,+1.01162791e-02f,+6.11012727e-02f,
+2.64471360e-02f,-1.01362787e-01f,-5.22222891e-02f,-3.22034769e-02f,-2.76425816e-02f,
-9.05937627e-02f,-6.10502921e-02f,-1.95604101e-01f,+2.26844281e-01f,-2.68291868e-02f,
-1.51289999e-01f,-8.65854847e-04f,-3.60795334e-02f,-8.66797045e-02f,}; 
k2c_tensor dense_2_bias = {&dense_2_bias_array[0],1,34,{34, 1, 1, 1, 1}}; 
float dense_2_fwork[1190] = {0}; 

 
float dense_3_output_array[32] = {0}; 
k2c_tensor dense_3_output = {&dense_3_output_array[0],1,32,{32, 1, 1, 1, 1}}; 
float dense_3_kernel_array[1088] = {
+1.55913472e-01f,-1.00865923e-01f,-1.46946087e-01f,+2.38061056e-01f,+1.01399407e-01f,
-3.35123353e-02f,+1.92621559e-01f,-4.64870661e-01f,+2.14808092e-01f,-2.64144778e-01f,
-1.36639312e-01f,+2.27452174e-01f,+3.44010182e-02f,-1.50034413e-01f,-2.13264395e-03f,
-4.51992005e-02f,-1.41053081e-01f,+2.45372489e-01f,+3.84285450e-02f,-1.26681000e-01f,
-2.16582686e-01f,+5.40439636e-02f,-8.04699540e-01f,+1.32055730e-01f,+2.02201456e-01f,
-4.94843006e-01f,+3.11091114e-02f,-4.81758505e-01f,+1.61139101e-01f,+1.31401002e-01f,
-2.70346075e-01f,-1.67965904e-01f,-4.36730057e-01f,-9.55174267e-02f,-1.32123381e-01f,
-4.11937207e-01f,-2.59424508e-01f,+9.33849961e-02f,+3.29500407e-01f,-3.28728586e-01f,
+2.58844167e-01f,+1.77851170e-01f,+5.88912377e-03f,-2.14032695e-01f,+3.38345170e-01f,
+2.43250504e-01f,-1.36208981e-01f,-1.36591285e-01f,-2.16073811e-01f,-1.12307549e-01f,
+1.17740296e-02f,+1.70954853e-01f,+1.01720862e-01f,+2.56418616e-01f,-9.48426276e-02f,
+1.48546293e-01f,+1.23689756e-01f,-2.65254110e-01f,-1.88356508e-02f,-3.34339350e-01f,
+1.43029653e-02f,-3.46350402e-01f,+1.95531413e-01f,+1.58260524e-01f,-2.90083498e-01f,
-3.44909012e-01f,+1.40624523e-01f,+2.22782522e-01f,-3.60417545e-01f,+3.86652872e-02f,
+5.23402989e-01f,-1.36889338e-01f,-3.54857206e-01f,+2.29004905e-01f,-2.13066995e-01f,
-3.15386578e-02f,+4.51153159e-01f,-1.26092926e-01f,-5.16270399e-01f,+3.06175858e-01f,
+1.62668988e-01f,+3.23549777e-01f,+1.34157330e-01f,+3.66192013e-01f,+1.15045771e-01f,
+3.70406032e-01f,+5.68568520e-02f,+4.00527894e-01f,+6.09159768e-01f,-7.26309046e-03f,
-2.82744944e-01f,-4.35842425e-01f,-3.77123773e-01f,-1.35913864e-01f,+4.99090441e-02f,
-1.88636288e-01f,-1.06817275e-01f,+3.57858986e-01f,-4.36426908e-01f,-7.22350925e-02f,
-1.89700320e-01f,+4.00553465e-01f,-1.04407191e-01f,+9.28683802e-02f,-4.09416944e-01f,
-9.29944068e-02f,+6.35755479e-01f,+6.81106523e-02f,+1.13625929e-01f,+1.69599652e-01f,
+2.46195048e-01f,-2.76003063e-01f,-1.40456557e-02f,-2.77818620e-01f,-1.21918857e-01f,
+1.83447376e-02f,+9.07406285e-02f,-3.66317600e-01f,-6.14505336e-02f,+8.50268602e-02f,
-3.49789441e-01f,+1.95087433e-01f,-2.24555522e-01f,+4.63700205e-01f,-5.31111360e-01f,
+3.11236233e-01f,+4.71147805e-01f,+2.45388895e-01f,-1.82464540e-01f,+3.88076663e-01f,
-2.11467877e-01f,+3.99347842e-01f,+5.38474798e-01f,+5.70771918e-02f,-2.70538688e-01f,
+2.33107075e-01f,-2.66651005e-01f,-7.55578950e-02f,-3.91111523e-01f,-2.29155868e-01f,
-4.52221721e-01f,+1.65364414e-01f,+4.64292653e-02f,-1.45966843e-01f,-2.80872047e-01f,
+2.58328617e-01f,-3.12793583e-01f,-3.92432153e-01f,-4.45479006e-01f,-1.09210908e-01f,
+1.87741235e-01f,+9.94684082e-03f,+2.37588182e-01f,-2.49231696e-01f,-2.34859347e-01f,
+2.81244189e-01f,-2.32760683e-01f,+2.35048532e-01f,+1.22274660e-01f,+1.35603517e-01f,
-2.29089737e-01f,-1.70192812e-02f,-1.85271308e-01f,+3.66271175e-02f,-1.89812899e-01f,
+3.53556752e-01f,+6.88711777e-02f,-2.12533668e-01f,+8.51535276e-02f,-1.98026553e-01f,
+4.41803485e-01f,-2.78767869e-02f,+2.90466622e-02f,-8.08794126e-02f,-2.15834856e-01f,
+2.03098193e-01f,+6.84959888e-02f,+1.00439571e-01f,+1.98894083e-01f,+1.29079938e-01f,
+3.33957523e-01f,+8.44394788e-02f,+1.95529312e-02f,-3.73395622e-01f,+3.01815197e-02f,
-2.86672590e-03f,+2.08499715e-01f,-1.08413048e-01f,-2.79961020e-01f,-1.20621137e-01f,
+9.22974423e-02f,-2.62488812e-01f,-2.79187351e-01f,-1.01494022e-01f,+2.07650989e-01f,
+1.75420254e-01f,-1.68831810e-01f,-2.80533254e-01f,-4.75614779e-02f,-1.23168550e-01f,
+2.48597726e-01f,-3.58955026e-01f,-4.82795119e-01f,-2.77191848e-01f,+1.82619095e-01f,
-2.99556047e-01f,-3.72148544e-01f,+1.21563479e-01f,+1.71719231e-02f,-1.16385266e-01f,
-1.96358249e-01f,+1.57681376e-01f,+1.05726592e-01f,+4.02476043e-01f,-1.04972385e-01f,
-1.47636428e-01f,+5.32819033e-01f,-5.31740010e-01f,-2.37793475e-01f,-3.75336826e-01f,
-3.12290281e-01f,+7.99605548e-02f,+4.18360919e-01f,-2.70260006e-01f,-1.45462349e-01f,
-3.42908978e-01f,-1.71065927e-01f,-1.04277462e-01f,-1.39717147e-01f,+1.31778583e-01f,
+4.41379458e-01f,+1.54713362e-01f,+1.91971168e-01f,+7.04805404e-02f,+3.13199043e-01f,
+3.50725055e-01f,+4.30107743e-01f,-2.84389794e-01f,-2.28284318e-02f,-4.20886517e-01f,
+1.69021934e-01f,-3.47132891e-01f,+3.63245383e-02f,+5.31275153e-01f,+4.47524667e-01f,
+2.06446201e-01f,-1.88548654e-01f,-2.58474182e-02f,-2.51766145e-01f,-2.55955040e-01f,
+1.09064050e-01f,+5.41108906e-01f,-2.38959849e-01f,+2.37762213e-01f,+6.14557028e-01f,
-3.76096457e-01f,-1.30906701e-01f,+5.09996712e-01f,-3.00383002e-01f,+1.84019998e-01f,
+2.73725361e-01f,+8.51471797e-02f,-2.69693732e-01f,+4.69446808e-01f,-6.03775382e-02f,
-1.88775241e-01f,+4.40763980e-01f,+3.02432954e-01f,-3.52599949e-01f,-2.52719373e-01f,
+1.88962862e-01f,-1.40337899e-01f,-2.81275809e-02f,+3.48717719e-01f,-6.72155470e-02f,
-5.07522702e-01f,-3.68987143e-01f,-5.17518342e-01f,+1.44070357e-01f,-5.54423667e-02f,
-4.82563972e-02f,+1.68910101e-01f,-3.73516202e-01f,-1.69006273e-01f,+2.61414051e-01f,
-2.52309501e-01f,-6.39432967e-02f,+1.11508623e-01f,+1.62021779e-02f,+2.06993848e-01f,
+8.12919438e-02f,-1.51492551e-01f,+4.92797464e-01f,+9.43154022e-02f,-4.89322126e-01f,
-3.31041887e-02f,+7.72302644e-03f,-3.19044113e-01f,+3.73726338e-01f,+1.77709423e-02f,
+8.26276913e-02f,-4.76784557e-02f,+2.11884499e-01f,-1.16721220e-01f,-4.91531007e-02f,
+5.40418744e-01f,+1.45620078e-01f,-3.88217807e-01f,-2.69426018e-01f,-1.17723271e-01f,
-1.71517879e-01f,-2.37866119e-01f,+1.76894352e-01f,-3.46141309e-02f,-1.48177100e-02f,
+2.49715269e-01f,+2.04586774e-01f,-6.51371554e-02f,+1.96891606e-01f,+1.30475149e-01f,
+1.36092156e-01f,-4.37067673e-02f,+1.98671252e-01f,+1.39685094e-01f,+3.83391947e-01f,
-2.09152371e-01f,+3.04124981e-01f,-2.15645462e-01f,-2.64305234e-01f,-2.76202619e-01f,
+7.41101876e-02f,+1.44254655e-01f,-3.28335762e-01f,+5.80431474e-03f,+1.93561479e-01f,
+1.30285770e-01f,-5.56266643e-02f,+5.09043276e-01f,-1.23234980e-01f,-7.34261647e-02f,
-2.49730244e-01f,+3.93941134e-01f,-5.79174638e-01f,+1.96449235e-02f,+4.60220426e-01f,
-6.44794106e-01f,+1.67575628e-01f,-8.12951922e-01f,-1.78963259e-01f,-3.18494052e-01f,
-4.15548414e-01f,+2.62248307e-01f,+5.44370748e-02f,+2.14913771e-01f,+1.81881353e-01f,
-3.47875617e-02f,+8.42505321e-02f,-4.07708958e-02f,+1.99558809e-01f,+1.04335584e-02f,
-3.29099238e-01f,+6.44885823e-02f,+1.52670175e-01f,+2.47242674e-01f,+1.25384942e-01f,
+2.65485141e-02f,+6.02968596e-03f,-1.70668289e-01f,-3.52884561e-01f,-6.66969046e-02f,
-2.09539473e-01f,-9.41660721e-03f,+1.59125015e-01f,+1.79138526e-01f,-1.41855732e-01f,
-3.01830739e-01f,-9.67518147e-03f,+2.77117282e-01f,+1.96196154e-01f,+1.68953035e-02f,
+3.15413386e-01f,-1.32096112e-01f,+2.64091074e-01f,-2.47804716e-01f,-6.17717057e-02f,
-1.33851573e-01f,-3.00804228e-01f,-2.03187540e-01f,-1.74184397e-01f,+2.80394673e-01f,
-2.83480063e-02f,+2.01927751e-01f,-1.03153765e-01f,+2.08247349e-01f,+9.61797684e-02f,
+2.67966151e-01f,+2.36534551e-02f,+2.90049046e-01f,+1.68769032e-01f,+1.98479518e-01f,
-2.26641387e-01f,+1.91389173e-01f,+2.36107886e-01f,+1.70413673e-01f,+1.41212037e-02f,
+3.73248234e-02f,-2.26633921e-01f,-8.95780697e-02f,+1.35525018e-01f,+1.91624761e-02f,
+2.24400923e-01f,+1.25792563e-01f,+1.59878761e-01f,+2.92165399e-01f,+2.47040182e-01f,
+2.24572003e-01f,-1.02631867e-01f,+3.43457580e-01f,-3.32612813e-01f,+3.61762583e-01f,
+5.07645965e-01f,+2.39825189e-01f,-6.67321011e-02f,+2.47015223e-01f,-1.78089589e-01f,
-1.23577043e-01f,-1.55620858e-01f,+1.88467562e-01f,-4.96186972e-01f,+1.98724642e-01f,
+5.33112474e-02f,+3.48985314e-01f,+8.01565945e-02f,+5.81783801e-02f,+7.33807683e-02f,
-3.04706484e-01f,-2.53906786e-01f,-1.64493218e-01f,+2.76723176e-01f,-2.11089198e-02f,
+6.87880889e-02f,+6.48369789e-02f,+1.49498567e-01f,+2.48898223e-01f,+7.77595267e-02f,
+8.94327760e-02f,-4.32940185e-01f,+1.93813518e-01f,-2.85655767e-01f,+2.32506961e-01f,
+4.17923518e-02f,+2.76038647e-01f,+3.21796060e-01f,+7.30206296e-02f,-5.98639071e-01f,
+5.58379829e-01f,+1.36028558e-01f,+1.66411906e-01f,-1.36117503e-01f,+1.58143848e-01f,
-3.69496077e-01f,-2.94448882e-01f,+9.18387435e-03f,-1.08597763e-01f,+1.53150842e-01f,
-7.18198940e-02f,+1.51147664e-01f,-4.89221871e-01f,-4.07451749e-01f,-4.67082113e-01f,
+3.45715940e-01f,+5.07208779e-02f,-4.75217290e-02f,+3.10981721e-02f,+2.08492309e-01f,
-1.47343185e-02f,-2.68932015e-01f,+1.81004509e-01f,-1.13110714e-01f,+1.55325057e-02f,
-3.18880200e-01f,+9.85070243e-02f,+3.58779639e-01f,-4.21209723e-01f,-3.80510002e-01f,
+2.06460968e-01f,+4.15798962e-01f,-1.52545869e-01f,-4.24302846e-01f,-1.72255024e-01f,
+2.99250800e-02f,+1.37786865e-01f,+2.70379543e-01f,-2.77757883e-01f,+2.25246385e-01f,
-5.29222429e-01f,-2.22526342e-01f,+9.97502729e-02f,+4.78827655e-02f,+4.86318380e-01f,
+2.97907352e-01f,-4.40517478e-02f,-1.47243254e-02f,+1.87500808e-02f,-4.13007230e-01f,
+1.92483336e-01f,-9.79055911e-02f,+1.22068804e-02f,+1.96817204e-01f,+2.58236259e-01f,
+4.26272213e-01f,+1.92578554e-01f,+3.02046277e-02f,+1.38422951e-01f,+1.03396438e-01f,
+7.12187067e-02f,+3.71939212e-01f,-5.96254170e-02f,-1.02582730e-01f,+3.14491510e-01f,
-2.27210939e-01f,-2.76967049e-01f,-8.97807181e-02f,-5.68699129e-02f,+3.04730892e-01f,
-8.90870169e-02f,+1.70501828e-01f,-3.10760178e-02f,-7.12604523e-02f,-2.24344023e-02f,
-1.28695995e-01f,+2.37047955e-01f,+2.49205559e-01f,+2.99752653e-01f,+2.98576891e-01f,
-2.92250901e-01f,-8.98967385e-02f,-2.29580760e-01f,-1.28345087e-01f,-1.68425679e-01f,
+2.30550677e-01f,+9.65110660e-02f,+1.34139925e-01f,+1.08150698e-01f,+1.52415648e-01f,
+3.22732747e-01f,-1.04400240e-01f,+1.47007599e-01f,-3.43584269e-03f,+3.58569846e-02f,
-3.79715621e-01f,+2.70700842e-01f,-4.26428169e-01f,+2.05640495e-02f,+4.58307751e-02f,
-4.06041704e-02f,-9.98336315e-01f,+1.54223889e-01f,+4.22523707e-01f,-1.31473541e-02f,
-1.69500709e-01f,+4.11239535e-01f,-2.93071568e-01f,-4.19933885e-01f,-8.04827154e-01f,
+7.74447545e-02f,+1.84150115e-01f,-2.07721591e-02f,+2.74134912e-02f,+5.00778496e-01f,
-2.73302823e-01f,+4.60808307e-01f,+2.21013963e-01f,-1.57186300e-01f,-4.67034757e-01f,
-2.80389428e-01f,-3.50957781e-01f,+4.19471860e-01f,-2.00052798e-01f,+3.22817922e-01f,
+3.51316445e-02f,+3.12433004e-01f,-4.59524214e-01f,+4.00160968e-01f,+1.49606287e-01f,
-2.73592621e-01f,-1.43872723e-01f,+2.03116953e-01f,-2.51148254e-01f,-9.29402784e-02f,
-2.14723840e-01f,+3.01821023e-01f,-4.62712981e-02f,+1.55463070e-01f,-7.55748004e-02f,
-2.62866288e-01f,-3.39706123e-01f,-3.78652811e-01f,-5.36358245e-02f,-1.09421946e-02f,
+1.67108536e-01f,-5.43110073e-01f,+3.37019116e-01f,-2.74254352e-01f,-1.28278494e-01f,
-2.33357176e-01f,+6.22185273e-03f,-2.95367420e-01f,-2.69443333e-01f,+2.94448078e-01f,
+1.89435408e-01f,+2.81255513e-01f,+2.05302387e-01f,+4.97108139e-03f,-4.00879420e-02f,
+4.50007379e-01f,+2.83283681e-01f,-1.92862689e-01f,+1.89410318e-02f,-2.76046872e-01f,
-2.52658606e-01f,-1.68167412e-01f,-1.24970093e-01f,-1.82265520e-01f,-1.93281174e-01f,
-1.40018851e-01f,+2.82190382e-01f,-1.21757954e-01f,-4.98909950e-01f,-3.23049814e-01f,
+5.95712960e-02f,+1.25569791e-01f,+2.36697830e-02f,-2.92579800e-01f,-5.76168783e-02f,
-2.22397149e-01f,+1.38837963e-01f,-5.87164760e-02f,-1.20327704e-01f,-1.63644433e-01f,
-4.95409667e-02f,+1.90544546e-01f,-3.25012445e-01f,-1.56635299e-01f,+3.21034163e-01f,
+1.97362483e-01f,+3.52065742e-01f,+2.21880212e-01f,+2.77088583e-02f,-1.15819126e-01f,
-6.14992678e-02f,-1.50483057e-01f,-1.58802077e-01f,+1.02361083e-01f,-1.48498267e-01f,
-8.23958367e-02f,-2.00457871e-01f,-2.02498451e-01f,-1.35469273e-01f,-1.61664654e-02f,
-1.09556995e-01f,+7.54413456e-02f,+1.63351431e-01f,+3.84482086e-01f,+3.62104237e-01f,
-1.57568082e-01f,+1.01429306e-01f,-1.07922666e-01f,+2.47408390e-01f,+1.96690589e-01f,
-1.82768673e-01f,-1.65577739e-01f,-8.72965083e-02f,-4.77471352e-02f,+4.73344415e-01f,
+1.81852862e-01f,-5.62609471e-02f,+6.04999624e-02f,+6.90501183e-02f,+2.42102996e-01f,
+3.20279896e-02f,-2.50270963e-01f,-3.08205485e-01f,-2.44637877e-01f,+3.57300311e-01f,
+9.06676799e-02f,+8.70885774e-02f,-2.23175973e-01f,-1.55641377e-01f,-8.23369399e-02f,
+1.80361588e-02f,+4.35555696e-01f,+1.61957681e-01f,+2.17057988e-02f,-1.92312315e-01f,
+1.07257152e-02f,+2.39777993e-02f,-3.61472934e-01f,-4.38656420e-01f,-6.48869351e-02f,
-2.41614804e-01f,-1.61412299e-01f,+2.52272904e-01f,-2.17057571e-01f,-1.80603817e-01f,
-2.05648944e-01f,+1.80332944e-01f,-2.54011124e-01f,+1.72331631e-01f,-5.89397363e-02f,
-1.69200003e-01f,-2.35939905e-01f,+8.68587196e-02f,-2.55870104e-01f,+1.55917974e-02f,
+2.00958207e-01f,-2.21071139e-01f,-4.29858491e-02f,-1.08982846e-01f,-1.85397327e-01f,
+3.55340242e-02f,+1.13151081e-01f,-2.74537891e-01f,+4.41128075e-01f,+2.71073669e-01f,
+2.27955207e-01f,-3.04456443e-01f,+2.20218211e-01f,+1.09704388e-02f,+9.77964401e-02f,
+6.04451932e-02f,+9.19229463e-02f,+4.73266572e-01f,-1.47471830e-01f,+1.24150626e-01f,
-2.82983154e-01f,-2.91122198e-02f,+2.10169420e-01f,-1.74006522e-01f,+1.62925795e-01f,
+2.56800093e-02f,-1.37138903e-01f,-2.01814085e-01f,-3.09304856e-02f,+1.57776266e-01f,
-1.86384127e-01f,-2.61506975e-01f,+1.57076225e-01f,+9.04533863e-02f,-1.37197271e-01f,
+2.13984489e-01f,-1.58560142e-01f,-1.61358267e-01f,+4.15810756e-02f,-1.52067661e-01f,
+1.00080453e-01f,+2.36992180e-01f,+2.33532071e-01f,+1.37772173e-01f,+1.69533491e-01f,
-6.21369574e-03f,+7.93610215e-02f,-1.89520717e-01f,+2.99017608e-01f,-1.15864694e-01f,
-1.35893628e-01f,+1.85170501e-01f,-6.06746525e-02f,-1.44868314e-01f,+4.29481268e-02f,
-1.61020935e-01f,-1.37306213e-01f,-5.81785403e-02f,-2.27921307e-01f,+2.98816144e-01f,
+7.95264915e-02f,-9.83850658e-02f,-8.85382295e-03f,-1.95981458e-01f,-1.19390599e-01f,
+9.98084992e-02f,+1.12082571e-01f,+2.01075524e-01f,-3.54607739e-02f,-2.41097778e-01f,
+1.23534083e-01f,+1.28952235e-01f,+3.20734531e-01f,+4.91826609e-02f,-2.04618692e-01f,
-1.30668998e-01f,+2.21544981e-01f,+1.89403996e-01f,+5.56118116e-02f,-2.84346163e-01f,
-4.02204581e-02f,+3.12398933e-02f,+2.59334087e-01f,-2.24046260e-01f,-1.13745764e-01f,
+9.89651084e-02f,-1.58116281e-01f,+1.14478417e-01f,+4.32040632e-01f,+4.18482304e-01f,
-2.04405904e-01f,-1.57498181e-01f,+2.36018553e-01f,+3.24297398e-01f,-2.02928305e-01f,
+1.55197576e-01f,-6.76576048e-02f,-1.19173177e-01f,+2.91340146e-02f,+8.63102525e-02f,
+2.04379022e-01f,-1.12392902e-01f,-1.00277491e-01f,-1.25632912e-01f,-5.17520428e-01f,
-1.07351050e-01f,-3.81782085e-01f,+2.35614717e-01f,-3.38401198e-01f,-7.13168085e-02f,
-8.53398591e-02f,-2.84366637e-01f,+2.67963976e-01f,-1.73529729e-01f,+1.10083722e-01f,
-7.56944492e-02f,+2.69680381e-01f,-5.13154566e-02f,-8.70431680e-03f,+4.44897935e-02f,
+1.21198548e-03f,+1.08890690e-01f,+9.69184637e-02f,+1.66828170e-01f,+6.88662454e-02f,
+2.12806046e-01f,+1.22446656e-01f,-1.93517536e-01f,+1.37688294e-01f,-2.58842289e-01f,
+2.71703124e-01f,+5.59548587e-02f,+9.82793197e-02f,-4.07532752e-02f,-1.17827497e-01f,
-1.49934590e-02f,+1.11168049e-01f,-6.48533627e-02f,+4.64061648e-02f,-2.26386398e-01f,
-2.97839344e-01f,+1.12262696e-01f,-2.24056154e-01f,+2.72965521e-01f,+1.78095654e-01f,
+7.30009973e-02f,+2.64672756e-01f,+1.50703350e-02f,-1.99229404e-01f,-2.11245015e-01f,
+3.06190342e-01f,-4.06106412e-02f,-2.03041509e-01f,+2.94213861e-01f,-3.12767595e-01f,
+6.27502874e-02f,+1.79586157e-01f,-1.86720550e-01f,-1.06622003e-01f,-8.53237808e-02f,
+2.50323713e-02f,-1.24915175e-01f,+1.64898187e-01f,+2.62104779e-01f,-4.93589014e-01f,
+8.22945759e-02f,+2.78392941e-01f,-2.16550320e-01f,+3.95035177e-01f,+6.37617931e-02f,
-3.99746709e-02f,+1.38665512e-01f,-1.80255681e-01f,-2.38323078e-01f,+6.13050535e-02f,
+3.50607112e-02f,+1.46549955e-01f,+5.28264642e-01f,-2.00266652e-02f,+1.32581010e-01f,
-3.83025318e-01f,-1.68742999e-01f,-1.58372950e-02f,+2.03756467e-01f,-1.34712696e-01f,
+3.31131697e-01f,+5.35085909e-02f,-2.69006914e-03f,+7.94819742e-02f,-5.36628999e-02f,
+1.04850076e-01f,-2.53780276e-01f,-1.38064951e-01f,-2.04832673e-01f,-2.97446817e-01f,
-7.65797263e-03f,+3.35043848e-01f,+7.37664849e-02f,+4.80716854e-01f,-2.84518600e-01f,
-3.53242218e-01f,-1.14926733e-01f,-9.10952613e-02f,-3.14688057e-01f,-1.22738294e-02f,
+8.69101882e-01f,+1.37843177e-01f,+2.33931690e-02f,-4.35806751e-01f,-3.89755368e-02f,
-2.92917103e-01f,-1.03283122e-01f,+8.19369778e-02f,-9.29253250e-02f,+1.81964755e-01f,
-1.69800058e-01f,+5.23152888e-01f,+3.86213243e-01f,+1.01113863e-01f,-1.53688774e-01f,
+4.93798763e-01f,+2.58129686e-01f,+2.57821381e-01f,+2.61973083e-01f,+1.54666707e-01f,
-6.60048246e-01f,-1.83711559e-01f,+4.30919267e-02f,+1.99481741e-01f,-2.54396319e-01f,
+2.31338784e-01f,+4.74043787e-02f,-5.42469978e-01f,-4.91726816e-01f,-3.46717328e-01f,
+3.75879675e-01f,-3.32540929e-01f,-2.19342843e-01f,-1.99383110e-01f,-2.10984498e-01f,
+8.92577991e-02f,+4.69376780e-02f,-2.55122837e-02f,-2.54890114e-01f,+4.87191454e-02f,
+1.85380027e-01f,-1.23765521e-01f,-1.62362680e-02f,+5.52252904e-02f,-1.17034145e-01f,
-7.95055851e-02f,-2.15179503e-01f,+1.75829992e-01f,+6.51536211e-02f,-2.81469464e-01f,
-1.64956048e-01f,-5.37314976e-04f,-6.65175989e-02f,+1.72747254e-01f,+3.01405899e-02f,
+9.79925692e-02f,+2.05531269e-01f,-4.03819323e-01f,-2.19482332e-01f,-1.30273551e-01f,
+6.98897764e-02f,-2.35190094e-01f,-7.08098859e-02f,+2.40504950e-01f,+6.25110641e-02f,
-1.03389202e-02f,+1.07514046e-01f,+2.39489656e-02f,-7.36140311e-02f,+3.41098070e-01f,
-7.70909116e-02f,-1.59079596e-01f,-2.39797950e-01f,-4.97879744e-01f,+3.66684765e-01f,
-1.47777185e-01f,-6.09079838e-01f,+1.13853209e-01f,+1.02829672e-01f,-4.08512414e-01f,
+1.41535282e-01f,+1.52694538e-01f,+3.54379803e-01f,-1.86904460e-01f,-1.17009975e-01f,
-6.78763092e-02f,-4.47706915e-02f,-2.14057520e-01f,-3.18513185e-01f,+2.64581919e-01f,
-8.16417634e-02f,+2.39145622e-01f,-1.05262108e-01f,+1.56020418e-01f,-2.96442449e-01f,
-1.32002637e-01f,-1.60706192e-01f,+1.74452916e-01f,-2.64579952e-02f,+9.40228343e-01f,
-2.38439441e-02f,+2.68973619e-01f,-2.31518261e-02f,+2.64292061e-01f,-1.67162433e-01f,
-8.28418359e-02f,-6.72763735e-02f,+8.60888232e-03f,+1.51972890e-01f,+2.48005807e-01f,
-4.91914153e-03f,+2.76765764e-01f,+4.62898351e-02f,-1.32799730e-01f,+2.45901302e-01f,
+1.68604791e-01f,+8.90599638e-02f,-1.68011174e-01f,+9.15443152e-02f,+2.71200836e-01f,
-6.51928186e-02f,+1.30306572e-01f,+2.71495521e-01f,+1.22397862e-01f,+1.00561693e-01f,
+2.43041620e-01f,-9.79043618e-02f,-2.23008613e-03f,+2.26089522e-01f,-6.86961859e-02f,
+1.85284317e-01f,+9.73485177e-04f,-2.37603739e-01f,+2.40128458e-01f,+1.61284208e-02f,
-1.07549466e-01f,+1.52072296e-01f,+8.49758089e-03f,-1.87415689e-01f,+1.41955435e-01f,
+2.77038664e-01f,+2.86563814e-01f,-1.87002987e-01f,+1.66320071e-01f,+3.07219654e-01f,
-5.13559915e-02f,+1.15807556e-01f,-3.41359407e-01f,+2.19162747e-01f,-3.19886804e-01f,
+2.55410701e-01f,+7.74100982e-03f,-2.27055445e-01f,-2.17818707e-01f,-2.51428187e-02f,
-1.54865026e-01f,-1.20478742e-01f,+9.18749124e-02f,+3.86758238e-01f,-5.23838043e-01f,
-9.40688491e-01f,+3.71631473e-01f,-1.49144202e-01f,+7.13884383e-02f,+4.08690870e-01f,
-3.47502887e-01f,+3.24722499e-01f,-1.46980807e-01f,}; 
k2c_tensor dense_3_kernel = {&dense_3_kernel_array[0],2,1088,{34,32, 1, 1, 1}}; 
float dense_3_bias_array[32] = {
-9.16020349e-02f,-7.02412128e-02f,+2.32113734e-01f,-1.80258844e-02f,+2.13619739e-01f,
-1.25259638e-01f,+1.27561733e-01f,-1.48504063e-01f,+7.33858794e-02f,-5.50244078e-02f,
-1.54856130e-01f,-9.11374465e-02f,-6.21987097e-02f,-3.60590108e-02f,-1.85819566e-01f,
+2.12619215e-01f,-7.60249421e-02f,+2.89021462e-01f,-1.85254589e-02f,+7.17313588e-03f,
-1.10700391e-01f,+3.66172165e-01f,-1.89953074e-01f,+2.44300947e-01f,+6.67165399e-01f,
-1.77916050e-01f,-1.54895574e-01f,-3.42703432e-01f,-1.27542755e-02f,-5.94821833e-02f,
-1.39623821e-01f,-1.30182222e-01f,}; 
k2c_tensor dense_3_bias = {&dense_3_bias_array[0],1,32,{32, 1, 1, 1, 1}}; 
float dense_3_fwork[1122] = {0}; 

 
float dense_4_output_array[32] = {0}; 
k2c_tensor dense_4_output = {&dense_4_output_array[0],1,32,{32, 1, 1, 1, 1}}; 
float dense_4_kernel_array[1024] = {
+2.82209426e-01f,-2.23551363e-01f,+2.76750624e-01f,-1.78294495e-01f,-2.49824747e-01f,
+2.13852018e-01f,+9.50196385e-03f,-9.57661122e-02f,+2.92136997e-01f,+8.93499851e-02f,
+3.37435007e-02f,-1.47508934e-01f,+1.72791779e-01f,-1.81425259e-01f,+8.67750719e-02f,
-5.02474718e-02f,+1.73151597e-01f,+2.45584533e-01f,+1.89620689e-01f,-1.24793872e-01f,
+8.77309516e-02f,-2.41574962e-02f,+3.82029653e-01f,-5.94060915e-03f,-4.36446443e-02f,
+2.70899594e-01f,-2.95015514e-01f,+1.69999808e-01f,+1.09020561e-01f,-1.97171703e-01f,
+2.78160602e-01f,-1.80239186e-01f,-1.96940407e-01f,-2.10185841e-01f,+4.61577177e-02f,
-3.21899960e-03f,-2.31434703e-01f,+1.27805397e-01f,+1.29299045e-01f,+2.13794827e-01f,
-1.03252465e-02f,-6.60924017e-02f,+4.60235953e-01f,-5.80981746e-02f,+1.65806249e-01f,
+1.91242844e-01f,-6.93457797e-02f,+3.54096621e-01f,-5.14198989e-02f,+1.17380984e-01f,
+1.98571801e-01f,+4.10184890e-01f,+1.60896078e-01f,+3.61005574e-01f,-7.51130655e-02f,
-3.32538038e-01f,-2.45442078e-01f,+2.35761434e-01f,-4.73338962e-02f,-1.83519423e-01f,
+3.67962539e-01f,-5.22676185e-02f,+4.18764442e-01f,-4.41645533e-02f,-3.21792185e-01f,
-3.01984221e-01f,+1.32572100e-01f,-2.39400133e-01f,-3.23049761e-02f,+2.77284950e-01f,
+1.12197727e-01f,+3.40250731e-02f,+2.69866467e-01f,+2.47828081e-01f,+1.80100858e-01f,
+2.87786067e-01f,-5.08525908e-01f,-2.68306196e-01f,-2.37131059e-01f,+2.45468467e-02f,
+2.24368364e-01f,+3.65266204e-01f,+6.89005032e-02f,-1.17044285e-01f,+4.13720667e-01f,
+1.11228891e-01f,+2.12294057e-01f,-1.02586851e-01f,+3.40006053e-01f,+1.08317330e-01f,
+1.11095510e-01f,-1.08795978e-01f,-1.67057067e-01f,-1.33833736e-01f,+5.40392473e-02f,
+1.91073522e-01f,+1.71265006e-01f,-2.50906944e-01f,+4.58368510e-02f,-3.27086329e-01f,
-2.63071567e-01f,+2.27939531e-01f,-2.15390638e-01f,+2.30096534e-01f,+3.24171245e-01f,
-9.67142731e-02f,+2.81892002e-01f,-1.99897975e-01f,-2.37393707e-01f,+2.38935612e-02f,
+2.27560213e-05f,-1.64122000e-01f,+6.03596829e-02f,+3.73810977e-01f,-1.51697099e-01f,
+1.91191778e-01f,+8.01437050e-02f,-5.12780808e-02f,+3.20515454e-01f,+5.08215725e-02f,
-1.38125136e-01f,+4.21369344e-01f,+1.51873939e-02f,-7.34746596e-03f,+1.09845087e-01f,
-1.61331788e-01f,+1.92030907e-01f,-1.24155559e-01f,+3.50841790e-01f,+2.49588892e-01f,
+7.32051581e-02f,+2.50736743e-01f,-2.23645091e-01f,+3.79007220e-01f,-2.45872647e-01f,
-1.20289554e-03f,+3.03811133e-01f,-2.41296694e-01f,+1.92050949e-01f,-4.55673873e-01f,
-3.22756469e-01f,-9.08731297e-03f,-2.21998781e-01f,+5.85865378e-01f,+5.18316746e-01f,
+6.26359582e-01f,+8.22588801e-03f,+3.57295543e-01f,+4.38467264e-02f,+3.75746459e-01f,
+3.29400212e-01f,+8.91204625e-02f,-4.53459382e-01f,+2.32150406e-01f,-1.82664499e-01f,
+2.81468183e-01f,+2.31298327e-01f,+1.18413784e-01f,+7.80178085e-02f,-1.67322174e-01f,
+3.17878157e-01f,+7.16587305e-02f,+1.25316530e-01f,+1.80481613e-01f,-2.02078849e-01f,
-2.18044713e-01f,+1.29888386e-01f,-5.43542683e-01f,+1.54956222e-01f,+2.12903380e-01f,
+1.04560390e-01f,-1.21642619e-01f,+2.82621533e-01f,+1.29258052e-01f,+1.91580534e-01f,
+2.17037588e-01f,-3.13467443e-01f,-2.61132687e-01f,+1.84627637e-01f,-1.04763903e-01f,
+2.93904722e-01f,+2.17331916e-01f,-3.35146636e-01f,-1.88948154e-01f,-1.91588886e-02f,
+2.50500083e-01f,+1.52843772e-03f,+1.25956520e-01f,+9.20675043e-03f,+1.08037874e-01f,
+6.68421909e-02f,-1.38063729e-01f,+2.28977315e-02f,+1.22239232e-01f,-3.78007412e-01f,
+1.17247485e-01f,+9.55358595e-02f,-5.74141443e-02f,-1.80407196e-01f,-1.30176023e-01f,
-7.73217976e-02f,+1.35425091e-01f,-4.04835731e-01f,+6.35941625e-02f,-1.83361933e-01f,
+2.41909593e-01f,-2.51291335e-01f,-3.39187175e-01f,+3.50795180e-01f,+3.69178653e-01f,
+1.88597381e-01f,-1.99171886e-01f,-6.46710172e-02f,-2.12318167e-01f,+1.70851722e-01f,
+2.40015119e-01f,+5.67339957e-01f,-1.77240849e-01f,+3.75012964e-01f,-9.80317742e-02f,
-3.27754200e-01f,-2.27626473e-01f,-2.99994051e-01f,+1.71427861e-01f,-4.45937514e-02f,
+5.08621261e-02f,+3.69022608e-01f,-1.34814614e-02f,+1.12425715e-01f,+3.18864524e-01f,
+2.04433352e-01f,+3.96195613e-02f,+3.78761947e-01f,-2.87782736e-02f,+4.88254242e-02f,
-4.02113467e-01f,-2.26613283e-01f,-2.49035105e-01f,+6.38453513e-02f,+4.45188433e-01f,
-2.70057619e-01f,-1.64454758e-01f,-4.15464640e-01f,+1.75177112e-01f,-3.20359260e-01f,
+2.72555918e-01f,+2.42042094e-01f,-2.66273171e-01f,-5.02794623e-01f,+2.81248987e-01f,
-4.55867976e-01f,+3.29072297e-01f,+3.53194922e-02f,+1.62608892e-01f,+1.01509668e-01f,
-2.14670047e-01f,+2.53498137e-01f,+1.23722553e-02f,-2.99158424e-01f,+8.21095109e-02f,
+6.77589774e-02f,-3.34702015e-01f,+2.62025326e-01f,+1.53303184e-02f,+7.67833367e-02f,
+1.04009598e-01f,-2.92248666e-01f,+2.04215094e-01f,-2.96876896e-02f,+1.08300276e-01f,
+3.37657601e-01f,+8.52624699e-02f,+1.32320404e-01f,+1.22158602e-01f,+2.56410331e-01f,
-1.51470415e-02f,-1.36985481e-02f,-2.73166090e-01f,+8.77674446e-02f,+8.38380214e-03f,
+3.11242729e-01f,-4.29952055e-01f,+5.80596142e-02f,-3.71906817e-01f,+4.08569761e-02f,
-1.96247637e-01f,-3.91052574e-01f,+3.21090758e-01f,-8.25786144e-02f,+1.74290240e-02f,
+1.42543226e-01f,-1.20901510e-01f,+2.50119239e-01f,+2.62817264e-01f,+1.23643756e-01f,
-2.01113462e-01f,-2.30323821e-01f,-2.31823221e-01f,-1.15623631e-01f,-2.58004695e-01f,
-2.41403550e-01f,+2.49305397e-01f,-1.19806230e-02f,-6.13953769e-02f,+1.10358745e-01f,
-2.17059523e-01f,-7.44837150e-02f,+3.30378897e-02f,+2.27791127e-02f,-1.56505462e-02f,
+6.72885999e-02f,+1.18393831e-01f,-1.17854849e-01f,+1.28911451e-01f,-2.82980859e-01f,
-2.13669583e-01f,+1.07613117e-01f,-2.03514919e-01f,+2.03683749e-01f,+6.97318539e-02f,
+3.27355146e-01f,+3.88331115e-02f,+3.50238323e-01f,+3.08705598e-01f,-2.53879875e-01f,
+3.77556473e-01f,+2.33255237e-01f,+1.04915135e-01f,-2.15341121e-01f,+3.02131474e-01f,
+4.58257794e-01f,-3.37452926e-02f,+5.10884672e-02f,-5.47028705e-02f,+1.94531038e-01f,
-6.40320079e-03f,-1.14421800e-01f,-2.92960674e-01f,+2.10649937e-01f,+3.58599961e-01f,
-3.51066876e-04f,+4.05211210e-01f,-1.60210595e-01f,-1.19150087e-01f,-6.49145693e-02f,
+3.63331616e-01f,+3.30963939e-01f,-2.09370404e-02f,+3.17412347e-01f,+6.17376342e-02f,
+4.48302329e-01f,+1.04910679e-01f,-9.62511525e-02f,-2.37791911e-01f,+1.08407408e-01f,
-1.19267225e-01f,-1.47501260e-01f,-8.81592035e-02f,-9.13357288e-02f,+3.05053771e-01f,
-1.21548764e-01f,+2.24633247e-01f,+1.71355054e-01f,-1.25946015e-01f,-1.28006399e-01f,
-2.74299324e-01f,+3.79630923e-02f,+3.30473214e-01f,+1.89223602e-01f,-1.17107660e-01f,
+2.59036571e-01f,+1.77380100e-01f,-3.01040653e-02f,+1.08388558e-01f,+1.43405378e-01f,
-1.44546285e-01f,-1.64254531e-01f,-1.22186147e-01f,+2.43809909e-01f,+3.22499163e-02f,
+3.43253583e-01f,+3.52604270e-01f,-4.92933393e-02f,+2.92042404e-01f,+6.87210485e-02f,
-1.68837488e-01f,-3.28024507e-01f,+1.12037294e-01f,-5.54613359e-02f,-2.06857398e-01f,
-2.87255645e-03f,-1.53644428e-01f,+2.21999124e-01f,+9.35834050e-02f,-4.43559945e-01f,
+3.96621108e-01f,+8.23856220e-02f,-1.50676563e-01f,-5.93097731e-02f,+2.04998460e-02f,
-3.59412767e-02f,-1.16013579e-01f,+1.85302928e-01f,-4.75466311e-01f,+5.56624681e-02f,
-3.30848061e-02f,+1.40558824e-01f,-5.32106519e-01f,+4.48664635e-01f,-2.53589690e-01f,
+5.19055352e-02f,-2.71800518e-01f,-1.26990870e-01f,-1.02271847e-02f,-2.80341983e-01f,
+3.29106957e-01f,-1.76573440e-01f,+1.12759322e-01f,-1.82037428e-01f,-9.58596468e-02f,
-2.98206329e-01f,-2.02128097e-01f,-2.97000289e-01f,-8.57587308e-02f,-2.92159140e-01f,
+2.06254929e-01f,-1.99198306e-01f,+2.14785784e-01f,-1.32653341e-01f,+1.32038742e-01f,
+2.16262396e-02f,+3.33194107e-01f,-1.09203346e-01f,+7.44688350e-06f,+7.33853802e-02f,
-7.00587407e-02f,+4.47159074e-02f,-2.44590372e-01f,+2.93567419e-01f,+4.41268645e-02f,
-1.74847603e-01f,-2.30336450e-02f,-6.25245944e-02f,+1.70211032e-01f,+3.30296941e-02f,
+1.00038573e-01f,-7.94740580e-03f,+6.88865334e-02f,+3.52238417e-01f,-1.26670018e-01f,
+7.84803480e-02f,+8.17380250e-02f,+1.17816851e-01f,+7.98326731e-02f,-1.17313683e-01f,
+2.38083094e-01f,-2.56356359e-01f,+3.92250121e-01f,-1.72988936e-01f,-1.11521885e-01f,
-1.76829100e-01f,-2.34198511e-01f,+1.05282567e-01f,-9.06638056e-02f,-3.63872461e-02f,
-4.57885815e-03f,-2.32291788e-01f,+2.37285402e-02f,+1.62722751e-01f,+2.10471302e-02f,
-1.60194397e-01f,-3.75287354e-01f,+1.39173672e-01f,+4.62145120e-01f,-2.50235140e-01f,
+3.25706363e-01f,+3.36843938e-01f,+3.53256047e-01f,+3.94414127e-01f,+1.99443474e-01f,
-2.82387044e-02f,+1.68581247e-01f,-2.71275520e-01f,-3.55534822e-01f,-1.82942942e-01f,
-1.77903235e-01f,+2.55085915e-01f,-8.25958550e-02f,-3.79427560e-02f,-3.28214914e-01f,
+7.74965212e-02f,-8.90248194e-02f,+3.23532224e-02f,-1.04024978e-02f,-2.14703813e-01f,
+2.23204115e-04f,+6.31388068e-01f,+9.33339059e-01f,+2.07020447e-01f,-8.69412124e-02f,
-3.03780228e-01f,+3.74742627e-01f,+1.79185376e-01f,+2.31948540e-01f,-1.42257825e-01f,
+5.25159612e-02f,+1.10758198e-02f,+3.64691198e-01f,-2.03491636e-02f,+2.60736495e-01f,
+2.22992763e-01f,+1.86160877e-01f,+2.30454296e-01f,-2.20608488e-01f,+4.76933420e-02f,
+7.24878907e-03f,-5.84561676e-02f,-7.07203969e-02f,-4.68831658e-02f,-2.29000114e-02f,
-2.46811926e-01f,+1.20356232e-01f,-6.22813851e-02f,+8.18868279e-02f,-1.05491579e-02f,
+4.33630943e-02f,-5.30991554e-02f,+1.46806970e-01f,+5.82976043e-02f,+1.58180758e-01f,
+2.41301820e-01f,-2.26523727e-01f,-1.80745676e-01f,-6.34187758e-02f,-7.80996382e-02f,
+1.20598495e-01f,+1.97106063e-01f,-2.39600196e-01f,+1.43168151e-01f,+2.14435272e-02f,
-2.24151433e-01f,+8.52138698e-02f,-1.89321354e-01f,-2.52736419e-01f,-3.26816022e-01f,
-1.75364673e-01f,-2.31410280e-01f,+8.79623964e-02f,-1.76691413e-01f,+1.17078215e-01f,
-1.65596128e-01f,+4.08906311e-01f,-3.30882311e-01f,-3.67123872e-01f,+2.87107497e-01f,
-1.39994130e-01f,-3.72892648e-01f,-2.28462279e-01f,+7.30570182e-02f,+6.33109093e-01f,
+3.09756935e-01f,+1.11508989e+00f,-2.10113004e-01f,+2.00795472e-01f,+1.51772991e-01f,
+4.80229743e-02f,+1.03808723e-01f,+2.29558960e-01f,-1.30917430e-01f,+1.51671588e-01f,
-2.75893897e-01f,+4.69168454e-01f,+3.95141721e-01f,+1.24774337e-01f,-1.80057675e-01f,
-2.89318025e-01f,-5.89713454e-03f,-8.21069330e-02f,-9.99972373e-02f,-3.52736115e-02f,
+3.03256601e-01f,-1.99011490e-01f,+3.12010050e-02f,-2.00359255e-01f,+1.50545537e-01f,
-6.04892373e-02f,+1.71332508e-01f,+1.21002287e-01f,+6.46459460e-02f,+1.96743220e-01f,
+2.40021735e-01f,-2.44866118e-01f,-1.43347159e-02f,+5.34302294e-02f,+1.68893844e-01f,
-6.25611246e-02f,-1.83897782e-02f,-1.85667321e-01f,+3.87787968e-02f,+1.96052581e-01f,
-2.63934523e-01f,+2.47318000e-01f,+1.05635516e-01f,-2.46830583e-02f,-1.47308409e-01f,
+4.82355058e-02f,+9.14788842e-02f,+9.56917182e-02f,-1.24133475e-01f,+1.92762613e-01f,
-2.57456303e-01f,-2.94626057e-01f,+8.66651312e-02f,-8.27396512e-02f,-1.45533621e-01f,
-2.86327302e-01f,-1.82994887e-01f,+4.38949078e-01f,-5.69192134e-02f,+4.72011924e-01f,
+1.03475630e-01f,+1.50288880e-01f,+3.32501411e-01f,-3.40237051e-01f,-1.03951894e-01f,
+2.85834253e-01f,-1.19352329e-03f,-2.97338396e-01f,+4.61730391e-01f,-5.48167229e-01f,
-2.37607956e-01f,-5.03124774e-01f,+3.55533659e-01f,-3.70912075e-01f,+2.27024958e-01f,
-4.32617545e-01f,-2.02707097e-01f,-4.57235515e-01f,-1.71219304e-01f,+5.51133931e-01f,
+3.82682294e-01f,+8.86614919e-02f,-7.90093318e-02f,+3.22785199e-01f,-9.63448174e-03f,
-2.82148361e-01f,-4.04296517e-02f,-2.99555629e-01f,-2.62433857e-01f,+3.09890121e-01f,
-3.95046413e-01f,+1.96195796e-01f,+6.41470477e-02f,-2.08880663e-01f,-1.59702003e-01f,
-3.68081599e-01f,+6.63684756e-02f,-7.94029906e-02f,+4.13624316e-01f,-8.80015083e-03f,
+5.53939283e-01f,-3.56522352e-01f,+1.21125162e-01f,-1.56006977e-01f,+5.86137362e-02f,
-5.32811821e-01f,-6.64584013e-03f,-1.10661186e-01f,-2.01526642e-01f,-3.35015327e-01f,
-4.75661099e-01f,+5.08122258e-02f,+4.25774790e-02f,-2.75329888e-01f,+6.66739494e-02f,
+7.52969757e-02f,-3.28446984e-01f,+2.25417122e-01f,-1.08789414e-01f,+8.11183900e-02f,
-1.50572240e-01f,+2.27594987e-01f,-2.31487349e-01f,+4.06343400e-01f,-1.64248481e-01f,
-8.58822912e-02f,-1.37555793e-01f,-1.10477462e-01f,+9.72821191e-02f,+4.58397061e-01f,
+3.01224470e-01f,-1.54570252e-01f,+9.52925310e-02f,-1.28806189e-01f,+2.31630385e-01f,
+2.62572587e-01f,+3.63283217e-01f,-6.40639514e-02f,+5.24806499e-01f,+7.60503858e-02f,
-2.43157163e-01f,-3.25408787e-01f,-1.51290894e-01f,+3.40428092e-02f,-6.07682019e-02f,
-9.00519863e-02f,+3.14324230e-01f,-3.79756331e-01f,+1.17246240e-01f,+1.36953905e-01f,
-1.74134269e-01f,+7.07286689e-03f,+1.54029161e-01f,-3.54111075e-01f,+3.02050173e-01f,
-2.07734317e-01f,-5.75206354e-02f,+2.36910507e-01f,+2.56486833e-01f,-1.34909945e-02f,
+1.44679889e-01f,-1.04487769e-01f,+6.88317344e-02f,+2.03756645e-01f,-4.83424038e-01f,
-1.00909047e-01f,+1.78590119e-01f,+6.63290247e-02f,-2.14162529e-01f,+2.44482175e-01f,
-7.48280883e-02f,+3.82394940e-01f,+3.57682526e-01f,+2.91306406e-01f,+2.45810211e-01f,
-4.02087659e-01f,+2.22806633e-01f,-4.64383960e-02f,+2.69170165e-01f,-2.38166943e-01f,
-4.43732738e-03f,+2.32968315e-01f,-1.98077768e-01f,+2.18678802e-01f,-1.88845351e-01f,
+7.15202615e-02f,-1.42430559e-01f,+1.77709401e-01f,-3.36112291e-01f,+1.13963991e-01f,
-2.12582022e-01f,-1.98143218e-02f,+4.16636884e-01f,+3.76738757e-01f,+2.48705193e-01f,
+1.50893554e-01f,+1.30817741e-02f,+3.68890800e-02f,-1.02643855e-01f,+2.52175331e-01f,
+2.61867583e-01f,-2.66064793e-01f,+1.97726727e-01f,+1.82447508e-02f,-1.21168070e-01f,
-9.76848006e-02f,+6.38019815e-02f,+2.16887981e-01f,-2.08326533e-01f,-2.00454995e-01f,
-4.24475856e-02f,-5.13623655e-01f,-2.83027917e-01f,+3.38290751e-01f,-2.62508720e-01f,
+2.80173630e-01f,-3.66430134e-02f,-4.74075794e-01f,-3.31432372e-01f,+3.91412765e-01f,
-2.32855484e-01f,-1.16066150e-01f,+3.13864350e-02f,+1.17366260e-03f,+6.00122511e-01f,
+8.79784763e-01f,+5.53417444e-01f,+1.20196648e-01f,+2.60319591e-01f,+3.54994774e-01f,
+3.82293344e-01f,-8.59526396e-02f,+8.28522593e-02f,-7.48093873e-02f,-7.36005604e-02f,
-1.25189424e-01f,-8.86342451e-02f,-1.58518478e-01f,-6.11600280e-01f,+5.78845702e-02f,
+3.81982684e-01f,+4.85657752e-02f,+3.41262966e-01f,-1.79763183e-01f,-2.70824563e-02f,
+5.69539309e-01f,+2.43851393e-01f,-1.90272972e-01f,-1.26360729e-01f,+9.25570950e-02f,
+5.26147425e-01f,-5.91290593e-01f,+2.56633479e-03f,-1.07892402e-01f,+2.57454306e-01f,
+2.15314940e-01f,+2.57576168e-01f,-3.73695374e-01f,-2.93774009e-01f,+4.44382578e-01f,
-4.44412440e-01f,+1.29512787e-01f,+1.32749513e-01f,+3.10213938e-02f,-6.24934256e-01f,
+4.64127898e-01f,-5.41351914e-01f,+2.20751524e-01f,+2.38008425e-01f,+6.61200762e-01f,
+5.35884738e-01f,-5.45735478e-01f,+2.28918046e-01f,+2.95517474e-01f,-5.33406474e-02f,
-1.50040373e-01f,-2.28146374e-01f,-1.11415237e-01f,-1.63907111e-01f,-9.93357971e-02f,
-2.09801987e-01f,-1.07625559e-01f,+6.38569370e-02f,-2.47442618e-01f,+1.76596031e-01f,
-1.13133192e-02f,-2.22852483e-01f,-1.93221524e-01f,-1.21961743e-01f,-4.58568186e-02f,
-1.89504623e-01f,-1.00270472e-01f,+1.44096017e-01f,-2.91774184e-01f,+1.95553586e-01f,
-3.87445629e-01f,-2.16074929e-01f,+3.06212641e-02f,+2.20082209e-01f,-1.31499380e-01f,
+1.62238151e-01f,-2.31405303e-01f,-1.47944987e-01f,-1.92957744e-01f,+3.44372332e-01f,
-2.07554549e-01f,+1.72750875e-01f,+2.22395852e-01f,+2.08496064e-01f,-1.24903634e-01f,
-2.87288725e-01f,-2.31282577e-01f,+7.22040832e-02f,+6.12538517e-01f,+1.39418975e-01f,
-2.42343619e-01f,+2.97974974e-01f,-1.90478936e-01f,+5.96059620e-01f,-1.57389734e-02f,
-3.52705926e-01f,-1.30632377e+00f,-4.15869027e-01f,+1.66960489e-02f,-4.88423854e-01f,
+4.25526232e-01f,-7.63312936e-01f,+1.61432549e-01f,+1.64273232e-01f,+1.31741852e-01f,
+3.41311485e-01f,+6.17523968e-01f,-6.81395605e-02f,+1.84716746e-01f,+4.63944554e-01f,
-3.73916715e-01f,-1.08295009e-01f,+9.92256105e-02f,+3.36979061e-01f,-1.75626948e-01f,
+1.44541189e-02f,+1.48642242e-01f,-2.61054486e-01f,+5.43435752e-01f,-3.48002464e-01f,
-2.90570408e-01f,+3.32024209e-02f,+1.06996939e-01f,-4.60775167e-01f,+2.52313077e-01f,
-8.67141858e-02f,+4.32234019e-01f,-1.72334224e-01f,-9.07227993e-02f,-4.02865499e-01f,
+4.50352103e-01f,-1.84835583e-01f,+3.30870152e-01f,+2.14423947e-02f,-4.06675458e-01f,
+1.02855891e-01f,+4.43249255e-01f,-6.21994972e-01f,+2.98520118e-01f,+2.92747289e-01f,
+3.92517567e-01f,+5.35290599e-01f,-4.83185202e-01f,+1.72541678e-01f,+1.31900042e-01f,
+4.42602456e-01f,-7.85622224e-02f,+2.99626857e-01f,-2.15602145e-01f,-3.01780283e-01f,
+1.78416759e-01f,+1.74274608e-01f,+2.30858386e-01f,+1.81545720e-01f,-7.93769360e-02f,
-1.49873614e-01f,-5.55805340e-02f,-1.09850556e-01f,+3.50019515e-01f,-2.51002848e-01f,
+2.87968535e-02f,+2.68816411e-01f,-1.24734938e-01f,-2.71346271e-01f,+1.24432497e-01f,
-2.86652625e-01f,-1.46787927e-01f,+1.43197447e-01f,+1.33224458e-01f,-2.32893042e-02f,
+3.47675651e-01f,+1.71496019e-01f,-1.09158047e-01f,+1.28811985e-01f,+5.46331098e-03f,
+4.81120378e-01f,-2.60772258e-01f,-1.16536520e-01f,-1.45886600e-01f,-1.85606733e-01f,
+2.21561361e-02f,-2.91510135e-01f,-3.64730179e-01f,-1.58377334e-01f,+4.50690478e-01f,
+2.99801141e-01f,+3.62656593e-01f,+2.42808729e-01f,-2.59203374e-01f,+6.14086213e-03f,
+3.50076659e-03f,-1.79451600e-01f,-1.57294169e-01f,+1.08288065e-01f,+1.61638975e-01f,
+1.13503516e-01f,-1.72469109e-01f,-2.29585439e-01f,-4.50799733e-01f,+4.30182844e-01f,
+2.82278389e-01f,-6.12084754e-02f,-7.81477615e-02f,-1.04452316e-02f,+2.78546542e-01f,
+2.48068228e-01f,+1.27026170e-01f,-1.76905632e-01f,+2.35759005e-01f,+2.07972541e-01f,
-2.94341922e-01f,+2.29766041e-01f,+5.66351861e-02f,-1.87300920e-01f,+1.16360292e-01f,
-2.23617241e-01f,+3.54666710e-02f,-7.72902044e-03f,+2.29411408e-01f,-1.33791730e-01f,
-8.62519443e-02f,+2.46294037e-01f,-7.90927932e-02f,+2.23561376e-01f,+1.29247472e-01f,
