#layers
3
#inputs
10
#neurons_L1
10
#neurons_L2
10
#neurons_L3
8
#L1_wt
-0.3869619-1.5368263-0.98898681.691859-0.33717057-1.20610230.12807696-1.3369765-0.95704111.3825673
0.4991170.024291323-0.47355710.94746850.25330870.46582165-0.328465460.60408735-0.484443550.095849
0.74284947-0.0604476970.30059326-0.454207180.47352058-0.16912180.88394177-0.40024936-0.171698-0.113915026
0.574455740.60356635-0.1110657450.224156680.0031710267-0.44252285-0.3132097-0.213635490.4129383-0.4037454
0.9542167-0.337702780.5711179-0.20294265-0.436830.655491050.362114970.042023480.0155092780.58237386
-0.1169031260.13590464-0.200794460.71440820.050086080.07663592-0.44451280.301620450.36541894-0.07783902
0.39638713-0.33993360.5736431-0.3486195-0.055691620.38054850.040754-0.338948970.390008780.58219796
0.151011140.53620654-0.058450848-0.064388685-0.35021890.318648130.271401940.64393026-0.35649845-0.21885082
-0.4420857-0.182473060.50543195-1.2315253-0.552160.1804656-0.30849972-0.0564224420.66628970.2046437
-1.82800230.35266766-0.33159130.29733235-0.045099497-0.63825154-0.13547826-0.16201767-0.2928523-0.991021
#L1_b
0.72507740.216811840.110861130.479016570.013336550.184253020.455619750.173476560.0592765770.13376169
#L2_wt
0.0145161330.7708730.235200140.59307736-0.083092270.440882950.96671110.346893940.28715760.43520826
1.53691510.25399646-0.74903951.6388335-1.05327920.37152287-1.24903960.37830037-1.1230674-3.2651649
-0.14368871-0.16911310.38733402-0.08825659-0.614503740.80809770.76453060.2818948-0.1647845-0.21744953
-0.18276453-0.66521686-0.80813825-0.150005890.08896984-0.14072791.3371038-0.50335181.4438380.16277145
0.451797250.64703166-0.12561332-0.549597560.21192044-0.6812321-0.32102950.400807320.722713770.11573541
-1.3005493-0.47005877-0.37427065-0.40593043-0.59082251.33314691.087422-1.13178682.0846703-1.0868444
0.765185830.91969985-0.257016480.469570880.25828937-0.296818460.055019066-0.0570861470.85958356-0.08350947
1.0227977-0.378282430.440450251.5657401-0.15696302-0.14208569-1.2000443-0.07736674-1.4926702-0.018230231
-1.5589358-1.0523283-0.41816884-1.0685643-0.129701991.26488630.57006824-0.877340731.4199667-1.111724
1.209889-1.33037830.602000650.51552421.3204446-0.17752789-0.174857270.719385-0.51725661.3830476
#L2_b
0.58162660.59544860.031240580.080794916-0.04834986-0.141175880.47320637-0.083488080.35427750.39016333
#L3_wt
-0.946546850.6956817-1.20043610.5192648-1.32073940.7273065-1.45723130.69610536
0.87367445-0.8403162-0.36259243-1.0655143-1.515965-0.84179705-1.076449-0.53772926
0.336565460.923727630.344564350.342906450.63548561.3152475-0.669985832.3460813
-0.962211431.2213097-0.52204821.2431425-0.79214080.8406342-1.0962220.50767463
-1.1045980.7205203-1.42905580.4596663-1.08851460.096992485-0.73534340.0040739044
0.64976484-0.58858230.6814424-0.24094930.78997725-0.559542830.5539572-1.0647091
0.98482305-1.24386541.0977035-0.96509480.53769696-0.758088050.6477493-1.5854274
-0.0611587460.6069734-0.64063341.1246156-0.166734590.69590515-0.52826390.42148665
0.9726049-0.81734050.41820493-0.787780050.7152408-1.41625950.37231913-1.3175646
-0.583262740.2783206-0.837195750.25027278-0.51001906-0.0094387615-1.48569430.15815209
#L3_b
-0.25617945-0.0855362-0.23635897-0.2267689-0.00343692190.24974845-0.33725697-0.24452241
#end
#end
