#include <math.h> 
 #include <string.h> 
#include "./include/k2c_include.h" 
#include "./include/k2c_tensor_include.h" 

 


void cPredictor(k2c_tensor* dense_input_input, k2c_tensor* dense_2_output) { 

float dense_output_array[64] = {0}; 
k2c_tensor dense_output = {&dense_output_array[0],1,64,{64, 1, 1, 1, 1}}; 
float dense_kernel_array[4096] = {
-6.15870655e-01f,-7.63248026e-01f,-2.90543616e-01f,+5.43510281e-02f,-1.07177603e+00f,
-2.46364489e-01f,+2.71050990e-01f,+4.93173301e-01f,-5.79444945e-01f,-6.60515487e-01f,
+5.28987169e-01f,+1.03846228e+00f,-1.02133460e-01f,+3.22245598e-01f,-3.87231380e-01f,
+1.09462237e+00f,+4.54978868e-02f,+5.43560743e-01f,-1.20946729e+00f,+5.13589203e-01f,
+8.44156861e-01f,-1.09487987e+00f,-1.13467371e+00f,-5.33270061e-01f,-9.75385249e-01f,
-2.05842987e-01f,-6.02909625e-01f,+5.25966287e-01f,-2.27228984e-01f,+7.37729371e-01f,
-6.57804787e-01f,+5.96516609e-01f,-1.05959445e-01f,+3.33791375e-02f,+5.42109370e-01f,
+1.11610746e+00f,+6.68479383e-01f,+1.28374740e-01f,+2.86297768e-01f,+6.18532419e-01f,
+2.70561427e-01f,+1.07412946e+00f,-1.59838125e-01f,-4.58773345e-01f,-2.09584609e-01f,
-4.43620324e-01f,+4.19442028e-01f,+1.22198708e-01f,+4.92437989e-01f,+5.31174600e-01f,
-7.98788488e-01f,-5.73024035e-01f,+9.97794688e-01f,+3.30995113e-01f,-1.94651270e+00f,
+7.10908830e-01f,-6.12021923e-01f,+3.68831336e-01f,+1.60851255e-01f,+3.84216756e-01f,
+8.01920831e-01f,+7.19371140e-01f,+3.64404142e-01f,+3.49564910e-01f,-1.01574767e+00f,
+4.04809773e-01f,+1.81971216e+00f,-2.00137448e+00f,-1.34325489e-01f,+6.61108613e-01f,
-1.44745016e+00f,-2.57505536e-01f,+1.85078812e+00f,-4.68093693e-01f,-2.72549391e-01f,
+2.01352930e+00f,+1.03963740e-01f,+9.89534378e-01f,-1.22908854e+00f,+2.14034367e+00f,
-8.62258196e-01f,-7.20638514e-01f,-9.52001989e-01f,+1.93534863e+00f,-6.56203508e-01f,
-2.28876695e-01f,+2.68929690e-01f,+1.34291995e+00f,+1.15597320e+00f,+7.30063617e-01f,
-1.12940335e+00f,+1.79917753e+00f,-1.10554445e+00f,+2.23692417e+00f,-1.03045166e+00f,
+1.12620652e+00f,-1.26955473e+00f,+1.04715562e+00f,-3.31544951e-02f,+7.99359143e-01f,
-1.97330296e+00f,+1.09926736e+00f,+3.04412317e+00f,-1.06830060e+00f,-4.91543263e-01f,
-1.00287807e+00f,+9.00116265e-01f,+1.94383597e+00f,+3.80919486e-01f,+2.01372600e+00f,
-2.91849375e-01f,-6.90503061e-01f,-1.98360205e-01f,-1.29029989e+00f,+1.69743657e+00f,
-3.28766346e-01f,-6.56554997e-01f,-6.01659000e-01f,+2.23489385e-02f,+7.84182489e-01f,
+1.60140395e+00f,+9.24875796e-01f,-1.04463601e+00f,-1.36194289e+00f,+2.92302060e+00f,
-1.10436928e+00f,-1.48776448e+00f,-4.18193668e-01f,-1.55497134e+00f,-5.47589362e-01f,
+1.39790773e+00f,+1.12141407e+00f,+1.59767377e+00f,-1.16309524e+00f,+6.83269024e-01f,
+1.39408481e+00f,+3.10178906e-01f,-5.04903376e-01f,-1.07280004e+00f,-1.32827127e+00f,
+1.17618644e+00f,+5.61359465e-01f,+1.44981408e+00f,-1.26417053e+00f,+8.12503099e-01f,
-2.18349743e+00f,-1.12931466e+00f,-6.65100396e-01f,+3.61490130e+00f,+1.54368028e-01f,
+4.94083911e-01f,+3.45790386e-01f,-8.00645947e-01f,-1.13295603e+00f,+4.84948367e-01f,
+6.07877851e-01f,+2.75282097e+00f,-1.43195808e+00f,+2.63384438e+00f,-1.12239158e+00f,
-1.85713243e+00f,+2.15940475e+00f,+1.94142118e-01f,-1.30349278e+00f,-1.34187961e+00f,
-1.08051884e+00f,+1.26423717e+00f,-1.38584030e+00f,+2.34527397e+00f,-6.65166914e-01f,
+2.08698249e+00f,-9.61711526e-01f,+2.78192425e+00f,-8.13237786e-01f,+4.13355716e-02f,
-1.46694696e+00f,+1.04692769e+00f,+9.49077308e-01f,-1.01149964e+00f,-1.69963270e-01f,
-3.96240830e-01f,+1.68142140e+00f,-1.50565279e+00f,+2.17572927e+00f,+1.40038383e+00f,
+1.26525605e+00f,+1.72157729e+00f,-1.08248329e+00f,+1.62924147e+00f,-5.88638425e-01f,
+8.75270128e-01f,+1.29499543e+00f,-1.35023499e+00f,+1.92720509e+00f,+5.11782942e-04f,
+2.15993023e+00f,-1.84722766e-01f,-1.77396548e+00f,+8.35177064e-01f,+2.44948864e+00f,
+2.19869328e+00f,-3.58164370e-01f,+1.74436986e+00f,-2.11883813e-01f,+4.44154739e-02f,
-5.48553586e-01f,-1.00611830e+00f,+1.93188637e-01f,+1.25071752e+00f,+1.22941089e+00f,
+1.36083674e+00f,-6.56366706e-01f,-1.26250349e-02f,-2.45092139e-01f,+1.14879060e+00f,
+1.18745530e+00f,-5.48539817e-01f,-6.80407405e-01f,+2.14180422e+00f,+1.34978366e+00f,
+1.98105645e+00f,+2.04750609e+00f,+3.02106440e-01f,+1.24439284e-01f,-1.08260143e+00f,
+1.46914876e+00f,-5.74768424e-01f,-8.50359321e-01f,-2.12014616e-01f,+9.76827979e-01f,
+1.96242797e+00f,+6.62002683e-01f,+1.46805286e+00f,-1.24898612e+00f,+4.20331597e-01f,
+1.30860221e+00f,-8.80044222e-01f,-2.01877728e-01f,+6.35454834e-01f,-8.34154189e-01f,
+3.83845121e-01f,+9.80576098e-01f,-1.00040925e+00f,+1.21543694e+00f,+3.76073152e-01f,
+2.72766042e+00f,-8.42708051e-01f,+1.67996168e+00f,-9.42329288e-01f,+1.54829919e+00f,
+5.07621706e-01f,-1.62795043e+00f,-7.60715008e-01f,-3.75142157e-01f,+3.87980103e-01f,
+3.88131112e-01f,-1.63693583e+00f,+1.99500632e+00f,+9.46888328e-01f,+7.36413836e-01f,
-1.83095074e+00f,+2.23716640e+00f,-1.15699375e+00f,+5.47323406e-01f,+4.34825927e-01f,
-4.99860913e-01f,+1.89230490e+00f,-1.40714252e+00f,+1.94786087e-01f,+2.62677765e+00f,
+1.37462628e+00f,-1.14301431e+00f,+2.16026688e+00f,+4.97347653e-01f,+1.45554173e+00f,
+2.12265944e+00f,-5.72858930e-01f,-2.98391759e-01f,+3.13960612e-01f,+2.19547725e+00f,
-7.22739398e-01f,-4.92529631e-01f,-9.94965374e-01f,-4.79042590e-01f,-3.39702666e-01f,
-2.45322183e-01f,+1.42220700e+00f,+8.20370257e-01f,-1.69324124e+00f,-4.83255655e-01f,
-8.10522139e-01f,+5.81987262e-01f,-1.63305283e+00f,+1.62326086e+00f,+1.04151547e+00f,
+7.37408996e-01f,-1.21013395e-01f,+4.59636390e-01f,-1.05361152e+00f,+3.80706429e-01f,
-6.82947159e-01f,+1.74836159e+00f,+9.06735003e-01f,-5.96857488e-01f,-1.61611259e+00f,
+8.20279300e-01f,+2.92127997e-01f,+1.40357053e+00f,-2.46320367e-01f,+2.74167120e-01f,
+2.52471328e+00f,+1.10618973e+00f,+1.04626584e+00f,+2.69913793e+00f,-1.26304543e+00f,
-6.46904707e-01f,+5.04642308e-01f,+1.10592091e+00f,+5.74235506e-02f,+8.02813590e-01f,
+6.27008229e-02f,-1.26286209e-01f,+1.14170477e-01f,+5.73367923e-02f,-1.16545014e-01f,
-6.86346591e-02f,+9.60362107e-02f,+7.92710930e-02f,-7.65723437e-02f,-1.04582459e-02f,
+1.64833173e-01f,+9.45158154e-02f,+1.35730818e-01f,+1.91512108e-02f,-1.35832906e-01f,
+1.54197052e-01f,+1.64504454e-01f,+9.65140909e-02f,-1.84937626e-01f,-1.77854151e-01f,
+1.71893850e-01f,-9.54788923e-03f,+1.38795242e-01f,-7.58205652e-02f,-1.07887812e-01f,
+1.38063326e-01f,+1.83698252e-01f,+6.06863052e-02f,-1.94627523e-01f,+1.31747380e-01f,
-7.01993853e-02f,+1.66209653e-01f,-1.74316794e-01f,-9.22585726e-02f,+1.68609098e-01f,
-2.90727764e-02f,+3.09384465e-02f,-2.11868420e-01f,-1.80071339e-01f,-2.09933221e-01f,
+1.43156543e-01f,-1.07619137e-01f,-1.27281904e-01f,-1.37457579e-01f,-4.66433614e-02f,
+6.56212419e-02f,-2.14232117e-01f,+3.52361053e-02f,-1.77595437e-01f,+1.82098672e-01f,
+2.46869028e-03f,-1.34854734e-01f,+8.71248543e-03f,+8.87897164e-02f,-7.00454563e-02f,
+1.01859048e-01f,-1.31447405e-01f,-1.46187305e-01f,+1.93775699e-01f,-1.48184180e-01f,
+2.63793766e-03f,+1.26066804e-02f,-1.73627570e-01f,-1.53961360e-01f,+2.62965262e-01f,
+2.15064809e-01f,+4.95491326e-01f,-7.25556388e-02f,+4.42744903e-02f,+1.49757206e-01f,
-2.12703094e-01f,+6.25162542e-01f,+6.34378612e-01f,+6.50266647e-01f,+5.01879394e-01f,
+4.61568892e-01f,+6.42789781e-01f,+1.30803883e-01f,+2.71251976e-01f,+1.32795960e-01f,
+1.60801169e-02f,+6.88979149e-01f,+6.96740001e-02f,+8.40203941e-01f,+1.22615278e+00f,
+6.93775415e-01f,+4.52169538e-01f,+9.48676348e-01f,-3.59041631e-01f,+3.34326833e-01f,
+3.07465881e-01f,+1.09259915e+00f,+1.76793039e-02f,+1.09526968e+00f,+9.45802182e-02f,
+9.56894457e-01f,-1.02884233e-01f,-8.54664519e-02f,+4.92147416e-01f,+1.30847245e-01f,
+2.20241304e-02f,+3.97685677e-01f,+1.30993319e+00f,+4.69427317e-01f,+5.28713524e-01f,
+4.50909168e-01f,+4.29756969e-01f,+2.62923330e-01f,+8.42278183e-01f,+3.46453428e-01f,
+5.25689304e-01f,+7.75853515e-01f,+8.15085948e-01f,+3.12217027e-01f,-3.70367542e-02f,
+4.10430491e-01f,+1.18940783e+00f,+6.73815608e-01f,+7.10855722e-02f,+1.47958076e+00f,
+1.75920546e-01f,+9.34659183e-01f,+5.18507123e-01f,+2.06494421e-01f,+5.39136887e-01f,
+5.83616853e-01f,+3.51113304e-02f,+1.57023519e-01f,+9.24202055e-02f,+1.73898205e-01f,
+3.56146246e-02f,-8.69933218e-02f,+4.07787412e-02f,-9.97676104e-02f,-1.40596226e-01f,
-5.60409278e-02f,+5.34788817e-02f,-1.41447991e-01f,-2.03232437e-01f,+3.09183151e-02f,
+5.57087511e-02f,+5.42372614e-02f,+1.22719854e-02f,-1.33871436e-01f,-8.54949206e-02f,
+1.05234548e-01f,+8.35694224e-02f,+7.25303441e-02f,-6.96823299e-02f,+1.35299638e-01f,
+1.64738491e-01f,-2.07830712e-01f,+1.76968142e-01f,+8.73446912e-02f,+6.70828372e-02f,
+5.80328554e-02f,+3.79009992e-02f,-1.45419925e-01f,-6.61177635e-02f,-9.33771580e-02f,
-1.38436899e-01f,+4.85123843e-02f,-1.36316687e-01f,-1.24736249e-01f,+5.70555180e-02f,
-3.06270272e-02f,+1.54283449e-01f,-2.74344385e-02f,+5.62499911e-02f,+7.08960444e-02f,
+8.04989189e-02f,+1.11418679e-01f,-5.84018230e-03f,+1.57430455e-01f,+3.48190814e-02f,
+9.16361362e-02f,-6.88238442e-02f,+1.29290864e-01f,-1.69871151e-01f,-4.39182371e-02f,
-1.91565886e-01f,+1.95570335e-01f,+3.17559838e-02f,+1.64344445e-01f,-9.88100171e-02f,
+1.42659649e-01f,+1.06005892e-01f,+1.53114542e-01f,+1.73932478e-01f,-1.40988380e-01f,
+2.01494947e-01f,+3.85535508e-02f,-7.68987954e-01f,-5.59959710e-01f,-1.30906776e-01f,
-7.20223010e-01f,-1.63332641e+00f,-1.05384195e+00f,+3.00902724e-01f,+7.13980794e-01f,
-1.74625814e-01f,-3.92433524e-01f,+5.61439574e-01f,+9.01249468e-01f,+8.25439021e-02f,
+1.19530044e-01f,-5.59037507e-01f,+1.23208594e+00f,+1.59685090e-01f,+4.63483900e-01f,
-7.39163220e-01f,+7.67378271e-01f,+5.70976794e-01f,-1.49204242e+00f,-5.02170503e-01f,
-2.06977755e-01f,-9.90215600e-01f,-9.73619342e-01f,-6.80139542e-01f,+8.79983485e-01f,
-5.10123670e-01f,+1.23231566e+00f,-1.45327711e+00f,+4.48527426e-01f,-4.93383199e-01f,
+9.93279934e-01f,+2.33191922e-01f,+1.23034501e+00f,+6.09556913e-01f,+2.45716304e-01f,
+4.07976031e-01f,+4.30890858e-01f,+1.05277157e+00f,+5.30853093e-01f,-2.52813518e-01f,
-1.17563009e+00f,-3.31308335e-01f,-2.76314914e-01f,+6.17690444e-01f,-1.17858648e-01f,
+6.21897757e-01f,+3.10327530e-01f,-6.80344284e-01f,+5.03535531e-02f,+6.36724591e-01f,
+3.21581811e-01f,-9.29491878e-01f,+4.94079858e-01f,-6.57845497e-01f,-1.01685673e-01f,
-3.35121065e-01f,+3.00608903e-01f,+6.79843009e-01f,+5.33369124e-01f,+3.57607722e-01f,
+4.68992651e-01f,+2.06287980e+00f,+1.00904536e+00f,+1.86178493e+00f,-1.07005143e+00f,
+1.73322892e+00f,-1.15285766e+00f,+9.29765940e-01f,-1.22882031e-01f,+1.23779380e+00f,
-2.52758354e-01f,-8.27549875e-01f,-6.45599902e-01f,+1.85299680e-01f,-8.80967498e-01f,
+3.95730823e-01f,-1.66420448e+00f,-3.18525761e-01f,-1.48203385e+00f,+1.39678514e+00f,
-1.34670401e+00f,+8.90197992e-01f,+7.25513399e-01f,+8.00112009e-01f,+3.19018340e+00f,
+1.33485568e+00f,+6.88975334e-01f,+1.79538941e+00f,+3.95433992e-01f,+1.13895595e+00f,
+1.98967338e+00f,-3.33834052e-01f,-4.07936424e-01f,+2.77157158e-01f,-8.01571235e-02f,
-8.60086679e-01f,-1.85243809e+00f,-7.64209807e-01f,-1.23412740e+00f,+2.26646280e+00f,
+9.98848915e-01f,+1.44584644e+00f,-9.32329714e-01f,+5.16354144e-01f,+1.45149660e+00f,
+1.19215548e+00f,+9.16660607e-01f,+4.36251551e-01f,+1.39122307e+00f,+1.56260478e+00f,
-1.60984361e+00f,+1.02434373e+00f,+8.14768255e-01f,+3.43382269e-01f,+1.50447857e+00f,
+1.61625504e+00f,+9.23698425e-01f,-9.87241447e-01f,-5.07942066e-02f,-3.75449330e-01f,
-8.71207833e-01f,-9.83419478e-01f,-5.01385391e-01f,-3.57573271e-01f,-1.12837493e+00f,
-4.35361415e-02f,+1.87567279e-01f,+2.56186277e-02f,+8.49806219e-02f,-3.74153554e-02f,
-1.61369205e-01f,-1.28559262e-01f,-1.67015314e-01f,+6.30827248e-03f,-1.36158437e-01f,
+1.83184445e-02f,-5.18207103e-02f,-1.44953087e-01f,-1.74832359e-01f,+2.11170539e-01f,
+1.01712063e-01f,-1.39091372e-01f,-9.06991512e-02f,+1.27863482e-01f,-2.13920176e-01f,
+7.06790835e-02f,+1.50768861e-01f,-1.25227720e-01f,+6.60379976e-02f,-5.36930859e-02f,
-9.50944200e-02f,+1.58520773e-01f,-2.99134403e-02f,+1.14822090e-02f,+2.93694288e-02f,
-4.41275537e-02f,-7.74005204e-02f,+1.41609982e-01f,+6.25771433e-02f,+1.22687593e-01f,
+1.07176825e-01f,+1.00185201e-01f,-8.94194692e-02f,-7.90839195e-02f,-2.36842483e-02f,
+8.17764252e-02f,-7.47146755e-02f,-1.30491585e-01f,+1.36374041e-01f,+1.27891004e-02f,
+3.41933519e-02f,-1.73728436e-01f,-1.33201480e-01f,-1.33822143e-01f,-1.22530252e-01f,
+1.46431968e-01f,-1.66452512e-01f,+7.20711499e-02f,+8.73004645e-02f,+1.96816221e-01f,
-1.51641011e-01f,-1.42638683e-02f,+4.57360595e-02f,+8.19838196e-02f,-2.11439982e-01f,
-2.82242894e-03f,-1.61073893e-01f,-1.79031014e-01f,+1.83433101e-01f,-2.67761183e+00f,
+5.21552980e-01f,-4.20363873e-01f,-2.84437513e+00f,+1.86243087e-01f,-1.89082503e+00f,
-1.27286613e+00f,+6.88940763e-01f,-1.40387392e+00f,+1.20484042e+00f,+1.55196488e+00f,
-1.95580733e+00f,-1.10143745e+00f,-1.99036255e-01f,+8.09938908e-01f,-2.23540854e+00f,
-3.25152725e-01f,-3.24784160e-01f,-1.17279959e+00f,+5.34734309e-01f,+1.54262173e+00f,
+5.14474869e-01f,+9.25508618e-01f,+1.12735033e+00f,-4.69585747e-01f,+2.27142334e-01f,
+9.20300722e-01f,-7.39408433e-02f,-8.84586155e-01f,-9.22741182e-03f,+3.25099897e+00f,
-2.23756695e+00f,-1.22130787e+00f,+1.27527416e+00f,+5.23738623e-01f,-2.61638188e+00f,
-2.82733083e+00f,-1.70695889e+00f,+2.65208483e+00f,+1.14913344e+00f,-1.96022773e+00f,
-7.74452567e-01f,+5.70567429e-01f,-3.26558828e-01f,+6.09430373e-01f,+1.59187591e+00f,
-1.51432729e+00f,-1.98048151e+00f,-2.36324954e+00f,+2.25338364e+00f,-1.60499178e-02f,
-9.58007693e-01f,+9.39453602e-01f,-2.30623412e+00f,+1.36922097e+00f,+9.13322389e-01f,
+2.38019690e-01f,+1.83271790e+00f,+8.41467023e-01f,-1.53432322e+00f,+9.32200968e-01f,
+6.02841377e-01f,-2.05894256e+00f,-6.99297130e-01f,-1.15562820e+00f,-3.90841186e-01f,
-1.53604805e+00f,-2.54721195e-01f,-1.23618253e-01f,-1.03146994e+00f,+1.47551000e+00f,
+1.26286161e+00f,+2.84967721e-01f,+3.31798625e+00f,+3.68062824e-01f,+3.67188185e-01f,
+2.46879727e-01f,-5.78321278e-01f,-1.16616821e+00f,+1.41956663e+00f,-4.73100930e-01f,
+6.37037933e-01f,-1.20484722e+00f,+3.29553127e-01f,+7.98539162e-01f,-2.04788947e+00f,
-4.41365987e-01f,-1.23767138e-01f,-1.16734970e+00f,-6.59599185e-01f,+5.70840016e-02f,
+5.59303105e-01f,-8.20056498e-01f,+1.39642262e+00f,-3.32743466e-01f,-1.21348903e-01f,
+8.80534649e-02f,+8.01079035e-01f,+1.00459009e-01f,+2.27826715e-01f,+4.01834548e-01f,
+5.73859394e-01f,+1.21566987e+00f,+1.08885801e+00f,+6.41827881e-01f,+4.16948825e-01f,
+3.13735396e-01f,-7.62873352e-01f,-1.94272667e-01f,-6.04466438e-01f,+1.57670602e-01f,
-9.41132784e-01f,+8.45973432e-01f,+9.16933194e-02f,+2.79854596e-01f,-1.32038260e+00f,
+7.66037822e-01f,+6.32360697e-01f,-2.35719681e+00f,+1.95841646e+00f,-9.28877652e-01f,
-7.08002388e-01f,-5.18769264e-01f,-6.21009767e-01f,+8.44596207e-01f,+1.15226112e-01f,
-4.28355373e-02f,+3.94452035e-01f,+7.92685091e-01f,-5.37921846e-01f,-2.54402781e+00f,
-6.53413713e-01f,+1.00802231e+00f,-2.49555811e-01f,+5.20519435e-01f,-2.01413348e-01f,
+1.11148930e+00f,-3.58390994e-02f,-1.21230733e+00f,+1.05700922e+00f,+1.60087371e+00f,
-4.11455631e-01f,-9.68838394e-01f,+1.03501931e-01f,-8.92552495e-01f,-8.02598536e-01f,
-1.57295740e+00f,+9.80806351e-01f,+1.42044377e+00f,+8.76224935e-01f,+5.94582677e-01f,
-9.85568613e-02f,-6.97456226e-02f,+1.94090080e+00f,+6.50656879e-01f,-2.15395793e-01f,
-8.20297360e-01f,-1.26626298e-01f,-1.11945224e+00f,+1.60488796e+00f,+5.21353662e-01f,
-2.49600902e-01f,+7.64832377e-01f,-6.70133889e-01f,-2.83076674e-01f,-2.63231587e+00f,
+1.45044553e+00f,+7.90864348e-01f,+6.94966257e-01f,+1.51097035e+00f,+7.44842947e-01f,
-1.51099002e+00f,+1.36570489e+00f,+9.80967060e-02f,-1.41713545e-01f,+7.64696538e-01f,
+1.88566375e+00f,-1.07883859e+00f,+1.17223692e+00f,-1.54778659e+00f,-1.81282544e+00f,
+9.40593183e-01f,-7.99286187e-01f,+1.64652801e+00f,-1.55293787e+00f,-2.05746841e+00f,
+2.35417560e-02f,+2.93139398e-01f,+1.83864963e+00f,+7.87920773e-01f,-2.43845201e+00f,
-1.60925046e-01f,+1.84464955e+00f,+4.32785630e-01f,+9.87121642e-01f,-6.67748928e-01f,
+1.37798738e+00f,+7.82143593e-01f,-9.75343764e-01f,+3.09969831e+00f,+1.22801018e+00f,
+2.13793037e-03f,-6.93075657e-01f,-1.36558497e+00f,+1.35989678e+00f,-1.83489084e-01f,
+1.89866853e+00f,-9.84014392e-01f,-2.84682751e+00f,+9.56220329e-01f,+1.05313504e+00f,
+1.73618484e+00f,+6.98687911e-01f,-1.16928613e+00f,+7.97199726e-01f,+1.36676610e+00f,
-5.35390854e-01f,-9.79134321e-01f,+6.51594579e-01f,+2.18153596e+00f,+1.51888800e+00f,
-1.93295753e+00f,+1.47057450e+00f,+1.69164503e+00f,+4.76211429e-01f,+3.03942323e-01f,
+2.22971010e+00f,-2.16015077e+00f,-2.43761134e+00f,+1.80063438e+00f,-5.09075999e-01f,
-9.43896413e-01f,-9.84554827e-01f,-1.73788142e+00f,-2.01063585e+00f,-2.32347012e+00f,
+2.22070503e+00f,+1.92124665e+00f,-1.29478681e+00f,+1.11093342e+00f,+2.03958869e+00f,
-4.40237969e-01f,-1.01492214e+00f,+3.07730474e-02f,-5.95688403e-01f,+6.20506763e-01f,
+2.07996583e+00f,+2.84407824e-01f,+1.29364061e+00f,-2.67644614e-01f,+1.84378386e+00f,
+8.83566961e-02f,+1.52953959e+00f,+2.81207967e+00f,-1.84719193e+00f,-1.17578685e+00f,
+6.57740116e-01f,-1.97849944e-01f,-1.58031672e-01f,+1.72952443e-01f,-8.23300660e-01f,
-1.25456250e+00f,+1.19789854e-01f,-7.66658604e-01f,+1.28616440e+00f,+1.64005911e+00f,
+4.13422525e-01f,+3.57176334e-01f,+9.64250028e-01f,+9.33794156e-02f,-1.25948679e+00f,
+4.42590445e-01f,-3.68954092e-01f,+1.79355830e-01f,+6.62654996e-01f,+4.84185636e-01f,
+1.17860425e+00f,+6.45213962e-01f,+1.65009975e-01f,+1.61995244e+00f,-2.25202605e-01f,
+1.09733697e-02f,-8.06672335e-01f,-7.46790826e-01f,-3.10355097e-01f,+9.82781410e-01f,
-1.37487423e+00f,+1.63443005e+00f,-3.77290130e-01f,+7.51979768e-01f,+3.90124977e-01f,
+3.62883992e-02f,+1.01047456e+00f,-2.57156682e+00f,-2.33918741e-01f,-1.82938802e+00f,
+1.19667745e+00f,+1.23581576e+00f,+1.83190632e+00f,-5.60378358e-02f,+1.64147961e+00f,
+6.35385692e-01f,+4.86573547e-01f,+2.20565960e-01f,+1.37973130e+00f,+9.53233898e-01f,
-6.95797056e-02f,+5.63366771e-01f,-8.76209363e-02f,+1.65314853e+00f,-2.72837400e-01f,
-1.27040908e-01f,+1.20645201e+00f,+4.50610310e-01f,-7.66592920e-01f,-9.09980297e-01f,
+4.73256469e-01f,-1.47086903e-02f,-2.52766323e+00f,+5.64912736e-01f,+8.76631379e-01f,
+1.25149655e+00f,-1.07957101e+00f,+7.88647354e-01f,-8.90187562e-01f,-1.33058763e+00f,
+1.77851713e+00f,+1.50870547e-01f,-4.61980104e-01f,+2.37391162e+00f,-1.12290823e+00f,
-9.88497436e-02f,-1.67820692e-01f,+9.81651485e-01f,-1.61591959e+00f,-5.46106339e-01f,
-1.55568647e+00f,+8.43962729e-01f,+1.27957928e+00f,+8.63264740e-01f,+1.57437134e+00f,
+1.58242106e+00f,+1.20185852e+00f,-1.51454320e-03f,+1.19140220e+00f,-7.86666453e-01f,
-4.53768969e-01f,+3.27887684e-01f,+1.47195399e-01f,+2.20615411e+00f,-1.87444234e+00f,
+1.45407414e+00f,+7.65118539e-01f,+2.02694517e-02f,+9.26200747e-01f,-2.43830371e+00f,
-1.13787305e+00f,-2.72427821e+00f,+2.64146309e-02f,+9.42247882e-02f,+1.73672825e-01f,
+1.59074450e+00f,-1.00913860e-01f,+6.71535134e-01f,-5.50342314e-02f,-1.04742169e+00f,
-5.15749156e-01f,-6.95032537e-01f,-5.70213377e-01f,-9.77687091e-02f,+4.15131658e-01f,
+5.62933207e-01f,-5.51819146e-01f,+1.71250284e+00f,+1.33113849e+00f,-9.61451173e-01f,
-2.93219328e-01f,-4.55071665e-02f,-5.30772328e-01f,-1.94342196e-01f,+4.42988664e-01f,
+9.33508992e-01f,-2.21295810e+00f,-4.46239002e-02f,+3.28202732e-02f,+8.92622650e-01f,
+4.06604528e-01f,-8.33648264e-01f,-1.81014431e+00f,-1.67839479e+00f,+2.90953636e-01f,
+1.88108325e+00f,-1.04452476e-01f,-7.30095148e-01f,+4.31538135e-01f,+2.54935235e-01f,
-1.24631429e+00f,-1.12615913e-01f,-8.33635777e-02f,-1.33856153e+00f,-1.70756733e+00f,
+1.16444659e+00f,+9.84976411e-01f,+8.65385056e-01f,+8.98523986e-01f,+1.65771639e+00f,
+8.84318233e-01f,-1.46543217e+00f,+4.90388453e-01f,+8.22261810e-01f,+1.20755124e+00f,
-6.34994090e-01f,-5.90389967e-01f,+4.20584798e-01f,-1.61998963e+00f,-2.66800731e-01f,
+1.07021856e+00f,+5.64720809e-01f,+6.02953017e-01f,-9.25676644e-01f,-1.51828766e-01f,
+1.56907067e-01f,+2.70246118e-01f,+7.65012920e-01f,-1.98474467e-01f,+1.50000557e-01f,
-1.52020335e+00f,+6.65660083e-01f,-5.11284173e-01f,-1.73169959e+00f,+5.80341041e-01f,
-2.39940524e-01f,-2.73017406e+00f,-6.96594417e-01f,+3.37015927e-01f,-7.14431822e-01f,
-1.54258299e+00f,+2.51837671e-01f,+1.44125891e+00f,-5.87189794e-01f,-1.33187902e+00f,
-1.08153701e+00f,-7.79572576e-02f,+9.31971490e-01f,+7.25070715e-01f,+9.06477630e-01f,
-1.53619456e+00f,+4.22380030e-01f,-1.36056274e-01f,+8.02751482e-01f,+1.10557246e+00f,
+7.50622690e-01f,-1.24276809e-01f,-1.21332526e+00f,-7.66562745e-02f,+4.21638310e-01f,
-5.43919504e-01f,-1.14350402e+00f,+2.67839253e-01f,+8.96245778e-01f,+2.33858407e-01f,
+4.19108361e-01f,+1.09096549e-01f,+2.21542325e-02f,-8.32715571e-01f,+8.64311874e-01f,
+5.43887079e-01f,+4.68712538e-01f,-4.06008750e-01f,+7.91372001e-01f,-1.81532174e-01f,
-1.32398105e+00f,+7.81896889e-01f,+6.74862623e-01f,-1.79720655e-01f,+2.68257805e-03f,
-1.30159450e+00f,-7.60336546e-03f,-1.84693778e+00f,-2.41540611e-01f,+5.72715819e-01f,
+4.08310853e-02f,+2.76188105e-01f,-1.57747483e+00f,-1.54163897e+00f,-7.11972117e-02f,
+1.14355031e-02f,+5.47148287e-01f,+4.38127816e-01f,-3.12544137e-01f,+1.12187065e-01f,
+3.88408273e-01f,+1.13242543e+00f,-1.18484437e+00f,+8.39843988e-01f,-1.02280962e+00f,
-2.45203161e+00f,+4.23273623e-01f,+1.84725672e-02f,+1.76886261e-01f,-7.25538373e-01f,
-6.89006984e-01f,+1.04017723e+00f,-2.67023087e-01f,-1.53458977e+00f,-8.80983472e-01f,
-4.90084618e-01f,+7.37250805e-01f,+1.34034824e+00f,+1.38250530e-01f,-2.35246563e+00f,
+3.92903358e-01f,+3.06484252e-02f,+2.30561737e-02f,+5.85034564e-02f,-3.56537074e-01f,
-1.88661799e-01f,-1.48604226e+00f,+6.88236177e-01f,+4.57198739e-01f,-6.69121504e-01f,
-8.35565984e-01f,+6.67684615e-01f,+9.09607530e-01f,+1.13075733e+00f,+4.82300222e-01f,
+6.55829549e-01f,-1.19732849e-01f,+3.95603269e-01f,+9.21829581e-01f,+1.83611661e-01f,
-8.80053192e-02f,-8.74016464e-01f,+3.90863307e-02f,+7.09660491e-03f,+5.07590950e-01f,
-6.01322353e-01f,+6.49069250e-01f,+9.21179533e-01f,+2.98680887e-02f,-1.00025547e+00f,
+7.04283044e-02f,-2.07187891e+00f,-1.14649558e+00f,+7.11226225e-01f,+4.63866889e-02f,
-1.88333824e-01f,-1.61133885e+00f,+6.65767014e-01f,-3.59830186e-02f,-3.10962409e-01f,
+3.79071534e-01f,-3.62989068e-01f,+1.73430815e-01f,-1.00886929e+00f,+4.25000221e-01f,
+1.48872018e-01f,+6.23169541e-01f,+8.70903552e-01f,-8.89164150e-01f,-7.79803336e-01f,
+2.95275718e-01f,-5.53816080e-01f,+1.10264993e+00f,+8.95495236e-01f,-3.79266500e-01f,
+9.91217732e-01f,-4.66958672e-01f,-1.72804666e+00f,-1.67866313e+00f,-1.01389718e+00f,
-7.94343799e-02f,+7.85146177e-01f,+6.81105435e-01f,-9.65299189e-01f,+9.80086803e-01f,
+6.16875172e-01f,+1.71770409e-01f,-3.01433325e-01f,+6.43832743e-01f,+5.61218858e-01f,
-1.92881978e+00f,+9.15536582e-02f,+5.16411304e-01f,-1.58223724e+00f,-3.90940428e-01f,
+1.70659289e-01f,+2.18023226e-01f,+1.05053473e+00f,-3.00594270e-01f,+1.09225476e+00f,
-2.10235596e-01f,+4.74387884e-01f,+3.94402534e-01f,+9.20185387e-01f,-9.90042269e-01f,
-8.10875595e-01f,+7.97072887e-01f,+4.94690150e-01f,+1.80347621e-01f,+8.77242088e-01f,
+1.00508720e-01f,+9.70169246e-01f,-1.22818656e-01f,-1.07808518e+00f,-4.44926828e-01f,
-3.04191262e-01f,-6.66848183e-01f,+1.20895517e+00f,+1.37573749e-01f,-2.34677970e-01f,
-1.11438942e+00f,+4.45734352e-01f,-1.16137289e-01f,-1.32944667e+00f,-3.31990868e-01f,
-9.73308906e-02f,-6.97336197e-01f,+1.31936461e-01f,+2.82773515e-03f,-3.91938448e-01f,
-6.99741781e-01f,+9.90918577e-01f,+1.38934410e+00f,+6.05982840e-01f,+8.60762417e-01f,
-3.78722519e-01f,-6.47407770e-01f,+4.47153486e-02f,+8.08093250e-01f,+1.88487962e-01f,
+2.42292166e-01f,-2.38499069e+00f,-2.10518098e+00f,+9.52528238e-01f,+5.21481991e-01f,
-2.94765737e-02f,+1.20276117e+00f,+4.75287408e-01f,+2.73174196e-01f,+8.45275342e-01f,
-2.72301167e-01f,+2.04616919e-01f,+1.14719033e+00f,+3.86805743e-01f,-1.34236425e-01f,
-3.96814287e-01f,+6.84551477e-01f,-2.37989473e+00f,-2.88082920e-02f,+3.32608908e-01f,
-1.16082752e+00f,+2.69288361e-01f,+2.56214826e-03f,-1.92646950e-01f,+6.45499408e-01f,
+7.56206214e-01f,-6.45630658e-01f,+8.70803714e-01f,-8.94543231e-01f,+1.22180462e-01f,
+3.62117171e-01f,+9.61537123e-01f,-4.51665103e-01f,-5.54885380e-02f,+2.52160251e-01f,
+3.77396405e-01f,-5.55533290e-01f,-1.21304119e+00f,-1.70980811e-01f,+5.90449035e-01f,
-6.73087537e-02f,+8.85596275e-01f,+2.56071866e-01f,-4.90726054e-01f,-6.15570247e-01f,
+8.53640079e-01f,+2.51615554e-01f,-1.76821876e+00f,+2.65512705e-01f,-4.45220977e-01f,
-2.97639281e-01f,+2.97691792e-01f,-2.09324622e+00f,-3.28843519e-02f,+8.14604640e-01f,
+1.97144955e-01f,+3.70559424e-01f,+1.17104873e-01f,+4.76236671e-01f,+2.63674796e-01f,
-1.14189029e+00f,-4.06348974e-01f,-1.28042758e+00f,+3.98352206e-01f,+6.95843875e-01f,
-2.35743761e+00f,-2.31610250e+00f,+1.40028989e+00f,-5.42397320e-01f,-3.20775807e-01f,
+7.24691987e-01f,+4.29998845e-01f,+9.78982300e-02f,+7.64754236e-01f,-5.64367890e-01f,
+5.56805618e-02f,+4.34297681e-01f,+9.93955672e-01f,+1.13176024e+00f,+8.76222610e-01f,
-4.11606431e-02f,-1.05564785e+00f,+1.17108993e-01f,-1.29577607e-01f,+7.82206133e-02f,
-1.09691434e-02f,+8.84362757e-01f,+6.75868392e-01f,+3.03885937e-01f,+2.10864581e-02f,
-7.65713930e-01f,+5.57812035e-01f,-1.34692848e+00f,-3.17099899e-01f,-1.00041619e-02f,
+1.25855958e+00f,+3.31484377e-01f,+4.20594156e-01f,+3.66958618e-01f,-4.43809420e-01f,
-1.55583084e+00f,-1.10362577e+00f,-1.34008285e-02f,+1.40359473e+00f,-8.86678338e-01f,
-5.52819312e-01f,+4.81627285e-01f,+4.81874704e-01f,-8.31621826e-01f,+2.22018316e-01f,
-2.61358410e-01f,-1.71130753e+00f,+2.74600238e-01f,-1.55945480e-01f,-5.31418800e-01f,
-5.20957053e-01f,-1.40465963e+00f,+4.31940928e-02f,-5.13095707e-02f,+7.55197883e-01f,
+9.37547162e-02f,+4.01783228e-01f,-5.13732135e-02f,+7.03949556e-02f,-1.76581752e+00f,
-6.85666576e-02f,-1.42227590e+00f,+7.10677505e-01f,+6.84916437e-01f,-1.67016059e-01f,
-1.93521428e+00f,-5.48873544e-01f,+4.64791059e-01f,-5.79422653e-01f,+3.78774166e-01f,
+7.60667503e-01f,-2.51641959e-01f,+9.33891654e-01f,+8.49640593e-02f,+7.73148179e-01f,
-2.83122063e-01f,+1.12095034e+00f,-1.13500953e-01f,+2.86530167e-01f,-3.83405060e-01f,
+2.53539622e-01f,+1.98146775e-01f,-1.57047749e+00f,-1.26163155e-01f,-3.66484195e-01f,
-3.16671222e-01f,+1.53538093e-01f,+2.13993527e-02f,+3.01884711e-01f,-1.99476528e+00f,
-8.59355927e-01f,-1.46514618e+00f,+1.41031742e-01f,+5.21078229e-01f,+1.03660727e+00f,
-6.20608747e-01f,-3.66916895e-01f,-8.65707397e-02f,+2.60360152e-01f,+1.15198316e-02f,
-1.45177329e+00f,-3.34202111e-01f,+6.45840228e-01f,+8.44337046e-02f,-9.68824744e-01f,
+2.57132828e-01f,+1.01470006e+00f,-1.91734791e-01f,+3.41237396e-01f,+1.10942736e-01f,
-6.95877612e-01f,-4.00190622e-01f,-1.54471624e+00f,+5.68115227e-02f,-1.68501526e-01f,
+2.29651898e-01f,+1.55876502e-01f,+3.95969629e-01f,+3.16346258e-01f,+9.62455988e-01f,
-9.06708091e-02f,-4.12564307e-01f,-3.35045844e-01f,-1.83934689e-01f,+4.08131838e-01f,
-2.29716301e+00f,+1.54443532e-01f,-2.84072667e-01f,+1.28996301e+00f,-2.05176950e+00f,
+1.30722296e+00f,+3.57715040e-01f,-6.15090847e-01f,-6.20688759e-02f,+1.00360548e+00f,
-1.22918093e+00f,+6.91337585e-01f,+4.42875326e-01f,+6.97123289e-01f,-1.61839709e-01f,
+1.16973269e+00f,+9.55832779e-01f,-7.02507555e-01f,+2.75088906e-01f,+1.66412818e+00f,
+3.90352830e-02f,-1.55558431e+00f,-5.33440292e-01f,-4.89927888e-01f,-2.53748477e-01f,
+6.52823329e-01f,-3.86268139e-01f,+7.75608599e-01f,-2.20545220e+00f,-1.45897949e+00f,
-2.46144414e+00f,+5.08845031e-01f,+3.91562849e-01f,+1.24789786e+00f,+1.52360752e-01f,
+3.84104401e-02f,-4.15785573e-02f,-7.46490896e-01f,+1.66962668e-02f,-1.30420375e+00f,
-1.54562807e+00f,+2.39296444e-03f,+4.44800198e-01f,+6.07892334e-01f,-7.62055874e-01f,
+6.88692555e-02f,+2.62721568e-01f,+1.20519149e+00f,+6.11867189e-01f,-7.53633440e-01f,
-1.16459048e+00f,-9.53174531e-01f,-4.54498619e-01f,-7.64117897e-01f,-1.37094557e+00f,
+3.81715566e-01f,-2.94593424e-01f,+3.82869154e-01f,+4.44595426e-01f,-1.78821459e-01f,
-2.56887794e+00f,-5.96571982e-01f,+4.24251765e-01f,+2.13963002e-01f,+2.61226952e-01f,
+4.40726727e-01f,+2.80950703e-02f,+3.29434276e-01f,-4.17843878e-01f,+3.40500414e-01f,
+6.47953749e-01f,-3.15875500e-01f,-7.58627653e-01f,+4.89032298e-01f,-1.56286943e+00f,
-3.44234049e-01f,-9.06697810e-02f,+4.17373925e-01f,+5.17379701e-01f,+1.19584429e+00f,
+7.09405899e-01f,+6.65186286e-01f,-1.56250244e-04f,-6.40276894e-02f,-2.08846796e-02f,
-5.04808426e-02f,-9.57984254e-02f,-3.07778448e-01f,-1.55601561e-01f,+1.00439286e+00f,
-1.49042714e+00f,+8.50362703e-02f,-2.12968302e+00f,+3.00989389e-01f,-1.02698886e+00f,
-2.32727211e-02f,+4.68918215e-03f,+9.62242126e-01f,-1.01695091e-01f,+3.48647445e-01f,
+3.20077747e-01f,+3.37557554e-01f,+5.64059854e-01f,-7.33926535e-01f,-1.26926661e+00f,
+3.96423012e-01f,+8.54954779e-01f,-1.19326733e-01f,-8.93197536e-01f,+2.78072972e-02f,
+1.07284725e+00f,+4.97431606e-01f,+2.80547291e-01f,+7.46263564e-02f,+1.49899414e-02f,
-2.65022337e-01f,+5.08747339e-01f,-2.50278056e-01f,+3.98082957e-02f,+9.66054201e-02f,
-3.57668281e-01f,-3.61941159e-01f,-5.16564131e-01f,+6.54574335e-01f,-2.48931885e+00f,
-5.62179625e-01f,+5.27649164e-01f,-3.94859910e-01f,+3.33178014e-01f,-4.79184747e-01f,
-5.09893656e-01f,+4.98031974e-01f,+7.62053907e-01f,+2.01101050e-01f,+6.63349569e-01f,
-8.27907205e-01f,-1.51322171e-01f,-3.45744461e-01f,-1.25281692e+00f,-1.17272413e+00f,
-9.40505803e-01f,+4.40219313e-01f,+5.32390773e-01f,+1.12201273e+00f,+7.27152348e-01f,
+6.53370142e-01f,-7.12897420e-01f,+4.31019336e-01f,-5.64590037e-01f,+6.48646533e-01f,
-6.92825466e-02f,-1.69927850e-01f,+2.38363728e-01f,+4.80289549e-01f,-5.79826415e-01f,
-2.60506988e-01f,-7.38573909e-01f,-1.69336125e-01f,+8.45180273e-01f,-8.07366014e-01f,
-3.07722062e-01f,+1.28494096e+00f,+2.14813337e-01f,+3.04109722e-01f,-2.33990490e-01f,
+5.02868235e-01f,+1.96423039e-01f,+1.65288162e+00f,-1.74946201e+00f,+1.58350214e-01f,
+7.13033855e-01f,-1.09095320e-01f,-1.65429032e+00f,-1.21814418e+00f,+4.95663702e-01f,
+5.28603375e-01f,-2.04345379e-02f,+4.61672954e-02f,-3.48010302e-01f,-4.95954990e-01f,
+2.20604077e-01f,-2.47972578e-01f,+3.63593936e-01f,-8.21434677e-01f,+1.36043608e-01f,
-5.10964096e-01f,+8.56029332e-01f,+4.05169278e-01f,-2.22125697e+00f,-4.46689099e-01f,
+4.17877406e-01f,-7.27882802e-01f,+7.62166142e-01f,-4.82930064e-01f,-3.57806891e-01f,
+7.57447243e-01f,+1.73290029e-01f,+1.12868641e-02f,-4.21561301e-01f,-4.76376981e-01f,
-5.61476111e-01f,+1.52794763e-01f,-1.87537956e+00f,-1.75370061e+00f,-1.48308527e+00f,
+5.89126587e-01f,+6.36207033e-03f,+9.42074776e-01f,+4.48968112e-01f,+2.22914636e-01f,
-1.40918088e+00f,+1.68276787e-01f,-1.25213814e+00f,-1.36768401e-01f,-1.35928482e-01f,
-4.87841010e-01f,+1.09239765e-01f,-3.31535161e-01f,-1.49748909e+00f,+1.02932310e+00f,
-3.25438827e-01f,-3.45687289e-03f,+3.52400720e-01f,-5.48473477e-01f,+8.35111141e-01f,
-1.13941133e+00f,+6.97041154e-01f,-9.33917798e-03f,+6.42817378e-01f,-7.23137110e-02f,
-7.45236933e-01f,+2.74424881e-01f,+5.43247044e-01f,+1.78449258e-01f,-5.40541112e-01f,
-9.18077290e-01f,-2.51494026e+00f,-1.40921450e+00f,+8.42864275e-01f,+3.56775731e-01f,
-5.27101636e-01f,-6.31074011e-01f,+3.26679826e-01f,+1.84316903e-01f,+6.55273855e-01f,
+1.13713312e+00f,+1.16747570e+00f,-1.36114693e+00f,-5.07722855e-01f,-8.64780068e-01f,
+2.88555324e-01f,-4.61212933e-01f,-8.52872968e-01f,+1.02226222e+00f,+3.53233784e-01f,
-1.81925952e-01f,+9.90118384e-01f,-1.22432661e+00f,+1.68331295e-01f,+6.13615036e-01f,
+7.91741431e-01f,-7.03237176e-01f,-1.06570697e+00f,-5.83013892e-01f,-1.36599207e+00f,
+6.08715057e-01f,+2.99269199e-01f,-2.22148991e+00f,-3.40417288e-02f,+9.37302187e-02f,
-4.49731350e-01f,+1.81075186e-01f,+9.34200883e-02f,+4.34220761e-01f,-3.29517461e-02f,
-5.98683357e-02f,-1.54555273e+00f,-1.17039323e-01f,-3.75493705e-01f,+1.01325050e-01f,
+4.54792321e-01f,+6.46191359e-01f,-8.41753781e-01f,+6.40100598e-01f,-2.72116214e-01f,
-1.17604204e-01f,-3.19083840e-01f,-8.05332243e-01f,+6.87650204e-01f,-1.48838258e+00f,
+2.95369059e-01f,+4.35496382e-02f,-1.48254901e-01f,+6.26037300e-01f,-1.07125413e+00f,
+1.02660632e+00f,-2.77394861e-01f,+6.71124339e-01f,+4.01765198e-01f,-1.44201741e-01f,
-1.69615340e+00f,-1.73390472e+00f,+4.83786225e-01f,+1.94070846e-01f,+2.07474425e-01f,
+7.47314990e-01f,-1.02024332e-01f,+9.60330963e-01f,+9.50919092e-01f,+1.40944552e+00f,
+6.24379277e-01f,+1.92696527e-01f,+2.00703815e-01f,-6.55712962e-01f,-2.91407079e-01f,
-8.69484663e-01f,+2.76756018e-01f,+1.37702298e+00f,+7.21054792e-01f,+6.88293397e-01f,
+3.26046765e-01f,-1.48647511e+00f,-8.07569250e-02f,+1.22001991e-01f,+2.31480241e-01f,
+3.39591801e-02f,+8.08452904e-01f,-1.55680001e+00f,-1.41286230e+00f,+5.97351551e-01f,
+1.69211578e+00f,-1.94782615e+00f,+6.60146058e-01f,-1.64273090e-03f,-1.71060994e-01f,
-9.39058959e-01f,+3.38084906e-01f,-3.23312753e-03f,+4.86562043e-01f,-1.69623047e-01f,
+1.22316010e-01f,+2.24615946e-01f,+3.01825404e-01f,+5.42323768e-01f,+1.08639531e-01f,
+5.27217448e-01f,+2.09556997e-01f,+3.72748762e-01f,+5.35790861e-01f,+7.21296489e-01f,
-6.11071169e-01f,-1.93955028e+00f,+4.60087091e-01f,-2.02856469e+00f,+2.60984689e-01f,
-4.37373906e-01f,-4.51887995e-02f,+3.79558057e-02f,+2.35595852e-01f,+7.77644634e-01f,
+3.76627386e-01f,+6.52764678e-01f,-9.96732891e-01f,+2.70796835e-01f,-1.81619596e+00f,
+1.06933928e+00f,+6.17643297e-01f,-8.43431354e-02f,+9.17053699e-01f,+9.48000073e-01f,
-1.03699498e-01f,+4.27044749e-01f,+3.73289108e-01f,+3.85701805e-01f,-2.19584648e-02f,
+4.81249243e-01f,+3.45739007e-01f,-1.38936388e+00f,+8.34475577e-01f,-1.03722525e+00f,
+2.90558547e-01f,+1.16204172e-01f,+3.69658291e-01f,+5.29573023e-01f,-3.99596959e-01f,
-7.13101447e-01f,+5.31620920e-01f,-3.86135072e-01f,+8.96399498e-01f,+7.78859854e-01f,
-3.38782847e-01f,-1.55402291e+00f,+7.84606457e-01f,+7.12560475e-01f,+7.67055154e-01f,
+1.18500686e+00f,+1.83291048e-01f,+1.76374570e-01f,+1.44987285e-01f,-2.13061857e+00f,
+4.03279573e-01f,-4.73269932e-02f,-1.52574563e+00f,+3.03993225e-01f,-1.04214931e+00f,
+3.46859634e-01f,+7.93619573e-01f,+4.93648887e-01f,+4.83638704e-01f,-9.37845409e-01f,
+6.10892475e-01f,+3.21437776e-01f,+8.70468795e-01f,+2.80274707e-03f,-5.21686912e-01f,
-1.20836151e+00f,-3.01041156e-01f,-2.17266989e+00f,-3.70718213e-03f,+3.79719026e-02f,
+5.43639421e-01f,+1.53401971e-01f,+1.04133749e+00f,+1.85364351e-01f,+9.92895901e-01f,
-1.46613047e-01f,-4.20285255e-01f,+9.06978667e-01f,-2.05651212e+00f,+9.75033268e-02f,
+9.75500762e-01f,-4.05828893e-01f,+1.14731979e+00f,+1.05532813e+00f,+6.45875931e-01f,
+1.32305431e+00f,+5.88817954e-01f,-6.76791310e-01f,+3.65809798e-01f,-8.09943140e-01f,
+6.38351440e-01f,-1.43653080e-01f,+6.92747533e-01f,-5.99471927e-02f,+9.69535485e-02f,
+8.33460987e-01f,+2.39931509e-01f,+1.04680085e+00f,-1.14071357e+00f,-1.53768575e+00f,
+7.91852891e-01f,-7.49879897e-01f,+1.79193795e-01f,-4.30539697e-01f,+6.21263862e-01f,
-1.02624905e+00f,-7.45571494e-01f,+9.06083226e-01f,-1.73020884e-01f,+8.84265304e-02f,
-1.46714270e-01f,-1.33106515e-01f,-3.02419253e-03f,-2.13551807e+00f,-4.17811610e-02f,
+2.53966987e-01f,+2.48541117e-01f,+4.37781721e-01f,-9.06011939e-01f,+3.95731181e-01f,
+8.47060442e-01f,+2.54481345e-01f,+7.77453303e-01f,+6.34390488e-02f,+9.21450794e-01f,
+5.85321367e-01f,+7.99422085e-01f,-4.65974510e-01f,+4.89015341e-01f,+6.51849926e-01f,
-7.82212734e-01f,-9.71420407e-01f,-1.72141433e-01f,-7.81547844e-01f,+1.54300369e-02f,
+1.35332108e-01f,+8.32763076e-01f,-1.03635676e-01f,+8.95856023e-01f,+4.26769197e-01f,
+4.96245511e-02f,+8.28442425e-02f,+2.55940884e-01f,+7.80850470e-01f,+8.40365887e-01f,
+1.13003388e-01f,+7.19081223e-01f,+2.35064492e-01f,+4.13557410e-01f,+1.14831376e+00f,
+4.48235273e-01f,-4.75261629e-01f,+3.27195019e-01f,-3.08389843e-01f,+1.61993459e-01f,
+3.87040704e-01f,+4.04504597e-01f,+7.39493728e-01f,+5.09329677e-01f,+3.01026821e-01f,
+9.43074003e-02f,+6.99942768e-01f,-7.31152594e-01f,-1.55307269e+00f,+5.78816473e-01f,
-7.70476997e-01f,+6.45313680e-01f,+4.24018919e-01f,+4.47299659e-01f,+7.04402685e-01f,
+6.04170799e-01f,+8.93141389e-01f,+5.63947797e-01f,-1.27782568e-01f,+9.12643299e-02f,
-4.08193022e-02f,+1.59622356e-01f,+1.61718637e-01f,+2.94043366e-02f,-1.56217918e-01f,
-1.41370282e-01f,+1.18390456e-01f,-2.24845797e-01f,+1.13778479e-01f,+1.47692144e-01f,
-2.01789057e-03f,-2.22514659e-01f,+2.80414149e-02f,+2.81431265e-02f,+1.37135819e-01f,
+1.89433858e-01f,+8.97630528e-02f,-3.37055251e-02f,-2.67717868e-01f,+1.89107005e-02f,
+1.28314614e-01f,-5.72019443e-02f,+1.54026836e-01f,-1.18698910e-01f,-1.71690017e-01f,
+1.25307695e-03f,+6.65093809e-02f,-1.40402228e-01f,+1.29534155e-01f,+2.61833400e-01f,
+2.75653396e-02f,+1.99380904e-01f,-4.41792095e-03f,-1.00817941e-01f,+1.82551742e-02f,
-7.14737773e-02f,-1.68325350e-01f,-2.14594007e-02f,+6.36367500e-02f,-1.80927604e-01f,
-4.49148007e-03f,-5.39122932e-02f,-7.94104785e-02f,-3.66540328e-02f,+2.13150010e-01f,
-2.86018569e-02f,-6.89507369e-03f,-1.35292009e-01f,+2.25498423e-01f,-1.14726655e-01f,
+2.46703744e-01f,-8.49156640e-03f,+1.45510808e-01f,-6.74761236e-02f,-9.59948823e-02f,
+4.40567099e-02f,+9.76587981e-02f,-2.41627693e-02f,+3.40130739e-02f,+1.62854448e-01f,
+2.34219223e-01f,-1.39831990e-01f,+2.23516133e-02f,+9.24069211e-02f,-3.59505825e-02f,
-1.03803784e-01f,-1.16727635e-01f,-3.38464417e-02f,+1.65999439e-02f,+3.16692293e-02f,
-7.25688711e-02f,-2.99676329e-01f,-1.23467930e-01f,+9.16718692e-02f,-1.18235059e-01f,
+1.11506619e-01f,-1.56580567e-01f,-1.57409385e-01f,-1.16176657e-01f,-8.03176612e-02f,
+5.36240824e-02f,+9.61241312e-03f,+6.02582805e-02f,-1.43175563e-02f,+5.51305292e-03f,
+1.82911754e-01f,-1.90184325e-01f,-1.82658374e-01f,-1.16127536e-01f,+9.13409367e-02f,
-7.77201056e-02f,-6.21717945e-02f,+4.01777141e-02f,-2.05404218e-02f,-8.80189911e-02f,
+2.21939355e-01f,+9.54720750e-02f,-1.33553416e-01f,-1.84397012e-01f,+1.01998582e-01f,
+9.66979265e-02f,+3.21577489e-02f,+7.93098137e-02f,-2.48672497e-02f,+8.52981582e-02f,
+1.83879614e-01f,-4.38583679e-02f,+1.96627989e-01f,+1.02701090e-01f,+2.28078961e-01f,
-1.01874188e-01f,-1.32116908e-02f,-4.08167318e-02f,+6.64488152e-02f,+5.79337142e-02f,
-3.51024531e-02f,+2.13708933e-02f,+6.40977174e-02f,+6.54056892e-02f,-5.50940260e-03f,
-1.16782129e-01f,-6.80169612e-02f,-8.44973326e-02f,+5.29767126e-02f,+2.34275967e-01f,
-1.25411555e-01f,-1.41938450e-02f,+5.08345924e-02f,+3.49111259e-02f,+4.98870239e-02f,
+1.50970757e-01f,+4.88801971e-02f,-6.82880031e-03f,+1.89839229e-01f,+1.48467720e-01f,
-3.21165174e-01f,-1.05477534e-01f,-1.50719225e-01f,-1.38083734e-02f,+1.07028089e-01f,
-4.01302502e-02f,-1.68293580e-01f,-2.13712409e-01f,+1.81664839e-01f,+2.31716663e-01f,
-1.13811214e-02f,-2.31092468e-01f,+1.67860359e-01f,-1.60136998e-01f,+5.71439788e-02f,
+1.40732154e-01f,-8.32978636e-02f,+9.39887911e-02f,-1.18564777e-01f,-1.51562855e-01f,
+5.75288273e-02f,-2.10455269e-01f,+2.67508477e-02f,+5.30360155e-02f,-1.01410322e-01f,
+3.64013761e-02f,+2.78642271e-02f,+1.89505033e-02f,-1.66689023e-01f,-6.36929423e-02f,
+1.00810744e-01f,-2.48489261e-01f,-1.58231705e-01f,-3.16704214e-02f,+1.53792858e-01f,
+1.75259039e-01f,+9.32715610e-02f,+1.51551530e-01f,-1.12996109e-01f,-1.08880013e-01f,
+2.45572716e-01f,-4.12983596e-02f,+1.63910776e-01f,+5.92669193e-03f,+2.57485025e-02f,
+1.30925119e-01f,-1.37796283e-01f,+9.32255611e-02f,+5.17811533e-03f,-1.03622220e-01f,
-2.48689018e-02f,-1.77185133e-01f,-1.19707555e-01f,+8.74429792e-02f,-8.37586001e-02f,
-1.14796087e-01f,+2.76907235e-01f,-6.06260374e-02f,-3.73531356e-02f,+4.68064174e-02f,
-6.64217398e-02f,+4.18794481e-03f,-7.82320127e-02f,-2.28891194e-01f,-1.71700358e-01f,
+5.93203120e-02f,-9.42628682e-02f,-1.42526373e-01f,+1.11027043e-02f,-4.91358414e-02f,
+1.50087938e-01f,+1.68707386e-01f,+1.71078369e-01f,+9.49077532e-02f,-1.08735226e-01f,
+1.09102510e-01f,-1.85203254e-01f,+5.48987798e-02f,+2.20674276e-01f,+8.64985809e-02f,
-1.10912681e-01f,-9.22215283e-02f,+1.09614037e-01f,+1.27772605e-02f,+3.71709652e-03f,
-1.46450043e-01f,-5.87023273e-02f,+8.53068903e-02f,-6.94798902e-02f,+3.90714407e-02f,
-3.46264094e-02f,-1.59908254e-02f,-2.22777739e-01f,+1.45006403e-01f,+2.13259473e-01f,
+2.10789754e-03f,-1.81459278e-01f,+1.89973697e-01f,-5.63487820e-02f,+1.56899348e-01f,
+1.41749993e-01f,-8.32352117e-02f,-6.02240786e-02f,-1.17700599e-01f,-7.23662451e-02f,
+1.53504685e-01f,+9.31494161e-02f,-5.22565888e-03f,+2.10854724e-01f,+1.14827901e-01f,
-1.25851452e-01f,+1.07919239e-01f,+6.78811520e-02f,+1.24936551e-01f,+9.72244740e-02f,
+3.85563113e-02f,-1.45947859e-01f,-1.75839871e-01f,+1.62063196e-01f,+3.93262058e-02f,
+2.10674301e-01f,+1.30359426e-01f,+1.42308534e-03f,-8.31092298e-02f,+4.53622900e-02f,
-1.16716050e-01f,+1.10498749e-01f,-1.10337017e-02f,-2.06219107e-01f,+1.61205605e-01f,
-1.83809817e-01f,+2.05265328e-01f,+1.39647931e-01f,-1.15263484e-01f,+2.46565193e-01f,
+1.02098500e-02f,-1.75910313e-02f,+6.54343441e-02f,-1.03134155e-01f,-2.62887150e-01f,
-1.45475537e-01f,-3.13147828e-02f,+2.47894615e-01f,+1.49187118e-01f,-1.55157045e-01f,
+2.06865907e-01f,-4.67738286e-02f,-1.78059742e-01f,-2.12444179e-02f,-2.06194729e-01f,
+1.25231668e-01f,+9.20301005e-02f,+1.90902710e-01f,-2.36968398e-01f,+2.23110721e-01f,
-8.39050859e-02f,+1.47623885e-02f,+1.37776896e-01f,-8.95930007e-02f,-1.05997272e-01f,
+1.37847766e-01f,-2.90414896e-02f,-8.83351117e-02f,-1.25051767e-01f,+2.14744523e-01f,
+1.02048673e-01f,-1.56061411e-01f,-3.71057987e-02f,+4.01500948e-02f,+4.65806201e-02f,
+4.61229868e-02f,-8.73172283e-02f,-1.85190812e-02f,+2.75968481e-02f,+5.45229353e-02f,
-9.49608609e-02f,+1.78673211e-02f,-1.30144104e-01f,+1.50509432e-01f,-2.21081413e-02f,
-3.04719936e-02f,+2.18486696e-01f,+1.61104634e-01f,-2.05166936e-02f,+8.02820176e-02f,
+2.01875612e-01f,-1.21854454e-01f,-1.46773756e-01f,+3.89228761e-03f,+2.13637516e-01f,
-1.29241511e-01f,+1.64619401e-01f,+1.28641576e-02f,-1.80350289e-01f,-5.76547086e-02f,
+1.32186711e-03f,+1.49276391e-01f,-5.41098118e-02f,+1.66619271e-02f,+1.84949860e-01f,
-2.12239504e-01f,+1.88951030e-01f,-1.47192836e-01f,+2.60000974e-02f,-4.25973982e-02f,
-5.98222911e-02f,-1.59414396e-01f,+4.64604646e-02f,+1.91936925e-01f,-2.06804216e-01f,
-1.04188621e-02f,+6.72910064e-02f,+4.44109291e-02f,-2.11789593e-01f,-2.01553375e-01f,
+4.81768698e-02f,+1.92868263e-02f,-5.05018979e-02f,-6.92980140e-02f,+1.69757888e-01f,
-1.99380726e-01f,-1.28533244e-01f,+1.71435967e-01f,+2.95782089e-03f,+6.43677860e-02f,
-2.07364798e-01f,-1.16526037e-02f,+2.13760152e-01f,-5.12686372e-02f,-3.20294648e-02f,
-3.69800478e-02f,-7.57322907e-02f,-1.97079182e-01f,+1.37922987e-01f,+5.23083061e-02f,
+1.64855942e-01f,-1.13193229e-01f,+1.65088072e-01f,-2.03129709e-01f,-8.87069106e-02f,
-1.49502635e-01f,+3.40841562e-02f,+7.64634162e-02f,-7.71787614e-02f,-1.67894438e-01f,
-1.60198599e-01f,-1.21761851e-01f,-1.34620145e-01f,+2.78333515e-01f,-6.60035834e-02f,
+7.22324848e-02f,+8.45858641e-03f,-2.08889768e-01f,+8.92182514e-02f,+5.02287447e-02f,
+9.95490402e-02f,-3.62776071e-01f,-1.29155427e-01f,-1.37281984e-01f,+7.13210879e-03f,
-2.98524927e-02f,+1.41250104e-01f,-6.03724504e-03f,-1.26992762e-01f,-8.48497674e-02f,
+3.23298782e-01f,+2.68621054e-02f,+1.23214848e-01f,-3.16481031e-02f,+1.18589163e-01f,
-1.00877158e-01f,+4.95427512e-02f,+3.35397050e-02f,+2.26752654e-01f,+3.74538600e-02f,
+1.24750435e-01f,+1.42280713e-01f,+1.36153087e-01f,-7.83199072e-02f,-1.79579735e-01f,
+5.94148487e-02f,-7.83280805e-02f,+7.16348961e-02f,+1.33436978e-01f,-1.43195376e-01f,
-1.07020468e-01f,-6.14824444e-02f,+4.28820141e-02f,-1.57070339e-01f,+4.85167047e-03f,
-7.36235976e-02f,-1.23297542e-01f,+1.07283570e-01f,-1.73352048e-01f,+2.33268477e-02f,
+1.32700697e-01f,+1.74624976e-02f,+2.24226013e-01f,-1.57862663e-01f,-5.86801656e-02f,
-2.32048566e-03f,+4.46999371e-02f,+2.16211393e-01f,-1.37019947e-01f,+2.61975769e-02f,
-8.12035799e-02f,-9.72666144e-02f,+8.86168480e-02f,-1.18309148e-01f,+9.52743441e-02f,
-5.81846349e-02f,-1.56588048e-01f,-8.37515295e-03f,-1.54643029e-01f,+9.49627906e-02f,
-6.98897839e-02f,-2.97993422e-04f,+1.28876165e-01f,+6.64178878e-02f,-1.68359533e-01f,
+4.42928225e-02f,-8.49217325e-02f,+1.04107395e-01f,+2.01183096e-01f,-1.77241430e-01f,
+8.22096020e-02f,-1.43566489e-01f,-1.21081717e-01f,-8.98075402e-02f,+2.63607502e-02f,
+6.65566176e-02f,-1.94540545e-01f,+2.10767999e-01f,+1.73802957e-01f,-5.47695011e-02f,
-1.66826278e-01f,-5.06817251e-02f,-5.26547730e-02f,-5.61485589e-02f,-1.51049763e-01f,
+4.78657633e-02f,-7.75854141e-02f,-8.96730274e-02f,-1.74280107e-02f,+9.76465791e-02f,
+1.35815725e-01f,-1.02076530e-01f,-3.23920399e-02f,+1.11977756e-03f,+8.82871896e-02f,
+6.68458492e-02f,-2.03961968e-01f,+1.45622194e-02f,+1.28802851e-01f,+1.84470519e-01f,
-1.53105408e-02f,-2.00653076e-01f,-6.97699189e-02f,+2.09705219e-01f,+1.85039982e-01f,
-1.34230494e-01f,-2.02810600e-01f,-2.36214399e-02f,-1.94743931e-01f,+5.10829240e-02f,
-3.77749354e-02f,+5.64729422e-02f,+2.06449196e-01f,+1.47251785e-02f,+2.08879665e-01f,
-1.30873203e-01f,+1.54753432e-01f,-1.58776134e-01f,+1.97854042e-02f,-1.59935445e-01f,
+1.16310291e-01f,-2.15531662e-01f,-4.26451862e-01f,+1.52258739e-01f,+9.43591818e-03f,
-1.40688092e-01f,-2.24969417e-01f,-7.26485029e-02f,+5.40866889e-02f,+3.89469951e-01f,
-2.04727218e-01f,+4.58987430e-02f,-8.52146819e-02f,+4.48439181e-01f,-6.25421181e-02f,
+3.05330694e-01f,+2.29885310e-01f,+2.76758909e-01f,+6.14730874e-03f,+9.35065001e-02f,
-1.26749083e-01f,-1.12870097e-01f,-6.26509786e-02f,-2.40102559e-01f,+9.65139121e-02f,
+2.85131723e-01f,+1.07271239e-01f,-1.76360652e-01f,+2.18502386e-03f,-1.55988693e-01f,
-1.84191912e-01f,-1.32956192e-01f,+3.82347643e-01f,-4.53904539e-01f,+2.47388884e-01f,
+1.60222217e-01f,-1.46357045e-01f,+1.26448810e-01f,-5.81501685e-02f,-3.41901064e-01f,
+7.09379166e-02f,+2.63037682e-01f,-1.96099132e-01f,+2.03801095e-02f,-1.64693683e-01f,
-2.52438128e-01f,-3.65358591e-02f,-2.35052377e-01f,-1.01926215e-01f,+1.57179892e-01f,
+3.91978711e-01f,+3.14123541e-01f,-3.33389342e-01f,-1.27039999e-01f,+3.53655100e-01f,
-4.02821481e-01f,+2.23232266e-02f,+5.52713536e-02f,-6.48726076e-02f,+2.60711145e-02f,
+3.30280453e-01f,+2.35544771e-01f,+4.47975457e-01f,+7.37582520e-02f,+9.98202860e-02f,
-1.11577276e-03f,-8.23559240e-02f,-4.94771376e-02f,-1.69827372e-01f,-4.73749079e-02f,
+1.65014610e-01f,+8.26527253e-02f,+5.17673977e-02f,-5.27287275e-02f,-5.02093658e-02f,
+6.45829961e-02f,-1.90226868e-01f,-2.08041072e-01f,-1.31461233e-01f,+1.15930147e-01f,
+2.80264802e-02f,-1.30220488e-01f,+9.33003426e-03f,+1.81404874e-01f,-3.15211527e-02f,
-1.85773462e-01f,+2.23374128e-01f,+1.36464745e-01f,-2.05233842e-01f,+5.14702946e-02f,
-1.40339851e-01f,+2.13183537e-01f,+1.43908754e-01f,-1.52555741e-02f,+4.78626527e-02f,
-5.39247841e-02f,-1.18833750e-01f,+1.42721057e-01f,+6.36965707e-02f,-9.68555138e-02f,
-4.94781546e-02f,-1.19176567e-01f,-2.32997790e-01f,-1.04346432e-01f,+9.20501724e-02f,
+1.41963989e-01f,-9.51753929e-02f,-9.78703983e-03f,+3.74161755e-04f,-6.52763471e-02f,
-7.65554383e-02f,-1.18047960e-01f,-1.08613789e-01f,+6.44050911e-02f,-9.52884182e-02f,
+9.27896574e-02f,+4.42605503e-02f,+1.09396607e-01f,+2.76159316e-01f,-6.43946842e-05f,
+1.51262164e-01f,-2.23918051e-01f,-5.11122048e-02f,-4.00399305e-02f,+1.79536000e-01f,
-1.69184133e-01f,-1.21691935e-01f,+2.82169282e-02f,+1.15732893e-01f,-1.83792353e-01f,
-1.07564576e-01f,+1.03045270e-01f,-7.19633251e-02f,-1.45793498e-01f,-1.94413155e-01f,
+2.28872001e-02f,-1.11027062e-03f,-1.40877604e-01f,+1.06102094e-01f,-6.72573149e-02f,
+8.25234503e-02f,-1.70865178e-01f,+1.94652960e-01f,-1.40795588e-01f,-1.34104609e-01f,
-1.25050962e-01f,-4.56003994e-02f,-1.28838837e-01f,+3.89551967e-02f,+1.99766055e-01f,
-3.75589579e-02f,-3.33093107e-02f,+8.52194875e-02f,-9.91432741e-02f,+1.10978469e-01f,
+2.04075798e-01f,+7.52092749e-02f,+1.00969091e-01f,+6.21872097e-02f,-1.70780510e-01f,
-2.61864066e-03f,+2.10397020e-01f,+1.55414030e-01f,+1.91853628e-01f,-2.25646347e-02f,
-1.39694899e-01f,+1.95763871e-01f,-2.01104537e-01f,-4.96411324e-03f,+1.22792795e-01f,
-1.38469934e-01f,+1.48411825e-01f,-9.06074792e-02f,-1.14608213e-01f,+1.59535602e-01f,
+1.33037314e-01f,+9.31854546e-03f,+6.23588115e-02f,+1.75831810e-01f,-8.83572996e-02f,
+1.04794905e-01f,-8.34016502e-02f,-1.09562278e-03f,+8.33817273e-02f,+8.45174044e-02f,
+4.17918414e-02f,+5.15340716e-02f,+8.19599479e-02f,+7.12545961e-02f,+1.07732967e-01f,
+2.10895047e-01f,-1.02117725e-01f,+5.37783280e-02f,+8.84930864e-02f,+4.49580476e-02f,
-5.77955484e-01f,+3.92451853e-01f,-8.91022570e-03f,+3.72311920e-01f,-3.15259881e-02f,
-1.66272581e-01f,+8.71103108e-01f,-8.69742483e-02f,-4.37702745e-01f,+3.09170783e-01f,
-3.30068886e-01f,-9.55707803e-02f,-2.44511172e-01f,-2.29608923e-01f,-3.30256931e-02f,
-3.63010436e-01f,+2.13050973e-02f,+1.31971002e-01f,-1.59595639e-01f,+2.18023792e-01f,
+5.30914776e-02f,+2.71960616e-01f,+4.81554002e-01f,+1.79229882e-02f,+1.61393568e-01f,
-5.74648008e-02f,-5.37397116e-02f,+1.99659929e-01f,-6.58885911e-02f,+2.47507781e-01f,
+2.51528293e-01f,-6.42363355e-02f,+3.39768045e-02f,-1.02098249e-01f,+1.07812233e-01f,
+2.45843992e-01f,+1.94230422e-01f,-1.57826409e-01f,+5.67535721e-02f,+5.42176962e-01f,
-1.04934841e-01f,+5.11590779e-01f,+1.13700598e-01f,-2.75686860e-01f,-3.80281033e-03f,
+3.08901668e-01f,-1.64282262e-01f,+6.04861856e-01f,-6.58540353e-02f,-1.55699581e-01f,
-1.28678188e-01f,-1.90881580e-01f,+3.77190113e-01f,+7.40012303e-02f,-1.45510599e-01f,
-2.57405937e-02f,-2.35246822e-01f,+7.51818204e-03f,-2.93288589e-01f,+2.04526563e-03f,
-4.69267853e-02f,+4.25941080e-01f,-1.13690421e-01f,+4.43411916e-01f,+1.70572281e-01f,
+3.97103727e-02f,+9.21359211e-02f,-1.46687493e-01f,-3.19489121e-01f,-1.43618286e-02f,
+1.49141237e-01f,-4.54784185e-02f,-1.83127970e-01f,+1.44650429e-01f,+4.92245585e-01f,
+2.89858848e-01f,-1.27928630e-01f,+5.24821103e-01f,+7.08077475e-03f,+7.68994689e-01f,
+6.45135641e-02f,-2.22433910e-01f,+4.85646516e-01f,+2.12194204e-01f,+5.43213725e-01f,
+3.74620222e-02f,-1.44947484e-01f,+8.70030001e-02f,-1.65393148e-02f,-1.89912602e-01f,
+4.24803011e-02f,-1.47952169e-01f,+3.67561638e-01f,-4.77836700e-03f,-3.83657157e-01f,
-9.76349637e-02f,+5.94933331e-01f,-5.44558130e-02f,+1.09996714e-01f,-1.24071538e-01f,
+1.04942247e-01f,+2.81224757e-01f,+3.63451332e-01f,-1.18232213e-01f,-1.30449682e-01f,
+3.96449745e-01f,+2.92524457e-01f,+2.43630067e-01f,+2.88004905e-01f,-1.21619441e-02f,
+7.74989352e-02f,-3.79595868e-02f,+2.16976210e-01f,-3.68296593e-01f,-7.18369558e-02f,
+1.07037270e+00f,-2.65532941e-01f,+2.83731874e-02f,+3.58023345e-02f,+1.09682709e-01f,
+1.71769932e-01f,+7.00671077e-02f,+3.54346156e-01f,+5.97720921e-01f,-2.65338086e-02f,
+2.30856940e-01f,+7.74693638e-02f,+8.44176561e-02f,-6.63918778e-02f,-1.76497340e-01f,
-8.21663961e-02f,+1.66279435e-01f,-1.70915961e-01f,-2.39934232e-02f,-1.57944393e+00f,
-1.33400843e-01f,-2.09592618e-02f,+1.78086624e-01f,+3.71155471e-01f,+1.49325565e-01f,
-2.07367316e-01f,+3.48618984e-01f,+1.84796050e-01f,+2.07250208e-01f,+2.25827787e-02f,
-4.43010405e-02f,+3.92256118e-02f,+1.03847101e-01f,+2.26843178e-01f,+1.86296567e-01f,
-3.19980055e-01f,-2.68383741e-01f,+8.99112895e-02f,+6.48761094e-02f,+9.60022211e-02f,
-1.20582566e-01f,+3.94951887e-02f,-1.50226444e-01f,+7.64481947e-02f,+2.08362281e-01f,
+2.22169831e-01f,-6.43673241e-02f,+1.52624309e-01f,+6.91235811e-02f,-3.34452361e-01f,
+1.28816813e-01f,-1.63245089e-02f,-7.45194405e-02f,+2.27354899e-01f,+1.47991315e-01f,
-4.24321508e-03f,-6.34563388e-03f,+2.80563571e-02f,-5.38967922e-02f,-3.47317709e-03f,
-3.13379735e-01f,+2.00841069e-01f,-2.96135098e-01f,-8.58464241e-02f,+6.52545989e-02f,
-1.84356108e-01f,+6.80208877e-02f,+5.87835908e-02f,-7.79832974e-02f,-8.72461572e-02f,
-8.42490122e-02f,+1.68803886e-01f,+1.67140029e-02f,+1.95239291e-01f,+3.16328615e-01f,
+1.95551574e-01f,-1.88184977e-02f,+3.33405256e-01f,-2.06949055e-01f,-1.07182398e-01f,
-1.02483362e-01f,-3.81383836e-01f,-1.64298434e-02f,-1.71832657e+00f,-2.61291683e-01f,
+1.10953487e-01f,+8.92688483e-02f,+6.96543604e-02f,-1.45998284e-01f,-8.50785598e-02f,
+2.37244815e-01f,-5.45529760e-02f,+3.45791757e-01f,+4.09025848e-02f,-1.47612646e-01f,
+2.92206049e-01f,-9.73776877e-02f,+2.65213341e-01f,+9.08688977e-02f,-3.47144693e-01f,
+6.83706207e-03f,-1.10167354e-01f,-1.64330021e-01f,-2.24184766e-01f,+1.45662785e-01f,
+2.62873709e-01f,+1.18645363e-01f,-5.29055484e-03f,-4.19659354e-02f,+9.49469861e-03f,
-1.87125087e-01f,-1.23421662e-02f,-2.41705805e-01f,-2.03949139e-01f,-5.10436855e-02f,
+5.85313477e-02f,-1.06386378e-01f,+3.73245329e-02f,+2.35818386e-01f,+1.23246431e-01f,
-2.91353818e-02f,+2.94102859e-02f,+1.44702867e-01f,+3.38639855e-01f,-9.97399073e-03f,
+1.43662244e-01f,-3.69389087e-01f,-3.77238877e-02f,+1.62209556e-01f,-2.01563671e-01f,
+6.63895980e-02f,+1.15441612e-03f,+9.18191276e-04f,+1.71655491e-01f,-2.78976917e-01f,
-1.70061156e-01f,-1.45058436e-02f,-8.88007209e-02f,-1.19896337e-01f,+9.52769518e-01f,
+1.14052556e-01f,+8.93100202e-02f,+6.08136058e-01f,-9.78007168e-03f,+3.24963897e-01f,
+2.71178007e-01f,-9.88228992e-03f,-1.44264460e+00f,+1.64059084e-02f,-4.76277232e-01f,
-1.73522919e-01f,+7.07900703e-01f,+1.89992368e-01f,-3.91310155e-02f,+2.21268967e-01f,
+2.59323657e-01f,-1.77822948e-01f,+4.15502489e-02f,+3.87851596e-02f,+3.68858546e-01f,
+2.36857876e-01f,-5.68816602e-01f,+4.94582146e-01f,+3.08052570e-01f,+3.86160463e-01f,
+4.40905452e-01f,-6.42675906e-02f,+1.26500353e-01f,-4.72571701e-03f,-4.27153766e-01f,
+6.19515479e-01f,-1.94602519e-01f,-2.30624415e-02f,+4.89591628e-01f,+4.22327546e-03f,
-2.40403011e-01f,+1.46753252e-01f,+3.61120880e-01f,-5.14350832e-02f,+5.77397227e-01f,
+1.11303106e-02f,-1.49019450e-01f,-8.04207087e-01f,-2.64783502e-01f,-1.02945432e-01f,
+2.68778175e-01f,-2.58402646e-01f,-2.08699405e-01f,+7.73345649e-01f,-2.46423930e-01f,
+1.83196198e-02f,+1.07265133e-02f,+1.00480533e+00f,-5.39862029e-02f,-9.43963155e-02f,
-3.50278206e-02f,+1.27259254e-01f,+9.64046493e-02f,+2.33645350e-01f,+4.34144318e-01f,
+1.66404203e-01f,-6.41640276e-02f,-1.28656536e-01f,-5.54238737e-01f,+1.11546731e+00f,
-3.97122175e-01f,+7.62649551e-02f,-1.04748130e-01f,-5.67440867e-01f,+3.49621713e-01f,
+1.69762317e-02f,-1.03335857e+00f,+4.00898129e-01f,+1.16720796e-01f,-3.50641906e-01f,
-1.01188540e+00f,+2.29705110e-01f,+2.82930327e-04f,+1.36978671e-01f,+9.80464369e-02f,
+7.32105553e-01f,-5.05939536e-02f,-4.47096199e-01f,+1.24801837e-01f,+3.93359214e-02f,
-2.82639325e-01f,-3.25670183e-01f,+1.03914595e+00f,+5.03813744e-01f,-7.08976746e-01f,
-7.98022524e-02f,-4.24802333e-01f,-1.74124632e-02f,-1.76813677e-01f,-2.73930460e-01f,
+1.94010809e-01f,-2.19434902e-01f,+5.10408163e-01f,+3.66814762e-01f,+5.08256555e-01f,
+1.28933027e-01f,+5.17687380e-01f,+2.16877416e-01f,-1.01294184e+00f,-7.03440830e-02f,
+2.40795597e-01f,+6.59237728e-02f,+1.37939692e-01f,+4.60458189e-01f,+2.10957855e-01f,
-2.05353916e-01f,+2.05236506e-02f,-9.57989842e-02f,+7.69050419e-02f,+1.31225437e-01f,
-7.99986422e-02f,+2.99964666e-01f,+2.78813809e-01f,-7.12682083e-02f,-6.60453439e-02f,
-1.03015482e-01f,+7.79933989e-01f,+3.91952246e-01f,-8.94712880e-02f,+1.38207749e-01f,
-2.43517011e-02f,+7.26463785e-03f,-6.83998942e-01f,+4.62342799e-01f,+1.27844548e+00f,
+2.95126438e-01f,+4.51141931e-02f,-5.38638569e-02f,-4.38671529e-01f,-7.66954720e-02f,
-9.90252569e-02f,+2.88330615e-01f,+2.46443331e-01f,+1.04893172e+00f,+8.38663697e-01f,
+2.71175176e-01f,+1.92574248e-01f,+1.48488954e-01f,-3.21373373e-01f,-6.19274080e-01f,
+2.40621287e-02f,+1.89204719e-02f,-1.63152009e-01f,+9.85296667e-02f,+1.87218525e-02f,
+4.67341207e-02f,+6.77079022e-01f,-1.19662277e-01f,+4.18564856e-01f,+2.50348486e-02f,
+1.09125368e-01f,-5.39550371e-02f,-4.01640922e-01f,+1.94569990e-01f,+1.00200474e-01f,
-8.13239962e-02f,-1.74037516e-01f,-3.14931512e-01f,-1.11757718e-01f,-1.12213969e-01f,
-5.85144460e-01f,+4.25541461e-01f,-1.01455338e-02f,-3.86184603e-01f,+7.03434572e-02f,
+1.60739684e+00f,-1.84867959e-02f,+3.88888896e-01f,+3.43096703e-02f,-1.39444666e-02f,
+3.86831939e-01f,-5.01725495e-01f,+4.89757895e-01f,-1.93798795e-01f,-1.08275153e-01f,
-9.96333882e-02f,+5.28382421e-01f,-1.47239934e-03f,+7.10111037e-02f,+8.93424824e-02f,
-3.85455668e-01f,+1.81432948e-01f,-1.86890662e-01f,+3.16467844e-02f,-1.30918846e-02f,
+2.26920381e-01f,-4.76279706e-01f,-9.43063319e-01f,-3.90264392e-01f,+2.73501217e-01f,
-7.74532408e-02f,+4.75763500e-01f,+7.24170282e-02f,-4.32873778e-02f,+5.15976906e-01f,
+2.54526045e-02f,+9.88630205e-02f,+9.17461216e-01f,+2.02208925e-02f,+5.32173991e-01f,
-2.37204097e-02f,+5.35685301e-01f,-4.51410711e-02f,-2.21903399e-01f,+3.14888209e-02f,
-2.63163541e-03f,+2.87795037e-01f,+7.19764605e-02f,+1.28388131e+00f,-9.31685388e-01f,
+1.47006884e-01f,+7.69141197e-01f,+6.39925078e-02f,-5.50222062e-02f,-1.48894519e-01f,
-9.88989044e-03f,-8.89025815e-03f,-8.60643238e-02f,-5.52964546e-02f,-5.85973524e-02f,
+3.23951304e-01f,+1.64970398e+00f,+9.95631590e-02f,-2.57977039e-01f,-1.27607539e-01f,
+4.82983515e-02f,+2.93673933e-01f,-4.31556344e-01f,-2.80288965e-01f,-1.02786767e+00f,
+1.28250468e+00f,+2.61916276e-02f,+2.62461826e-02f,+8.42714131e-01f,+1.24902822e-01f,
-2.90475786e-01f,-6.47513121e-02f,+1.44486964e+00f,-2.17931364e-02f,-2.04171404e-01f,
+3.87966156e-01f,-2.40741502e-02f,+1.12942969e-02f,+5.37617989e-02f,-3.51657540e-01f,
-7.56899357e-01f,+4.34691668e-01f,+1.17521957e-01f,-1.42550036e-01f,+1.54361308e-01f,
-1.13043211e-01f,+1.33969977e-01f,+6.48472011e-01f,+3.02747846e-01f,-9.79318395e-02f,
-7.39832878e-01f,+2.48542249e-01f,+2.05216631e-02f,+4.44916159e-01f,-1.85190618e-01f,
-2.87813991e-01f,-3.05990040e-01f,-4.09026563e-01f,+3.59649837e-01f,+3.62045653e-02f,
-4.01697606e-01f,-2.59112626e-01f,+3.13226402e-01f,-3.49835097e-03f,-4.58363667e-02f,
+3.75956327e-01f,+1.03115983e-01f,-2.93757647e-01f,+1.52943254e+00f,-8.83363426e-01f,
-3.18187356e-01f,+3.16201031e-01f,-6.36530295e-02f,-8.24517459e-02f,+1.03633416e+00f,
-2.42447183e-01f,-3.80296595e-02f,+1.30693959e-02f,-7.40935281e-02f,+6.47566378e-01f,
+1.97241306e-01f,-2.04396278e-01f,-1.45463482e-01f,-3.02230477e-01f,+6.87492371e-01f,
-1.42767355e-01f,+9.90571082e-01f,-1.09704368e-01f,-4.02760774e-01f,-3.14725846e-01f,
+2.94837981e-01f,+1.20654356e+00f,+1.49409759e+00f,+3.07206541e-01f,-1.20610885e-01f,
-4.40049499e-01f,-3.73033196e-01f,+2.14366376e-01f,-3.94625604e-01f,+5.08415341e-01f,
-1.28889039e-01f,-1.30588382e-01f,+6.31976545e-01f,+2.50493884e-01f,-5.48695564e-01f,
+4.48680013e-01f,+9.20907617e-01f,-1.55750886e-01f,+6.96231350e-02f,-1.31796062e-01f,
+7.62587428e-01f,+5.43434858e-01f,+2.39201859e-01f,+1.19602025e+00f,+1.71512663e-02f,
+1.65840298e-01f,-5.06756715e-02f,+3.15333992e-01f,+4.60661441e-01f,+6.85634091e-02f,
-4.94469225e-01f,+4.09418494e-01f,-1.01042378e+00f,+1.02027762e+00f,+3.75548154e-01f,
-8.88784695e-03f,-1.19615003e-01f,-5.94044589e-02f,+1.78526357e-01f,+3.06400564e-02f,
+5.44852018e-02f,-8.14893007e-01f,-6.26674592e-01f,-3.62598263e-02f,-2.71229118e-01f,
-2.66891807e-01f,-5.82187921e-02f,+4.56157774e-02f,+1.47635436e+00f,+5.36839664e-01f,
-3.38392049e-01f,+1.54060543e-01f,+5.59940189e-02f,+1.68989450e-01f,+7.94125974e-01f,
+3.46383333e-01f,-6.12305582e-01f,+6.31565034e-01f,-2.39533767e-01f,+4.26561385e-01f,
-3.12358793e-02f,+5.39603978e-02f,+1.32258087e-01f,+1.12762308e+00f,-8.06186497e-01f,
-7.42729902e-01f,-3.67861181e-01f,-1.42469108e-01f,+2.09080592e-01f,-4.07794505e-01f,
-3.00122112e-01f,-1.49417505e-01f,+2.65843332e-01f,+2.11928487e-01f,-4.24030274e-02f,
-2.99759340e-02f,+1.69779733e-02f,-2.58284509e-01f,-2.40645081e-01f,-2.52227426e-01f,
-2.15570450e-01f,-5.77343479e-02f,+1.31839942e-02f,+2.09144145e-01f,+3.92372310e-02f,
-6.94566607e-01f,+1.68839008e-01f,+9.20837402e-01f,+6.97267950e-01f,-2.15204149e-01f,
-1.64168581e-01f,+1.83166653e-01f,-5.72959632e-02f,+7.73843884e-01f,-7.09100068e-02f,
+3.38845521e-01f,+4.48586822e-01f,+3.84829449e-03f,-1.23498678e-01f,+7.01736957e-02f,
-2.49723434e-01f,+7.73322806e-02f,-8.49406198e-02f,-3.97130996e-02f,+7.65506029e-02f,
+2.51557708e-01f,+1.28884807e-01f,+2.52398830e-02f,-1.75630063e-01f,-3.56134176e-02f,
+2.13154815e-02f,-5.58383130e-02f,+5.12372434e-01f,-8.49884674e-02f,-2.48327285e-01f,
+1.64770290e-01f,+1.19199239e-01f,-2.61673462e-02f,-4.67165112e-01f,-1.65839285e-01f,
-1.63106352e-01f,-2.03505665e-01f,-1.44280791e-01f,+1.72284663e-01f,-2.60000378e-01f,
-1.77544560e-02f,+7.87768513e-03f,-4.06429321e-01f,+5.67820311e-01f,+1.07944787e-01f,
-6.19348623e-02f,-1.16410717e-01f,-7.42840171e-02f,-5.15218794e-01f,+2.00377896e-01f,
-1.81186020e-01f,-2.39374340e-02f,+6.77563697e-02f,+1.68738067e+00f,-1.14636183e-01f,
-9.32303727e-01f,+2.08098188e-01f,-4.78984676e-02f,-2.01010987e-01f,+3.37088585e-01f,
-2.28223056e-02f,+1.32632643e-01f,+3.68625253e-01f,+3.61178756e-01f,-3.58930640e-02f,
+1.43199056e-01f,-3.10945362e-01f,-2.84517676e-01f,-2.22953260e-01f,+1.58955193e+00f,
+4.97801900e-02f,-1.81166679e-01f,+2.45990485e-01f,-1.29575327e-01f,-7.27801979e-01f,
-1.86673373e-01f,+1.18384190e-01f,+3.81905645e-01f,-6.78335950e-02f,-3.47678244e-01f,
-4.54065949e-02f,+1.06991902e-01f,+5.67775011e-01f,+1.81291386e-01f,-4.39953089e-01f,
-3.57241839e-01f,+8.64720270e-02f,+4.22570497e-01f,+1.08272684e+00f,-1.50236636e-01f,
-2.02590153e-01f,-6.47855818e-01f,+3.46658498e-01f,-2.42482200e-01f,+1.50913030e-01f,
+1.35783017e-01f,+3.39605361e-02f,+3.23168755e-01f,+2.06868336e-01f,+2.28038967e-01f,
-5.01704156e-01f,-6.33058906e-01f,+2.76353180e-01f,+1.16469070e-01f,+7.85835266e-01f,
+2.21465267e-02f,+1.44015923e-01f,-3.43345255e-01f,+1.42664075e-01f,-2.90319830e-01f,
+5.75146489e-02f,+1.39764801e-01f,+7.03464568e-01f,+2.79915959e-01f,-1.61793500e-01f,
-3.02449226e-01f,-4.54770833e-01f,+1.28557694e+00f,+7.95748364e-03f,+1.84264278e+00f,
-5.79495355e-02f,+2.76005175e-02f,-4.73007858e-01f,+2.13411927e-01f,-9.03131515e-02f,
-4.13100272e-02f,-5.00416718e-02f,-2.23603472e-02f,+1.21543899e-01f,-9.33869034e-02f,
+1.15954888e+00f,-1.70491159e-01f,+3.88629109e-01f,+9.95099247e-01f,-4.87540439e-02f,
-2.88390636e-01f,-1.73333824e-01f,-3.25617641e-01f,+2.02144578e-01f,+3.60264182e-01f,
-4.38995689e-01f,+4.04927313e-01f,-1.31932303e-01f,-2.82961994e-01f,-3.77468653e-02f,
-3.19128595e-02f,-6.64372072e-02f,-3.51945348e-02f,+3.52998018e-01f,+3.35382015e-01f,
+2.93405294e-01f,-4.84992892e-01f,-2.09655628e-01f,-4.06526886e-02f,-1.29462823e-01f,
-4.45852011e-01f,+3.34149092e-01f,+1.45057058e+00f,-1.61351606e-01f,-2.35305354e-01f,
+2.43593410e-01f,+3.90568644e-01f,+7.18898356e-01f,+2.10943356e-01f,-2.73142844e-01f,
-2.10048646e-01f,-1.09911188e-01f,+3.37943360e-02f,-3.13610852e-01f,+3.73916177e-04f,
-5.34483790e-01f,-2.30149969e-01f,-5.57408154e-01f,+1.36708692e-01f,+9.64186713e-02f,
-1.39204621e-01f,+6.27651095e-01f,-2.15133369e-01f,+1.52963936e+00f,-4.56850082e-02f,
+3.89386773e-01f,-5.66797078e-01f,+1.10683525e+00f,-7.73259938e-01f,+2.02134281e-01f,
-1.50616601e-01f,-2.32858420e-03f,-1.62020832e-01f,-7.47801363e-02f,-1.08132884e-01f,
-2.85002142e-01f,-5.30721784e-01f,+6.60018265e-01f,-5.53389341e-02f,-2.38369793e-01f,
+6.91466689e-01f,-3.82709593e-01f,-1.18176115e+00f,-1.29568512e-02f,+1.43749857e+00f,
+2.73492843e-01f,+8.50080550e-02f,-3.22959051e-02f,+1.04699217e-01f,-4.55226868e-01f,
-6.97025836e-01f,-4.12175953e-02f,+8.23312163e-01f,+1.47793174e-01f,-1.58416390e-01f,
-2.33167723e-01f,+1.57260690e-02f,-2.41156191e-01f,+1.04674965e-01f,+3.96023124e-01f,
+1.18225682e+00f,+2.10118383e-01f,+1.41197518e-01f,-6.09653927e-02f,+1.88559487e-01f,
+1.54743582e-01f,-7.33134270e-01f,+5.44916699e-03f,-8.21879283e-02f,+2.57555306e-01f,
-4.11945045e-01f,-1.57589898e-01f,+7.27269173e-01f,+4.74942565e-01f,+2.75678754e-01f,
+7.89628863e-01f,+8.15340951e-02f,+1.26941884e+00f,-2.51675807e-02f,-7.97152594e-02f,
-3.08810592e-01f,-2.23028809e-01f,+3.87100041e-01f,+3.94300185e-03f,-1.55894786e-01f,
+1.10512497e-02f,-4.36590254e-01f,+4.45181370e-01f,-1.81759834e-01f,-4.13639575e-01f,
+2.26955384e-01f,+1.25932562e+00f,-6.86287275e-03f,-2.24445060e-01f,-1.37492996e-02f,
+1.35412440e-01f,+2.54167598e-02f,-6.11712895e-02f,-4.31390777e-02f,-2.81814128e-01f,
-8.99187401e-02f,+1.69307649e-01f,+1.21061675e-01f,-7.68711884e-03f,+2.94768512e-01f,
-3.65670323e-02f,+4.17215466e-01f,-1.70910005e-02f,+4.87027347e-01f,+9.01478678e-02f,
+1.04199670e-01f,+2.06853479e-01f,-2.05199510e-01f,-2.02219084e-01f,+1.85446844e-01f,
+1.80137932e-01f,-1.76073000e-01f,+1.91757417e+00f,-1.44601345e-01f,-1.43406531e-02f,
-3.32942575e-01f,-7.08354190e-02f,-6.98495060e-02f,-5.51410429e-02f,+7.97847882e-02f,
-1.04273863e-01f,+1.96727288e+00f,-6.82534575e-02f,-9.65636596e-02f,-1.63676113e-01f,
-1.59743384e-01f,+1.73922941e-01f,-1.54161081e-01f,-2.15617731e-01f,+4.71776612e-02f,
+2.60806754e-02f,+5.37457783e-03f,-7.22050071e-02f,-1.87479749e-01f,-3.12657893e-01f,
+2.18290776e-01f,+2.52807885e-01f,-2.93426126e-01f,+1.91895999e-02f,-2.31447056e-01f,
+7.94577539e-01f,-1.49143487e-01f,+6.89665303e-02f,+1.94595620e-01f,-8.95136385e-04f,
-2.24160165e-01f,+3.92666966e-01f,+7.24038575e-03f,+8.85288119e-02f,+1.29768685e-01f,
-1.44284695e-01f,-2.53528714e-01f,+1.60294592e-01f,-1.75953090e-01f,-5.73245212e-02f,
+2.31642902e-01f,-1.65255755e-01f,-1.25601113e-01f,-1.54202208e-01f,-1.18065290e-01f,
-2.68539906e-01f,-1.84191257e-01f,-1.92773730e-01f,-4.70197678e-01f,-3.52225482e-01f,
-2.86510140e-01f,-3.02906446e-02f,-3.72449577e-01f,+1.03350542e-01f,+1.15655191e-01f,
-1.68048628e-02f,-3.60196203e-01f,-5.42395592e-01f,+1.24233615e+00f,+4.32476461e-01f,
-6.79843202e-02f,-3.93332988e-01f,+5.90961948e-02f,+8.67014825e-01f,-6.59903407e-01f,
+4.54098321e-02f,-1.79445878e-01f,+8.22713792e-01f,-7.46771872e-01f,-2.01533899e-01f,
-7.20317960e-01f,+1.03184497e+00f,+1.29177123e-02f,-5.62873900e-01f,-3.20411295e-01f,
+2.47246265e-01f,-1.20243512e-01f,-1.45803113e-02f,-7.02968463e-02f,-2.44417086e-01f,
+9.56772417e-02f,+4.24739420e-01f,+6.09188735e-01f,+2.79272676e-01f,+6.62515104e-01f,
+6.89019501e-01f,-9.57754105e-02f,-1.58832833e-01f,-2.59684682e-01f,-1.79633960e-01f,
-2.31410727e-01f,+6.93567514e-01f,+3.09417337e-01f,-1.59311712e-01f,+4.39455479e-01f,
-2.36640666e-02f,-1.51603341e-01f,+3.07953149e-01f,-3.27162556e-02f,+3.23370337e-01f,
-4.69611347e-01f,-1.61794811e-01f,-6.01713620e-02f,+1.59899354e-01f,+4.09993142e-01f,
+1.29021072e+00f,+4.81720045e-02f,+4.70847726e-01f,-5.80808446e-02f,-4.86584604e-02f,
-6.39186520e-03f,-9.81068164e-02f,+1.89067706e-01f,+7.11240709e-01f,-4.79979068e-02f,
+1.07623056e-01f,+1.10719278e-01f,+2.99081981e-01f,+3.53007823e-01f,+5.44010043e-01f,
+3.93723607e-01f,+3.79692942e-01f,-1.10412955e+00f,+3.15325707e-01f,+5.71091473e-02f,
-7.09753871e-01f,-2.14384254e-02f,+9.47813466e-02f,-1.07505226e+00f,-1.05107225e-01f,
-3.26615274e-02f,-3.21069717e-01f,+4.74597752e-01f,+8.84358212e-02f,+5.09699464e-01f,
-6.09104410e-02f,+8.90389085e-02f,+4.62668955e-01f,+2.91596681e-01f,-1.10012271e-01f,
-2.38628879e-01f,-9.62643549e-02f,+4.71883826e-02f,+8.40674222e-01f,+4.21731472e-01f,
-6.65701330e-02f,+5.72103202e-01f,+1.06027514e-01f,+1.82536498e-01f,-5.25143623e-01f,
+1.66219577e-01f,+4.56652939e-01f,-2.34260425e-01f,-4.43998456e-01f,-4.93676169e-03f,
+1.24976635e+00f,+7.61058450e-01f,+1.72914565e-01f,+4.28665608e-01f,-1.20341413e-01f,
-6.48126379e-02f,-2.39695236e-01f,-1.10855438e-01f,-2.05128685e-01f,+1.47553980e-01f,
+1.22455502e+00f,-6.49788380e-02f,-2.18934938e-01f,+2.21486732e-01f,+1.11201954e+00f,
+9.74601731e-02f,+6.85882747e-01f,-1.06419414e-01f,+1.69416651e-01f,+3.54024023e-02f,
+5.26489969e-03f,-5.77155173e-01f,-6.15013056e-02f,-3.63505003e-03f,+2.96924300e-02f,
+1.86405540e-01f,+4.04479235e-01f,+4.37801182e-01f,-3.33480120e-01f,-2.42246717e-01f,
+5.82216382e-01f,-3.47508460e-01f,+1.00086343e+00f,+5.92997909e-01f,-3.28943610e-01f,
-1.77019402e-01f,-5.74606419e-01f,-9.71407294e-01f,+3.42966765e-02f,-4.13736217e-02f,
+9.20731962e-01f,-5.74332118e-01f,+5.02718627e-01f,-5.00912480e-02f,+9.04126108e-01f,
-7.41931424e-02f,-2.65288413e-01f,+2.83756971e-01f,-4.67182249e-02f,+1.37202764e+00f,
+5.04761785e-02f,-1.77936688e-01f,+6.12140954e-01f,+2.23450825e-01f,+1.61835104e-01f,
-4.58125144e-01f,-7.70319998e-01f,-2.42133170e-01f,-3.70793581e-01f,-3.74303609e-02f,
+3.15704793e-01f,-6.15477413e-02f,+8.52662444e-01f,-1.05650559e-01f,+3.83814931e-01f,
-7.11920917e-01f,+1.74712479e-01f,-1.07108377e-01f,-1.83874577e-01f,+4.19187807e-02f,
+2.57859193e-02f,-9.20160934e-02f,+2.65314221e-01f,+6.94074705e-02f,-7.22729027e-01f,
-7.20419362e-02f,+7.64920533e-01f,-2.75367916e-01f,-9.39222395e-01f,+2.08056116e+00f,
-2.45570675e-01f,+6.05356358e-02f,+1.91971198e-01f,+2.47304842e-01f,-5.16208000e-02f,
+1.99959740e-01f,-4.34334636e-01f,-2.56834812e-02f,+3.06655895e-02f,+1.83612600e-01f,
-1.63448676e-01f,-7.25934505e-01f,-1.63181111e-01f,+1.01924904e-01f,+3.24594170e-01f,
+4.49242324e-01f,+8.22271883e-01f,-1.98982894e-01f,+2.43169740e-01f,+3.90209258e-01f,
-5.98406732e-01f,-3.21929812e-01f,-1.21780731e-01f,+5.18354587e-02f,-1.94651395e-01f,
+4.01610881e-02f,+6.03841126e-01f,-1.58356756e-01f,+3.77308190e-01f,-9.85296592e-02f,
+2.58033663e-01f,+4.79272395e-01f,-5.40212505e-02f,-1.70016512e-01f,+5.54038770e-02f,
+5.22648767e-02f,-2.66456693e-01f,+1.40255928e-01f,+8.51366892e-02f,+2.28276595e-01f,
+3.82517248e-01f,-6.01417422e-01f,+2.63277978e-01f,-1.22476436e-01f,-2.13493124e-01f,
+5.72872758e-01f,-2.57237583e-01f,+3.14541519e-01f,+1.35438681e-01f,+7.83128664e-02f,
+1.30416378e-01f,+1.76808164e-01f,+5.99434003e-02f,-1.11332007e-01f,+3.54346544e-01f,
+4.09928244e-03f,-1.42952502e-01f,-2.08320245e-01f,+7.83837259e-01f,+1.87959149e-01f,
-7.05260396e-01f,-5.92731655e-01f,-2.07281977e-01f,-2.40169406e-01f,-5.89499511e-02f,
-8.73038694e-02f,+7.61053637e-02f,-3.67030241e-02f,-1.38454661e-01f,-3.67806345e-01f,
+4.70586151e-01f,-1.21762119e-02f,+2.76934803e-02f,-2.92469203e-01f,-4.43924636e-01f,
+7.43414392e-04f,+5.24286687e-01f,+4.99960303e-01f,+9.99769568e-02f,+6.61926925e-01f,
+2.74517626e-01f,+1.12010641e-02f,+4.59299684e-01f,+7.87730157e-01f,-3.41871500e-01f,
-1.35656655e-01f,-7.43105635e-02f,-9.38239023e-02f,-5.12070835e-01f,+5.23965545e-02f,
+3.24592531e-01f,-7.93829039e-02f,-1.40060091e+00f,-6.56824484e-02f,-8.21038485e-02f,
-4.94013757e-01f,+1.20874918e+00f,+1.10233223e+00f,-1.10018231e-01f,-2.76837021e-01f,
+3.72002661e-01f,-2.10995242e-01f,-1.63484942e-02f,-4.42605883e-01f,+3.86928141e-01f,
-7.68442452e-02f,+1.78789809e-01f,-2.43592616e-02f,-9.39092711e-02f,+1.04444642e-02f,
-6.68575883e-01f,+4.58655953e-01f,-1.71008557e-01f,-5.27035832e-01f,-1.92286506e-01f,
-1.24314032e-01f,-2.50512034e-01f,-3.28252465e-02f,+3.99535656e-01f,+1.77809261e-02f,
+1.64969549e-01f,+9.14205238e-02f,+2.86986586e-02f,+9.84397292e-01f,+1.00321460e+00f,
-1.68838315e-02f,+8.46521080e-01f,-1.00436890e+00f,+2.49270767e-01f,-8.37379023e-02f,
+1.18700802e-01f,+4.43235487e-01f,+2.29396578e-03f,+5.90082407e-01f,+7.62587249e-01f,
-7.27926716e-02f,-7.98082575e-02f,+3.74060452e-01f,+4.62446719e-01f,-2.59254593e-02f,
-5.08332960e-02f,-1.10075369e-01f,+2.39013910e-01f,+1.07723169e-01f,-2.74681151e-01f,
-4.48023796e-01f,+2.83000290e-01f,+1.49865758e+00f,-4.90134001e-01f,+4.94629294e-01f,
+6.27127811e-02f,-7.57099781e-03f,+2.23172605e-01f,-3.25538427e-01f,-4.24638689e-01f,
-8.44847113e-02f,+1.10494220e+00f,-4.99861548e-03f,+6.36328638e-01f,-2.27022264e-02f,
+7.93999612e-01f,-5.64434648e-01f,+2.61885017e-01f,+7.98681378e-01f,-7.18953609e-01f,
+1.52476460e-01f,-1.08051458e-02f,-3.60595137e-01f,-2.28485167e-01f,+6.12170875e-01f,
-6.19573221e-02f,+4.45228666e-02f,-2.80489296e-01f,+6.25442922e-01f,+4.74651381e-02f,
+3.43708962e-01f,+8.19850683e-01f,-3.76053810e-01f,+5.93126053e-03f,+2.35075876e-01f,
+4.17135179e-01f,-1.96908578e-01f,-9.63875115e-01f,+4.03743051e-02f,-1.72700942e-01f,
+1.11648776e-01f,-1.18080638e-01f,+8.19006622e-01f,+3.23093474e-01f,-3.13346386e-01f,
-2.43499622e-01f,}; 
k2c_tensor dense_kernel = {&dense_kernel_array[0],2,4096,{64,64, 1, 1, 1}}; 
float dense_bias_array[64] = {
-2.60984302e-01f,+2.87770748e-01f,+3.86625320e-01f,+3.40791047e-01f,+1.94438100e-01f,
-3.74275774e-01f,+7.06531405e-01f,+4.10061538e-01f,-8.07592738e-03f,-8.51433054e-02f,
+1.27266124e-01f,+1.63866937e-01f,+2.25507021e-01f,+5.37808359e-01f,+3.21107358e-01f,
-8.69291425e-02f,+4.20806020e-01f,-3.35758179e-01f,-1.55476555e-02f,-2.17576936e-01f,
+2.65969157e-01f,+3.79555076e-01f,+5.33027947e-01f,+3.61688852e-01f,-2.56445899e-04f,
+4.78930056e-01f,+3.18537176e-01f,+3.48269105e-01f,-4.33471709e-01f,+3.63090038e-01f,
-2.10940659e-01f,+2.11375847e-01f,+2.86072195e-01f,-8.30950961e-02f,+1.41055986e-01f,
-3.50162059e-01f,+1.04145361e-02f,+1.66668057e-01f,+4.64396060e-01f,+1.90921158e-01f,
+9.98366103e-02f,+4.02814329e-01f,+4.83235955e-01f,-1.54654771e-01f,+1.51074097e-01f,
+2.98835158e-01f,+3.33707273e-01f,+4.10708845e-01f,-9.42232236e-02f,-5.14395535e-01f,
+2.64540642e-01f,-2.24668458e-01f,+4.82454896e-01f,-6.68226480e-02f,-2.78363705e-01f,
+9.28222299e-01f,-5.74238777e-01f,-3.34830403e-01f,+1.95587337e-01f,+2.20148772e-01f,
+2.63012201e-01f,+1.02409735e-01f,-7.78402314e-02f,-2.33305842e-01f,}; 
k2c_tensor dense_bias = {&dense_bias_array[0],1,64,{64, 1, 1, 1, 1}}; 
float dense_fwork[4160] = {0}; 

 
float dense_1_output_array[32] = {0}; 
k2c_tensor dense_1_output = {&dense_1_output_array[0],1,32,{32, 1, 1, 1, 1}}; 
float dense_1_kernel_array[2048] = {
+2.62839496e-01f,+7.35562027e-01f,+2.76318431e+00f,+1.68946996e-01f,-1.26956582e-01f,
-5.65101206e-01f,+9.32698667e-01f,-4.28552255e-02f,-3.71098280e-01f,-2.02551797e-01f,
+4.17249858e-01f,-1.68835267e-01f,+9.74190161e-02f,-2.71210551e-01f,+5.56896329e-01f,
+5.71063280e-01f,-2.61532903e-01f,+5.81311405e-01f,+8.16900507e-02f,-3.32187600e-02f,
+1.76557994e+00f,+9.69934821e-01f,+5.92764735e-01f,-6.12773299e-01f,+8.73595774e-01f,
+1.30816191e-01f,+1.39421821e+00f,-3.86639476e-01f,-2.73667932e-01f,-8.88142705e-01f,
+1.05474341e+00f,-1.23286092e+00f,+4.46961075e-01f,-3.13700795e-01f,+3.27440023e-01f,
+8.71396363e-02f,+8.87928843e-01f,+8.19928944e-01f,+5.81204236e-01f,-1.22358754e-01f,
+6.42254353e-01f,+4.16520536e-02f,-4.39328467e-03f,+4.28271890e-02f,+1.17825635e-01f,
+7.17974007e-01f,+2.78024256e-01f,+2.14388579e-01f,-1.95765719e-01f,+1.68430522e-01f,
-7.32168108e-02f,+3.55512165e-02f,+5.91993555e-02f,-5.19655533e-02f,+1.94024175e-01f,
-2.13981524e-01f,-2.48998851e-01f,-4.07116443e-01f,-3.90114486e-02f,-7.17332423e-01f,
-3.35490048e-01f,+5.64297915e-01f,-2.08136588e-01f,-3.38503212e-01f,+2.63580024e-01f,
+2.23369479e-01f,-1.95990428e-01f,-5.09934247e-01f,+1.04993916e+00f,+2.81359911e-01f,
-1.08542645e+00f,+3.45561728e-02f,-4.17664468e-01f,+4.17901307e-01f,+5.74513115e-02f,
+2.29854554e-01f,+9.89547465e-03f,+9.64978099e-01f,-2.70781368e-01f,-1.22619897e-01f,
-7.70935267e-02f,+7.98387885e-01f,+1.10663854e-01f,+1.72652051e-01f,+8.06830466e-01f,
+1.45770743e-01f,+3.36802542e-01f,+5.32634780e-02f,+4.12218750e-01f,+1.34708440e+00f,
-1.25411928e-01f,-1.03948812e-03f,-2.26275578e-01f,-1.46877235e-02f,-3.24412316e-01f,
-3.34634006e-01f,-5.96776931e-03f,-7.93851316e-01f,+3.10793631e-02f,+3.52033406e-01f,
+9.97354567e-01f,-1.46939561e-01f,+6.81155920e-01f,-2.50821501e-01f,-4.78852689e-01f,
+7.10658908e-01f,+2.05704853e-01f,-9.62982595e-01f,+2.56308228e-01f,-5.01611292e-01f,
+7.51633346e-01f,-3.09137523e-01f,-7.86691979e-02f,+4.93456900e-01f,+3.25648859e-02f,
-2.46937186e-01f,+6.56225502e-01f,-5.47356427e-01f,+5.68572760e-01f,+9.32707489e-01f,
+5.28129220e-01f,-2.12787241e-01f,+1.38515472e-01f,+4.86477196e-01f,-1.63465455e-01f,
-2.24762559e-01f,-8.01530629e-02f,-3.08462232e-01f,+2.00211748e-01f,-8.23607370e-02f,
-7.82255471e-01f,+3.96101356e-01f,-2.53987670e-01f,-1.11997530e-01f,-2.29704976e-01f,
-2.66842723e-01f,-2.07830518e-01f,+6.75516427e-01f,+3.26331824e-01f,+6.46486282e-02f,
-4.14121062e-01f,+1.62255192e+00f,-1.87586352e-01f,+7.61793196e-01f,-8.03268105e-02f,
+3.69177878e-01f,-2.10547000e-01f,+7.42445141e-02f,+1.26407552e+00f,+3.81658114e-02f,
-7.05198526e-01f,-2.86403865e-01f,+1.19196558e+00f,-8.42696607e-01f,-1.71114102e-01f,
+4.81512129e-01f,-3.26164842e-01f,-2.54158199e-01f,-2.94683784e-01f,+4.02364850e-01f,
+8.77233624e-01f,+1.19575763e+00f,-2.73416400e-01f,-6.38710082e-01f,+1.06151724e+00f,
+4.58793402e-01f,+5.75589180e-01f,-1.85969602e-02f,-1.02654897e-01f,+1.19744524e-01f,
+2.11134523e-01f,+1.12588298e+00f,+1.52900890e-02f,+6.36900425e-01f,-3.59086275e-01f,
-2.09933534e-01f,+1.39020413e-01f,-8.17199349e-02f,-1.71910495e-01f,-8.47667381e-02f,
+1.21916950e+00f,-3.85052264e-01f,+7.11271226e-01f,-2.13868931e-01f,-3.27701628e-01f,
+2.61885911e-01f,-8.81640077e-01f,+1.01676321e+00f,+2.09345365e+00f,-7.09167480e-01f,
-3.57029021e-01f,-1.25186101e-01f,+1.92037284e-01f,-2.38877144e-02f,-6.31322026e-01f,
-2.82526873e-02f,+2.96526887e-02f,+4.23789829e-01f,+7.87278175e-01f,-6.94900006e-02f,
+1.56773522e-03f,+8.18682835e-02f,+6.82636857e-01f,+3.12691092e-01f,-7.29956031e-02f,
+8.75848159e-03f,+1.18580568e+00f,-1.48585081e-01f,+1.48647577e-01f,+1.77807301e-01f,
+1.69727668e-01f,+1.27261996e-01f,+1.16419107e-01f,+2.72524595e-01f,-8.66659805e-02f,
-1.26528561e+00f,+6.15107179e-01f,-6.47345960e-01f,+4.82982188e-01f,+4.89731669e-01f,
-3.58677059e-01f,+5.40818989e-01f,-7.71083161e-02f,+3.13034713e-01f,+1.83241978e-01f,
+5.98667383e-01f,+7.30550230e-01f,-7.26622462e-01f,+5.91281056e-01f,+8.85039806e-01f,
-2.24295497e-01f,+2.49843244e-02f,+3.09466302e-01f,-8.19562748e-02f,-5.57906330e-01f,
+7.64295273e-03f,+6.04574159e-02f,+2.46008202e-01f,-1.87565126e-02f,+3.81247729e-01f,
-2.50341356e-01f,-6.33855402e-01f,+8.97455662e-02f,-1.74243785e-02f,+9.21858251e-02f,
+3.08989435e-01f,+2.79085159e-01f,+6.32680535e-01f,+1.02709606e-02f,-5.43002307e-01f,
+5.28011382e-01f,+3.11491378e-02f,-3.12173784e-01f,+4.69060868e-01f,-2.24406794e-01f,
+1.24279702e+00f,+8.45996559e-01f,+3.02854538e-01f,+1.30146906e-01f,+2.50945747e-01f,
+1.39515370e-01f,+1.22562647e+00f,-7.24170864e-01f,+9.50706154e-02f,-9.60126426e-03f,
+1.15499020e+00f,-5.64376652e-01f,-6.64660752e-01f,-2.42936581e-01f,-7.25542381e-02f,
-7.71151900e-01f,+6.56505108e-01f,+1.79853022e-01f,+6.86264753e-01f,-6.05189465e-02f,
+9.46943834e-02f,-7.24460930e-02f,+7.05716908e-01f,+7.96709299e-01f,-9.06414688e-02f,
-1.57482481e+00f,+6.50011361e-01f,+2.88745075e-01f,+3.40626985e-01f,+5.07414043e-01f,
+9.12537515e-01f,+9.34609056e-01f,+3.61344188e-01f,-7.06836805e-02f,+1.44669533e+00f,
+8.53247717e-02f,+3.89625669e-01f,-1.02540004e+00f,-1.16099286e+00f,-6.65508866e-01f,
-3.09643690e-02f,-3.19523998e-02f,+5.76715052e-01f,+1.82854998e+00f,+2.84859519e-02f,
-6.70846924e-02f,+2.54782057e+00f,-1.78049088e+00f,+1.24628389e+00f,+1.83848277e-01f,
-5.77018976e-01f,+8.86064917e-02f,+1.79591045e-01f,+2.17107582e+00f,-1.07399844e-01f,
+4.72647339e-01f,+6.24828696e-01f,+5.86198270e-01f,+1.21797061e+00f,+5.65622091e-01f,
+1.25451362e+00f,-8.89326215e-01f,-3.35083961e-01f,+1.44282722e+00f,+2.55417168e-01f,
+2.40373239e-01f,+1.24241598e-01f,+2.65812933e-01f,+4.34345126e-01f,+6.70748293e-01f,
-3.70148420e-01f,-3.41846436e-01f,-8.30419287e-02f,-5.80708623e-01f,-9.13561496e-04f,
+1.02654088e+00f,-4.15753990e-01f,+1.75599560e-01f,-9.08992738e-02f,+5.97946167e-01f,
-4.00207788e-01f,-4.84887175e-02f,-9.16266516e-02f,-2.76902735e-01f,-1.49447635e-01f,
-8.53728652e-01f,-7.04480037e-02f,+3.69475216e-01f,-2.02022672e-01f,+1.12111223e+00f,
+4.41251010e-01f,+2.07133338e-01f,+5.95463097e-01f,+7.70003200e-02f,+3.01962197e-01f,
-3.33770573e-01f,+8.23987782e-01f,+1.99387476e-01f,+1.70569524e-01f,+1.06335543e-02f,
-3.54507476e-01f,-2.60747284e-01f,+3.59328985e-01f,+1.62272289e-01f,-1.15293898e-01f,
+3.11722070e-01f,-3.15274745e-01f,+6.08553112e-01f,+4.65853304e-01f,-7.78356567e-02f,
-2.89839774e-01f,+3.34157199e-01f,-3.92789781e-01f,+4.08293493e-02f,+1.04415321e+00f,
-9.53774303e-02f,-2.65599430e-01f,-6.29360080e-01f,+4.25187260e-01f,+3.95090610e-01f,
+7.10188523e-02f,+1.48747101e-01f,-7.05089197e-02f,-3.62890214e-01f,+2.29374856e-01f,
-1.35261908e-01f,+5.18183969e-02f,+5.22440732e-01f,+3.05457890e-01f,+1.71515569e-01f,
-3.27322453e-01f,-2.58654326e-01f,+4.16557878e-01f,-7.28663683e-01f,+3.81668150e-01f,
+2.79902667e-01f,+8.67999867e-02f,+1.98347107e-01f,-1.05549939e-01f,+9.49962497e-01f,
-1.25879496e-01f,+8.50275829e-02f,+5.62134326e-01f,+2.96305597e-01f,+1.75521597e-01f,
-9.09510162e-03f,+6.70516074e-01f,+2.48965602e-02f,+4.47650887e-02f,-5.17082289e-02f,
-1.94949895e-01f,+1.81890167e-02f,+9.40749645e-01f,-4.01000261e-01f,-2.08738551e-01f,
+5.11543632e-01f,+1.09314215e+00f,+1.02477305e-01f,+2.53618807e-01f,+7.91727424e-01f,
+2.00113803e-01f,+9.94823277e-01f,-2.35297471e-01f,-3.83417726e-01f,+2.92952627e-01f,
+3.42467874e-01f,+5.72346568e-01f,+1.03873026e+00f,+1.67952850e-01f,+2.37345099e-01f,
-5.99180281e-01f,-6.94431886e-02f,+2.43882775e-01f,+3.20710391e-01f,-3.08589935e-01f,
+4.63494003e-01f,-6.38291463e-02f,-2.07330927e-01f,+3.44227850e-01f,-9.42319408e-02f,
-8.78227651e-02f,+2.21408710e-01f,-8.17676902e-01f,-4.65120465e-01f,+4.05577838e-01f,
+1.60277307e-01f,+2.78866082e-01f,+4.68916893e-01f,+8.57775927e-01f,+1.11719988e-01f,
+2.52272300e-02f,-4.86055940e-01f,-3.03352267e-01f,+1.66751787e-01f,-6.04511023e-01f,
-7.36100078e-02f,-4.00342196e-01f,-6.07839882e-01f,-5.36980271e-01f,+2.76365697e-01f,
+2.54688840e-02f,+3.92456234e-01f,-3.98876280e-01f,-4.50927109e-01f,+6.24470234e-01f,
-1.78402081e-01f,+5.56019485e-01f,-1.63667068e-01f,-3.31334502e-01f,-5.66436872e-02f,
+2.28367075e-01f,+7.93560594e-02f,-2.75879502e-02f,+1.01200330e+00f,-2.88890511e-01f,
-5.61052859e-01f,+4.34867404e-02f,+6.33766949e-01f,+8.00537094e-02f,+3.09950978e-01f,
+4.94646728e-01f,+1.31773010e-01f,+9.67505336e-01f,+6.56838238e-01f,+1.24338210e+00f,
+4.85642314e-01f,+7.17887163e-01f,+5.96403837e-01f,-7.60969799e-03f,+5.16918063e-01f,
+8.07797194e-01f,-4.39751625e-01f,-1.16989300e-01f,+3.64779174e-01f,-1.25833109e-01f,
+8.81957829e-01f,-5.22900820e-01f,+4.08676177e-01f,-6.14017658e-02f,+6.90604508e-01f,
-1.12794653e-01f,+1.35913163e-01f,+5.46794355e-01f,-1.99125595e-02f,-3.89967002e-02f,
-3.51803124e-01f,+3.54130715e-01f,+5.34936368e-01f,+4.69599098e-01f,+2.56397814e-01f,
+3.58901396e-02f,+2.41845936e-01f,+2.79022485e-01f,+8.46073925e-01f,-4.26850975e-01f,
-5.12761548e-02f,-3.32875967e-01f,-4.78953868e-01f,-1.35920838e-01f,-4.17198241e-01f,
+2.01099977e-01f,-5.53297281e-01f,+7.01626599e-01f,+1.10937619e+00f,-1.58302635e-01f,
-5.18333673e-01f,+3.45626861e-01f,-7.03489900e-01f,-4.71737623e-01f,-3.46401215e-01f,
+1.94763973e-01f,-4.83136415e-01f,+3.54994498e-02f,+2.17860445e-01f,+4.93259668e-01f,
-1.56035960e-01f,-1.89276457e-01f,+2.33443007e-01f,+5.22258103e-01f,-4.39142108e-01f,
+3.02277923e-01f,+2.52604961e-01f,+1.06597948e+00f,-6.02708280e-01f,+2.73151964e-01f,
+5.82978964e-01f,+1.00485280e-01f,-8.63315523e-01f,-3.98678154e-01f,-3.76785278e-01f,
+8.20808768e-01f,+1.45246112e+00f,+1.65253794e+00f,+2.93840677e-01f,+3.05297654e-02f,
+3.55662972e-01f,-1.89241245e-01f,+3.79193604e-01f,-9.70010400e-01f,+3.58185589e-01f,
+1.57655463e-01f,+2.80335426e-01f,-3.25229391e-02f,-5.90805523e-03f,-3.24432701e-01f,
-2.64153749e-01f,+2.86279082e-01f,-7.36166909e-02f,-1.73165709e-01f,-4.79787648e-01f,
+6.75602555e-01f,+5.40926270e-02f,+4.89815682e-01f,-3.76878202e-01f,+2.58368403e-01f,
+3.98879051e-01f,-2.50233382e-01f,-1.99884981e-01f,+4.75586712e-01f,+4.47906017e-01f,
-5.38866162e-01f,-7.23326206e-01f,+1.61798745e-01f,+6.46963418e-01f,-4.05129403e-01f,
+1.30950892e+00f,-1.30188966e+00f,+1.24373245e+00f,+6.20276900e-03f,+1.65253192e-01f,
+2.44906083e-01f,+3.24465603e-01f,-4.15033519e-01f,+1.48096874e-01f,+4.58796918e-01f,
+4.54433173e-01f,+5.39672434e-01f,+1.16271995e-01f,+3.26402605e-01f,-2.87673086e-01f,
-7.11693764e-02f,-1.05085500e-01f,-8.45788047e-02f,+2.32450709e-01f,+1.27212748e-01f,
-2.55178422e-01f,+1.87239110e-01f,+6.34494051e-03f,-4.11984436e-02f,-3.96892518e-01f,
+8.09511065e-01f,+7.15620518e-01f,+1.04688711e-01f,+1.13205266e+00f,+1.18313754e+00f,
+4.65716273e-01f,+1.86773741e+00f,+3.83036613e-01f,-2.55149305e-01f,+5.36299609e-02f,
-5.27433529e-02f,-5.63129067e-01f,-9.87891614e-01f,-4.55325514e-01f,-3.77924025e-01f,
-6.71696439e-02f,+1.10986240e-01f,+3.66406649e-01f,+1.14331786e-02f,-1.78495973e-01f,
-2.39793733e-01f,+1.70227289e-01f,-1.04874164e-01f,-1.21778226e+00f,+1.71988046e+00f,
+8.58459473e-01f,+7.49016762e-01f,-2.55907446e-01f,+5.19193769e-01f,+5.93130708e-01f,
+9.98205245e-01f,-9.39003825e-02f,+3.41434449e-01f,-4.68042105e-01f,-3.33435059e-01f,
+2.68113166e-01f,+3.15092981e-01f,+8.74928296e-01f,+1.83402523e-01f,+3.04856032e-01f,
+9.14653718e-01f,-2.68891990e-01f,-2.27569133e-01f,+7.79380426e-02f,+3.28690290e-01f,
+7.75229186e-02f,+4.99041378e-02f,-1.00198053e-01f,-5.27653933e-01f,+2.41216067e-02f,
+1.50831139e+00f,+2.59600822e-02f,-3.25046092e-01f,+5.07907271e-02f,-1.52614906e-01f,
+1.58195937e+00f,+1.10050726e+00f,+3.94971877e-01f,+8.88310000e-02f,+1.48708165e+00f,
-3.33609253e-01f,-3.80264372e-01f,+9.69806492e-01f,-1.38200924e-01f,-1.78080708e-01f,
-5.32396436e-01f,+4.23546791e-01f,+1.28321946e-01f,+1.56337827e-01f,-5.44323623e-01f,
+3.71281028e-01f,+1.21551100e-02f,+4.81542498e-01f,+7.58316398e-01f,-9.69290957e-02f,
+6.15914464e-01f,+2.23080087e-02f,+2.72605240e-01f,+8.52705389e-02f,+8.79446566e-02f,
+2.87237018e-01f,-7.36577153e-01f,+9.86561596e-01f,+4.22539487e-02f,-1.85582936e-01f,
-2.30323002e-01f,-8.13149661e-02f,+5.01234412e-01f,+8.90356123e-01f,+4.48352128e-01f,
+7.41739929e-01f,+2.03344181e-01f,+5.65288484e-01f,-2.00574085e-01f,-1.17411382e-01f,
-6.09044731e-01f,+2.60413766e-01f,+2.77240664e-01f,-2.18716621e-01f,-4.60935116e-01f,
+3.88910174e-01f,+2.96200919e+00f,+5.34901381e-01f,+9.58955407e-01f,+1.28353834e+00f,
-4.41429615e-01f,-1.38512775e-01f,+1.52888024e+00f,-5.84420562e-01f,+1.57064605e+00f,
+2.10307259e-03f,+1.49782181e-01f,-2.98021108e-01f,+2.69453108e-01f,+4.72248256e-01f,
-1.76136881e-01f,+1.95085183e-01f,-1.85474411e-01f,-3.39822732e-02f,+9.40854132e-01f,
+6.30566031e-02f,+6.46694005e-01f,+9.68422413e-01f,+4.38030720e-01f,+4.98494685e-01f,
+1.11321723e+00f,-8.04202139e-01f,-2.91547209e-01f,+8.00377488e-01f,+1.05455816e+00f,
+3.99950534e-01f,-1.91025212e-02f,-5.77068269e-01f,+2.72784770e-01f,-1.17237337e-01f,
-3.35226089e-01f,-2.64880359e-01f,+7.24991322e-01f,-2.46211007e-01f,-2.38484845e-01f,
-5.61626077e-01f,-2.38839582e-01f,+7.00811446e-01f,+9.10088494e-02f,+1.40704346e+00f,
+2.09674358e-01f,+8.45200717e-01f,+1.32806554e-01f,+1.05692461e-01f,-2.85331041e-01f,
-6.50420785e-02f,+5.36955476e-01f,+8.54932517e-02f,+4.99479204e-01f,-1.69930130e-01f,
-7.83077419e-01f,+1.34572580e-01f,+5.05872965e-02f,+5.38538814e-01f,+6.67056262e-01f,
+4.70581532e-01f,+2.25310758e-01f,-9.66234282e-02f,+5.52405357e-01f,+1.27525181e-01f,
-4.82426137e-01f,+5.45121908e-01f,+4.30574894e-01f,-9.07621086e-01f,+2.44006902e-01f,
-2.29615465e-01f,+7.04646468e-01f,+3.85050058e-01f,-4.06750947e-01f,+3.41174118e-02f,
+5.93450777e-02f,+4.16304708e-01f,+2.84012228e-01f,+5.46015263e-01f,-1.49385497e-01f,
+9.67768058e-02f,+7.35638067e-02f,-1.49970293e-01f,+9.19830799e-01f,-5.85628450e-01f,
+8.85071695e-01f,-1.47115722e-01f,+4.41462606e-01f,-3.68686020e-01f,-5.60040548e-02f,
-7.54826427e-01f,-2.70390868e-01f,+1.04160428e-01f,-2.90657610e-01f,-4.26264741e-02f,
-5.06324947e-01f,+7.55938470e-01f,-4.02389765e-01f,+6.31787419e-01f,-2.75791526e-01f,
+2.00166121e-01f,-6.67353272e-02f,+6.69095740e-02f,+3.38356122e-02f,+5.65878525e-02f,
+8.29202414e-01f,-8.10380504e-02f,-1.87063098e-01f,+6.50605142e-01f,-7.58788824e-01f,
-1.85543478e-01f,-9.57105607e-02f,+4.45403308e-01f,+1.10252842e-01f,+1.71212599e-01f,
+9.45348963e-02f,-2.18691960e-01f,+2.66775995e-01f,-1.02381617e-01f,+5.20266354e-01f,
+6.06308043e-01f,-8.32648695e-01f,+6.39226198e-01f,-6.53230488e-01f,-3.68552923e-01f,
+2.89428562e-01f,+4.33927864e-01f,+3.36818490e-03f,-1.58217862e-01f,-3.18025529e-01f,
+4.56650704e-01f,+1.31224498e-01f,-1.87773347e-01f,+3.24617215e-02f,-6.21492416e-02f,
-3.80305707e-01f,+4.06319380e-01f,+4.01795179e-01f,-1.08238617e-02f,-4.65058684e-02f,
+2.07209781e-01f,+1.25816581e-03f,+2.82302231e-01f,-2.71089494e-01f,-2.35067129e-01f,
+1.50518537e-01f,-2.58663923e-01f,-5.22161007e-01f,+1.63030252e-01f,-9.09860849e-01f,
-4.21417862e-01f,+6.94446266e-01f,+3.98992449e-01f,+1.05090702e+00f,-1.52105376e-01f,
-3.47296447e-01f,+6.86806440e-01f,+9.96148407e-01f,+9.60489333e-01f,+2.32643992e-01f,
-4.71162677e-01f,+6.92240477e-01f,+1.12852192e+00f,+1.00221550e-02f,+8.72578144e-01f,
-4.20971125e-01f,+1.04371257e-01f,+3.18159789e-01f,+9.80585814e-01f,-3.45048517e-01f,
+9.22702178e-02f,+1.19916387e-01f,-3.47205192e-01f,+8.30461979e-01f,-6.50046691e-02f,
-1.48921549e-01f,+6.42613828e-01f,+1.12891279e-01f,-2.65483528e-01f,+3.06277901e-01f,
-1.73910037e-01f,-5.79811394e-01f,+7.53083006e-02f,-4.20393795e-01f,-4.95613329e-02f,
+4.03203934e-01f,-6.50957942e-01f,+5.22129059e-01f,-3.11123043e-01f,+9.95349646e-01f,
-1.02889754e-01f,+1.60760856e+00f,+1.40815902e+00f,-2.95156389e-01f,+1.60192466e+00f,
+8.59739602e-01f,+2.05424204e-01f,+2.18166739e-01f,-1.72807023e-01f,-5.07096827e-01f,
+2.24030346e-01f,+9.11289901e-02f,-5.55782199e-01f,-1.00108713e-01f,+7.91253746e-02f,
+5.78572452e-01f,-1.11048616e-01f,-5.70359677e-02f,-9.00905073e-01f,-2.85597473e-01f,
+1.64554954e-01f,-8.46806705e-01f,+1.96955144e+00f,+1.61798680e+00f,+1.60233855e+00f,
-1.22951496e+00f,+1.11610115e+00f,+9.44560707e-01f,+1.07830501e+00f,+4.47911233e-01f,
+2.07955766e+00f,+2.04643294e-01f,-8.99755597e-01f,-1.91782504e-01f,+1.75587744e-01f,
+5.59368014e-01f,+1.00513840e+00f,+5.78457341e-02f,+1.19262099e+00f,+5.67376971e-01f,
-4.08092737e-02f,+3.55945051e-01f,-1.65590756e-02f,+1.44165158e+00f,+4.25667584e-01f,
-1.15485027e-01f,+2.63683617e-01f,+6.14457667e-01f,+7.05438480e-02f,-1.39861003e-01f,
+4.80165601e-01f,-2.53841639e-01f,-2.40010187e-01f,-3.80403131e-01f,+3.05665880e-01f,
+2.03511047e+00f,-1.07644692e-01f,+2.35422384e-02f,-2.43177414e-01f,-1.53715777e+00f,
-8.73412907e-01f,+2.30707794e-01f,+7.67307058e-02f,-1.41734004e-01f,+2.18785986e-01f,
+1.06908607e+00f,+2.94668883e-01f,+2.49086797e-01f,-2.31413338e-02f,+8.52068186e-01f,
-7.36677527e-01f,-5.74088871e-01f,-9.75366533e-02f,+2.52703041e-01f,+7.82914817e-01f,
+9.69097793e-01f,+9.31386054e-01f,-9.82973129e-02f,+6.44442439e-01f,+2.39036813e-01f,
+2.65366584e-01f,-1.79264069e-01f,-1.82293832e+00f,+1.76381782e-01f,+1.33342326e-01f,
+9.31618631e-01f,-7.03481883e-02f,-3.56739461e-02f,+6.33061171e-01f,+5.49590707e-01f,
+3.77977788e-01f,+2.99012642e-02f,+2.75805831e-01f,+2.55236578e+00f,-2.57427484e-01f,
-2.92337179e-01f,-4.33135688e-01f,+6.79217994e-01f,+4.08189237e-01f,+2.73851633e-01f,
-9.14860427e-01f,+9.23668444e-01f,+1.97857916e-01f,+3.37976128e-01f,+1.92455173e-01f,
-3.42591740e-02f,+2.18272701e-01f,+3.75023186e-01f,-6.00314617e-01f,+1.05922125e-01f,
-6.03502572e-01f,-2.82276541e-01f,+6.95594549e-01f,-1.86768547e-01f,+4.81742978e-01f,
-1.46127164e-01f,-1.37894273e-01f,+5.02605177e-02f,+3.53777677e-01f,+6.41827583e-01f,
-1.08292669e-01f,-2.26154309e-02f,-3.23290855e-01f,+7.60595620e-01f,+6.92435563e-01f,
+4.94136125e-01f,-5.37459135e-01f,+6.83655739e-01f,+1.06315233e-01f,+2.70446301e-01f,
+3.38213563e-01f,+1.34721234e-01f,+5.02575934e-01f,-4.50432390e-01f,+8.90991807e-01f,
+5.54316938e-01f,-8.32577497e-02f,-1.27543539e-01f,+2.60044485e-01f,-4.93451774e-01f,
-2.52013505e-01f,+2.59517252e-01f,+3.91996056e-02f,-5.25917470e-01f,-4.45284963e-01f,
-9.19624418e-02f,+2.86860108e-01f,-2.12110221e-01f,+7.00307786e-02f,+3.75566334e-01f,
-8.02040637e-01f,+1.24163032e+00f,-4.33561385e-01f,-4.69053775e-01f,-2.74333626e-01f,
+3.61389726e-01f,-1.41463757e-01f,-5.04284203e-01f,+3.73911113e-01f,+1.24349542e-01f,
+4.91069645e-01f,-8.22851360e-01f,-3.16445291e-01f,+1.05680490e+00f,-8.55048060e-01f,
+1.01403914e-01f,+8.51679593e-02f,-1.13681018e+00f,-1.40366539e-01f,-2.78097600e-01f,
-2.42402107e-01f,-4.46789235e-01f,-2.07229540e-01f,-4.34037566e-01f,+3.18835884e-01f,
+1.49141681e+00f,+9.07385826e-01f,-2.45647565e-01f,+1.16225660e-01f,+4.36716676e-02f,
+2.45114919e-02f,+3.33381802e-01f,+6.58177078e-01f,-4.48593199e-01f,+1.57283321e-01f,
+2.66142249e-01f,-3.96289915e-01f,-2.97863372e-02f,+4.37264442e-01f,-3.23383301e-01f,
+5.99290609e-01f,-7.74786949e-01f,+1.37310177e-01f,+1.73498541e-01f,+5.26211858e-01f,
+1.52280867e+00f,+4.98223007e-01f,+7.89470136e-01f,+5.22240877e-01f,-1.68464407e-01f,
-1.36769831e-01f,+1.23730218e+00f,-5.35943389e-01f,+4.87925678e-01f,+9.79417861e-02f,
+3.14927548e-01f,-1.07276039e-02f,+2.12284744e-01f,-5.52767403e-02f,+3.79544077e-03f,
+5.70402026e-01f,-1.03296019e-01f,+5.20763919e-02f,+8.82294893e-01f,+5.12781620e-01f,
-8.76301646e-01f,+5.37055552e-01f,-2.18841091e-01f,-4.52649057e-01f,-7.26512909e-01f,
+5.57285488e-01f,-2.61575460e-01f,-2.63445109e-01f,+6.79777682e-01f,-2.57481158e-01f,
-5.84335178e-02f,+2.70769089e-01f,-3.16102713e-01f,-9.78780925e-01f,+9.74194333e-02f,
+1.66463837e-01f,+4.37665045e-01f,+7.27717439e-03f,+2.10272714e-01f,+8.29942465e-01f,
+1.70439780e-02f,-3.03878933e-01f,+2.34503269e-01f,-8.13903511e-01f,+1.19444109e-01f,
-8.19235563e-01f,-1.38646081e-01f,+7.14086056e-01f,-8.32003802e-02f,-1.73346132e-01f,
-5.42925477e-01f,-1.43419296e-01f,+3.69706094e-01f,+1.13906957e-01f,-7.30675906e-02f,
+2.90580004e-01f,-8.00955117e-01f,+1.95200801e-01f,+1.38232934e+00f,-2.04495355e-01f,
+7.35465765e-01f,+6.10316098e-01f,-3.92949462e-01f,+1.46432951e-01f,-2.20562622e-01f,
-8.29347551e-01f,-3.55247170e-01f,+6.63027704e-01f,+6.21166408e-01f,-3.40851732e-02f,
-9.55698252e-01f,+9.82144549e-02f,+1.23377077e-01f,-7.91735590e-01f,+1.83724359e-01f,
+5.70203900e-01f,-3.19309324e-01f,+2.13309169e-01f,-8.74398351e-02f,-1.90333292e-01f,
-1.12006217e-01f,-1.72900364e-01f,-1.47158429e-01f,+8.11096609e-01f,+4.72262383e-01f,
-1.33004934e-01f,+6.06764555e-01f,-2.81513274e-01f,+5.01251817e-01f,+2.65478641e-01f,
+6.80595756e-01f,-5.68254054e-01f,+3.10639918e-01f,+2.91897684e-01f,-1.92651041e-02f,
+7.33109772e-01f,+2.86972493e-01f,-5.13299525e-01f,+1.00864923e+00f,+1.28086090e+00f,
+1.04127973e-01f,-1.72379032e-01f,+5.12694776e-01f,+3.61303896e-01f,-1.14311732e-01f,
-3.58095080e-01f,+6.93030879e-02f,+1.10673141e+00f,-1.10970647e-03f,-9.21179056e-01f,
-2.41928086e-01f,+2.50610441e-01f,-2.70315289e-01f,-6.30478561e-03f,-6.88195527e-02f,
-6.30132914e-01f,-4.78638589e-01f,+6.26902044e-01f,-9.28514421e-01f,+6.34171903e-01f,
+9.24640775e-01f,-8.43381733e-02f,+4.69013423e-01f,+2.17761293e-01f,+4.90684718e-01f,
+7.65211880e-01f,+1.20248759e+00f,+4.79189306e-01f,+4.25487339e-01f,+3.13476503e-01f,
+7.95290172e-01f,+3.07725489e-01f,-9.83670056e-01f,-3.46530089e-03f,+7.67503977e-01f,
+8.86737466e-01f,+9.88582671e-01f,+4.34658110e-01f,+2.31782362e-01f,+2.07510725e-01f,
+3.76699507e-01f,+2.72067338e-01f,-6.86102957e-02f,-5.04987955e-01f,-2.93188661e-01f,
-2.23097116e-01f,+2.53078610e-01f,+2.34356314e-01f,+8.22092175e-01f,-7.88982451e-01f,
+7.94014931e-02f,+1.35290253e+00f,+1.43227398e-01f,-2.46651605e-01f,+7.53303051e-01f,
+1.13637078e+00f,-2.70542130e-02f,+7.79642582e-01f,-3.96600395e-01f,+9.19839501e-01f,
+9.64173451e-02f,+4.54312116e-01f,+9.12672102e-01f,+1.83978587e-01f,+2.35182330e-01f,
-1.20334528e-01f,-4.25723009e-02f,-4.97099720e-02f,+7.34798193e-01f,-3.40683758e-02f,
+1.00178838e-01f,+4.09036160e-01f,-7.67143965e-02f,+1.93512172e-01f,+1.59277037e-01f,
-5.93367636e-01f,-1.32446930e-01f,-2.68273264e-01f,+2.45886609e-01f,+3.95756036e-01f,
-2.98446417e-01f,-4.76612777e-01f,-1.11558847e-01f,+7.74127603e-01f,-2.57285923e-01f,
-2.92043149e-01f,+2.26415858e-01f,+1.08216748e-01f,+1.55970767e-01f,+2.88530290e-01f,
+1.67965963e-01f,-1.78505391e-01f,-6.45160019e-01f,+4.90351580e-02f,-1.42827570e-01f,
-1.41807705e-01f,+5.05380392e-01f,-3.05785947e-02f,+2.48529345e-01f,+4.34619665e-01f,
+3.51384491e-01f,+4.35500652e-01f,+2.19946504e-01f,-5.97442150e-01f,+4.91237104e-01f,
-1.49295449e-01f,-1.81251630e-01f,-2.26026893e-01f,-4.36444394e-02f,-7.29704797e-02f,
+1.18725576e-01f,+2.22566947e-01f,+9.63298321e-01f,+4.76976752e-01f,-1.38108984e-01f,
+9.91967022e-01f,+4.95395780e-01f,-2.91752160e-01f,+4.17887568e-01f,+5.64444065e-01f,
+2.46936649e-01f,+3.32065895e-02f,+2.69783467e-01f,+2.64971294e-02f,-6.17384911e-01f,
+3.45008135e-01f,-1.23216227e-01f,+5.00116467e-01f,+1.01753485e+00f,-1.86102778e-01f,
+4.41259921e-01f,+4.48286504e-01f,+5.47051549e-01f,-1.99134439e-01f,+1.03537686e-01f,
-1.07418907e+00f,+1.53573722e-01f,+3.82977515e-01f,-2.82118544e-02f,-1.09146632e-01f,
-1.77898556e-01f,-2.51112372e-01f,+9.06496197e-02f,+2.97696799e-01f,-5.48306704e-01f,
-4.60504353e-01f,+3.37007433e-01f,+2.58734107e-01f,+5.52505255e-01f,+3.95361662e-01f,
+4.35397685e-01f,-3.32795680e-01f,-1.65510565e-01f,-1.53205186e-01f,+9.65307653e-02f,
+5.07104218e-01f,-9.35042620e-01f,-2.34110907e-01f,-1.34030104e-01f,-2.10759357e-01f,
-1.92974731e-01f,-2.28648484e-01f,+7.91764319e-01f,+6.60513461e-01f,+1.06352650e-01f,
-4.78244901e-01f,-4.16968673e-01f,+3.20259094e-01f,-5.24552986e-02f,+1.07246137e+00f,
-2.54580110e-01f,-3.54960859e-01f,-1.33091420e-01f,-1.96193442e-01f,-2.16448277e-01f,
+3.82907808e-01f,+8.72645795e-01f,+4.57911193e-01f,+4.76671785e-01f,-1.45152718e-01f,
-2.76804119e-02f,-7.09488466e-02f,+3.53069544e-01f,+6.02684975e-01f,-5.05085468e-01f,
-1.29654467e-01f,-4.47831154e-01f,-2.78915405e-01f,-3.62232447e-01f,+7.07336426e-01f,
+1.47477418e-01f,-6.65146649e-01f,+8.89179185e-02f,-1.48916930e-01f,+1.15522489e-01f,
+5.95626414e-01f,+4.26900148e-01f,-7.59385228e-01f,-1.35607079e-01f,-4.44708347e-01f,
+3.20034921e-01f,+7.96127498e-01f,+3.65814231e-02f,+7.34229445e-01f,-8.10528845e-02f,
+8.24040696e-02f,-6.74882054e-01f,+5.33788085e-01f,-1.43537134e-01f,-1.67977989e-01f,
+6.18365556e-02f,+1.24412775e+00f,-4.49170470e-01f,-2.98915833e-01f,-2.74439096e-01f,
+8.62692118e-01f,+1.15541957e-01f,+2.77635694e-01f,+1.08190373e-01f,-6.36565149e-01f,
-2.07855090e-01f,-3.35077882e-01f,-4.64221448e-01f,-3.80173624e-01f,-1.25080037e+00f,
-7.50049716e-03f,-3.91077161e-01f,+3.40029091e-01f,+1.18053281e+00f,+3.16608548e-01f,
-5.31180859e-01f,+7.83882260e-01f,+7.23054230e-01f,+3.40339333e-01f,-1.94160238e-01f,
+5.25088310e-01f,+1.47912949e-02f,+1.17762811e-01f,+1.12899435e+00f,-5.73167861e-01f,
+1.11308694e+00f,+1.08401239e+00f,-2.10658044e-01f,+9.06270802e-01f,+7.76343405e-01f,
+1.22891748e+00f,+1.39622658e-01f,+1.50893450e-01f,+4.79262829e-01f,-7.34147131e-01f,
+2.14505270e-01f,+2.17622891e-02f,+2.44185761e-01f,-1.37258485e-01f,+2.74867803e-01f,
+2.78693020e-01f,-1.53591976e-01f,+2.79713199e-02f,-4.56715018e-01f,-5.26586473e-02f,
+7.68180490e-01f,-4.60817814e-01f,-1.88128054e-02f,+1.05808055e+00f,+3.83148909e-01f,
+6.78795755e-01f,-8.28908533e-02f,-2.23028392e-01f,-1.54952072e-02f,-1.97560832e-01f,
-3.99040520e-01f,-4.15579557e-01f,-3.85457218e-01f,+1.75112933e-01f,-5.89247763e-01f,
+4.98936892e-01f,+7.97205508e-01f,+1.41918138e-01f,+8.54798436e-01f,-4.63592261e-01f,
+6.46273553e-01f,-4.08519119e-01f,-7.64629915e-02f,-5.67160428e-01f,+5.63807845e-01f,
+1.45504577e-02f,-2.47635692e-01f,-4.35297668e-01f,+3.71988527e-02f,+7.34897330e-02f,
+1.17728509e-01f,-5.51498234e-01f,-2.50377685e-01f,+1.01319158e+00f,-1.84594750e-01f,
+2.12412238e-01f,+2.08509162e-01f,-2.33013824e-01f,-9.23680793e-03f,+8.89904380e-01f,
-1.20243907e-01f,-7.35273808e-02f,+3.63975257e-01f,+9.20268059e-01f,+1.15179038e+00f,
+1.44357353e-01f,+1.05465150e+00f,+3.97523463e-01f,-1.13682479e-01f,+2.40143284e-01f,
-1.32922590e-01f,+6.12877369e-01f,+5.52698672e-01f,+8.59557211e-01f,+4.84671772e-01f,
+2.41503820e-01f,+8.20645392e-02f,+7.26159990e-01f,+3.97721946e-01f,-7.42497683e-01f,
+7.34276712e-01f,-7.46533051e-02f,+3.85156609e-02f,+3.88581038e-01f,-2.60672182e-01f,
+7.17845708e-02f,-4.99252183e-03f,+9.49796379e-01f,+1.06899157e-01f,-1.90893114e-01f,
-2.29606271e-01f,+2.56023109e-01f,-8.11866820e-02f,+8.45605135e-03f,-6.95856512e-02f,
+7.75072455e-01f,+6.85655177e-01f,+5.88445127e-01f,+3.29832137e-01f,-5.56581199e-01f,
-7.86063969e-01f,+2.10244119e-01f,+4.24482793e-01f,-1.20417476e-01f,+9.09167767e-01f,
+6.01321347e-02f,-3.98814410e-01f,+1.97266430e-01f,+4.40820038e-01f,+3.52295071e-01f,
-7.65092611e-01f,-6.58209562e-01f,+3.49634022e-01f,-2.37093747e-01f,+4.07002211e-01f,
+8.29244196e-01f,+2.31174067e-01f,+1.13450676e-01f,-2.37441942e-01f,+7.22681731e-02f,
+9.14431155e-01f,+6.06775165e-01f,+7.58701283e-03f,-7.86320865e-01f,-1.40476182e-01f,
-1.44227978e-03f,+8.57556343e-01f,+3.43154907e-01f,+4.22719717e-01f,+3.47561270e-01f,
+3.80246818e-01f,-7.86300182e-01f,+6.06168985e-01f,+6.58456504e-01f,+1.61682475e+00f,
-5.28096437e-01f,+9.18755174e-01f,+4.43980902e-01f,+2.74509549e-01f,-9.32689726e-01f,
+5.02668977e-01f,-2.09232137e-01f,-6.10977113e-01f,+6.62861228e-01f,-5.18775344e-01f,
+5.13795950e-02f,+7.79262781e-01f,-1.34502053e+00f,+1.11162305e+00f,-3.65407825e-01f,
+1.91683415e-02f,+3.04667950e-01f,-1.65680066e-01f,+4.20008264e-02f,+8.73672813e-02f,
-3.57030213e-01f,+6.07185960e-02f,-1.17049098e-01f,-4.04944479e-01f,+5.57551868e-02f,
+1.14884889e+00f,+1.43654108e+00f,+8.50490272e-01f,-2.22037315e-01f,+7.57161021e-01f,
-6.77358389e-01f,+1.27370387e-01f,+3.06443185e-01f,-2.28748918e-02f,-3.54082100e-02f,
+5.53723872e-01f,+7.10857868e-01f,-9.52851415e-01f,+3.22047383e-01f,-5.26954941e-02f,
+1.85199484e-01f,+2.83688586e-02f,+4.33349945e-02f,+4.51820433e-01f,+1.25193462e-01f,
