#include <math.h> 
 #include <string.h> 
#include "./include/k2c_include.h" 
#include "./include/k2c_tensor_include.h" 

 


void cPredictor(k2c_tensor* dense_input_input, k2c_tensor* dense_2_output) { 

float dense_output_array[32] = {0}; 
k2c_tensor dense_output = {&dense_output_array[0],1,32,{32, 1, 1, 1, 1}}; 
float dense_kernel_array[1024] = {
+1.51622260e+00f,-3.30180019e-01f,-4.75495696e-01f,-1.16575265e+00f,+6.83107257e-01f,
+1.37256336e+00f,-2.91282892e+00f,+5.83915114e-01f,+1.79893672e-01f,+8.25252533e-01f,
-1.12450492e+00f,-2.65462846e-01f,+1.06289804e+00f,-5.15299439e-01f,-1.61681855e+00f,
-2.81160331e+00f,-2.09331322e+00f,-1.47228777e-01f,+3.37447196e-01f,+1.70818090e-01f,
-2.78214395e-01f,+8.08802426e-01f,-5.93576372e-01f,+1.52736759e+00f,+1.07589471e+00f,
+1.22102171e-01f,-7.90496647e-01f,+2.14019015e-01f,-2.99993324e+00f,+2.75679529e-01f,
-7.27764666e-01f,+2.64753747e+00f,+7.97734439e-01f,-3.05930555e-01f,+1.02919495e+00f,
+1.19557321e+00f,+2.13992864e-01f,+1.50721061e+00f,-2.51871991e+00f,+3.65583926e-01f,
+3.26035082e-01f,+1.34898913e+00f,-1.78904760e+00f,+8.93110931e-01f,+3.20608616e-01f,
-1.06632650e-01f,-2.41561174e+00f,-2.86778569e+00f,-2.00552058e+00f,+1.12498891e+00f,
+3.03113550e-01f,+3.80247086e-01f,+5.15690863e-01f,+1.35482228e+00f,+2.56431013e-01f,
+1.06015921e+00f,-2.66584307e-01f,+2.30300613e-03f,-1.00904214e+00f,+2.15023324e-01f,
-2.89274383e+00f,+5.75597882e-01f,-8.24798167e-01f,-1.66555107e-01f,-3.78973699e+00f,
+7.58847296e-01f,+3.83509934e-01f,+6.98406398e-02f,+2.05008674e+00f,+4.40107971e-01f,
-3.32110405e-01f,-4.68547158e-02f,-1.28601044e-01f,+4.75890487e-02f,+1.85749054e-01f,
+5.77817708e-02f,-8.38413715e-01f,+3.59327018e-01f,-2.60623302e-02f,-2.99961019e+00f,
-1.63666546e-01f,+8.61070573e-01f,-2.87330937e+00f,-9.59878504e-01f,+1.22238600e+00f,
+8.35153043e-01f,+1.66879344e+00f,+4.29641068e-01f,-9.85871330e-02f,-2.45520443e-01f,
-7.80800462e-01f,+6.34126484e-01f,-2.52761245e+00f,+5.92916489e-01f,-1.15930885e-02f,
+3.02609969e-02f,-3.69425654e+00f,+1.89887118e+00f,+6.47097826e-01f,-2.76953369e-01f,
+2.43657470e-01f,+1.42762169e-01f,+1.13823164e+00f,-2.48387724e-01f,+1.19184387e+00f,
-2.36075640e-01f,-8.39333177e-01f,-2.26325870e-01f,-3.33298668e-02f,-5.74417412e-02f,
+1.11476433e+00f,-1.20392275e+00f,+3.25678796e-01f,+3.96634877e-01f,-1.26911259e+00f,
+1.81659788e-01f,+9.43621337e-01f,-3.15200996e+00f,+2.30521694e-01f,+1.88988638e+00f,
-2.94151783e-01f,-2.78059095e-01f,-1.47928035e+00f,+4.09009278e-01f,-2.92552042e+00f,
+1.21454871e+00f,+5.43239057e-01f,-2.42900282e-01f,-3.72809315e+00f,-8.92223567e-02f,
+3.70277733e-01f,-3.92833084e-01f,-2.11799458e-01f,-5.57355821e-01f,+5.14879346e-01f,
+1.19768035e+00f,+1.64404169e-01f,-3.70392352e-02f,-9.22923535e-02f,-7.43114412e-01f,
-7.03165352e-01f,+3.53440970e-01f,+8.82583082e-01f,+9.05342817e-01f,+2.12520391e-01f,
+3.71084064e-01f,-8.47081959e-01f,+5.88766336e-01f,+6.12487674e-01f,+5.09417117e-01f,
-4.92281348e-01f,+6.76551536e-02f,-4.42002475e-01f,-2.90083140e-01f,-1.97124314e+00f,
-1.03882027e+00f,-2.48297572e+00f,+1.31890285e+00f,+4.32728201e-01f,-1.59810752e-01f,
-2.85560322e+00f,+1.72473639e-01f,+7.28975713e-01f,-2.21796203e+00f,-1.05637479e+00f,
+1.38446391e+00f,-3.63090158e-01f,+9.58140135e-01f,+1.28226401e-02f,+5.85113823e-01f,
-1.89968750e-01f,-8.04018974e-01f,+2.34184548e-01f,+5.54787874e-01f,+8.35504591e-01f,
+1.32410979e+00f,+1.67769659e+00f,+1.89214200e-02f,-2.15899754e+00f,-2.99159193e+00f,
+1.34146309e+00f,+1.12999225e+00f,-1.91405416e+00f,+1.03708577e+00f,-3.06707358e+00f,
-1.30557764e+00f,-2.17135954e+00f,-1.33779973e-01f,-9.35688078e-01f,+1.50142658e+00f,
-2.80263692e-01f,-7.22705901e-01f,-1.19467187e+00f,-1.99917912e-01f,-4.04939801e-01f,
+5.45303285e-01f,+5.36061347e-01f,+1.28224781e-02f,-1.63769019e+00f,-9.88786936e-01f,
+3.75238508e-01f,+3.30367446e-01f,-4.49003905e-01f,+1.12789428e+00f,+2.85556614e-01f,
+3.51703972e-01f,+6.81819975e-01f,+1.41639626e+00f,-2.20361996e+00f,-5.40623724e-01f,
-1.08915770e+00f,+1.30237806e+00f,+8.49896848e-01f,-3.00444961e+00f,-2.89241123e+00f,
+6.58827484e-01f,+6.14680886e-01f,-4.55418169e-01f,-2.46833801e+00f,+7.20761955e-01f,
+6.89122677e-01f,+9.28583801e-01f,+1.38793921e+00f,-1.41160667e-01f,+1.44453749e-01f,
+8.16299200e-01f,+6.80227697e-01f,+9.48010862e-01f,+6.19733095e-01f,+3.36739093e-01f,
-1.54257369e+00f,+1.18736394e-01f,-5.58893621e-01f,-1.89496922e+00f,+7.06835628e-01f,
-3.71032000e-01f,+1.19657576e+00f,-3.11469555e-01f,+1.14775836e+00f,+7.05735147e-01f,
-1.63085485e+00f,-6.53080523e-01f,-1.14836192e+00f,+3.91043037e-01f,+1.47050871e-02f,
-2.15921259e+00f,-3.28387356e+00f,+7.88567066e-01f,+9.32585478e-01f,-8.06016266e-01f,
-2.13333511e+00f,-1.76153436e-01f,+8.57141376e-01f,+1.61592856e-01f,+1.17309368e+00f,
-2.51741648e-01f,+2.08370328e-01f,+1.02347374e+00f,+5.38531959e-01f,+1.52690780e+00f,
+1.14918780e+00f,-6.37780800e-02f,-9.49282467e-01f,+6.13853812e-01f,-8.78596902e-01f,
+8.89730155e-01f,+2.00827122e+00f,+5.65926015e-01f,+2.79759109e-01f,+5.44509709e-01f,
+7.99785912e-01f,+2.61269987e-01f,-1.77827346e+00f,-9.42985833e-01f,-1.68034363e+00f,
-2.72137427e+00f,-3.57717454e-01f,+3.16969812e-01f,-7.17375815e-01f,-4.54854369e-01f,
+5.20787179e-01f,-9.25559878e-01f,+9.19530615e-02f,+9.37255025e-01f,+1.26726651e+00f,
-1.02178347e+00f,+4.37428623e-01f,+9.26627517e-01f,-8.79815128e-03f,+6.45361662e-01f,
+4.16340053e-01f,+1.16525090e+00f,+1.73480070e+00f,+3.81905101e-02f,-1.17990649e+00f,
+8.86088490e-01f,-3.90109122e-01f,-2.85330200e+00f,+1.42212641e+00f,-2.85004824e-01f,
+6.28567159e-01f,-5.76020122e-01f,-1.28003693e+00f,+3.05544913e-01f,-1.24340928e+00f,
-3.78442496e-01f,-2.19343528e-01f,+4.72609997e-01f,-5.87591887e-01f,-3.20566797e+00f,
-6.77031755e-01f,+1.46694742e-02f,+9.08248305e-01f,-8.01448584e-01f,+2.00864649e+00f,
+4.19061892e-02f,+7.95831263e-01f,+3.35195482e-01f,+1.41256487e+00f,+1.17649153e-01f,
+1.95129439e-01f,+8.90120208e-01f,+2.92284369e-01f,-9.35345367e-02f,-3.16805452e-01f,
-6.12923563e-01f,-4.01457459e-01f,+2.54519075e-01f,+4.87315565e-01f,-2.48386431e+00f,
+1.74422514e+00f,+1.08247948e+00f,-3.48278314e-01f,-9.19101417e-01f,-6.54279053e-01f,
+1.24224043e-03f,-1.25938702e+00f,-5.86049199e-01f,+5.60218930e-01f,+5.71343899e-01f,
-3.17984056e+00f,-3.19402790e+00f,+7.20300436e-01f,-5.22736013e-01f,+1.08606291e+00f,
-1.51451087e+00f,+8.09549093e-01f,-6.69829130e-01f,+7.06944406e-01f,-8.31891820e-02f,
+1.29695845e+00f,+2.94398576e-01f,+1.44728124e-01f,-1.64115012e-01f,-1.98986077e+00f,
-8.49785745e-01f,-9.11933854e-02f,+4.92118657e-01f,+9.01774764e-01f,+3.65760565e-01f,
+4.56539720e-01f,-3.27539110e+00f,+1.40012646e+00f,+4.24391329e-01f,-1.31289482e-01f,
+1.06849468e+00f,-7.47262955e-01f,-9.32927966e-01f,+4.66360778e-01f,-1.17630386e+00f,
+1.54530764e-01f,+5.51240146e-01f,-2.28729177e+00f,-2.73097348e+00f,+1.18298888e+00f,
-1.50923347e+00f,+1.66399944e+00f,+2.73927838e-01f,+4.89283741e-01f,-1.41448760e+00f,
-1.92976320e+00f,-3.65747064e-01f,+1.82122445e+00f,+4.79554296e-01f,+1.40562141e+00f,
+7.65000522e-01f,-8.42226863e-01f,-1.00870943e+00f,-1.33082584e-01f,-2.04217173e-02f,
+9.76993084e-01f,-3.94336432e-02f,+1.18054354e+00f,-3.01295543e+00f,+8.53326321e-01f,
-8.02105963e-02f,-7.65109897e-01f,+1.76867342e+00f,+1.37047455e-01f,+9.75485146e-01f,
+5.54127038e-01f,-2.95678288e-01f,+6.98788404e-01f,-1.31178784e+00f,+1.85808158e+00f,
-3.20801353e+00f,+1.30959177e+00f,+5.25071323e-01f,-1.09459803e-01f,+3.04298544e+00f,
+1.72587797e-01f,-1.25121474e+00f,+7.35068917e-01f,-2.87219095e+00f,+1.63753375e-01f,
+8.90843868e-01f,+7.56636024e-01f,+1.75921008e-01f,+4.42635685e-01f,-1.29748344e+00f,
+8.69618118e-01f,+1.26735777e-01f,+9.84143689e-02f,+7.03998625e-01f,+4.33947891e-01f,
-2.92806172e+00f,+3.81584644e-01f,-1.64240841e-02f,-3.35681367e+00f,+8.58475804e-01f,
-1.57064021e+00f,-5.20095766e-01f,+8.40975642e-01f,+1.30818546e+00f,+3.01561058e-01f,
-2.06349805e-01f,-8.95761847e-02f,+1.03020155e+00f,+1.19113266e+00f,+3.76230478e-01f,
-3.21037501e-01f,+1.70412791e+00f,-2.35295162e-01f,+1.50486934e+00f,-2.94712734e+00f,
-3.56834745e+00f,+9.20388818e-01f,+8.96495283e-01f,+1.63348329e+00f,-9.49351311e-01f,
-3.37226129e+00f,-1.79844189e+00f,-1.53052181e-01f,-4.03895235e+00f,+1.23395526e+00f,
+3.32809389e-01f,+2.86631632e+00f,-1.02701545e-01f,+1.08421493e+00f,-2.74976075e-01f,
+4.46628720e-01f,+1.52072906e+00f,-8.64691436e-01f,+6.46577120e-01f,-1.62290573e+00f,
+2.07096553e+00f,+8.67597342e-01f,+9.16805804e-01f,+9.81687456e-02f,-6.22204542e-01f,
+6.03827477e-01f,+9.43902731e-01f,-1.12045005e-01f,-5.64871788e-01f,-1.47552633e+00f,
-1.83107567e+00f,+1.14817011e+00f,-2.93485969e-01f,+2.29354724e-01f,+6.25769019e-01f,
+1.55962849e+00f,-2.14148268e-01f,+3.15690309e-01f,-1.74486113e+00f,+8.87863517e-01f,
+8.95012796e-01f,-2.68896848e-01f,+5.30946195e-01f,+7.51987219e-01f,+1.09946251e+00f,
-2.78406501e-01f,-9.10792589e-01f,+1.71824932e-01f,-1.58393681e-01f,-2.69596744e+00f,
-1.02800846e+00f,+1.13904692e-01f,+6.64297998e-01f,+2.79654533e-01f,-1.84906125e-01f,
-5.30520320e-01f,+6.36522055e-01f,+1.07332671e+00f,+1.29883039e+00f,+2.20817283e-01f,
+7.62438355e-03f,-6.77354813e-01f,+1.30149579e+00f,-2.89491367e+00f,+3.51521909e-01f,
-2.32156619e-01f,+1.16737556e+00f,+9.73604154e-03f,+3.92763950e-02f,+5.70884943e-01f,
+2.00555801e+00f,-2.70488441e-01f,+9.81504142e-01f,+8.10078606e-02f,+1.55396134e-01f,
+4.07724500e-01f,+2.77821094e-01f,+2.50732839e-01f,+8.83172333e-01f,-5.45377731e-01f,
+4.18277293e-01f,-1.15725614e-01f,-6.24907203e-02f,-4.02060658e-01f,+4.65201616e-01f,
+4.23824042e-01f,+3.36574644e-01f,+3.68344218e-01f,+3.83555025e-01f,+3.76124755e-02f,
-5.78769632e-02f,-3.14945281e-01f,-1.27451777e-01f,+1.13640912e-02f,-1.52677581e-01f,
+3.47454399e-02f,+3.21623862e-01f,-1.38674766e-01f,-1.35388577e+00f,+3.31864841e-02f,
+4.51223612e-01f,-1.26898849e+00f,-4.92206663e-01f,+7.43105590e-01f,-5.09670638e-02f,
-3.61032307e-01f,-1.63405061e-01f,+2.55112410e-01f,-9.28047001e-01f,+1.29967546e+00f,
-4.04520214e-01f,-1.04644924e-01f,+3.40770960e-01f,+1.04898286e+00f,-5.65333059e-03f,
+1.75053120e-01f,-1.00123215e+00f,+9.23834741e-01f,+5.81053570e-02f,+1.02744542e-01f,
+2.59605318e-01f,+3.14287543e-01f,+3.92157733e-01f,+5.70681512e-01f,-3.35538003e-04f,
-4.87932526e-02f,+5.08303531e-02f,-3.39949802e-02f,+7.14652240e-01f,-1.06988423e-01f,
-5.49001455e-01f,+5.71568571e-02f,+3.87238413e-01f,+1.29748747e-01f,-3.72316912e-02f,
-1.17613316e+00f,+1.86843816e-02f,+1.23393214e+00f,-3.98218215e-01f,+7.49859929e-01f,
-3.73980284e-01f,-1.93705425e-01f,-1.67703092e-01f,+8.76957536e-01f,-1.44324392e-01f,
+1.11649442e+00f,+1.56418943e+00f,+1.78919896e-01f,+5.37466593e-02f,+6.92864895e-01f,
+5.35208225e-01f,-2.33720720e-01f,+2.40537375e-01f,-5.98817766e-01f,+3.88886273e-01f,
-6.87368587e-02f,+1.33949406e-02f,-2.43298151e-02f,-1.39727369e-01f,+3.12905572e-02f,
+3.83183181e-01f,+6.74700975e-01f,-1.35006323e-01f,+2.39301361e-02f,-9.67618406e-01f,
-1.67411059e-01f,+1.00252584e-01f,+2.70486891e-01f,+6.50150850e-02f,-4.31971550e-01f,
+1.72477686e+00f,-5.86611390e-01f,+1.53449044e-01f,+2.36460656e-01f,-9.12865624e-02f,
-2.37452164e-01f,-3.01209539e-02f,-2.04160511e-01f,+2.14588547e+00f,+1.23760149e-01f,
+9.02970657e-02f,+5.19250870e-01f,+6.65897653e-02f,+1.30322754e-01f,-2.13935431e-02f,
-8.42342302e-02f,-7.14234233e-01f,+1.25110596e-01f,-1.77702811e-02f,+2.42819432e-02f,
+1.83876678e-02f,-9.19919461e-02f,+3.13881576e-01f,-4.25542146e-01f,+1.13046251e-01f,
+5.83427668e-01f,+6.28858328e-01f,-8.81327316e-02f,+1.16198696e-01f,+3.21817808e-02f,
+1.01370883e+00f,-5.16122997e-01f,-2.38559365e-01f,+3.10947180e-01f,+1.36828780e-01f,
+4.45838571e-01f,+3.76498908e-01f,+8.02439809e-01f,+3.44641566e-01f,-7.87845373e-01f,
+3.62446368e-01f,+1.85788959e-01f,-2.23792255e-01f,+4.12487179e-01f,+5.01284659e-01f,
-1.07786044e-01f,+6.44089356e-02f,-3.70172143e-01f,+1.06702816e+00f,+6.49478376e-01f,
+1.32929429e-01f,-5.17979171e-03f,+1.68430701e-01f,+1.28728724e+00f,-7.23225176e-02f,
-3.50254714e-01f,-7.14533627e-02f,+6.04956031e-01f,-6.54519856e-01f,-1.60945058e-01f,
+1.47935957e-01f,+6.82523966e-01f,+3.34905714e-01f,-2.14131642e-02f,-1.28238988e+00f,
+8.71780738e-02f,+9.34155136e-02f,+1.06846981e-01f,+2.50130326e-01f,+7.21621839e-03f,
+9.70794037e-02f,-1.32098138e-01f,+5.41450679e-02f,+2.57437319e-01f,-1.87810957e-02f,
-3.80782061e-04f,+5.58323674e-02f,+1.49741858e-01f,+1.61135606e-02f,-2.62713552e-01f,
-3.34555924e-01f,-1.31487578e-01f,+1.91247854e-02f,+2.19210107e-02f,+3.13650578e-01f,
+1.39939272e+00f,-2.65406191e-01f,+8.87210548e-01f,+4.08935457e-01f,+1.43303776e+00f,
+1.92511106e+00f,+7.49438226e-01f,+8.58257860e-02f,+6.83811828e-02f,+4.26947564e-01f,
+2.72886366e-01f,+1.42510593e+00f,-3.48827779e-01f,+9.52619091e-02f,+6.67933583e-01f,
-5.86330652e-01f,+7.01009154e-01f,-1.76045522e-01f,+2.67455488e-01f,-4.37013358e-01f,
+7.27443397e-02f,+1.38683185e-01f,-2.50757098e-01f,+5.53892180e-02f,-3.32869023e-01f,
+9.01422948e-02f,-2.79953897e-01f,-2.12274775e-01f,+3.89333278e-01f,-4.21174131e-02f,
-5.71368337e-02f,-8.42654288e-01f,+3.80173475e-01f,-6.22439265e-01f,-4.07615900e-02f,
-7.09060505e-02f,+2.62865007e-01f,+3.66014600e-01f,-1.44566083e-02f,-9.13406089e-02f,
-4.02181625e-01f,-5.46712697e-01f,+5.51108979e-02f,+2.77186781e-01f,+8.64341855e-02f,
+7.48736858e-02f,-1.05263561e-01f,+8.49227190e-01f,-4.48577628e-02f,+9.29901958e-01f,
+2.15353951e-01f,-2.61618525e-01f,+1.36435241e-01f,-5.20755071e-03f,-1.22814544e-01f,
+3.06797504e-01f,+1.56515568e-01f,+1.82212830e-01f,+7.38188982e-01f,-2.48264581e-01f,
-7.45657027e-01f,+1.03821009e-01f,+1.14490557e+00f,+1.31112918e-01f,+3.57398003e-01f,
+4.98911515e-02f,-1.26184896e-01f,+4.45957750e-01f,+1.14426479e-01f,-2.17104569e-01f,
+3.68796706e-01f,-7.59389326e-02f,+3.14898729e-01f,-3.04593369e-02f,+1.15382850e-01f,
+5.17976284e-02f,+3.33933562e-01f,+2.30933487e-01f,-2.15919837e-01f,-1.07590042e-01f,
+1.08471371e-01f,-6.29191399e-01f,+9.30863097e-02f,-3.12629566e-02f,+1.72611088e-01f,
-1.11018628e-01f,+1.24340758e-01f,+2.71102160e-01f,+5.65114141e-01f,+1.54801428e-01f,
+2.45016024e-01f,+5.77862114e-02f,+3.62956911e-01f,+1.18477613e-01f,+1.83619010e+00f,
-9.90076885e-02f,+7.14513734e-02f,-1.08311504e-01f,-1.47386119e-01f,-2.81789340e-02f,
+3.55937511e-01f,+5.27128994e-01f,-2.59765089e-01f,-1.33558780e-01f,-8.13398719e-01f,
-4.05737370e-01f,+1.57295212e-01f,+6.57924861e-02f,+2.43661448e-01f,+2.60406762e-01f,
+5.29707730e-01f,+1.48519361e+00f,-1.17972963e-01f,-7.51122057e-01f,-3.02225607e-03f,
-5.21493852e-02f,+2.01085303e-02f,+1.12442590e-01f,+2.29845837e-01f,+1.12098634e-01f,
+5.99255979e-01f,-7.10716397e-02f,+1.64111161e+00f,-5.82587719e-01f,-3.75935398e-02f,
-5.28071001e-02f,-1.00615489e+00f,-5.86856492e-02f,+1.12074547e-01f,-1.61438793e-01f,
-2.44100407e-01f,+5.93974948e-01f,+3.56344074e-01f,-2.20924929e-01f,-1.62353575e-01f,
-3.80188748e-02f,+2.90979505e-01f,+4.52682018e-01f,+1.19812036e+00f,-1.89713836e-01f,
-2.47306883e-01f,+8.51872712e-02f,-7.32664406e-01f,-7.47578382e-01f,-9.60811377e-02f,
+1.53525627e+00f,+2.79853404e-01f,-1.99259266e-01f,+1.47408378e+00f,-2.39073679e-01f,
-3.44961971e-01f,+2.60661066e-01f,+6.60688058e-02f,-6.12114742e-02f,+8.08128476e-01f,
-6.83931410e-01f,+1.78778738e-01f,-2.49938920e-01f,-4.72146630e-01f,-5.79556599e-02f,
+6.77618906e-02f,-1.21906154e-01f,-3.17576289e-01f,-1.50606990e-01f,+2.03156486e-01f,
-1.33785978e-01f,+6.65723681e-01f,-7.63621256e-02f,+2.28229567e-01f,-2.37045929e-01f,
-5.77944592e-02f,-7.95652866e-02f,+1.92211926e-01f,-7.89778158e-02f,+2.13985443e-01f,
-4.93656158e-01f,-3.37562680e-01f,+3.16040337e-01f,+1.31128326e-01f,+8.38307589e-02f,
-1.83588415e-01f,+2.73389518e-01f,+2.18892351e-01f,-2.86966652e-01f,+9.67649281e-01f,
-2.10898966e-01f,-7.97632635e-02f,+5.17192483e-01f,-4.14714277e-01f,-3.12441635e+00f,
-6.57591969e-02f,+2.85977095e-01f,-3.98397967e-02f,-6.03517532e-01f,-2.26686656e-01f,
+5.32687604e-01f,-1.09404363e-01f,+2.07616284e-01f,+1.23915720e+00f,-1.06701711e-02f,
+4.52198118e-01f,+1.07099200e-02f,+4.90184454e-03f,+4.33320910e-01f,+7.42177516e-02f,
+2.72062331e-01f,+3.06619614e-01f,+4.89539877e-02f,+2.07661718e-01f,-1.86022729e-01f,
+2.76292413e-01f,-6.55456409e-02f,+5.56827307e-01f,-6.31377101e-01f,-6.19271211e-02f,
+6.18628204e-01f,-1.57266259e-01f,+1.48858154e+00f,+2.41107587e-02f,+1.87041700e-01f,
-9.71004814e-02f,-1.03506589e+00f,-1.82543084e-01f,+1.76886308e+00f,+7.72068501e-02f,
-2.41368394e-02f,+4.74283509e-02f,+3.85522991e-01f,+2.36943271e-02f,-3.59158725e-01f,
+1.81117743e-01f,+4.53449190e-02f,+4.50035274e-01f,+5.48174322e-01f,+2.22467512e-01f,
+2.00966164e-01f,+3.52052927e-01f,+1.20200169e+00f,+4.76967037e-01f,-1.79245755e-01f,
+7.40481913e-01f,-1.71521440e-01f,+4.21674818e-01f,+3.55545506e-02f,-1.21273920e-01f,
-4.22554389e-02f,+1.14368796e-01f,-5.85028291e-01f,-2.75244694e-02f,+5.33321083e-01f,
-9.87022743e-02f,+1.51950598e-01f,+1.44183800e-01f,-5.08065999e-01f,+1.74909625e-02f,
-9.12226643e-03f,-2.64934041e-02f,+1.09816420e+00f,+6.33320212e-02f,-3.09360802e-01f,
+2.77419724e-02f,-3.94753814e-01f,-4.47405457e-01f,-5.46073802e-02f,+4.70854580e-01f,
+8.10459495e-01f,+6.50303662e-02f,+2.03000203e-01f,+5.29683292e-01f,+8.06240022e-01f,
-3.40070665e-01f,-8.47144127e-02f,+3.76709700e-01f,-9.67493534e-01f,+4.68570948e-01f,
-9.71457362e-02f,-2.98251897e-01f,-3.43421131e-01f,+3.02777112e-01f,-1.15183377e+00f,
-7.08083510e-01f,+6.95873380e-01f,-6.40036315e-02f,-1.02744564e-01f,-5.53659439e-01f,
-1.21298993e+00f,-1.27408564e-01f,-5.93715571e-02f,+4.38637054e-03f,+8.67181599e-01f,
-2.59513795e-01f,-2.83972949e-01f,-1.10629410e-01f,+2.38076508e-01f,+2.43839756e-01f,
+1.87035576e-01f,+6.35939658e-01f,-5.39624512e-01f,+2.61522025e-01f,-2.70498663e-01f,
-9.98803854e-01f,+1.18462193e+00f,-4.16755676e-01f,+3.46692353e-01f,+1.08566332e+00f,
-7.82436430e-01f,+1.41037762e-01f,-6.88297004e-02f,+1.70834572e-03f,-1.14866458e-01f,
+1.41814411e-01f,-1.28706515e-01f,+3.64877135e-01f,+2.38273397e-01f,-5.61829433e-02f,
+4.07951176e-02f,+1.29611278e+00f,-7.89866269e-01f,+6.36795908e-02f,-6.65036500e-01f,
+5.07394038e-02f,+1.14996862e+00f,-1.31637603e-01f,+1.25885415e+00f,}; 
k2c_tensor dense_kernel = {&dense_kernel_array[0],2,1024,{32,32, 1, 1, 1}}; 
float dense_bias_array[32] = {
-2.48846233e-01f,+1.13938534e+00f,+5.21542728e-01f,-4.56392258e-01f,+8.18860710e-01f,
+5.42518973e-01f,-3.84981394e-01f,+1.07763374e+00f,+1.02229989e+00f,-6.84110463e-01f,
+8.17712605e-01f,+3.36438030e-01f,-9.00545269e-02f,+1.10165882e+00f,-5.83835602e-01f,
-3.45746070e-01f,-7.47271359e-01f,+9.59062755e-01f,-6.48436010e-01f,+4.31591034e-01f,
+3.97745520e-01f,-5.21684766e-01f,+1.03652082e-01f,+1.02461898e+00f,+9.35755074e-01f,
+1.10390735e+00f,-3.96924168e-01f,+2.44739100e-01f,-7.80304313e-01f,+4.20597523e-01f,
+1.23595583e+00f,+1.06564856e+00f,}; 
k2c_tensor dense_bias = {&dense_bias_array[0],1,32,{32, 1, 1, 1, 1}}; 
float dense_fwork[1056] = {0}; 

 
float dense_1_output_array[16] = {0}; 
k2c_tensor dense_1_output = {&dense_1_output_array[0],1,16,{16, 1, 1, 1, 1}}; 
float dense_1_kernel_array[512] = {
+4.46415335e-01f,-4.85504776e-01f,-3.29948753e-01f,+1.33177829e+00f,-1.13150954e+00f,
+1.17516935e+00f,+8.39449883e-01f,+9.39403951e-01f,+2.91657829e+00f,+9.21052322e-02f,
+7.23340511e-01f,+4.60735261e-01f,-6.23009428e-02f,-9.35614049e-01f,-4.01463926e-01f,
+1.79468048e+00f,+7.66792059e-01f,+7.67722011e-01f,+4.94332373e-01f,+9.31180000e-01f,
+3.21251946e-03f,-1.55484006e-01f,+1.80643424e-01f,+4.42492723e-01f,+9.33772504e-01f,
-7.65872002e-01f,-2.57625550e-01f,+1.70494592e+00f,+4.70649898e-02f,+4.81910467e-01f,
+9.31235671e-01f,-1.08343673e+00f,-9.90077853e-02f,+3.07200074e-01f,+2.16316909e-01f,
-8.15973580e-01f,-4.05933231e-01f,-9.06445026e-01f,+9.38722491e-01f,-5.07938206e-01f,
+1.39283895e+00f,+5.68695664e-01f,+6.54295564e-01f,+6.20014250e-01f,-1.34510314e+00f,
-2.99508154e-01f,+6.67811811e-01f,-5.77408910e-01f,+1.16825807e+00f,+1.89641804e-01f,
+6.36145651e-01f,-7.05417931e-01f,+1.10867786e+00f,-1.22969079e+00f,-1.47627234e+00f,
+9.14753139e-01f,+7.37873197e-01f,+2.40312743e+00f,+1.00792181e+00f,+3.90908152e-01f,
+9.11339164e-01f,-8.04100931e-01f,+1.48833895e+00f,-9.99544799e-01f,+3.05721045e-01f,
-3.48666400e-01f,+7.27875829e-02f,+9.30921435e-01f,+6.00986071e-02f,+5.14031947e-01f,
-7.25373745e-01f,-1.32493958e-01f,+1.82106957e-01f,+1.29475808e+00f,-3.17196190e-01f,
-2.48578414e-01f,+4.97633070e-01f,+7.36418188e-01f,-9.61209238e-01f,-1.99153665e-02f,
+3.74774545e-01f,-8.09924975e-02f,+3.46349776e-01f,+7.18429148e-01f,+6.17976725e-01f,
-2.16649860e-01f,+1.91988602e-01f,-8.30834389e-01f,+9.02827084e-01f,+3.55708711e-02f,
+6.56606376e-01f,-1.41731989e+00f,+7.80503750e-01f,-9.52945948e-01f,-2.08883554e-01f,
-9.32153128e-03f,+6.92488626e-02f,+2.05419874e+00f,-2.22553089e-01f,-4.98030692e-01f,
+3.78771812e-01f,+3.67349774e-01f,+6.09933317e-01f,+1.03377247e+00f,+3.22864681e-01f,
-1.25122786e+00f,+4.48241532e-01f,+1.47915035e-01f,-2.02036962e-01f,-3.49349111e-01f,
-5.30759573e-01f,+7.42164612e-01f,-4.31423068e-01f,+4.31031048e-01f,-1.30979955e+00f,
+7.10250795e-01f,+6.20792925e-01f,-1.16030555e-02f,+2.07641482e-01f,-1.33411622e+00f,
+2.34665379e-01f,+1.09741259e+00f,+9.78865698e-02f,+1.21120858e+00f,+2.16965199e-01f,
-3.59035581e-02f,+9.62540329e-01f,+9.44003642e-01f,-3.50175470e-01f,+4.80712891e-01f,
+3.78422111e-01f,+2.17992485e-01f,+1.00243711e+00f,+7.11985171e-01f,+8.22586775e-01f,
+1.52826953e+00f,+4.10882086e-02f,-2.18593940e-01f,-5.59930742e-01f,-1.11573017e+00f,
+3.25721353e-01f,-4.35896903e-01f,+1.06445563e+00f,+8.39358985e-01f,+1.64344561e+00f,
-4.12929237e-01f,-1.28651336e-01f,-1.27344620e+00f,+1.12697566e+00f,+9.64711428e-01f,
-8.62929583e-01f,+5.11854410e-01f,-5.69137037e-01f,+8.47265780e-01f,-3.03338796e-01f,
+1.58147430e+00f,+4.63598460e-01f,-2.52640039e-01f,-1.72429457e-01f,-2.82455802e-01f,
-1.05348647e-01f,-5.31736575e-02f,+5.15231371e-01f,+1.06958389e+00f,-8.97673190e-01f,
-2.35618263e-01f,-1.34779304e-01f,+5.01451671e-01f,-6.43863320e-01f,+8.31280410e-01f,
-6.55892372e-01f,+8.40588391e-01f,+9.71497536e-01f,+1.83767900e-02f,+1.20790243e+00f,
+2.41866156e-01f,+1.62490070e-01f,-1.38138771e+00f,-5.57228625e-01f,-6.82418644e-01f,
-1.43837854e-01f,-3.77857924e-01f,+1.63590527e+00f,+1.48562062e+00f,-9.09174860e-01f,
+1.27989829e-01f,+1.47370183e+00f,-2.39554361e-01f,+5.48017263e-01f,+2.57899612e-01f,
+4.80833828e-01f,-4.65019457e-02f,+1.64094508e+00f,+3.68380584e-02f,+1.71487227e-01f,
-4.06081498e-01f,-9.42872092e-02f,+6.11933947e-01f,-7.44921565e-01f,+1.59887895e-01f,
+5.07844985e-01f,-1.03540695e+00f,+1.51114282e-03f,+8.88843954e-01f,-1.84476435e-01f,
+1.99246585e-01f,-5.04813194e-01f,+3.88444245e-01f,-1.76278576e-01f,+2.54891068e-01f,
+8.38993490e-01f,+1.11680806e+00f,+1.39262927e+00f,+3.12840551e-01f,-8.78895581e-01f,
+8.60439003e-01f,-9.51143682e-01f,-1.34449109e-01f,+1.60971177e+00f,+1.14437401e+00f,
-1.32153615e-01f,-1.06311262e-01f,-3.34177732e-01f,-3.15519087e-02f,-9.34276164e-01f,
+1.82450247e+00f,+4.46647018e-01f,-1.98183775e-01f,+1.23999350e-01f,-1.30890620e+00f,
-8.67160320e-01f,+9.15686607e-01f,-6.52129829e-01f,+7.32816160e-02f,-1.44657826e+00f,
+7.34734535e-01f,+1.79080576e-01f,+4.92176056e-01f,+8.06093454e-01f,+1.20276242e-01f,
-8.10978096e-03f,+4.23531204e-01f,+1.57970345e+00f,+2.59150654e-01f,-3.10203061e-02f,
+5.62165305e-02f,+3.61501068e-01f,-1.01042354e+00f,-1.84610176e+00f,+4.66913879e-01f,
-1.79134876e-01f,+7.47038364e-01f,+5.06807454e-02f,-8.85461330e-01f,+7.42195070e-01f,
+3.48021269e+00f,+2.31877744e-01f,+3.85719627e-01f,+9.95892510e-02f,+1.33953083e+00f,
+2.74594474e+00f,-3.53128970e-01f,+2.99238235e-01f,-4.26537722e-01f,-5.09539723e-01f,
-1.49374020e+00f,+1.03264046e+00f,+3.88877094e-01f,+4.58113141e-02f,+1.65170491e-01f,
-3.59035768e-02f,+6.25744343e-01f,-3.29034120e-01f,+6.05860412e-01f,+7.03051329e-01f,
-5.31661093e-01f,-4.10811275e-01f,+1.05909801e+00f,-5.48251212e-01f,+2.03246713e-01f,
+1.00927305e+00f,+1.40158892e-01f,+2.23632169e+00f,-3.42502594e-01f,+3.88100445e-02f,
+2.47180238e-01f,+1.05299819e+00f,+8.87613535e-01f,-1.21117318e+00f,-4.22745422e-02f,
-7.15080261e-01f,-9.48526025e-01f,-1.14109421e+00f,+4.91415113e-01f,+4.63538080e-01f,
+1.95733204e-01f,+5.65689743e-01f,-1.60126299e-01f,+5.39332390e-01f,-8.35197806e-01f,
-7.54221380e-01f,+4.32197660e-01f,-1.08551584e-01f,+6.66324794e-01f,-7.71032214e-01f,
+1.12995744e+00f,+9.34468985e-01f,-1.27560094e-01f,+7.71058857e-01f,-2.14514923e+00f,
+7.49404192e-01f,-1.65724754e-01f,+8.43652666e-01f,+5.87804019e-01f,+1.70563653e-01f,
+6.98319823e-02f,-2.22742677e-01f,+7.42991507e-01f,-2.14193955e-01f,+1.21694215e-01f,
-4.36344087e-01f,-6.17798984e-01f,+9.28443670e-01f,+1.88379303e-01f,+7.50260174e-01f,
+7.10418224e-01f,-1.02238917e+00f,-4.99084532e-01f,-4.87001806e-01f,+4.95927751e-01f,
+5.56470394e-01f,-2.28740990e-01f,-5.00876844e-01f,+9.05232370e-01f,+5.20741522e-01f,
-6.63375914e-01f,+8.24965775e-01f,-1.82300016e-01f,+2.53377527e-01f,+5.78401089e-01f,
+2.14548898e+00f,+2.14017451e-01f,+1.28632450e+00f,-4.04878914e-01f,-2.64871657e-01f,
+3.57873917e-01f,-1.75579652e-01f,+2.14198279e+00f,+5.27048230e-01f,-6.62847579e-01f,
-4.39449012e-01f,-6.09306753e-01f,+8.11878026e-01f,-1.47144273e-01f,-1.57964659e+00f,
+1.67213714e+00f,+9.37442958e-01f,-1.78963840e-02f,+1.51682770e+00f,+1.38616776e+00f,
+5.44125080e-01f,-2.51909234e-02f,+1.26213098e+00f,+6.64576218e-02f,+6.42467618e-01f,
+1.18664742e+00f,+3.62881243e-01f,+9.82195973e-01f,+5.01690269e-01f,-7.14212179e-01f,
+1.52184093e+00f,+1.98137149e-01f,+7.55939126e-01f,+1.32691681e+00f,+1.27655461e-01f,
+6.56427085e-01f,+2.93116778e-01f,-1.14008605e+00f,-3.13503295e-01f,-2.40754217e-01f,
-2.35434517e-01f,+6.35129869e-01f,+6.69632196e-01f,-2.07882971e-01f,+8.19202289e-02f,
+6.77481413e-01f,+5.54414809e-01f,+3.68496656e-01f,-3.96823257e-01f,-1.19949532e+00f,
-6.80938482e-01f,-2.27458730e-01f,+8.28386605e-01f,+1.72160193e-01f,+5.85144520e-01f,
-2.81598061e-01f,+5.66282153e-01f,+1.49325860e+00f,+1.10425614e-01f,+3.57316375e-01f,
+1.81505144e+00f,+9.80419457e-01f,-1.26754022e+00f,-1.25761652e+00f,-6.69364691e-01f,
-5.31454229e+00f,-2.50672102e-01f,-1.36356682e-01f,+6.62075996e-01f,+2.71924645e-01f,
-7.54753828e-01f,-1.15944016e+00f,+1.76619947e+00f,+7.56054044e-01f,-3.98475498e-01f,
-5.38394637e-02f,+2.60898876e+00f,-6.15414903e-02f,+1.35527328e-01f,+2.12586808e+00f,
+1.42400897e+00f,+6.74802840e-01f,+2.18028879e+00f,+9.01962221e-01f,+1.34974086e+00f,
+1.24363768e+00f,+4.97543246e-01f,-1.45875943e+00f,-3.27358794e+00f,+2.61639214e+00f,
+8.99573565e-01f,+1.53920972e+00f,-4.72558737e-01f,-6.32118285e-01f,+1.60886478e+00f,
+6.42074198e-02f,+3.37642401e-01f,-7.95964062e-01f,+2.07293725e+00f,-1.08479403e-01f,
+1.20090522e-01f,+8.72274756e-01f,-6.15261197e-01f,+3.80564369e-02f,+2.08483115e-01f,
+2.19636008e-01f,-6.56060338e-01f,-3.15909386e-01f,+1.52642727e+00f,-5.45704961e-01f,
+1.94999158e+00f,+2.33090591e+00f,-1.31837893e+00f,-9.81026441e-02f,-4.24861938e-01f,
+1.90008259e+00f,-7.02742696e-01f,+1.31298149e+00f,-1.27345711e-01f,+1.73106417e-01f,
+2.86219001e-01f,-1.20501888e+00f,-4.60404634e-01f,+2.59283376e+00f,+1.42640531e+00f,
+6.16008453e-02f,-4.65733647e-01f,-6.29031122e-01f,+2.24471021e+00f,+5.32775931e-02f,
+2.71813497e-02f,+3.64463359e-01f,-1.91564724e-01f,+7.18739569e-01f,+6.64107949e-02f,
+8.48468125e-01f,+1.34194851e+00f,+1.17844307e+00f,+3.29307586e-01f,+2.82074273e-01f,
+2.55990699e-02f,+1.41490519e+00f,+2.21460819e+00f,-3.29516381e-01f,+1.37053698e-01f,
-6.58287406e-01f,-5.73430777e-01f,+7.92179108e-01f,+9.91475165e-01f,+8.17037642e-01f,
-2.50089735e-01f,-7.00911656e-02f,+7.37229943e-01f,+2.96300739e-01f,+6.57753423e-02f,
+2.34515592e-01f,-2.83801734e-01f,-5.95487058e-01f,+7.06368983e-01f,-2.63236165e-01f,
-2.94315457e-01f,+7.68134534e-01f,+9.19971645e-01f,+6.73750937e-02f,+9.72697437e-01f,
-1.31201878e-01f,+9.48361695e-01f,+1.69452751e+00f,+4.25895035e-01f,+1.49654210e+00f,
-1.01174080e+00f,+8.10883760e-01f,}; 
k2c_tensor dense_1_kernel = {&dense_1_kernel_array[0],2,512,{32,16, 1, 1, 1}}; 
float dense_1_bias_array[16] = {
-1.46551445e-01f,+2.91169524e-01f,+5.19945800e-01f,+7.47541308e-01f,+4.77459073e-01f,
+3.03226203e-01f,-6.57879189e-02f,-1.62940368e-01f,+1.61199734e-01f,+6.69368207e-01f,
+3.68247181e-01f,+2.78332680e-01f,+5.35300195e-01f,+4.59664971e-01f,+2.70824045e-01f,
+3.62257987e-01f,}; 
k2c_tensor dense_1_bias = {&dense_1_bias_array[0],1,16,{16, 1, 1, 1, 1}}; 
float dense_1_fwork[544] = {0}; 

 
float dense_2_kernel_array[256] = {
-6.22555614e-02f,-9.20791090e-01f,-4.88937736e-01f,-1.56508052e+00f,+1.48890841e+00f,
-4.32700008e-01f,+3.06651950e-01f,+9.21119809e-01f,+9.51935112e-01f,-8.33120346e-02f,
-3.69710959e-02f,-2.51096225e+00f,-1.79341936e+00f,+4.58112627e-01f,-2.83076197e-01f,
+4.15870667e-01f,-1.28904179e-01f,-1.96887583e-01f,+1.26391506e+00f,+1.65130675e-01f,
-2.31887507e+00f,-2.80210108e-01f,+5.89010000e-01f,+1.11277051e-01f,+4.14196700e-01f,
-5.67174256e-01f,+6.91157937e-01f,-3.63424212e-01f,-1.19932443e-01f,-2.20665382e-03f,
-8.05985510e-01f,-5.88275015e-01f,-7.05504239e-01f,-5.60480416e-01f,+5.76510012e-01f,
-7.65564501e-01f,+4.08812582e-01f,+1.30064237e+00f,+1.72585756e-01f,-9.26770568e-01f,
-5.21694943e-02f,-1.09447145e+00f,-1.17145181e+00f,+2.84569830e-01f,+3.83723944e-01f,
-1.59089470e+00f,-1.12171674e+00f,-4.84181195e-01f,-1.40654004e+00f,+8.51922929e-01f,
-2.13838530e+00f,-1.07551289e+00f,+5.95729351e-01f,-1.06132102e+00f,+1.40433565e-01f,
+5.86835384e-01f,+7.38146976e-02f,-7.79093325e-01f,+8.47946048e-01f,+8.13588381e-01f,
+6.77652180e-01f,-3.20949942e-01f,+1.91070631e-01f,-1.54262650e+00f,+7.71428227e-01f,
+4.49709147e-01f,+5.83026052e-01f,+2.71533221e-01f,+8.89163539e-02f,-9.08246934e-01f,
-2.04617834e+00f,-7.28383064e-01f,-6.42386854e-01f,-2.30996990e+00f,+1.22171476e-01f,
-9.87267792e-01f,-3.22405666e-01f,-3.47576052e-01f,+4.99980837e-01f,-2.96905428e-01f,
-2.86013871e-01f,-4.70104754e-01f,-9.55421984e-01f,-1.18721187e+00f,+2.97310501e-01f,
-1.11958170e+00f,-1.32037842e+00f,-1.56957924e-01f,-1.54913461e+00f,-1.45064604e+00f,
-2.63980341e+00f,+1.37357342e+00f,-1.78067935e+00f,+1.66414297e+00f,+1.92078578e+00f,
+4.44899976e-01f,-1.99331418e-01f,-7.86664665e-01f,-4.68658432e-02f,-7.65031517e-01f,
-1.49724483e-01f,-9.62453723e-01f,-1.52967560e+00f,-2.33121365e-02f,-2.97172535e-02f,
+1.02906048e+00f,-8.14029813e-01f,-6.68927312e-01f,+1.94030070e+00f,-5.34778953e-01f,
+1.47324586e+00f,-2.00537875e-01f,-7.16482624e-02f,+3.21446359e-02f,+5.66054285e-01f,
-1.86618686e+00f,-8.84636641e-01f,+5.12038171e-01f,-1.12281406e+00f,+1.40705299e+00f,
-1.01245630e+00f,+6.88219309e-01f,-1.33752525e-01f,+7.83552378e-02f,-1.06749272e+00f,
+1.19980979e+00f,-4.83336031e-01f,-8.59636009e-01f,+6.34358883e-01f,-7.57367849e-01f,
-3.82081360e-01f,-1.59832156e+00f,-1.56743383e+00f,-7.25217223e-01f,+8.92728567e-01f,
-2.00520086e+00f,+7.70407140e-01f,+1.18612330e-02f,+7.00355172e-02f,+1.19909972e-01f,
+3.71551692e-01f,-9.48759973e-01f,+4.05321985e-01f,+5.65052450e-01f,+6.04824901e-01f,
+5.00430688e-02f,-1.63303435e+00f,+1.01690149e+00f,-1.85514319e+00f,+1.00271952e+00f,
-4.06757407e-02f,+6.88673556e-01f,+4.71051365e-01f,-7.83299208e-01f,-1.64413774e+00f,
-8.24303150e-01f,-4.87720609e-01f,-1.38004139e-01f,-8.57785761e-01f,-9.72740471e-01f,
+1.61769092e+00f,-1.18662703e+00f,-8.09773922e-01f,-6.77385256e-02f,-3.11335266e-01f,
-1.89574182e-01f,-8.07573617e-01f,-5.17547727e-01f,-9.68613863e-01f,+1.66339159e-01f,
+1.32570374e+00f,+9.37095106e-01f,-2.05363974e-01f,-1.62890160e+00f,-1.18949819e+00f,
+6.16233587e-01f,-5.80802560e-01f,-3.82960856e-01f,-9.88767818e-02f,+6.03186727e-01f,
+1.39845207e-01f,-6.82103992e-01f,+7.92778909e-01f,+1.20122266e+00f,-2.17555618e+00f,
-4.84738708e-01f,-9.73676026e-01f,-4.92302358e-01f,+2.07651511e-01f,+4.00204748e-01f,
-6.51794910e-01f,+8.01841736e-01f,-1.70320570e-01f,+1.08345330e+00f,-2.51271158e-01f,
+2.80852348e-01f,-6.72787786e-01f,+1.16137409e+00f,+8.36249471e-01f,-2.29325819e+00f,
-1.56816435e+00f,+9.80144918e-01f,+1.31026864e-01f,-1.55793750e+00f,-6.13418281e-01f,
-4.30994868e-01f,+2.94098288e-01f,-1.62938774e-01f,-9.12810624e-01f,+1.48503864e+00f,
+2.57911325e-01f,+3.21850747e-01f,-1.13220441e+00f,-3.13640833e-01f,-1.26277733e+00f,
-4.26188827e-01f,+1.06537688e+00f,+2.61617243e-01f,-2.24644780e-01f,+3.95233601e-01f,
-5.14892936e-02f,-2.68882126e-01f,-1.71134853e+00f,+1.69356430e+00f,+6.14732206e-01f,
+6.76620305e-02f,+9.31251347e-01f,+3.66208583e-01f,+6.92100585e-01f,-1.63106751e+00f,
+3.11909258e-01f,-2.94155568e-01f,+4.54590619e-01f,+8.48617196e-01f,-1.20306718e+00f,
+4.70199168e-01f,-8.80147338e-01f,-4.24475551e-01f,-9.19697285e-01f,-1.62511575e+00f,
-2.54659629e+00f,-2.34577179e+00f,-8.96080852e-01f,+5.48564076e-01f,+1.38302252e-01f,
-1.12585034e-02f,-5.29982924e-01f,-4.80376005e-01f,+4.32338744e-01f,+7.03805208e-01f,
+6.56205833e-01f,+2.73784273e-03f,-8.80756497e-01f,+5.39263785e-01f,+4.54830199e-01f,
-9.80682313e-01f,}; 
k2c_tensor dense_2_kernel = {&dense_2_kernel_array[0],2,256,{16,16, 1, 1, 1}}; 
float dense_2_bias_array[16] = {
-7.64514804e-02f,+2.83264369e-01f,-1.27869219e-01f,+1.41583189e-01f,-1.16171563e+00f,
+8.80480707e-02f,-4.63591963e-02f,-9.56560254e-01f,-1.50667503e-01f,-4.93717641e-01f,
-3.12155992e-01f,+3.49017441e-01f,-1.13182336e-01f,-1.02136171e+00f,+4.13393110e-01f,
-1.56544104e-01f,}; 
k2c_tensor dense_2_bias = {&dense_2_bias_array[0],1,16,{16, 1, 1, 1, 1}}; 
float dense_2_fwork[272] = {0}; 

 
k2c_dense(&dense_output,dense_input_input,&dense_kernel, 
	&dense_bias,k2c_relu,dense_fwork); 
k2c_dense(&dense_1_output,&dense_output,&dense_1_kernel, 
	&dense_1_bias,k2c_relu,dense_1_fwork); 
k2c_dense(dense_2_output,&dense_1_output,&dense_2_kernel, 
	&dense_2_bias,k2c_sigmoid,dense_2_fwork); 

 } 

void cPredictor_initialize() { 

} 

void cPredictor_terminate() { 

} 

