#include <math.h> 
 #include <string.h> 
#include "./include/k2c_include.h" 
#include "./include/k2c_tensor_include.h" 

 


void cPredictor(k2c_tensor* dense_input_input, k2c_tensor* dense_2_output) { 

float dense_output_array[16] = {0}; 
k2c_tensor dense_output = {&dense_output_array[0],1,16,{16, 1, 1, 1, 1}}; 
float dense_kernel_array[256] = {
+4.68296826e-01f,+3.50979209e-01f,-3.60485390e-02f,+2.30589092e-01f,+4.26138192e-01f,
+4.48337682e-02f,+2.60470837e-01f,+6.86698928e-02f,+5.67320511e-02f,+2.86159992e-01f,
+1.84162781e-01f,+4.62580919e-01f,+3.05557370e-01f,+1.68670908e-01f,-1.71613291e-01f,
+2.75409758e-01f,+2.56771743e-01f,-1.50096357e-01f,+2.37446263e-01f,+1.62426949e-01f,
+3.40710342e-01f,+3.29673700e-02f,-1.59208536e-01f,+2.53356695e-01f,+3.79563421e-01f,
+4.43795584e-02f,+1.52318897e-02f,+3.20439748e-02f,+1.84801266e-01f,+1.21718738e-02f,
-1.27966389e-01f,+5.05159795e-02f,+5.36819816e-01f,-1.84240192e-01f,-1.60619046e-03f,
+1.11600772e-01f,+2.00153738e-01f,+3.37260254e-02f,+2.26273119e-01f,+2.51549244e-01f,
-1.47429734e-01f,+3.05419624e-01f,+4.94296640e-01f,+3.89096230e-01f,+3.64192158e-01f,
-4.31998037e-02f,+4.42123443e-01f,-5.46620190e-02f,+3.62189524e-02f,-2.90662772e-03f,
+7.73308128e-02f,+8.66202712e-02f,+1.95437908e-01f,+3.94958407e-02f,+3.06546599e-01f,
-2.26481650e-02f,-7.51536116e-02f,+3.81799102e-01f,+3.88172626e-01f,+3.32239151e-01f,
+2.76690990e-01f,+7.86946854e-04f,+4.14517254e-01f,+4.62309644e-02f,+3.77038866e-01f,
+7.42376037e-03f,-9.73280147e-03f,+1.69127777e-01f,+1.97937325e-01f,+4.30165976e-02f,
+2.63657629e-01f,+1.03686854e-01f,+2.22782999e-01f,+2.56780505e-01f,+1.84775427e-01f,
+1.70587689e-01f,+3.37266713e-01f,-5.92538305e-02f,+3.79463881e-01f,+4.92612319e-03f,
-2.10671708e-01f,+3.47757727e-01f,+1.57841951e-01f,+2.56711513e-01f,+1.86688885e-01f,
+4.24139909e-02f,+2.61947453e-01f,-6.79406226e-02f,+4.30224776e-01f,+5.35569787e-01f,
+6.62188008e-02f,+1.41825423e-01f,+1.88801348e-01f,-8.33305717e-02f,+4.26963031e-01f,
+1.51561901e-01f,+2.47043326e-01f,+7.67807802e-03f,-1.72438449e-03f,+9.89134610e-02f,
+2.19214305e-01f,+2.21830346e-02f,+2.16254190e-01f,+2.75140367e-02f,+1.08265541e-01f,
+9.79794562e-02f,+4.57117893e-02f,+8.23879689e-02f,+3.17087740e-01f,-1.13873212e-02f,
+3.78346026e-01f,+1.80753618e-02f,-1.16482079e-01f,+2.12874219e-01f,+3.19780350e-01f,
+1.78414285e-01f,+4.12325293e-01f,+1.25846732e-02f,+1.27101094e-01f,-1.89583629e-01f,
-2.06972957e-01f,+3.64396721e-01f,+2.34476089e-01f,-6.99242651e-02f,+2.55244493e-01f,
+3.50200564e-01f,+2.70138711e-01f,+3.41226876e-01f,+3.88674557e-01f,-3.10666710e-02f,
+1.99783400e-01f,+3.47504109e-01f,+6.86592579e-01f,-2.02918157e-01f,+3.02402556e-01f,
+3.78758401e-01f,-1.26293153e-02f,-3.41234803e-02f,+1.97006717e-01f,-1.07333057e-01f,
+1.63389847e-01f,-3.15123945e-01f,+4.56734031e-01f,+5.30490756e-01f,+4.25153315e-01f,
-7.28035942e-02f,+5.93738258e-01f,+2.96036005e-01f,-4.98517632e-01f,+1.56074718e-01f,
+1.30078629e-01f,+4.02249813e-01f,-8.97622332e-02f,+1.06167150e+00f,-7.51688480e-01f,
+3.81927043e-01f,+6.22665644e-01f,+5.89625835e-01f,-2.50985175e-01f,+1.39588222e-01f,
+2.46793762e-01f,+1.52552187e+00f,+2.01573864e-01f,-1.30664811e-01f,+8.70872378e-01f,
+5.65018833e-01f,-6.04179263e-01f,-7.03940317e-02f,+5.31485438e-01f,-6.88541293e-01f,
+5.87264240e-01f,+3.10651153e-01f,+6.42718494e-01f,-3.27274352e-01f,+1.44473314e-01f,
+3.91772181e-01f,+6.98625386e-01f,+1.35091260e-01f,+2.16161422e-02f,+1.03395152e+00f,
+1.12323093e+00f,+4.31313187e-01f,+5.42482913e-01f,-3.77711952e-01f,+4.90661524e-02f,
-1.92451924e-01f,-3.61272067e-01f,+5.44438958e-01f,-1.92725885e+00f,+1.60551354e-01f,
-1.24683775e-01f,-7.98312068e-01f,+8.20889533e-01f,+4.80802953e-01f,+5.76027408e-02f,
-1.33676910e+00f,+4.36012655e-01f,-7.51229465e-01f,+1.10514551e-01f,-9.01040286e-02f,
+1.02916765e+00f,+8.47710490e-01f,+7.78280720e-02f,+2.13839054e-01f,-1.67712915e+00f,
+9.93170619e-01f,+1.73934266e-01f,-3.67313743e-01f,-3.81702065e-01f,-8.81546199e-01f,
-9.55612719e-01f,+1.10627484e+00f,-4.64526594e-01f,-3.03654581e-01f,+9.51747477e-01f,
+9.33959305e-01f,+1.08271265e+00f,-6.75691605e-01f,+1.16273212e+00f,+6.13688454e-02f,
-1.90727746e+00f,+1.47609770e+00f,+2.38619089e-01f,+1.44503939e+00f,-1.49807408e-01f,
+7.95283735e-01f,+1.91194728e-01f,-1.76857674e+00f,+6.74011409e-01f,+1.65627337e+00f,
+1.24141896e+00f,+9.60879028e-01f,-3.09902906e-01f,+1.04030013e+00f,+9.55422223e-01f,
-1.47575939e+00f,-1.58034539e+00f,-1.61782384e-01f,-6.18807018e-01f,-1.02470422e+00f,
+5.40519416e-01f,+1.13189292e+00f,+1.32783830e+00f,-1.08164692e+00f,-1.85124433e+00f,
+1.70251095e+00f,-2.13999391e-01f,-6.68182671e-02f,+6.23962402e-01f,-1.37759733e+00f,
-2.01973692e-01f,+1.07382619e+00f,-1.96137524e+00f,+1.12663794e+00f,+4.44024354e-01f,
-9.98055458e-01f,}; 
k2c_tensor dense_kernel = {&dense_kernel_array[0],2,256,{16,16, 1, 1, 1}}; 
float dense_bias_array[16] = {
+2.89617449e-01f,+3.73241365e-01f,+3.17600667e-01f,+3.09757054e-01f,+7.47210741e-01f,
+1.36904955e-01f,+2.59474874e-01f,+3.72437418e-01f,+2.23781347e-01f,+5.47466934e-01f,
+3.89333993e-01f,+3.59323919e-01f,+3.29762071e-01f,+4.94443089e-01f,+2.25004971e-01f,
+3.48988980e-01f,}; 
k2c_tensor dense_bias = {&dense_bias_array[0],1,16,{16, 1, 1, 1, 1}}; 
float dense_fwork[272] = {0}; 

 
float dense_1_output_array[16] = {0}; 
k2c_tensor dense_1_output = {&dense_1_output_array[0],1,16,{16, 1, 1, 1, 1}}; 
float dense_1_kernel_array[256] = {
+6.73244774e-01f,+2.38031760e-01f,-3.57679397e-01f,+5.63925445e-01f,+3.23713332e-01f,
+6.13749206e-01f,+2.55620629e-01f,-1.60254613e-01f,-4.37031686e-02f,-1.59481123e-01f,
-2.89060622e-01f,+1.33456320e-01f,+4.51160789e-01f,-2.23512575e-01f,-3.10091615e-01f,
-1.94520265e-01f,+1.82599172e-01f,-5.87913580e-02f,+1.99365139e-01f,-2.15222582e-01f,
+6.42507136e-01f,+9.45506632e-01f,+3.84305239e-01f,-6.31747901e-01f,-7.49116242e-01f,
-6.09603599e-02f,-3.53794038e-01f,+4.61926043e-01f,+4.19200867e-01f,+3.20083350e-01f,
-2.61422604e-01f,+4.96990830e-01f,-6.35795891e-01f,-8.08443427e-02f,-3.32018226e-01f,
+1.00345623e+00f,+4.91553515e-01f,+1.21585238e+00f,+7.24041045e-01f,+6.85233017e-03f,
-1.23436320e+00f,-9.76487920e-02f,-1.33603871e-01f,-1.42241105e-01f,+3.55363607e-01f,
+3.94871056e-01f,-3.68955374e-01f,-5.51369488e-01f,+2.45444495e-02f,+4.61592406e-01f,
+2.32076496e-01f,-8.55396628e-01f,-8.57751787e-01f,-1.22877860e+00f,+2.03042912e+00f,
-4.88863662e-02f,+7.70424366e-01f,+3.02901089e-01f,-2.76485234e-01f,+2.33463794e-01f,
-8.88789713e-01f,+9.61406767e-01f,+3.87435034e-02f,-1.25496674e+00f,+1.54171550e+00f,
+9.99038815e-01f,-2.28763819e-01f,-7.67032862e-01f,-6.20590806e-01f,+2.04950348e-02f,
-1.79299921e-01f,+6.26775324e-02f,-7.52719492e-02f,-4.87177491e-01f,+2.10906744e-01f,
+8.42028618e-01f,-3.37294191e-01f,+5.67169935e-02f,+2.84971714e-01f,+1.12959325e+00f,
-1.61946929e+00f,+5.73293924e-01f,-1.27519950e-01f,-8.33427384e-02f,+1.55235338e+00f,
+1.19704211e+00f,+1.17100167e+00f,-1.59823799e+00f,-1.28476620e+00f,+1.55537713e+00f,
-1.40620440e-01f,-6.61390901e-01f,+7.06024289e-01f,+1.60542154e+00f,-2.54523516e-01f,
-5.84157109e-01f,-2.23572850e-02f,+9.02618349e-01f,-2.48631775e-01f,+1.98905945e-01f,
+9.14054289e-02f,-6.56623781e-01f,+2.72813402e-02f,+9.22720730e-02f,+3.69455874e-01f,
+3.23815584e-01f,-3.29464376e-01f,-1.65358350e-01f,+6.07060552e-01f,+2.41187811e-01f,
-3.54617208e-01f,+3.23961377e-01f,+1.81948751e-01f,+3.35626513e-01f,-1.76977478e-02f,
+1.21298130e-03f,+6.90489650e-01f,-6.89849734e-01f,+1.24835121e-02f,+5.56376338e-01f,
+6.58588171e-01f,+4.95280623e-01f,-3.91147077e-01f,+1.75561860e-01f,+4.39841956e-01f,
+1.19742906e+00f,-4.29443777e-01f,+7.69915342e-01f,+1.01496894e-02f,-2.13350594e-01f,
+2.15676561e-01f,-1.20987825e-01f,+3.76076221e-01f,+4.03922677e-01f,-4.52644415e-02f,
+2.58632571e-01f,+5.95751345e-01f,+1.90709382e-01f,+8.33725110e-02f,+6.02947295e-01f,
+6.10415280e-01f,-7.22996533e-01f,-2.05305025e-01f,+1.16501324e-01f,+4.33901608e-01f,
+1.08608091e+00f,-1.41799688e-01f,+6.71240628e-01f,-5.31310923e-02f,+1.20910414e-01f,
-1.15282857e+00f,+6.86036348e-01f,+2.15479091e-01f,+1.11092860e-02f,+3.83358210e-01f,
-6.46366701e-02f,-4.59662586e-01f,+3.81648749e-01f,+1.39569446e-01f,+5.79672039e-01f,
-1.48130178e-01f,-1.34990260e-01f,+2.10020453e-01f,-7.12501168e-01f,+1.27397597e-01f,
-2.05750659e-01f,+1.47693992e-01f,-2.98154145e-01f,+3.69914323e-01f,+3.02132279e-01f,
-1.18666641e-01f,+4.49972421e-01f,+5.62703848e-01f,+8.04967582e-02f,-1.61005586e-01f,
+1.01309955e+00f,+4.53761309e-01f,-7.64002800e-01f,-4.09522086e-01f,+4.98702139e-01f,
-4.35201347e-01f,+1.01326263e+00f,+8.33222151e-01f,-2.97371428e-02f,+5.38811348e-02f,
+3.34555149e-01f,-4.05425489e-01f,+5.89892387e-01f,-3.52014571e-01f,-3.17434639e-01f,
-1.88381568e-01f,-1.04447639e+00f,-7.83943176e-01f,-8.74826014e-01f,-3.82132418e-02f,
-2.43591964e-02f,+4.79070067e-01f,+6.89660609e-02f,-1.10906470e+00f,+2.01328382e-01f,
-4.75263000e-01f,-8.54488730e-01f,+3.25747430e-01f,+2.65513420e-01f,-7.18061209e-01f,
+1.57039046e+00f,+1.59501642e-01f,-1.71429172e-01f,-2.25894749e-01f,+5.68493605e-02f,
-3.23513776e-01f,+7.54883587e-01f,+6.61435843e-01f,+1.39593303e-01f,+5.33505142e-01f,
+8.50929618e-01f,+5.64286947e-01f,+1.39124775e+00f,+1.36889592e-01f,+5.83997905e-01f,
+9.52247143e-01f,-9.47108805e-01f,+9.62393284e-02f,-3.67711186e-01f,+4.26089317e-01f,
-7.29660094e-01f,-1.68142334e-01f,+3.54864925e-01f,-1.86844841e-01f,+2.17008293e-01f,
+2.82419562e-01f,+1.29962116e-01f,-1.55466944e-01f,+2.90222198e-01f,+2.32779279e-01f,
+1.13200054e-01f,+3.89242411e-01f,-3.72299612e-01f,-4.19925936e-02f,-2.80736536e-01f,
-1.54963136e-01f,-7.65546799e-01f,-6.37007207e-02f,-4.61464822e-01f,+8.85702968e-02f,
-9.14314032e-01f,-1.88946575e-02f,+6.94814622e-01f,+1.43436372e+00f,-2.35303938e-01f,
-4.18061018e-01f,+1.09961712e+00f,-1.94784075e-01f,+5.80590904e-01f,+3.05767804e-01f,
+1.09246589e-01f,}; 
k2c_tensor dense_1_kernel = {&dense_1_kernel_array[0],2,256,{16,16, 1, 1, 1}}; 
float dense_1_bias_array[16] = {
+2.09454745e-01f,-3.38027962e-02f,-6.51108772e-02f,+2.28894904e-01f,+4.80109490e-02f,
+5.89996278e-01f,+2.69269109e-01f,+1.52689666e-01f,+2.80935258e-01f,+1.28183678e-01f,
-3.51656564e-02f,+1.96661845e-01f,+1.07755706e-01f,+2.78718621e-01f,-2.85752770e-02f,
+3.62556875e-01f,}; 
k2c_tensor dense_1_bias = {&dense_1_bias_array[0],1,16,{16, 1, 1, 1, 1}}; 
float dense_1_fwork[272] = {0}; 

 
float dense_2_kernel_array[256] = {
+6.73716068e-02f,+2.05946311e-01f,+1.57350868e-01f,-4.56049323e-01f,-4.90760446e-01f,
+1.36101888e-02f,+1.53371736e-01f,-2.08253250e-01f,+2.80178398e-01f,-2.91241169e-01f,
-2.02609017e-01f,+2.81067282e-01f,+6.78299785e-01f,+1.37720937e-02f,-1.93439752e-01f,
-8.20329487e-01f,-2.18535006e-01f,-1.69713497e-01f,+1.47584856e-01f,-1.35933300e-02f,
-6.95904270e-02f,+1.17088743e-01f,-2.11801261e-01f,+4.60218489e-02f,-1.03902064e-01f,
+1.39474750e-01f,-1.16766500e+00f,+8.60663414e-01f,+5.69563992e-02f,-4.20765996e-01f,
+1.22119927e+00f,-5.97209692e-01f,+1.85246825e-01f,-4.68313247e-01f,+6.26914799e-02f,
+8.94230157e-02f,+2.17471316e-01f,+8.63567814e-02f,-1.30878419e-01f,+2.85575002e-01f,
-3.74294817e-01f,-3.21275979e-01f,+2.52903342e-01f,-7.79501488e-03f,+1.30221903e-01f,
-3.08348507e-01f,-2.85048056e-02f,+7.85827786e-02f,-5.28956413e-01f,-5.17660618e-01f,
+1.81515932e-01f,-5.54366335e-02f,-2.50266165e-01f,-3.05140018e-01f,-1.59645632e-01f,
-3.93682867e-01f,-5.97402573e-01f,+6.86231077e-01f,-5.10906279e-01f,-3.24858308e-01f,
+4.34525818e-01f,-5.90906382e-01f,-5.84016323e-01f,+4.13724631e-01f,-9.93466750e-02f,
-7.95321167e-02f,-3.58110547e-01f,+5.13085574e-02f,-1.34237915e-01f,-3.90971988e-01f,
-3.61537129e-01f,+5.94902858e-02f,-8.98522794e-01f,-9.40301269e-02f,+1.76282614e-01f,
-9.95456159e-01f,-5.46518207e-01f,-5.87104917e-01f,+2.42126182e-01f,+3.46781522e-01f,
-6.87826872e-01f,-3.64528418e-01f,-7.35751987e-01f,-3.99198174e-01f,-1.24942668e-01f,
-2.69368201e-01f,-5.03278933e-02f,-1.28993079e-01f,-8.92807245e-01f,-3.45327824e-01f,
+1.67048369e-02f,-4.99755852e-02f,+5.52280486e-01f,-9.20442820e-01f,-6.57217264e-01f,
+2.11837903e-01f,-1.86818033e-01f,-2.07784101e-01f,-6.31338432e-02f,-6.35744214e-01f,
-7.01116860e-01f,-2.81378895e-01f,-6.35127902e-01f,-2.00745627e-01f,-4.09813941e-01f,
-5.04944921e-01f,-2.74553597e-01f,+5.02336979e-01f,-8.45620692e-01f,+1.21485770e-01f,
-9.48250890e-01f,+4.28088069e-01f,-1.03200361e-01f,+6.94457218e-02f,+2.66640902e-01f,
-2.11421773e-01f,+3.91266078e-01f,+6.20976277e-02f,-2.98490345e-01f,+3.61122012e-01f,
+2.86495954e-01f,+7.88444161e-01f,-6.89660847e-01f,-1.25301778e+00f,+5.54376602e-01f,
+5.11196315e-01f,-8.14923823e-01f,-3.06931853e-01f,-1.04573421e-01f,-7.16819465e-01f,
-3.77841532e-01f,-3.58490199e-01f,-3.88597071e-01f,-3.59075904e-01f,+2.99949571e-02f,
-2.02105507e-01f,+8.03128183e-02f,+2.16395259e-02f,-1.06834459e+00f,-7.40947366e-01f,
-4.07431871e-01f,+1.06810415e+00f,-1.24580994e-01f,-8.39781404e-01f,-7.72754103e-02f,
-3.62127215e-01f,-5.51216900e-01f,+9.53614041e-02f,-1.66975677e-01f,-3.51786971e-01f,
-2.13331521e-01f,-1.40259892e-01f,-1.03956544e+00f,-5.03392696e-01f,-5.77832699e-01f,
-2.50583142e-01f,-8.37077796e-01f,-1.01302909e-02f,+4.06474881e-02f,+3.77411127e-01f,
-3.58350873e-01f,-4.38892782e-01f,+3.45180392e-01f,+2.28894442e-01f,+2.54290700e-01f,
-1.23047389e-01f,+3.00627828e-01f,+1.46467924e-01f,-2.53397524e-01f,-2.56134778e-01f,
+2.57619292e-01f,+1.25841856e-01f,+2.76104361e-01f,+2.36152261e-02f,-3.64491135e-01f,
+1.19266838e-01f,-2.19983578e-01f,-4.50818777e-01f,-5.59495091e-01f,-2.25666791e-01f,
-3.96662712e-01f,-4.59615797e-01f,-5.63014671e-02f,-2.36579832e-02f,-5.60719967e-02f,
-2.61395842e-01f,+2.97183961e-01f,-1.48489714e-01f,+2.38886312e-01f,+4.08518642e-01f,
-3.38201493e-01f,-4.74598438e-01f,-3.89207035e-01f,-5.14906704e-01f,-6.83315918e-02f,
-5.35673857e-01f,+2.33102262e-01f,+2.27263123e-01f,-1.26231223e-01f,-4.35477316e-01f,
-1.95042685e-01f,-6.46614790e-01f,-2.16981024e-01f,-5.07847607e-01f,-3.44265699e-01f,
-3.29603583e-01f,+6.75732852e-04f,+4.81942058e-01f,-4.79309440e-01f,-2.50425488e-01f,
-4.28722292e-01f,-8.01521987e-02f,-2.31929362e-01f,+2.20373631e-01f,+9.38949436e-02f,
-2.11213201e-01f,+1.18634477e-01f,+3.59454513e-01f,+5.78012824e-01f,+2.00433955e-01f,
-1.63606679e+00f,-1.35464013e+00f,-1.64467748e-02f,-5.99090815e-01f,-1.15989335e-02f,
+3.76015157e-01f,-1.90189540e-01f,+1.42681673e-01f,+1.29468054e-01f,-1.55232146e-01f,
+1.26846671e-01f,-8.86974558e-02f,-4.34193075e-01f,+2.92300731e-01f,-1.26865357e-01f,
-2.18960479e-01f,-2.86828339e-01f,+1.87216699e-01f,+1.68673828e-01f,+3.50716740e-01f,
-4.20319259e-01f,-1.51269827e-02f,-2.18010128e-01f,-1.55382887e-01f,+9.92332846e-02f,
-2.88257837e-01f,-4.65962142e-01f,+8.36529285e-02f,+4.98489827e-01f,-1.19297898e+00f,
-1.32598355e-01f,-1.37701631e+00f,-4.53283265e-02f,-6.39072716e-01f,+6.77539289e-01f,
-7.55368233e-01f,}; 
k2c_tensor dense_2_kernel = {&dense_2_kernel_array[0],2,256,{16,16, 1, 1, 1}}; 
float dense_2_bias_array[16] = {
-1.08552821e-01f,-9.05044377e-02f,-1.01797819e-01f,-9.50848311e-02f,-1.40055403e-01f,
-8.87988433e-02f,-6.77895248e-02f,-1.17675304e-01f,-5.64042404e-02f,-8.89153406e-02f,
-1.21225059e-01f,-2.01874822e-02f,-4.98367250e-02f,-1.77259296e-01f,-3.50291818e-01f,
-3.54867160e-01f,}; 
k2c_tensor dense_2_bias = {&dense_2_bias_array[0],1,16,{16, 1, 1, 1, 1}}; 
float dense_2_fwork[272] = {0}; 

 
k2c_dense(&dense_output,dense_input_input,&dense_kernel, 
	&dense_bias,k2c_relu,dense_fwork); 
k2c_dense(&dense_1_output,&dense_output,&dense_1_kernel, 
	&dense_1_bias,k2c_relu,dense_1_fwork); 
k2c_dense(dense_2_output,&dense_1_output,&dense_2_kernel, 
	&dense_2_bias,k2c_sigmoid,dense_2_fwork); 

 } 

void cPredictor_initialize() { 

} 

void cPredictor_terminate() { 

} 

